2708 80
127 -0.011641938 -0.11712858 0.020927453 0.33559826 0.20639788 -0.04026616 0.27442044 -0.23956023 -0.1186722 0.06104204 -0.022463348 -0.15102763 0.19647649 0.00987255 0.011992403 0.14556262 -0.28964138 0.069304615 0.3284191 -0.047248565 0.5402358 0.39486426 0.046712525 0.1839602 0.052128814 -0.078340545 0.07567906 0.60781914 -0.10666903 0.0406319 0.080954984 -0.16222057 0.07146077 -0.02633095 0.18417154 -0.107989885 0.20258613 -0.10529091 -0.13954194 -0.36111385 0.1895886 0.3594095 0.08062989 0.18522754 0.36488312 -0.06459451 0.3712988 -0.22811623 0.011546408 -0.24937579 -0.27699804 0.18845136 -0.061476275 0.06576219 0.1402577 -0.17780714 0.057045188 0.09310569 -0.04843937 0.076677956 0.0585206 -0.037499554 0.007553137 -0.19704565 0.019612439 -0.14013885 -0.4538675 -0.019088738 0.56028533 0.21877207 -0.08717831 0.13631105 0.06446114 -0.34798467 -0.06027269 0.15702403 -0.2671717 -0.16304624 -0.54895544 0.21468264
483 0.26567695 0.2330908 -0.47407457 0.10261783 -0.021291863 -0.073441856 0.47381508 -0.1783535 -0.14829144 0.36977285 -0.040867034 -0.32509854 -0.19947778 0.2353856 0.37477726 0.3627487 -0.090587094 0.12314624 0.08496904 -0.53669924 0.53581417 -0.11023241 0.4610749 0.12389274 -0.3369722 -0.05509449 0.18992466 0.26001623 -0.1501432 -0.049064346 -0.01509539 0.5204634 0.044534884 0.18735322 0.37423056 -0.058126252 0.14711812 0.45877525 -0.022933634 -0.1914466 -0.026662804 -0.30746928 -0.10939873 -0.48013443 0.1394996 -0.23615316 0.10615112 -0.11589817 -0.41230986 -0.23979262 0.22904722 0.09457251 0.24564347 -0.273921 0.03190759 0.044772077 -0.42429647 0.1328091 0.024819383 0.16446245 -0.09657582 -0.021411693 -0.10977148 0.18445712 -0.18944885 0.0740483 0.026163757 -0.14762184 0.021287309 -0.080124676 0.2361753 -0.3892725 0.017290682 -0.13953453 -0.14064558 0.28321648 0.2939187 0.5027354 -0.12698092 -0.15380439
49 0.6022602 0.0052559436 -0.11159056 0.3682156 0.46100643 -0.6751059 -0.588051 0.12431189 0.18406413 0.16960022 -0.14061718 -0.06258546 0.0020372088 0.21490467 -0.22705531 -0.06371531 -0.06797747 -0.15152001 -0.026190804 -0.08707654 -0.36322364 -0.16262531 0.7056269 -0.12869589 -0.25606403 -0.2622715 -0.16593008 0.4035727 -0.2189881 -0.6529824 0.03271843 0.32212678 0.6853279 0.18064462 -0.15781145 -0.2951292 0.41207162 -0.24730442 0.26756552 0.03282699 0.1539748 -0.023636736 0.6416051 -0.29432926 0.030583704 0.20363785 0.29766598 -0.30571643 -0.27447397 0.35558182 0.015619085 -0.15007374 0.26776507 -0.42203048 -0.006897488 -0.038061548 -0.20225987 0.07732252 -0.4501084 0.09736605 0.1810253 0.104042746 -0.41086525 -0.14645426 -0.028771311 0.17185204 -0.40352458 -0.46524757 0.33452994 -0.14198676 0.27101415 -0.01611434 -0.14331767 0.18778144 0.050557602 -0.11562029 -0.024056463 -0.035594475 0.041315164 -0.1237528
11 1.020286 -0.38306645 0.2540656 -0.10680097 0.15124029 -0.3976731 -0.09862169 -0.33382922 -0.46492502 0.22192211 -0.16190751 0.085321695 0.31357244 -0.22127993 0.1868084 -0.46025786 -0.12059567 0.09035663 0.2126645 0.23449738 -0.31758544 -0.12684037 0.22550741 0.30227682 -0.3159701 -0.015657196 0.07985451 0.11657036 -0.4389816 -0.2983664 0.27446994 -0.029728912 -0.022105807 -0.077818125 -0.13879658 -0.2835909 0.22968037 -0.14751625 0.20983262 -0.14454766 0.21889147 0.23184536 0.27843216 -0.33311146 0.4607396 0.027940439 -0.20355183 -0.22494292 0.049878012 0.39037398 -0.019812662 0.28213942 0.006521301 -0.6446441 -0.3236566 -0.36269802 -0.18410443 0.05119966 0.02719974 -0.053007014 0.10780321 0.31131607 -0.30022612 -0.01117229 -0.07888572 -0.18254797 0.081433184 0.036918435 0.17069323 0.04361246 -0.21192524 -0.059557322 -0.12045222 0.14121594 -0.25213835 -0.1546185 0.52268815 0.4309748 -0.29808593 -0.0009845089
338 -0.031766143 0.1260168 -0.13864551 0.24523325 0.3320866 -0.33900192 -0.3187039 -0.3463594 0.17498764 -0.036249764 0.23050456 -0.13252866 0.3590897 -0.02643828 0.27956405 0.35820493 0.33755893 0.3188743 0.026482668 -0.011198044 -0.023161152 0.062091902 -0.24844906 -0.11043894 -0.4273943 0.13570718 0.028463304 0.3465111 -0.3577061 0.06288593 0.41927296 0.20643936 0.14343554 -0.3401488 0.22755545 -0.13956681 -0.13072558 -0.516016 -0.21977025 0.10505212 0.2737322 0.02468766 -0.04101925 0.00015391185 0.31875607 -0.98466253 0.32741228 0.3921747 0.1958017 0.14529604 -0.67292976 -0.10552454 -0.2920266 0.074694395 -0.37147215 -0.13462584 -0.063657194 -0.103001475 -0.09567464 -0.12287016 0.18237877 0.32281703 0.044102952 0.21727635 -0.4585626 -0.2813428 -0.26854494 -0.14271548 -0.38732597 0.24527986 0.21398811 -0.38351983 -0.07454641 -0.19018643 0.11678581 0.39339325 0.23729756 -0.061450347 0.18464155 0.26543736
474 0.65601355 -0.08748158 -0.011342793 0.3225447 0.22453281 0.13690327 0.17006493 -0.112839006 -0.15769562 0.2518387 0.325477 0.05705719 -0.21529865 0.27200568 0.08883871 -0.4349213 0.11402991 -0.039562546 -0.39443958 -0.46986738 0.5614423 0.056562155 0.34834713 0.08950881 -0.09846204 0.09231972 0.14204396 0.29438725 -0.20373195 -0.60350436 0.008041526 -0.09419486 0.24874416 -0.23570125 0.501785 0.2984062 0.1700259 -0.046714682 0.0067837685 -0.050850827 0.014985945 -0.1573895 -0.15177314 -0.7836547 0.1962819 -0.2648446 0.18877195 -0.109209046 -0.52338827 0.15617417 -0.25690588 0.06270541 0.24823956 -0.07336001 0.2849312 0.13951503 -0.23555045 0.46559265 -0.14608863 0.4009217 0.042554904 0.1771019 -0.12778819 0.4898694 0.2694411 0.061797936 0.2838659 -0.2199007 0.025247023 -0.050248366 -0.54556704 -0.28229377 -0.32673237 -0.021913422 -0.1485556 0.31471664 0.06030946 0.00076963054 -0.16337684 0.115822054
100 0.16888753 -0.18314716 -0.07950012 0.053008612 -0.17531864 -0.6014319 -0.5929453 -0.20024462 -0.42068607 0.22998236 0.052956264 0.027445056 0.15302955 0.08563428 -0.17677386 -0.48976368 -0.1916312 0.18701242 0.08291341 0.14611086 0.78931093 -0.74923533 0.32792813 -0.5312285 -0.36727118 0.00015912048 -0.039557923 0.07727739 -0.55914384 -0.32396165 0.14600655 0.027306484 0.4485871 -0.025393957 -0.6349791 -0.69223917 -0.14865738 0.084645934 0.55566543 -0.08584931 0.047956534 -0.26975533 0.27208504 -0.17810038 -0.106912114 -0.16226587 0.6689021 -0.33701155 0.31058747 0.08943183 0.39070573 0.24664529 0.41390246 0.4214743 0.2016106 -0.039403275 0.19445305 -2.1669273e-05 -0.36114344 -0.088553324 0.4578979 0.6577192 0.1291963 0.118548214 -0.045919266 0.032748964 -0.40465674 0.13259272 0.24961434 0.14480457 0.08460686 -0.15232338 0.3754796 0.36331314 -0.00017734397 -0.32815534 0.1315817 0.0613498 0.075716496 0.08258942
50 0.37390333 0.6593573 -0.019308288 -0.01498368 -0.54859287 0.107856765 -0.20567356 -0.25230524 -0.8942368 -0.028403128 0.28637388 -0.3880376 0.048199825 -0.04566828 -0.21946849 -0.32550904 -0.073891446 0.24874416 -0.22986701 0.5674893 -0.21838616 -0.21520713 0.063580394 -0.35327172 -0.041490577 -0.1904703 -0.5181149 -0.07375883 -0.56817317 -0.24793887 -0.17428306 0.42993888 0.21818417 0.08688092 0.16761038 -0.1882521 -0.15792128 -0.070621744 0.1536753 -0.3314423 -0.12934436 -0.315754 0.07474536 -0.098926656 -0.017551476 -0.29444945 0.19214432 -0.42386135 -0.40058583 -0.022385124 -0.01795773 0.18690307 0.09638241 -0.18008034 -0.33751455 -0.5649288 -0.47154605 -0.06978949 -0.61220753 0.013859753 0.27734885 -0.25918028 -0.112811774 0.31604862 0.58683556 0.17770596 -0.57988447 -0.46281514 0.31226215 0.28248063 0.11714747 -0.006409725 0.2236875 -0.19219755 0.22801444 0.07493368 0.18592536 0.25103658 -0.13553865 -0.22328192
479 0.27429688 0.37908816 -0.21199216 -0.011134106 -0.012303441 -0.1777883 0.26056656 -0.050829776 -0.43612173 0.45807993 0.26079488 -0.35403335 -0.05981941 0.21130173 0.33469808 -0.34928566 -0.06938211 0.21218793 0.05779812 -0.59640086 0.69032776 0.28678027 0.24479526 -0.10776174 -0.26380616 0.45004365 0.14017105 0.06236949 -0.04300533 -0.009364098 0.11308397 0.28106752 -0.40596157 0.5888321 0.19802801 -0.12008814 0.45221633 -0.08955044 0.0046649375 -0.16778691 0.16898245 -0.51228213 -0.39867887 -0.59174764 0.25093397 -0.25416398 0.5831991 0.00059274107 -0.28519788 0.046813674 -0.18801843 0.24619094 0.20783462 -0.1815595 0.086055204 0.40053073 -0.51507705 0.5243077 -0.1827098 -0.20998624 -0.40675575 0.3699724 -0.0931393 -0.36848104 0.2014559 -0.09472671 0.14390512 -0.4710871 0.5286736 -0.04279751 -0.5059835 -0.15596631 -0.04877979 -0.10140611 -0.2927851 0.6795058 0.28949958 0.09460523 0.062156886 -0.47952336
299 0.24680156 -0.30506846 -0.061583094 -0.21809213 -0.19614077 -0.34217492 -0.09800672 0.37583035 -0.10723914 0.5608924 0.34470636 -0.3887094 -0.20980033 -0.40865892 0.100263886 -0.5228925 0.3481988 0.20829388 -0.16662613 -0.3544354 -0.16792013 -0.022703957 0.37667912 0.17483962 -0.49867976 -0.11966825 -0.28439873 0.2814054 0.17784283 -0.24149975 0.47427323 0.13023044 0.070641756 -0.22352184 0.10560588 0.09634022 0.49411657 -0.44284308 0.067945845 -0.13335542 0.12508507 0.088065326 -0.5365448 -0.4585397 0.42766094 -0.23019822 0.45820537 -0.20834096 0.27710882 -0.52818954 0.046772752 0.19985108 -0.557594 -0.28919876 0.10405447 0.16467607 0.028145062 0.074100584 -0.26484033 -0.46422765 0.46718362 -0.3129705 -0.07105867 0.3898389 -0.25083834 0.290274 0.30815163 -0.35253853 -0.36525673 -0.116970636 0.072722994 -0.31085578 0.22908464 -0.20816115 0.6300266 0.1153714 -0.38861844 -0.35076475 -0.2826382 0.12075528
53 0.9662129 0.16533118 -0.11090043 0.20313899 0.35883468 0.33694118 -0.108285 0.11509919 -0.051611103 -0.14289345 0.3377453 -0.25955695 -0.2457547 -0.47995713 -0.4276804 -0.19600986 0.099798106 -0.32593033 0.1605891 -0.17187503 -0.19630617 0.15366252 -0.10413333 -0.52434844 -0.1637038 -0.17886259 -0.17973538 0.26554352 -0.46622682 -0.06869001 0.69409317 -0.43465483 -0.034623116 0.103612415 0.3670776 -0.038495734 0.07044697 0.5449347 -0.4264616 -0.3299346 -0.571018 -0.47473115 0.25428435 -0.07296021 -0.15722789 -0.2068487 0.4616949 0.088845514 -0.06582647 0.5100476 -0.093995295 0.22598158 -0.5502674 -0.24053279 -0.32662487 -0.06701896 0.00033212616 0.2025386 -0.5215133 -0.654225 0.24999031 0.27259147 0.061867457 -0.15340084 0.20607483 0.45714387 -0.13428329 -0.20376588 -0.059318807 0.08327554 0.2469656 -0.29474238 0.20824611 0.36747706 0.11390689 0.16563946 -0.14486921 0.51968646 -0.40065193 0.1288154
198 0.7625472 0.4972829 0.4712147 -0.11842516 0.21058619 0.11038357 -0.22030017 -0.6254038 -0.65708864 -0.49453413 0.21670675 -0.08828826 0.14696969 -0.5389153 -0.25514865 0.102253005 0.49328566 0.11589772 0.5082409 0.20456196 -0.5771415 0.10843014 0.2691486 -0.10853572 -0.12729904 0.16837072 -0.24612795 0.44565746 -0.28349423 0.29034227 -0.30083442 0.05062914 0.09972913 -0.45867673 0.083120875 -0.19716105 -0.070057794 0.31961113 0.1600749 -0.056015927 -0.11361265 -0.24390924 -0.3187303 0.12177906 0.20573893 -0.083968185 0.2991779 -0.18867967 -0.18430686 0.15600097 0.050299082 0.092739865 -0.3367117 -0.56496733 0.03595077 -0.089716524 -0.58390856 0.1157569 -0.4144452 -0.633503 -0.30556673 -0.09298676 0.052177493 0.4403074 -0.13524224 0.08958082 0.4461417 -0.41607392 0.20650665 0.41994226 0.4825713 -0.14244108 -0.06566556 -0.5494051 -0.39423782 -0.06449156 -0.079367876 -0.31041196 -0.17069863 0.093674615
218 0.4094365 -0.081637956 -0.09545085 -0.1040421 0.6048207 -0.37034044 0.23971292 -0.22711939 0.5264965 0.1693825 0.6190923 -0.4440566 -0.13576753 -0.077279195 0.056691755 -0.35881793 -0.31231365 -0.018126778 -0.10840377 0.011446729 -0.020457745 -0.32836357 0.09869381 0.2484405 -0.52102363 0.35971877 0.06004947 0.14478278 0.15778078 -0.30465478 -0.048845746 0.23353314 -0.43352363 -0.06426736 -0.4209734 -0.89556164 -0.668235 -0.076842025 -0.46788636 -0.42290452 -0.742553 -0.21007778 0.12935367 0.32160532 0.54210526 -0.4036212 -0.067200325 -0.28769815 -0.6625023 -0.015671225 0.15858378 -0.05111255 -0.06560392 -0.43627486 -0.6077292 -0.33298323 -0.43404776 0.17956656 -0.32225943 0.08333253 0.052257143 -0.3466701 0.43992954 -0.04147073 -0.19103137 0.58011705 0.4718544 -0.4187546 -0.25088987 -0.14947614 -0.08873506 0.573755 0.42454138 -0.11790835 -0.46738386 0.09150538 0.19638838 -0.7034905 -0.40617165 0.12297852
445 0.3086203 0.21014333 0.22915395 -0.2132829 0.19740961 -0.2362767 0.19557478 0.3673211 -0.3625383 -0.6270864 -0.4020179 0.34126773 -0.16824104 0.24746577 -0.34678578 -0.025981331 -0.25096262 0.2366585 0.80677855 -0.6257137 -0.31015006 -0.021112327 0.13258833 0.15191057 -0.38225257 0.32707572 0.050701093 0.54463744 -0.13155535 0.06977013 -0.07313771 -0.28581864 0.1166396 -0.042458776 0.12045645 -0.44081858 0.0031775204 -0.0969573 0.4004753 -0.092003845 -0.07594016 -0.30369362 0.032641854 -0.060923703 0.4297774 -0.57964545 0.19936444 -0.42527598 0.06743032 0.59717894 0.035488546 0.15874001 -0.5747359 0.20775113 -0.04002179 0.15560195 -0.06685275 0.38858905 -0.5434841 -0.5864721 0.062243126 -0.43262568 0.6368412 0.19418277 0.13543102 0.24754158 -0.21328938 0.46353632 0.12392956 -0.006227464 -0.030197114 -0.3170892 0.09023994 0.07235579 0.1860548 -0.37373212 0.055274576 -0.623694 0.1906124 -0.2617963
541 0.22740501 -0.6472209 -0.17344616 0.6956994 0.3052557 -0.09144522 0.22173579 -0.10853741 0.22926708 0.278837 -0.20868781 0.23933168 0.6397392 0.17399332 0.08786781 0.052656602 -0.502465 0.22740388 0.43631122 0.17175184 0.35626835 0.69187087 0.32725716 -0.016263332 -0.34240782 -0.14886726 -0.3356281 0.44080022 -0.2349513 -0.28322202 -0.41458753 -0.46022904 -0.090230174 -0.09459065 0.004052248 -0.19157289 -0.30627564 0.41437688 -0.4935129 0.055189796 0.09948455 0.4268723 -0.58934045 0.03369817 0.34642678 -0.19102858 0.5400249 -0.15830314 -0.06451925 -0.251374 0.15750836 0.066024065 -0.16082677 0.6809184 -0.38615137 -0.20685856 0.1713354 0.46075806 -0.31649742 0.26154783 0.002170399 0.2423632 0.2872075 -0.13744892 -0.41380304 -0.21404445 -0.609492 -0.3799964 0.3476146 0.2481804 0.170671 -0.02690729 -0.24456243 -0.33826542 -0.31268236 0.22482894 -0.055226903 0.5665677 0.04831825 0.27526796
565 0.036377776 0.43191424 -0.072423786 0.05993348 -0.39987665 -0.3317268 0.1659732 0.5996822 0.57375395 0.0425752 0.16856128 0.21847261 -0.05360025 0.22064106 0.56557703 -0.34141788 0.34291553 0.10890793 0.25967178 -0.0006997492 0.14373909 -0.31837404 0.2621889 0.35677114 0.008757462 -0.44928274 0.67983466 0.48673314 0.12075605 -0.36839446 0.235087 -0.2989839 0.29038113 -0.4091854 0.34745935 -0.097741686 0.17507075 0.0678934 0.03352115 -0.1314103 -0.10788499 -0.3357361 -0.016054176 0.4330861 0.37581936 -0.5841247 0.16842614 -0.37785384 0.40528613 -0.11449113 0.26857337 0.72579455 -0.68663555 0.25611845 -0.41338533 0.34609875 -1.3243558 -0.33611575 -0.5145064 -0.022388047 0.065405294 0.058506493 -0.3873725 0.021804225 -0.36336523 0.044453517 -0.20875245 0.14970137 0.30795977 0.26853526 -0.23440243 -0.1537354 -0.094082974 0.35820115 -0.3644828 0.28401896 -0.091062024 0.06497069 -0.12871376 0.115958564
81 0.005922832 -0.50888354 -0.4010024 0.3276035 0.3149642 -0.2645813 0.7512381 0.12771678 -0.123081505 0.19785868 -0.10893823 0.17925084 0.17106378 0.20313467 0.23061313 0.6062182 -0.0045318464 0.1772275 0.37179574 -0.6307859 0.6299854 0.07469108 0.0731536 -0.4518869 0.3245482 -0.24672394 -0.1764691 0.5436056 -0.28043723 -0.90399724 0.06949052 0.39945453 0.31942353 0.0016564912 -0.036401544 -0.049994785 -0.14134191 0.13708775 0.111870855 -0.40410444 -0.19094956 -0.5031744 -0.10431337 -0.31572887 0.22862951 -0.070801325 -0.022300145 -0.236401 -0.49031776 -0.21680106 -0.11245509 0.22757296 -0.1948884 -0.27568835 0.35288912 -0.60118866 0.020902872 0.0062999 -0.17208022 0.022393567 -0.45252714 0.06868796 0.20786332 0.49627143 -0.28415447 0.38478494 -0.023369197 -0.1115775 0.07314619 0.2915379 0.28422698 -0.4961471 -0.16663438 -0.03253368 0.1460546 0.32267642 0.17271096 0.28812397 -0.13350551 -0.01751208
184 0.9733809 -0.3488653 -0.34633628 -0.068820745 -0.08624518 -0.38297942 0.0953238 0.32600754 0.28957155 0.23593402 0.10589254 -0.3237892 0.3370221 -0.13343868 -0.47297075 -0.43736097 -0.3197874 0.33474016 -0.58436877 -0.38148785 -0.063594565 -0.44524896 -0.06500457 -0.06976603 -0.05901639 -0.03834388 0.6579114 -0.16086297 0.04988938 -0.026299054 0.0015407507 -0.38836053 -0.099626124 0.006478061 0.08073414 -0.74818313 -0.15205306 -0.32247978 -0.45019937 -0.22652094 -0.059353918 -0.22961208 -0.31847772 0.4422137 0.20087884 -0.7374554 0.16470638 -0.2322893 0.1896795 -0.4941173 -0.18033049 0.05865196 -0.35266754 -0.15438874 0.16959049 0.33483768 -0.22710831 0.536254 0.25850862 -0.39815348 -0.14051692 -0.26707402 -0.18805596 0.8290063 0.023223625 -0.35941923 -0.38965023 -0.33743346 0.12543854 0.51649487 0.08144747 -0.31539482 -0.17987838 -0.11952516 0.4501432 -0.057767194 -0.26504523 -0.24515761 0.37849313 -0.099227294
25 0.73491716 0.69157225 -0.1327899 -0.1894334 0.012074322 -0.41181448 -0.31825367 1.0465287 -0.41386944 -0.07027056 -0.1687496 0.36624792 0.12030456 -0.09285389 0.14257093 0.39406788 -0.46084517 -0.063139364 0.091275066 0.0957209 -0.016221274 0.38910553 0.09437336 0.33533213 -0.088712804 0.22508065 -0.1715972 0.19467759 0.26538336 -0.09312888 -0.27774802 0.17449462 -0.371991 0.04305587 -0.19308935 -0.060720257 -0.05318331 -0.35627478 -0.2867229 -0.32038745 -0.0005706708 -0.5432952 0.074585445 -0.10322134 0.06715448 -0.7691467 0.23833932 -0.089994535 -0.045852296 0.20581195 0.35288578 0.32758996 -0.74734414 0.367214 0.3707019 -0.43482918 0.066669635 0.5377703 0.43647695 -0.316842 -0.4335204 -0.13369127 0.18065256 0.5742131 -0.30347577 0.59900707 -0.16372919 -0.07421499 0.55385095 0.21682839 -0.7524218 -0.41510454 0.14102395 -0.5099818 -0.08469788 -0.52482843 0.41073245 -0.41080147 -0.1114897 0.33156753
854 0.676433 -0.22260177 -0.5091475 -0.22049163 -0.12983876 -0.5732793 -0.24695486 -0.12672098 0.27144343 0.014631296 0.42335936 -0.042177413 -0.0047584595 0.4149193 0.28580222 -0.03827839 -0.1138469 -0.16025345 -0.70409906 0.24136178 0.31677377 0.37172303 0.33812544 0.05600045 -0.29566422 -0.3889801 0.34548312 0.3208927 -0.39984715 0.15291984 -0.07753961 -0.12196717 0.77253306 0.35939905 0.035006437 -0.8688618 -0.28694683 0.015516714 0.91355497 -0.05528332 -0.16427827 0.6442093 0.13304302 -0.4047257 -0.028348176 -0.18979876 0.32769972 -0.2838991 -0.34185866 0.29794988 0.25008938 -0.23707001 -0.35968295 0.17147912 0.3223787 -0.64130026 -0.4225731 0.21785896 -0.124497905 -0.85229015 0.26859567 0.27246112 0.2629221 -0.26105803 -0.14302257 -0.5181852 0.3967409 0.26258492 0.37903488 -0.30733955 0.22127618 0.046111993 -0.15425594 0.21898337 0.10394777 0.4866476 0.47283283 -0.7850869 -0.24911596 0.079150915
1670 0.2971697 -0.20665957 -0.16070561 -0.08662767 0.4611171 -0.75033736 -0.044874564 0.60923785 -0.6005564 0.19932061 0.26681975 -0.017861977 -0.55105525 -0.038764056 -0.4901578 -0.13300894 0.10498551 -0.44034007 -0.819964 -0.09229504 0.4994845 0.19500723 -0.06128411 -0.46480218 -0.6246327 0.07258942 -0.11395095 0.54585373 0.3277063 -0.07346143 0.30259478 0.20667052 0.059279885 -0.46831065 0.54123014 -0.50229025 -0.21430968 -0.49768862 -0.1852037 -0.26311198 -0.27142102 0.2247254 -0.33159298 0.085980855 0.06681666 -0.5113498 0.13217565 -0.20924501 0.23506136 -0.3201583 0.006270574 0.1070703 -0.16620122 0.41015577 -0.3824386 -0.22484316 -0.19732125 0.1060961 0.29934683 0.10868716 0.20948778 -0.57851213 -0.4539707 0.007584468 0.28626326 0.30172753 0.1719416 -0.0155062 0.08633267 0.75553805 0.16806796 -0.0058579384 -0.46805868 -0.3419084 0.36880615 0.23296942 0.22351643 0.025614692 0.2520207 0.15348656
530 0.21530002 0.4264725 -0.27066243 -0.085386775 0.43354222 -0.28986657 -0.15380272 -0.09979541 -0.003980432 0.33788386 0.25831255 -0.42931864 -0.015760386 0.21739072 -0.17192762 -0.045713853 -0.068276025 0.37759897 0.10429234 -0.39497492 0.32553178 0.27116394 0.70173854 -0.16040577 -0.36083588 -0.11983049 -0.27466378 0.15993123 -0.28046513 -0.21638234 0.0768989 0.45713404 0.41923282 0.09598813 0.50873595 -0.059109773 0.29098853 -0.04152973 0.15028748 -0.2657861 0.30879804 -0.38772804 -0.08772218 -1.020447 0.07600954 -0.2738274 0.28987038 -0.12083529 -0.22315487 -0.28321165 0.077744566 0.44303718 0.24179754 -0.31410202 0.7062599 0.024657436 -0.09103264 0.040668312 -0.29122287 0.23976254 -0.028476879 -0.10825078 -0.2846583 -0.039490037 0.35903955 -0.0047297655 0.101109065 -0.12723978 0.18968664 -0.18723913 -0.006640582 -0.7537001 -0.32129678 0.14646082 -0.50560725 0.2534263 -0.007861272 -0.040915556 0.014513598 0.13878505
379 -0.0011753631 -0.2492642 -0.07132785 0.020797795 -0.07487137 -0.38654488 -0.36677855 -0.14808859 0.17407042 0.59647226 0.23832688 -0.1595461 0.20730959 -0.2991547 0.22930686 0.04152813 -0.046531368 0.098481186 0.37303612 -0.16140641 0.16226889 0.2631532 -0.027208991 0.030549822 -0.2759207 -0.18109868 -0.2363288 0.18034716 -0.45144677 0.37433484 0.68822074 0.28869793 0.054035224 -0.5889311 0.20556442 0.105449244 -0.245336 -0.38687557 -0.24314699 0.28194606 0.4498318 -0.054659024 -0.08992736 -0.4421939 0.8790356 -0.8888863 0.5499302 -0.36054358 0.112892956 0.1895522 -0.053548135 -0.42488596 -0.18516594 0.10041575 0.031818185 -0.26800516 -0.27025858 0.23460768 -0.671786 -0.0039759483 0.051916897 0.6415131 -0.07921025 -0.026997413 -0.07836585 0.40308797 -0.33403832 0.35363436 -0.3966262 0.28608963 0.70387036 -0.25535545 -0.10001753 -0.0047718873 0.28625616 0.0547479 0.003336982 -0.627166 0.18593594 0.38093776
678 0.30009174 0.242248 -0.36599395 -0.089607365 -0.6155851 0.19206874 -0.35393664 0.38684547 -0.81339073 -0.054598186 0.12387824 -0.31905589 0.32517743 0.16978234 0.3773844 0.058161445 -0.16501792 -0.17348634 -0.81741524 0.3831394 -0.12047737 0.27609834 0.03160889 -0.06579875 -0.12188328 -0.06478551 0.022468474 0.06404447 0.16279028 -0.2660299 -0.05988476 0.15098995 1.1494943 -0.035426684 -0.35787308 -0.60960466 -0.05154988 0.5513175 0.31058097 0.14160624 -0.2908095 0.013560973 0.34126362 -0.037634276 0.23883627 -0.6335575 0.5549882 -0.38422447 -0.104338385 0.14719577 -0.6250751 0.12847151 0.1780447 0.011637468 -0.36426687 -0.32473582 -0.55550927 1.0993617 -0.97232944 -0.34180743 -0.41424918 -0.8083558 -0.14793652 -0.15281707 0.49080026 -0.28971115 -0.1404017 -0.24387342 0.4259413 -0.07021819 0.3279192 -0.28593427 0.6245966 0.09789343 0.31843722 -0.22615698 -0.21074224 0.09799785 -0.14745261 0.10077121
165 1.0734044 -0.20190312 0.6252388 0.3337564 0.25520265 0.37141523 0.032777574 -0.16790687 -0.2486846 -0.024630757 0.38776603 -0.65282226 0.10464749 -0.113883786 -0.091692455 0.12134251 -0.0634662 0.25424224 0.23528695 -0.26866952 0.017198097 0.119834244 -0.17502251 -0.6571872 -0.2222113 0.017304894 -0.15792365 0.16289626 -0.4895121 -0.16945419 0.48970714 0.2481074 0.0012745915 -0.7133243 0.033298403 -0.35901326 -0.09656727 0.0951347 -0.36751437 -0.8017796 0.18888907 0.2517715 -0.1892135 0.41784564 -0.2226841 -0.2987381 0.20285864 0.2720193 0.42788503 0.55318826 0.57123345 0.032392684 0.051494617 0.3980177 -0.1874868 0.14468947 -0.2615602 0.5413799 -0.24235101 -0.5119371 -0.4367292 -0.33179632 0.23297182 0.008700687 -0.3166796 0.29405403 -0.43509457 -0.012461027 0.14372915 -0.51265764 -0.504569 -0.32224354 -0.22324361 0.40026793 -0.20714608 0.41692957 -0.26836622 0.27071515 -0.34489098 -0.33548763
233 0.5134003 -0.108464204 -0.14961836 0.37986583 0.068952225 0.091716535 0.017148228 -0.032263003 -0.14905359 -0.14461622 -0.49930838 -0.4683817 0.032020774 -0.029927917 0.10006382 0.22325242 0.121109985 0.30519563 0.076959774 -0.20051746 0.24794759 0.483437 -0.21776141 0.07351736 -0.4534285 -0.59425235 0.31223083 0.89817923 0.38396016 0.30686504 -0.50508803 -0.26501226 0.21977015 -0.3124496 0.12727822 -0.73727965 -0.06264785 -0.34434336 -0.57640076 -0.9099728 0.2627019 0.5021425 0.5497072 -0.0741487 0.29774615 0.12194737 -0.13991505 -0.078861 0.10864639 0.16739675 -0.24579291 -0.13089891 -0.13764052 0.12372159 -0.005863577 0.15685844 -0.21232237 0.39283535 -0.25204933 0.41117093 0.02435963 0.48336372 0.4682347 -0.32001472 0.3844055 -0.19286352 -0.7075299 0.26293823 0.8441681 0.07949827 -0.013710681 0.21601951 0.11852241 -0.2318261 -0.008802117 0.19322814 0.12970495 0.27232674 -0.33154777 -0.20146686
925 0.53628945 -0.33964756 -0.3586808 -0.08355601 -0.39765713 -0.36366543 -0.22076662 0.81476474 -0.121372014 -0.046413504 0.014550286 -0.04781904 0.035711776 -0.101399735 -0.55837417 -0.415681 0.14064793 0.44585449 0.18764904 0.37437272 0.6993114 0.37924153 0.14537638 -0.7000749 -0.20777576 0.2885712 0.37966114 0.37403694 0.03561404 0.16947381 0.5313381 0.2715457 -0.056818515 0.45150596 0.18626153 -0.54447854 -0.03643414 0.7520921 -0.47558552 -0.19473018 -0.2546093 -0.05534375 0.21880332 -0.30406016 0.22075205 -0.37257054 -0.4120201 -0.6837809 0.0123096835 -0.2632507 -0.28499013 0.06207973 -0.29479846 0.18981265 -0.4620801 -0.14586455 -0.3899833 0.06482271 0.11501013 0.16502959 0.34956685 -0.35347092 -0.49923608 -0.18575786 0.11110107 0.60358655 -0.10862713 -0.04991689 -0.24782176 0.12447142 0.025407305 0.022961194 0.054691434 0.1306797 0.032337904 0.2567871 -0.41521725 -0.42323354 0.18081172 0.602771
1362 0.5446218 -0.12445117 -0.30036068 -0.3178498 0.09742191 -0.7579497 -0.12951674 -0.058140747 0.0631816 0.228582 0.10760316 -0.31595692 0.6239258 0.53202707 0.030886319 -0.36434186 0.45742267 0.28563124 -0.3644072 0.14319992 0.23040342 0.74149764 -0.017798781 -0.3276067 -0.30094358 0.4572241 0.08165438 0.043436274 -1.0236878 0.2815768 0.11408825 0.6744592 0.00021776231 -0.39277813 0.3072692 -0.008533352 -0.1585738 0.45351198 -0.25783625 -0.28871727 -0.645337 -0.18360254 0.1506984 -0.056900308 0.24048503 -0.45152646 -0.41076797 -0.82170826 -0.13404642 -0.3531133 -0.4753176 -0.35059857 -0.13897976 0.45612258 -0.39936063 0.24690096 0.47253895 0.3121016 -0.30512056 0.1747654 0.200576 -0.28796414 0.48722634 -0.109569214 0.08282651 0.03459829 -0.3849507 0.06945343 -0.4909685 0.2499995 -0.4629063 0.059958857 0.26972088 0.18662938 -0.034060538 0.123857506 0.0020706179 -0.426958 -0.09302354 -0.33141965
176 0.8714393 -0.07692098 -0.11128333 -0.38377842 -0.23352166 -0.27253184 -0.2181303 -0.20724078 0.5132029 -0.2175491 -0.3534118 0.43922505 0.24025992 0.65156406 0.39060038 -0.2524076 0.35947353 -0.13325551 -0.62718487 0.50392246 0.07966478 0.48847604 0.47748634 -0.35482216 0.11178698 -0.2279703 0.5621817 0.2147201 -0.13649626 -0.17451859 0.2927527 0.13891062 0.3314402 0.3939648 0.4902989 -0.7764522 0.15096222 0.27594775 0.6629818 -0.4667178 -0.41368625 0.66296107 -0.2035321 -0.22643568 0.008211739 -0.25855273 0.29694763 -0.50610477 0.09648302 0.07630244 0.5884328 -0.03709669 -0.78388506 -0.69959587 0.39312458 -0.18914989 -0.5173189 0.32328218 0.35641328 -0.33356872 0.2853334 -0.062397897 0.62676907 -0.012115961 -0.09856627 0.012426181 -0.052522887 -0.29449496 0.4310392 -0.04453216 0.054680686 0.27481708 -0.31180254 0.08022035 0.030236684 0.8322213 0.19104609 -0.51103693 -0.079288915 -0.09121185
1084 0.16907306 -0.49726245 -0.20358722 0.12693015 0.36898485 -0.026354738 0.3383145 -0.48005053 -0.2747031 -0.13829066 0.24930413 -0.060722116 0.31286716 0.3129331 0.2050801 0.41752344 -0.19654614 0.1693389 0.013095523 -0.15143144 0.87203276 -0.27153933 0.8851663 -0.5716928 -0.08048343 0.19056246 -0.3434892 0.43985876 0.14074333 -0.49313307 0.0017556936 -0.35578835 0.08965973 -0.06399726 0.0863053 -0.04470239 0.21156108 0.3885222 -0.17495398 -0.41628444 -0.025785532 -0.51979226 -0.2771725 0.22761212 0.24081348 -0.71997285 0.41331428 0.024025528 0.0031701562 -0.067031644 -0.1825518 -0.6732922 -0.018063355 -0.62021714 -0.109335944 -0.2530124 -0.18502557 -0.21359648 0.32485542 -0.05302184 -0.0076605566 -0.6736528 -0.22561224 -0.11596939 -0.5736498 0.019457348 -0.66421247 0.35247555 0.23023455 -0.007073065 -0.24734668 -0.7028973 -0.04374858 -0.27915797 -0.1979913 0.18561141 -0.4062399 -0.3905986 -0.31170577 -0.10734441
314 0.18840243 0.014613593 -0.10669211 0.4434671 0.028636297 -0.51060885 0.43408513 -0.09823676 -0.4813605 0.09386924 0.21754983 -0.36194092 0.3206365 0.29646704 0.22030053 0.027554616 -0.03401039 0.0572215 0.33275983 0.05693917 0.8805159 0.36895642 -0.19913043 0.22552608 0.14100085 -0.5459198 0.009608154 0.7488996 0.54821485 0.25073367 0.013808258 -0.076367006 -0.020409385 0.20703034 -0.11754954 -0.29952985 0.01601882 0.10502226 0.38127443 -0.1638637 -0.11969278 0.47331092 0.044968873 0.1488942 0.31885538 -0.0674606 -0.05341258 -0.43727776 0.5921436 0.4321188 -0.45259744 0.8069403 0.41903272 -0.14669327 -0.13190022 -0.004235894 -0.17412558 0.19432202 -0.26329705 -0.17852058 0.06356282 -0.64093137 0.8562391 0.31317714 0.45094764 0.35621804 0.065933496 0.006983755 0.27470973 -0.50173557 -0.13789633 0.24922141 -0.08678811 -0.43062764 -0.5616368 0.17143402 -0.21330363 -0.23688562 -0.4284454 0.419301
555 0.23500738 -0.3009612 -0.14510779 -0.028341707 0.50046074 -0.31699964 0.284857 0.32604274 -0.27310342 -0.13362426 0.12592888 -0.4137252 -0.30324206 0.041832563 -0.011555393 0.14315629 0.12881778 0.15639815 0.42433864 0.14089401 0.1959503 0.10073785 0.25324044 0.28306735 -0.35699317 0.041716035 -0.10321363 0.3288457 0.35492218 -0.5722049 0.34566334 0.8286597 0.9385249 -0.18855387 0.5335202 -0.13935693 -0.37054312 -0.61772794 0.22056547 -0.21674378 -0.63980347 -0.0018777072 -0.9025388 -0.31264192 -0.12751016 -0.13485603 -0.045450952 -0.3909552 0.122772515 -0.102279104 -0.19748911 -0.12890142 -0.17921674 -0.3190962 -0.36130702 -0.15375587 -0.5085092 -0.346756 0.4795867 0.005762761 0.13525413 0.22389075 -0.3446643 0.5455066 -0.032056406 -0.33575302 -0.060231794 -0.4572031 -0.18646388 0.5879871 -0.24564633 -0.09752001 0.13241646 -0.020861808 0.13734858 0.19413237 0.17054373 0.017002087 -0.29130962 0.02757895
240 0.76245594 -0.024162369 0.4259366 0.4075483 0.09853903 -0.42055503 0.005261861 0.4393981 -0.20365573 0.050799426 -0.012257377 -0.09095127 0.6161961 0.5039476 0.07189303 0.6506922 -0.012751004 -0.56177205 -0.16135009 -0.19457562 -0.15313642 0.00057665596 0.22656079 -0.38781804 -0.1066848 -0.21755874 -0.09628759 0.4073516 -0.35585704 -0.11979917 0.2888647 0.05664549 0.040853094 0.13798897 0.33801147 -0.33288673 0.6813375 -0.14456126 -0.332641 -0.15436777 -0.65119684 -0.4324486 -0.9865965 -0.027268786 0.7496379 -0.92999566 -0.50928974 0.16932237 0.43969947 -0.4739999 -0.1836329 0.15556605 0.33846554 0.27025172 -0.4601715 0.55333805 0.31620467 0.42247993 -0.08134672 -0.36344984 0.29057896 0.40124804 -0.44424024 -0.033546377 -0.32532218 -0.052167416 -0.066559985 0.017803391 -0.5431838 0.28074348 0.1512369 0.23229833 0.95858866 0.15383217 0.32910264 0.28429806 -0.006985022 -0.057120003 -0.29371548 -0.32105047
742 0.74750257 -0.102164716 0.29238418 0.13972807 -0.19297014 -0.6638983 -0.35606828 -0.061127402 -0.71317554 0.11925743 0.34415492 0.1357336 0.18738094 -0.23560813 -0.46890637 -0.15617754 -0.52106845 -0.4319096 0.50658274 -0.19321346 -0.23466402 0.15631361 -0.5062583 0.18949535 0.54262954 0.0013680249 0.29554066 -0.047569998 0.34411642 0.09521033 0.14818507 0.5226067 -0.25901264 -0.3288153 0.84659666 -0.8339259 -0.52529985 0.38331103 0.4277836 -0.65888125 -0.0954064 0.037738886 -0.6930296 -0.33961287 0.10639304 -0.5640331 0.26572415 0.16499513 -0.45900127 0.2605037 0.34385014 -0.44509238 0.09401056 -0.033684775 0.07148402 0.18674487 -0.77351654 -0.4269141 -0.5197548 0.43723938 0.6426053 -0.42885917 0.9247117 -0.6571939 -5.8468877e-06 0.18612827 -0.12101152 -0.068001986 0.20002529 0.78853124 -0.21747781 -0.43903345 0.3280993 0.067163065 -0.23891176 0.103381656 -0.41676104 -0.22180782 -0.19158071 0.3917883
27 0.29340792 0.28649908 0.00850865 0.5215204 0.10274666 -0.69754267 -0.6566272 0.4913409 -0.4492037 -0.016729485 0.3956651 0.16071877 0.4735052 0.3284613 -0.12725735 0.020764075 -0.31372178 -0.09985513 -0.04917887 0.23378533 0.09682105 0.45671707 0.81384337 0.39831728 -0.25075078 0.32425448 0.32482353 0.277819 0.37941095 0.19103321 0.12192662 0.092158824 -0.40941858 -0.097212225 0.30099148 0.25608227 -0.56033224 -0.2987347 -0.18561657 -0.058675922 -0.5046138 -0.078842305 0.2615531 -0.08472197 0.21171986 -0.79545027 0.24707209 0.29282328 -0.39095387 -0.38229486 0.059778616 0.052565526 -0.4967195 0.50923806 0.06558558 -0.14831418 0.030857887 0.4565081 0.3892003 -0.10372148 0.35704872 -0.42349914 -0.39250675 0.100314766 -0.37784806 0.3407873 0.12317855 -0.1937184 -0.046979904 -0.3915652 0.19130763 -0.4454997 0.31330255 -0.55214757 -0.14380822 -0.60778224 0.32760775 0.33342972 -0.676396 -0.61027145
232 0.09738866 0.5025832 0.11746264 -0.44514498 -0.4459512 -0.43851566 -0.00751525 -0.20313406 0.107276104 0.6310908 -0.46175513 -0.032116227 0.06462375 0.009742243 -0.17757131 -0.0744021 -0.4880141 0.37658486 0.10590469 -0.4328676 -0.3233746 0.16066863 0.3469315 0.45437208 0.36027393 0.07304893 -0.15396863 0.7355693 0.18752165 0.2697385 0.13530199 0.13383976 0.13247746 -0.1578297 0.20521046 -0.5101777 -0.16625723 -0.17939642 -0.038477767 -0.11705401 0.3685414 -0.48069912 0.0098209465 -0.5243286 0.116543256 -0.43878883 0.32061678 -0.53345245 -0.22850978 0.79696673 -0.2087841 -0.41429424 -0.48353055 0.24413311 -0.26662725 0.18893588 -0.0034528174 0.62974834 -0.55471396 -0.059633445 0.03821257 -0.18757316 0.47731647 -0.06737918 -0.23532858 0.8152563 -0.36840257 0.49794176 -0.10253217 0.6255432 0.5979568 -0.17342359 0.060185246 -0.6859303 0.33354703 -0.16029896 0.23215185 -0.34858054 -0.3055356 -0.5502523
1211 0.44324955 -0.36857304 -0.44773573 0.517661 -0.46859115 -0.07318831 0.47296408 0.7390645 -0.21351226 0.37775558 0.70217896 -0.81003565 0.101131134 0.1637241 0.6863025 -0.18478976 -0.8726633 0.45805797 0.16175579 -0.066271275 0.26789838 0.09770402 0.19874544 -0.13872497 -0.07842059 -0.35406715 -0.107191704 0.6027414 -0.52698386 0.06490537 0.19504279 -0.2975022 -0.058350667 0.20571612 0.16012067 -0.008923067 -0.58681226 -0.79960996 0.40151894 -0.2088301 -0.11226946 0.20583287 0.42210868 0.18443254 0.28110972 0.13346976 0.27821708 -0.09629684 -0.35758135 -0.5699872 -0.7388374 -0.06396573 -0.40875822 -0.6425008 0.5314469 0.74481016 0.011726661 -0.1180654 0.18940453 -0.9690563 0.305196 0.31777614 -0.17695932 -0.5393681 -0.28618827 0.34264076 0.229066 -0.09233529 -0.35839248 0.3357134 0.101311326 0.14369953 0.27409443 -0.64572036 -0.08308732 -0.14951141 -0.062139463 0.19004421 0.2147583 -0.00027940524
120 0.9713122 -0.11864374 -0.45059368 0.047642447 0.02813822 -0.008483411 0.0026294636 0.15433444 -0.123492554 0.021890502 0.25955233 0.24434663 -0.38207155 -0.21647577 0.38237652 0.81117404 -0.22550105 -0.13396546 0.37356532 -0.07089813 -0.023756234 -0.13766389 0.8734816 -0.22351786 0.005456331 -0.4478426 -0.80071044 0.05158132 -0.25785795 0.36506099 0.34911647 -0.029253623 -0.095371604 0.07089828 0.031424295 0.20989534 -0.5545244 -0.23944974 -0.2725063 0.6179828 -0.069040045 -0.0472908 0.48413363 -0.6033941 -0.18679853 -0.20364973 0.28878388 -1.0217164 0.58680665 0.35200244 -0.27598155 0.38269055 0.44592944 -0.11030218 -0.030932186 0.23205048 -0.21591173 0.7324869 -0.32317108 -0.05348559 0.049702108 0.011455061 0.41301876 0.17257768 -0.30942655 -0.31986257 0.2097801 0.15550075 -0.1485413 0.85666794 -0.56704086 -0.22323754 0.1481987 -0.50689936 0.5453515 0.788542 -0.58862466 -0.26871642 -0.048304327 -0.4643501
283 0.5933641 0.611096 0.590142 0.06417745 0.356894 -0.42952824 0.4898568 0.57084745 -0.11643147 0.85458755 0.4704524 0.18681477 0.269221 0.02377375 -0.30657175 -0.29605457 -0.35575235 -0.269579 0.057518806 -0.021833668 0.00988419 0.38279226 0.55997765 0.38594124 -0.036608525 -0.2107913 0.056080345 0.58987296 0.75943834 0.47301072 0.1023147 0.3722898 0.042096905 0.6671222 -0.25384435 -0.079295926 -0.098101996 0.64515436 -0.1179544 -1.069783 0.1701435 -0.06759794 -0.3985264 -0.34323055 0.054356568 -0.16096303 0.2115419 -0.27474612 0.3527413 0.021051155 -0.06106883 -0.72081494 -0.24990468 0.031576738 -0.19041899 0.36336377 0.14640425 0.5211583 -0.34308612 0.26812938 0.14402504 0.70224524 0.2519408 0.019451289 0.16885337 0.24933414 -0.12970859 -0.23136923 -0.3205154 0.32873157 0.43525234 -0.07499667 0.39177716 -0.70480895 0.4281366 0.11176016 -0.016964741 0.46976703 -0.06349359 -0.22480756
131 0.57791966 0.13410553 -0.38943836 0.6307573 -0.42548904 -0.54782677 -0.26967794 0.034888208 0.19823298 0.36740577 0.3038499 0.2704611 -0.0509382 -0.06453209 -0.22643313 -0.94416916 0.26524895 0.4905946 0.7902033 -0.593891 0.0016259683 0.4117788 0.046803936 0.064458266 -0.0740355 -0.27024016 -0.2616577 0.027985323 -0.0051248157 0.056002088 -0.34585923 -0.20527515 -0.20585433 0.038443573 0.09111882 -0.64292026 -0.15968779 0.19172296 0.20565829 -0.27162394 -0.26767913 0.18613327 0.08272694 0.088686526 -0.24169578 -0.68288827 0.33107457 -0.49312076 -0.12620308 -0.16765973 0.22458874 0.0953351 -0.44251093 0.14193386 -0.32169557 0.086687915 -0.08735723 -0.022455504 0.31723997 -0.052465096 0.17106423 -0.5892764 -0.83095586 -0.26493928 -0.3077968 1.0856521 0.19359921 0.21896024 0.053942937 0.7040532 -0.73823553 -0.24773236 -0.26656798 0.30362633 -0.5033149 0.2578702 -0.027822938 0.1645295 -0.48077798 -0.039296184
688 -0.12038767 -0.1837374 0.06207269 0.33464643 0.4645486 -0.37168017 0.5168641 0.21093813 -0.00529362 -0.23082896 0.52848005 0.06849918 0.3932142 -0.027705267 -0.24542 0.7033462 -0.032913078 -0.15574656 0.06009635 -0.12169953 0.734179 0.20454834 -0.16718444 0.32951292 -0.36582372 0.02475502 -0.22379011 0.16046835 -0.40570387 -0.2653423 0.49387452 -0.13594516 0.28967994 -0.057289608 -0.03126556 -0.29590544 -0.2841205 0.080631 -0.29702 -0.20654067 0.41142845 0.63379633 0.08398756 -0.03147954 1.0362875 -0.3011061 0.12610966 -0.96464723 0.40714142 0.42525095 -0.47562683 0.019682243 -0.47348762 -0.2749946 0.44466847 -0.11605886 0.022498222 0.4094742 0.0015275007 -0.07573575 0.20394698 0.26157263 -0.036224984 -0.008927065 -0.043250196 -0.3197844 0.3550372 -0.052450724 0.08654309 0.33917072 0.17466022 0.22173536 0.025980975 0.23551084 -0.080902465 -0.15197907 -0.6447241 -0.07987846 -1.034733 0.060357332
2073 0.60353047 0.21843262 0.7240377 0.07636195 0.5711182 -0.37058166 -0.1827023 0.64758295 -0.16822778 0.44914737 0.29854643 -0.019946478 -0.7083336 0.05957652 0.6048869 0.0047518257 -0.23133256 -0.28650078 0.24610189 0.5667082 0.3369821 -0.30836368 -0.23969145 -0.09748241 -0.0085861785 0.3773994 -0.5134333 0.04097576 0.025408732 -0.26186708 0.057662863 0.37469047 -0.44116807 0.10938667 0.051437918 0.09382307 -0.11085563 -0.7818944 -0.4180849 -0.95457476 0.10136262 0.5008967 -0.018517893 -0.9872388 0.6136736 -0.07404439 -0.028059628 -0.5586122 0.25310364 -0.5141719 -0.046883997 -0.3329918 -0.82423747 0.030341579 -0.3448514 0.51991737 0.13477156 0.029817685 -0.6973864 -1.3051848 1.04755 0.20500864 0.31343082 -0.27482072 0.13935542 0.012165838 -0.13150617 -0.20937221 0.16863929 -0.19750662 0.41846943 -0.5668437 0.6282792 0.073406644 -0.35354802 -0.0016826371 0.03619472 0.29432106 0.23322484 0.23863077
272 0.6277341 -0.0077681765 -0.11351022 0.07328378 0.5111558 -0.6986847 -0.5120585 0.36583313 0.12195953 0.15478714 0.49043146 0.18109974 0.46531874 -0.6331783 0.1761401 0.08077821 0.54955417 0.033961616 0.42346615 -0.39688852 0.6112189 0.77854806 -0.06320054 -0.5220433 -0.2495272 0.35888502 0.38307303 0.19748247 -0.074796885 0.4936214 0.07794919 0.3668186 0.48660037 -0.5846536 0.14545554 0.052254625 -0.08102298 -0.39117813 -0.32260168 0.5659867 0.28102356 0.14682473 -0.23409383 -0.13045557 0.6188287 -0.79328096 0.40738243 -0.22329442 0.09558657 0.11992309 -0.3209168 -0.3278249 0.23132841 -0.4950485 0.24535578 -0.093538 -0.04567701 0.07280253 0.2103681 0.15426117 0.4430735 0.8372207 -0.26686326 0.115351945 -0.23144874 0.07245391 0.122483686 -0.38203567 -0.016150907 -0.005806806 0.6723254 -0.2535114 0.18138435 -0.27614078 0.2783902 -0.23461893 -0.16468889 -0.1588703 0.0048215794 0.13024879
463 0.12732291 -0.09036374 0.029092537 0.27568498 -0.34519383 -0.3181441 0.092005864 -0.10002479 0.13684322 -0.039411657 -0.22653489 -0.2591911 0.5074129 -0.34559944 0.4251996 -0.2217479 -0.6309765 0.17785238 0.06487588 -0.11633467 0.09676161 -0.44026914 -0.19973503 -0.17674147 -0.9281249 0.49918836 0.9428672 0.21227561 -0.22822312 -0.5439857 -0.546935 0.6525532 0.5186964 -0.7539263 -0.010966907 0.19718973 -0.30044156 -0.5150268 -0.6292977 0.008747937 -0.5426222 -0.052515987 -0.27836955 0.24321738 0.12500785 -0.45216992 0.427657 -0.9138422 -0.029681047 0.42689025 0.109058894 0.86577773 0.100261435 -0.27974832 -0.06521504 -0.0009112992 -0.55137575 0.20519191 0.41113552 0.3879649 0.29417792 0.47737476 0.3350451 -0.12903453 0.20976102 0.06824457 0.47789028 -0.19780405 0.14254475 0.6354645 0.09688461 0.14764707 0.54537374 -0.05003917 -0.39744127 0.55496913 -0.48760638 0.15532681 0.5426444 0.38214535
435 0.7183834 0.27334675 0.29325208 -0.46130654 0.30884448 -0.5270451 -0.17443159 0.09224625 -0.66531336 0.01301969 -0.7038695 -0.23111096 -0.36875007 0.27225164 0.1502328 -0.12628706 -0.67613816 -0.40510297 0.44706386 0.35867348 -0.12820135 -0.35985625 -0.33355585 -0.62806845 -0.3639855 0.21292071 -0.21685538 0.44476378 -0.74953073 0.44464916 -0.16575773 -0.45767507 0.7084167 -0.7120322 -0.16229211 -0.09574249 -0.70050156 0.3128544 -0.2112151 -0.19639868 -0.2081598 -0.04750913 0.5176629 -0.8108288 0.2788525 0.07647036 0.5465433 0.6554564 0.47818282 -0.26649544 0.23919843 1.0110765 -0.33858427 -0.37910622 -0.5110211 0.5276068 0.008501122 -0.116258346 -0.07124322 -0.12513824 -0.24175128 -0.53035975 -0.32189932 0.29601923 -0.4079679 -0.04701645 0.38102812 -0.7750882 0.16271728 0.1335627 -0.18085995 -0.19077387 -0.3258137 -0.81680757 0.18665648 0.45741174 -0.5353983 -0.6124625 -0.26030588 -0.19055535
868 0.64576846 -0.33571953 -0.55955106 -0.3524705 -0.34679025 -0.46249273 -0.57269824 -0.028785279 0.7326085 0.015489212 0.23814313 -0.11988135 0.32468095 0.5858742 0.52677226 0.15312584 -0.13284723 0.05328228 -0.86488295 0.3614418 0.5069708 0.5405341 0.1757201 -0.37160164 -0.2704258 -0.3933746 0.3099996 0.49455705 -0.2463068 0.152929 0.25819573 -0.14837629 0.6263381 0.6006149 -0.032889586 -0.74803454 -0.40212855 -0.016837036 0.81088424 -0.9007469 -0.8018432 0.45490685 -0.5572237 -0.21682963 -0.2008456 -0.393887 0.23107882 -0.30578429 -0.35912782 0.43833932 0.39051443 -0.5139557 -0.8368224 -0.38361138 0.67703205 -0.5847215 -0.43112135 -0.26508266 0.05850203 -0.4810152 0.43287733 -0.049410272 0.39656836 -0.44388634 -0.08244563 -0.30169433 0.03267574 -0.14637187 0.44948542 -0.17723784 0.028389638 0.2141254 -0.4571159 -0.25680205 0.027959382 0.9301282 0.61103016 -0.75603867 -0.23713921 0.09541286
1781 0.3669557 -0.30882338 -0.027583968 0.22322246 -0.49024147 0.23963717 0.85012054 0.74045855 -0.1422594 0.22111614 -0.11205716 -0.4321408 0.018306876 -0.021063484 0.31740925 -0.31222713 -0.46741652 0.2476244 0.29505736 -0.013230635 0.50579864 0.41134688 0.2661985 -0.24294393 0.15566553 -0.11669707 0.0932261 0.8373682 0.026165156 0.037339527 0.12601112 -0.04488487 0.48470512 -0.35995838 0.36288518 -0.08060156 -0.24721694 -0.7831653 0.2011352 -0.029887015 -0.24932465 0.062033337 0.21253893 0.35821697 0.20362295 -0.25951257 -0.09197553 -0.11165234 -0.118107975 -0.2723645 -0.607802 0.20045558 0.09266556 -0.46439162 0.40482065 0.8070553 0.13238183 -0.09601857 -0.3166312 -0.8400657 0.4126005 0.39097667 -0.37799826 -0.83928806 -0.17049897 0.078312814 0.08066155 0.23773801 0.17620407 0.7230959 0.028873658 0.37338614 0.21102841 -0.63706625 -0.48700258 0.09636413 -0.2819227 -0.0076679275 -0.6671933 -0.07066872
408 0.18999627 0.43179062 -0.013111334 -0.008719093 0.1840073 0.18341096 0.6098031 0.40526333 0.2932478 -0.0016680593 -0.26346645 0.08617246 0.08974319 -0.064109966 -0.33823833 -0.030950299 0.0026661053 0.09011138 -0.52634776 -0.2637966 0.6188979 -0.4192117 0.9774089 -0.16082147 -0.29871595 -0.36282128 -0.38188607 -0.04689498 -0.6597045 0.53679806 0.42407528 0.26091537 -0.6998732 -0.10713789 0.079221316 -0.17417657 -0.6986614 0.25232124 -0.047022115 -0.50755095 -0.5828581 0.053152025 0.19750427 -0.53962475 0.5067042 -0.09190965 -0.083107606 -0.6502275 0.57810426 0.2205754 -0.40967107 -0.01570047 0.4822572 0.24782369 -0.17516722 -0.39525732 0.0075933193 0.026567813 -0.47242507 0.08011324 0.098078735 -0.04178147 0.24898486 0.116729975 -0.5291242 -0.41528758 -0.56557095 -0.25589177 0.050422546 1.1068898 -0.9265137 -0.18354946 0.6706096 -0.39570987 0.2543968 0.15172099 -0.60586756 -0.43950403 0.03919185 -0.033143885
262 0.4568166 -0.03601942 0.29350233 0.11341305 -0.041348275 -0.40076622 0.2623404 -0.3780993 0.012502754 -0.25777957 -0.15679236 -0.094186656 -0.025255263 0.09457282 -0.1497142 -0.33795205 -0.4601249 0.60829866 0.23387864 0.2257214 0.44294316 0.67133427 -0.22687082 -0.122698694 -0.13785923 -0.8896146 0.5511131 0.5274913 -0.49546543 -0.18050286 0.57343704 0.37613672 -0.2784556 -0.006660708 0.27185562 0.4647916 0.20581831 -0.13858053 0.031512108 -0.22410658 -0.18730499 0.09131455 -0.05848187 0.47575185 0.35269922 -0.47037026 -0.11092583 -0.0070716385 0.20487697 -0.25935876 0.05919361 0.32123962 0.3187631 -0.549859 0.08046527 -0.08799578 0.12898958 0.4802117 -0.43692362 -0.024889711 -0.6862704 0.24990475 0.0533508 -0.18151768 -0.193681 0.07514451 -0.012138482 -0.1877009 0.32155102 0.22772774 0.06751039 0.15079013 0.6998266 -0.8061688 -0.65203285 0.4810218 -0.08516925 0.05503825 -0.058282446 -0.14580366
1040 -0.11475655 -0.27408016 0.06277236 0.5479803 0.18529299 -0.021219144 0.23243041 -0.35876894 0.061167583 0.709109 0.1317624 0.19930886 0.663745 0.27833554 -0.028277515 -0.3818618 -0.3436515 0.09682688 0.53057206 -0.023482503 0.64914674 0.753735 -0.3396111 0.3331638 -0.40280834 0.065875255 0.2702497 0.67053574 0.013419348 0.05078101 -0.09388286 -0.2882095 -0.026873846 0.12344074 0.112533145 -0.3070069 -0.030475853 -0.24802876 0.12632933 -0.5033317 0.095769964 0.68346536 0.27239138 -0.08394047 0.3275523 -0.2730177 0.8203994 -0.09989668 0.37822703 -0.2174293 0.57656044 0.02027824 0.032619998 0.009862345 -0.34976196 0.004706841 -0.01829713 0.06925364 -0.80849594 0.2701437 -0.10025224 0.23776716 0.79325753 -0.5465269 0.13976589 0.22853145 -0.32485914 -0.14438547 0.5824882 0.58576775 0.0915881 -0.100400716 -0.745896 -0.25418904 -0.22492841 0.35417137 -0.70954293 0.4765536 -0.643943 0.34633288
895 0.8584611 0.1218754 -0.3184842 0.06944199 -0.41227183 0.07486703 -0.23464316 0.518885 -0.80403507 0.19293673 0.44357482 -0.16675295 0.31002858 0.403485 0.12807405 0.5903206 -0.11314463 -0.48828518 0.0025521787 0.34425157 0.17832708 -0.59054905 -0.17019619 -0.1510809 -0.92600185 0.45226654 0.051003713 0.41385925 -0.21703945 -1.0748124 -0.09029504 0.20593163 -0.029389743 -0.053747505 -0.23459007 0.12687215 -0.19812116 0.16210428 -0.11666074 0.047892585 -0.24773969 0.016792534 0.79097915 -0.7627989 0.25940043 -0.32187685 0.041677427 0.26445135 0.70939934 -0.6956227 0.49921182 -0.7818306 -0.26926354 -0.5229206 -0.09256222 -0.12503436 0.20521848 -0.3845809 -0.060768265 -0.41196153 0.25303638 -0.3507503 -0.16198963 0.657432 -0.3010646 0.7605373 -0.48503295 0.023138674 0.3229925 0.014583452 -0.1745768 0.740627 -0.44762108 -0.7334919 -0.78609604 0.4374784 0.22549404 -0.68304926 -0.34320125 0.48678097
808 0.3541505 0.4773271 0.031249356 0.1777353 -0.36885667 0.20872165 0.21933946 0.9386158 -0.4769412 -0.66797125 -0.5616413 0.20847885 -0.09039659 0.47489125 0.41652417 -0.08274055 0.078222774 -0.8768324 0.057227436 -0.4258055 -0.23545066 -0.38057116 -0.032254092 -0.63561827 -0.03871804 -0.48066854 -0.036540985 -0.025515774 0.08198129 0.552466 0.09089058 -0.19880633 0.70302474 -0.7935732 0.48586622 -0.7542705 0.068769254 -0.16797222 0.49869463 -0.71699333 -0.0397353 0.06959234 0.28622624 0.4317311 0.5585126 -0.8998975 0.1568086 -0.62960035 -0.18875179 0.16791782 -0.3068497 0.11465602 -0.09497769 0.13368487 -0.2187485 0.6427545 0.38263237 0.036596537 -0.12671703 -0.42962185 0.7818711 0.3970215 -0.0946867 -0.20617321 -0.92462397 0.6173105 0.05840747 -0.482481 0.21633892 0.35459167 0.34205937 -0.012442415 -0.0037247539 -0.523907 -0.89378196 0.1620196 -0.15552257 0.59188443 -0.82769436 0.5392492
330 0.7719174 -0.03617526 -0.06299477 -0.16286696 0.22646806 -0.5815981 0.15771675 0.8561324 -0.77382004 -0.1532259 0.30521128 -0.30040687 -0.4728446 0.20450217 -0.3574832 0.211632 -0.24464452 -0.30114374 0.16131814 -0.101764 0.46761763 0.38212922 0.013246146 -0.21707945 -0.15805908 -0.09429112 0.2542978 0.120883055 0.05175965 0.019640008 0.5790965 -0.03281444 -0.07656144 0.041771248 0.5201851 -0.5288819 -0.2356687 -0.4417118 -0.35145974 0.18948741 -0.17728233 0.038340703 0.18452129 -0.27052274 -0.058690347 -0.35667866 -0.6334324 -0.50908756 -0.057213243 -0.028167428 0.552974 0.054034688 -0.5996722 0.47025776 -0.3450175 -0.42495477 -0.60222965 0.31419158 0.7187989 -0.0027118612 -0.37000906 -0.5990893 -0.4773577 -0.13829157 -0.115814336 0.25000066 -0.047717255 -0.27325788 -0.30814955 0.34248376 0.0018963522 -0.08693803 0.8118467 -0.5266249 0.06446023 0.4559549 0.36316484 0.0075480053 0.49547473 0.26233524
861 0.73629236 0.28011617 -0.20999877 -0.2057298 -0.21905895 0.5058363 0.17023952 -0.45686227 -0.58507425 -0.19037631 0.03729607 0.2766061 0.38005573 0.18290341 0.30091092 -0.051117603 0.3352911 -0.029586501 -0.13016552 0.20202024 0.18045564 0.19369179 0.9197324 -0.7934085 -0.1315262 0.2932648 0.4483523 0.6535434 -0.46617037 0.46204028 0.22063741 -0.28192246 0.31922525 0.27530026 0.6254895 -0.042246513 0.5057842 0.27294713 -0.2896199 -0.4485839 -0.037375897 0.51309305 -0.3116775 0.2721193 -0.5521317 -0.18363369 -0.17365047 -0.22962363 -0.26783067 0.19834645 0.5513383 0.56930417 0.174589 -1.1719053 0.24876383 -0.3632931 -0.27668604 0.2563233 -0.70065236 -0.33498523 0.8530116 -0.15988047 0.5415258 0.6121287 -0.5118241 0.3311705 -0.053892884 -0.6317109 -0.26815766 0.18009709 0.068432815 0.14893667 -0.128257 -0.025756676 0.099423766 -0.11743929 0.416751 0.13383788 -0.25845087 0.07798826
1836 0.33510822 0.079028726 0.14861733 -0.0018982199 0.3935259 0.1454336 0.25312358 -0.012271848 -0.9871136 0.39784235 0.29044992 -0.023605598 -0.43830115 0.85984755 -0.61820126 0.19016469 -0.11110615 0.19006789 -0.2392067 0.029829176 -0.042991556 0.20722014 0.0015042729 0.10573865 -0.0621367 -0.16661517 -0.07037158 0.19190423 -0.018916946 0.46894848 0.18387029 -0.22909345 0.6374561 -0.9540191 -0.07028795 -0.45613605 -0.63140947 0.288711 -0.33583724 -0.42931777 0.39355728 -0.44111103 0.20567226 -0.57491404 -0.0868552 -0.4169334 0.08119603 0.23746452 -0.10533101 0.19684964 0.5860317 0.036163203 -0.12749366 -0.35737982 0.35868612 -0.09900993 -0.15427685 0.21196446 -0.20789461 0.0015270544 0.04415045 0.6620687 -0.30568454 0.4229465 -0.11182659 0.6848302 -0.2460726 -0.87440896 0.60317427 -0.4686195 -0.48469105 -0.079186514 -0.11113593 -0.48785073 0.15712896 0.60387945 -0.63737506 0.33547866 0.2613378 0.025108913
929 -0.030154072 0.19411747 0.06984072 0.36382 0.25338718 -0.80610794 -0.22874835 -0.20709744 -0.1291516 0.16139433 0.049032625 -0.40209204 0.41553518 0.40128133 -0.34667832 -0.0384087 -0.8428503 0.74744153 0.17215414 -0.116744734 0.12565243 -0.25801912 -0.32051373 -0.013814114 0.5201177 -0.06011473 0.01282049 0.2865424 -0.5107187 0.14638957 -0.24188094 -0.25865293 0.17113253 -0.019319339 0.013856988 0.67593265 -0.040050678 -0.11198824 0.6935218 -0.46655133 -0.35452402 0.45462438 0.07694738 -0.29451817 0.3617995 -0.60508835 -0.5535576 0.2712286 -0.5223118 -0.07702423 -0.0762524 0.26369005 -0.177212 -0.059941597 -0.58048654 0.10045605 -0.19428135 0.75225055 -0.58470684 0.059958186 0.703824 -0.4074882 0.35009474 -0.35964325 -0.2190298 0.71509874 -0.10931065 -0.17988701 -0.1067806 0.5259822 -0.09354592 -0.21968625 -0.41410598 -0.42472538 0.09522906 0.05607574 -0.49171254 -0.47656676 0.49058074 -0.3535862
268 0.2766062 -0.593457 -0.23560764 0.5277595 0.6166171 -0.70922464 0.5064098 -0.14308208 -0.24510601 -0.08113907 -0.13918784 0.08656122 0.025101831 0.3547794 0.40450966 0.014448547 -0.81190646 0.20156883 0.4617113 -0.019638624 0.3096951 0.7286608 -0.5328313 -0.07572143 0.4929276 -0.6042529 -0.11520269 0.8588542 -0.23004448 -0.1827745 0.5621121 0.26942664 -0.27629283 0.4674214 0.0983629 0.47525573 0.3362235 0.46792915 -0.22854012 -0.010824179 0.21280144 0.047851864 -0.097180724 0.08949357 0.359226 -0.70409757 -0.013283033 -0.6123719 -0.12396868 0.2279882 -0.5973149 0.019533101 0.22811438 0.009178264 0.2782917 -0.17472976 -0.26404062 0.059829667 0.03053232 -0.004708179 -0.5434059 -0.19912471 0.24753875 0.28801626 -0.31197226 0.09365347 -0.33882278 -0.4723165 0.45348176 -0.21499293 -0.11822876 0.09466942 0.2002 -0.2730669 -0.32330158 0.17506316 0.13217194 0.08869793 -0.4130216 0.11947456
305 0.6647234 -0.6173543 -0.28777155 -0.5537425 0.3370718 0.20952444 -0.31120783 0.95000917 0.7400865 0.18808159 -0.13290659 -0.493537 -0.12525484 -0.22930092 0.033059016 0.3416537 -0.10682437 0.5050941 -0.07676594 0.33252066 -0.20754005 -0.16019963 0.21118423 -0.04779326 -0.6244563 0.36187613 0.15924284 0.5723824 0.32432976 -0.7948876 0.08052778 -0.30288798 -0.08749907 0.15598105 0.36221403 0.012711262 -0.42190048 -0.26440057 0.2162701 0.04980421 -0.097791456 -0.29523918 -0.42631266 -0.13613956 0.124625355 -0.35707802 0.5608883 -0.34338582 0.08905631 -0.1105014 0.6026066 0.34573692 -0.17130129 -0.026090417 -0.9632759 0.18220468 -0.41660997 0.31240058 -0.16669181 0.4824084 0.54831535 -1.4675719e-05 0.29058588 0.3329456 -0.53807086 0.48192337 -0.48105416 -0.48715803 0.08941384 -0.16947894 -0.2294285 -0.07302212 -0.39227974 0.4516275 -0.60835123 0.055536933 -0.045388635 0.19538625 -0.21091117 0.07593813
520 0.38093022 0.22880162 0.14687648 -0.10647467 0.2573818 0.20671664 0.2598938 0.06479661 -0.5036111 0.24579191 0.6011709 -0.1602244 -0.46228737 0.4165128 0.05850247 -0.34532368 0.4399449 0.124194585 -0.09392499 -0.64256734 0.6644058 -0.17350422 0.45295042 0.1598328 -0.13113078 -0.11844494 -0.09402538 -0.1054492 -0.11283959 -0.41690364 0.19840649 0.18649268 0.028954273 0.031796295 0.103725486 -0.00088682136 -0.07654839 -0.15761717 0.5734564 -0.37736773 0.21728882 -0.8662749 -0.6868393 -0.871804 0.11585025 0.13916406 0.45372748 -0.037067205 0.10763751 -0.084211424 -0.45139873 0.3158002 0.05028374 -0.46312508 -0.28210148 0.069051936 -0.17450972 0.49562374 -0.26650316 0.37737527 0.3897241 0.6157075 0.24372433 0.18289971 0.10976607 0.46122858 0.5835969 -0.7328623 0.44613063 -0.0118249515 -0.34933928 0.0951842 0.30998072 -0.42805976 0.061574593 0.43821388 -0.041000172 -0.56388867 -0.031254433 -0.11347616
650 0.40833867 -0.4838585 0.00032780448 -0.40413406 -0.116870254 -0.20919877 -0.221374 -0.104497984 -0.07840728 0.34379143 -0.35679284 0.15400061 0.42428482 0.5545564 0.08127113 -0.25586104 -0.33292487 0.9108322 0.36053735 -0.67791 -0.2201725 0.3344021 -0.06283607 0.43803656 0.21456392 -0.15310237 -0.21494557 0.43129247 -0.04858887 0.4972667 -0.42996722 0.100285605 -0.06664728 0.0063877534 0.36012566 -0.5046524 0.12567034 -0.4980719 -0.1384934 0.20566468 0.0724001 -0.8572837 0.019464916 -0.28168437 0.5712128 -0.6316269 -0.053428218 -0.4247866 0.09259815 -0.06792643 0.20476452 -0.4701754 -0.51503253 0.5494061 -0.3474389 -0.40066832 0.024960615 0.9757781 -1.0097383 -0.25241336 0.6827495 0.052700263 0.6364397 0.46346217 0.17317748 0.31283176 0.05982984 0.5266669 0.04094472 0.37151557 0.090473756 -0.16231154 0.20043598 -0.4336821 -0.016825411 -0.2277489 0.18526159 -0.45531714 -0.030650467 -0.42383102
1368 0.5745685 0.36866513 -0.37381116 0.46557504 0.5433356 -0.43884054 -0.6124656 -0.49217132 0.14416698 -0.195152 -0.10587013 -0.5258988 0.043533213 0.33044982 0.5896503 0.2023403 -0.3030189 0.19106309 -0.13632299 -0.1518804 0.38909033 0.97403705 0.301611 0.14553016 0.9428053 -0.18093425 0.48067638 0.41615984 0.08097461 0.31511816 -0.56341136 -0.0203476 -0.2078517 0.105954364 -0.6343301 0.25767517 -0.3630618 -0.3553808 -0.58175784 -0.0191052 0.22139598 -0.2823999 -1.0212566 -0.394269 0.36747575 -0.13277815 0.30091697 -0.25591198 0.32098663 0.060975626 -0.030696524 0.6304053 0.7877422 -0.2458514 -0.45729426 -0.19541559 0.12288518 0.22351038 -0.2331619 -0.81034714 0.72991896 -0.4873626 0.0034387684 0.17956626 -0.20064826 0.8185938 -0.16723241 -0.5866639 0.7455614 0.17280996 -0.47518063 -0.51934695 0.09737815 0.7853027 -0.18179367 0.4434526 -0.33848947 0.32196832 -0.03886889 0.14535727
761 1.6260027 -0.17420033 -0.14156035 -0.15452707 0.031969868 -0.23767164 -0.6330308 -0.6984029 0.6727411 -0.19074573 -0.3298436 -0.5128559 0.003214895 0.45065513 0.08122179 0.45539805 0.7758355 0.25376987 -0.08841414 0.10556397 0.122595 -0.049856924 -0.017863892 -0.726489 -0.7402095 -0.11187809 0.11509332 0.9478936 0.24464954 0.035152555 -0.053630672 -0.38890496 -0.24551925 0.027219454 -0.13040051 0.68173957 -0.119004846 0.6346494 -0.62680954 0.5064005 -0.09953796 -0.024155067 -0.5033764 0.024384236 0.10429232 -0.35770014 0.91298896 -0.2794537 0.39646724 0.007413501 0.30610555 0.17609492 -0.45862654 -0.8176522 -0.11145684 -0.10629325 0.29150712 -0.18260494 -0.18238279 0.18940526 0.6671669 0.41736835 -0.07564928 0.2637214 0.9123503 0.9261124 -0.084573455 -0.012839679 -0.1023169 0.6347673 -0.12300304 -0.09631616 0.098766625 -0.52774376 -0.21818872 -0.02360208 -0.03693108 0.01520299 -0.47157425 0.44276243
1559 0.423033 -0.10424921 0.023121864 0.15223426 0.62101424 -0.311814 -0.48639446 -0.12449164 -0.27866817 0.16676438 0.29737374 0.24095756 0.04778128 -0.2788176 -0.00144311 -0.39688557 -0.45706314 0.57909477 0.38762403 0.008034929 0.079326026 -0.021633785 0.31164518 0.41623735 -0.37231764 -0.19287056 -0.24092846 0.691441 1.1124134 0.29014426 0.51273733 0.59045017 0.48320377 0.31369454 0.30692446 -0.3873853 -0.602202 0.8059459 0.15149948 -0.3953517 -0.69298846 0.13125394 0.6046124 0.035597008 0.5008605 -0.117047325 0.38985583 -0.66747916 -0.058952462 0.0017799505 0.2490198 0.041215785 -0.03294114 -0.7355749 -0.038884737 0.019004913 -0.100396425 0.14216068 -0.5526851 -0.061589822 0.027649984 -0.46076515 -0.49110144 0.51356286 -0.4925702 0.16034815 0.21760803 -0.416038 -0.39143118 -0.10851711 -0.040139418 0.6566936 -0.14583255 0.3733945 0.20193624 -0.5706023 -0.26025262 -0.015966797 -0.008765671 0.028385459
405 0.1037634 0.04569901 -0.2477255 0.10023609 0.077349536 0.23930645 -0.046968084 0.3125072 -0.40719447 0.76708174 0.34374973 0.4469758 0.2793196 0.40376702 -0.30769262 0.26032814 -0.028558657 0.32269967 -0.13065962 -0.38926247 -0.4227335 -0.20545937 -0.06529632 -0.008127342 -0.6940585 0.3522123 0.40576378 0.51702595 -0.24854703 0.27813646 0.028814657 0.2838913 0.17611977 0.064823195 -0.76575214 0.24112338 -0.09981911 -0.3664235 -0.0072315102 0.39136437 -0.82047236 0.24125616 -0.15819025 0.09326199 0.4561167 -0.47086632 0.15765369 0.33511057 0.689294 0.07052365 -0.91182923 0.08604546 -0.4800732 -0.45460945 -0.06716993 -0.59453523 -0.45164043 -0.19619174 -0.49139422 -0.07213183 0.7379973 0.16817325 0.29876283 0.54128355 -0.95771676 0.2517589 0.11037415 0.05055846 0.13179195 0.81133527 0.4803074 -0.5289992 1.0481967 0.056762844 -0.058081504 0.7013084 0.29709762 -0.14968765 0.58037376 0.77309436
239 0.74339134 0.28842375 0.35033137 0.3857644 -0.4466436 -0.5694802 -0.4489277 -0.17268445 -0.23640454 0.2813918 0.25796205 -0.2079553 0.43664452 -0.6942138 0.30367428 0.22973377 -0.9012412 0.23089717 -0.021679278 -0.4358903 -0.069015875 0.28983662 -0.22588208 -0.5887815 -0.056674354 -0.27869037 0.18782681 0.810835 -0.43927205 0.053397942 0.32092297 -0.51172346 0.089979924 -0.012570743 0.11844365 -0.049191207 0.4147868 0.1071285 0.05486072 0.0894618 -0.987083 -0.19638431 0.007418802 -0.21671282 0.6060964 -0.7989282 -0.33972433 -0.05810892 0.32763332 -0.1585775 0.2789394 0.3790626 0.34344855 -0.18146181 0.47732496 0.76877725 0.16508193 0.075520195 -0.2752977 0.06362733 0.28838828 0.45807734 -0.6868773 1.0502385 -0.1735557 0.17550956 0.14720605 0.05678552 -0.24641106 -0.045839924 0.44855827 0.07353413 0.43667582 0.16674915 0.35530147 -0.024194326 0.08255147 -0.104466654 -0.12203419 -0.23394156
288 0.16310602 -0.10326613 -0.23456468 -0.13056293 0.10919167 -0.40125936 -0.1795802 0.38350335 -0.76440674 -0.36770904 -0.5417805 0.35710695 -0.11207491 0.38099605 -0.12169762 0.17166421 -0.18721233 0.6580837 0.23627175 -0.14765382 -0.120506555 0.37303227 0.30352592 0.03681037 -0.33546844 0.008824977 -0.0033770166 0.7879281 0.49743372 0.31369546 -0.62770844 0.3301336 -0.24427257 0.14709437 0.20547725 -0.74900305 0.39550763 -0.45699787 -0.44480175 -0.54632217 -0.25709063 -0.9076889 -0.07659982 -0.12540804 0.37064263 -0.5883669 -0.13683341 -0.20944245 0.41841203 0.41048828 0.12652692 -0.7030879 -0.39160386 0.7399917 0.21954525 -0.26755333 0.021273546 0.6126488 -0.54569244 -0.5910011 0.31933585 0.30742213 0.4254205 0.28974923 -0.2582625 0.19954716 -0.034189798 0.42452857 0.11793381 0.33742458 0.04048145 0.03124108 -0.008737714 -0.42601672 0.27962226 -0.27455717 0.53080434 -0.06770074 -0.3067911 -0.31916356
652 0.013039544 -0.38499656 -0.26788625 0.018822169 0.22401178 0.049455382 -0.08393222 0.25508556 -0.49921978 0.29397365 0.25681642 0.06702811 0.3091348 0.23248728 0.10462458 -0.2221499 -0.07232143 0.6099102 0.48797855 -0.21116295 0.30610847 -0.82254845 -0.36390755 -0.39929906 -0.2887414 -0.11220361 -0.016362365 0.46420366 -0.45558834 -0.6427068 -0.09353233 0.092391096 0.07729163 0.20311916 -0.51474047 -0.7219624 -0.4238684 0.08317054 0.33300796 -0.40144807 0.09549455 -0.531374 -0.16299577 -0.19178736 0.018266596 0.24322647 0.20785233 -0.24197155 0.6184409 -0.23434438 -0.06796089 0.3722116 0.52026534 -0.19155213 0.17306685 -0.21498325 0.096947886 0.4947105 -0.43929338 0.28993866 0.37125632 0.3640071 0.12486386 0.50363153 0.082642816 0.30558905 -0.120152324 -0.39200795 0.69894904 0.56720257 0.059584815 -0.06342766 0.25312468 0.10494772 0.29879877 -0.24294546 0.67923963 -0.53149265 -0.37430078 -0.40817058
136 0.27946532 0.12755382 -0.063927144 0.27272606 -0.08584349 -0.519734 -0.09899753 0.14694452 -0.12605439 0.9425122 0.2954559 0.2628924 0.014484726 0.08368279 -0.37963387 -0.6676363 0.5646546 -0.32835895 0.24863407 -0.22178566 0.6284785 0.079986095 -0.29272154 -0.09468855 -0.64440364 0.20940965 0.46316046 0.48030192 -0.21411726 0.27896637 -0.2894591 0.5568915 0.14732029 -0.48400593 0.20423959 -0.6637023 0.041412283 -0.19593903 -0.41991872 0.25901386 -0.21852405 0.20003909 -0.19968419 0.34672546 -0.05155672 -0.30218104 0.2076545 0.076177016 -0.47863442 -0.10556048 0.35082552 -0.70999897 0.22612113 -0.39664373 -0.6616362 -0.16627781 -0.30101582 0.27154154 0.10522142 -0.5298982 0.67713296 -0.90028715 0.17377566 0.48499495 -0.07226149 -0.09930261 -0.049386337 -0.1999938 0.5651375 1.1276155 0.27698967 -0.009892602 -0.09403068 0.07199924 0.23462836 0.5429383 -0.044934355 -0.064462334 0.49462092 -0.06860783
1005 0.42374915 -0.22772738 -0.087583035 0.3498567 0.23874345 -0.3385212 0.15631787 0.31414533 -0.139555 0.30347982 0.7633073 -0.34624317 0.6590826 -0.1854562 1.0337974 0.21759884 0.11292663 -0.13706861 0.50456285 -0.1894712 0.39714506 0.30316323 0.013076006 0.045376427 -0.15840693 -0.45885566 0.0028936916 0.45839828 0.18948531 -0.47930112 -0.4994631 -0.4056225 -0.18920091 -0.048874065 0.26946312 -0.4365625 -0.2110544 0.14217342 -0.4533283 -0.021242028 0.8118989 0.22571035 0.000619806 0.10974333 0.1844716 0.2833262 0.5858289 0.13498953 0.22306797 0.311571 0.043947507 0.4810544 0.1250625 0.7436798 -0.17788494 0.20043316 -0.15553828 0.6138766 0.42715526 0.08776706 -0.22371699 -0.15896416 0.07910007 0.10191384 0.14510478 -0.048807118 -0.42584938 -0.3763747 0.3330342 0.7070905 -0.450083 0.38553363 0.42725077 -0.28197214 0.039738555 0.48847848 0.09736147 -0.09707374 -0.24888663 -0.60169417
422 1.5340437 0.15752462 0.31763965 -0.30663475 0.3390135 -0.09534293 0.19471632 0.18237382 -1.3671216 0.94386697 0.49342346 0.11004685 0.44137934 0.5331083 0.1711382 -0.32717454 0.18194915 0.1887148 0.1723518 0.13547166 -0.10305669 -0.066413455 -0.25845522 0.21983184 -0.31562352 0.14343062 -0.31974587 0.13501328 -0.5465504 -0.63450783 0.041057594 0.42497334 -0.82604134 -0.30094275 0.18367793 -0.44651213 -0.11354132 -0.44795313 -0.33069152 -0.5003457 0.22747126 0.94754165 -0.31326008 -0.027238354 -0.20594859 -0.35501158 -0.2430369 0.16794313 -0.032830887 0.62901896 0.4993493 -0.11792874 0.06554618 -0.17734654 -0.10175293 0.096386604 -0.048659638 0.3453724 -0.32657558 -0.26055026 0.181138 -0.16249299 0.4141822 -0.32168967 0.059751537 0.00026614362 -0.05385846 0.3251032 0.43479502 -0.41076812 -0.30105433 0.06565938 0.04151882 0.8995146 -0.16928941 0.24582249 -0.26801994 0.5369796 0.05727379 0.50757986
750 0.6475476 0.22733496 -0.07220232 0.30341336 0.12616332 -0.05411634 0.08576491 -0.20502326 0.09898106 -0.10934927 0.10276198 0.29054314 -0.13692452 0.6298753 -0.14000228 -0.12387577 -1.0015244 -0.028173095 0.42137572 0.081210524 0.06433682 -0.07308826 0.37308034 -0.15562828 0.14928846 0.24054502 0.220197 0.5642922 0.1536678 -0.29474196 0.3474388 0.30674022 0.38196108 0.25110793 0.014662148 0.30668408 0.08294262 -0.2264343 0.060167164 0.13223988 0.38721544 0.7192924 0.23107636 0.6946325 -0.24499166 -0.98086166 -0.23086713 -0.3883576 0.23634848 -0.24250233 -0.07988905 0.27276236 0.2672869 0.2168832 0.0072611286 -0.28900254 -0.049264487 0.43960944 0.11712257 -0.30608985 -0.17555541 0.21029875 0.19500281 -0.70086086 0.09932717 0.56515145 -0.64013433 -0.5296537 0.3081995 0.21478553 -0.49060884 0.025498845 0.5232406 -0.7363702 0.4332166 0.14461 -0.4777723 0.14631684 -0.7320418 -0.23785652
687 0.107022755 -0.07676733 -0.095459305 0.5595428 0.25935096 -0.2564188 0.02922795 -0.3713258 -0.46428347 -0.13622835 0.21379445 -0.27126312 -0.30808184 -0.15782596 -0.061515238 0.5513825 -0.037544765 0.103326485 -0.051541246 -0.07335253 0.37554702 -0.19112016 0.31258762 0.6409642 -0.5342452 0.012893805 0.24863888 0.5926917 -0.5187901 0.5709989 -0.47376552 0.03035861 0.8300295 0.33488145 -0.2387929 -0.2526192 0.102006376 0.32151175 -0.10573403 -0.26119283 0.35387135 0.5189561 0.23122427 0.5237685 0.8425417 -0.12546554 0.3194991 -0.44214 -0.13045666 -0.5103592 0.05412966 -0.20757052 -0.8901324 -0.03724211 -0.28047505 0.61137336 0.24972317 0.46602815 -0.016652748 -0.13218471 0.20397751 -0.028882075 -0.36318696 -0.29584694 0.18787035 -0.75528395 -0.25106594 -0.07466536 0.39544982 0.3003907 0.042722493 -0.020285916 0.122339785 0.06783456 0.08378831 0.14597438 -0.2897305 -0.12837088 -1.2089307 0.3036707
744 0.35005727 -0.27251378 0.13237931 0.4296517 0.61933833 -0.5203414 -0.42897692 -0.6265434 -0.2559089 0.5604428 -0.116461955 0.10042762 0.1864831 0.050902728 -0.13702884 -0.008146489 -0.8070031 0.027799679 0.049712334 0.18470708 0.669706 -0.31860268 -0.44591054 0.69851327 0.7032609 -0.23229116 -0.01314499 0.9040558 0.5449527 0.15810469 0.28710592 0.04328698 0.10060241 0.32979563 0.14340563 0.3060504 -0.2339042 0.2369883 -0.2602652 -0.84231704 -0.21825013 0.13276318 0.06945969 -0.168093 0.3726963 -0.3729645 0.1676355 -0.4139049 -0.31035355 -0.035508856 -0.10301839 0.4819788 0.25044513 0.1731565 0.16869205 0.0012331676 -0.07931074 -0.08893344 -0.37554815 0.019927653 0.27598077 -0.6416228 -0.020819185 -0.10867389 -0.253606 0.26801747 -0.3826397 -0.4279943 -0.030392759 0.3310951 -0.11127026 0.042440925 -0.413142 -0.13972609 0.16238113 -0.09517184 -0.31282628 -0.00700502 0.15732107 0.11253131
987 0.16127738 -0.21707973 -0.23670512 0.5258856 0.3024567 -0.39034715 0.9828123 -0.36742944 -0.30999893 -0.19669473 -0.13955101 -0.045217063 0.41116762 -0.043168254 0.3589684 -0.22389942 -0.65696 0.13952559 0.18038689 -0.38643515 0.4160722 0.6594975 -0.18628491 0.0689419 0.3440902 -0.7899958 -0.27511668 1.022319 -0.26332593 -0.53626037 0.43075317 0.25616333 0.31634206 0.18163945 -0.056923326 0.18977495 0.273684 -0.78256285 0.07928192 -0.3535758 0.027011475 -0.4419097 0.038663838 0.012775107 0.12608519 -0.34641954 0.090077385 -0.22218284 -0.2192587 -0.0037055088 -0.6354537 0.15037338 -0.022252321 0.023278331 0.24219954 0.25425476 0.09578796 -0.26031113 0.19939522 -0.34830624 -0.014194084 -0.018402118 0.31497976 0.19436969 -0.5959225 0.25958672 0.02304306 -0.041219793 -0.30695778 0.331489 0.18223037 -0.29758045 -0.04293462 -0.56333464 -0.1660698 -0.0352351 0.0034232698 0.23413016 0.37221035 0.31628868
666 0.389071 0.41829336 0.46063197 0.4444834 0.0681647 -0.5459661 -0.21881585 0.7704919 -0.5726547 -0.50527984 -0.053283524 0.35858393 1.0273788 0.36620823 0.19296576 0.39470848 -0.44577545 0.31671748 -0.3469947 0.28296646 -0.4082252 0.5080898 0.26249954 0.087698616 0.018157894 0.53941315 0.20839407 0.5549267 -0.1168279 0.111590065 0.7071813 -0.29889056 -0.054340806 0.3818848 0.54690665 -0.36991972 -0.22851594 0.1751243 -0.30818576 -0.1751485 -0.36058766 0.10450593 0.7925435 -0.61867255 0.41087562 -0.6883103 -0.13395922 -0.2195759 0.35061088 -0.15277213 -0.1735668 0.34135795 -0.6988983 0.11218017 -0.15112518 -0.67746747 -0.1632845 0.06853998 0.5620682 0.23878185 0.089962244 0.031607397 -0.34094617 -0.07047218 0.07762067 0.22658233 0.37946597 -0.28490198 0.3918651 -0.37310413 0.69473505 -0.22137481 0.73738563 0.0033679171 -0.60415876 0.2339363 -0.54122937 -0.16639785 0.36260465 -0.79556
447 0.4525701 -0.37627146 0.0816025 -0.76827574 0.3875603 -0.16901702 -0.13897598 0.24590091 0.15984216 0.023774458 0.01526415 -0.3743891 -0.082732126 0.03232286 -0.23948957 0.053785697 -0.2638328 0.40474415 0.4840368 -0.60021186 -0.23726586 0.1564482 0.2529883 0.55406564 -1.0113204 -0.28350058 -0.14486286 0.99867517 0.015698796 0.480531 -0.3605307 -0.29865107 -0.03353665 -0.058886245 0.0040374855 -0.28558657 0.35768008 -0.6692025 0.19326712 -0.020230139 0.29349524 -0.317 0.4133835 0.11301108 0.27173874 -1.2726454 -0.02457637 -0.25808367 -0.31856924 0.08435837 0.60438454 0.1015338 -0.3355034 0.41266716 -0.053356737 -0.5450995 -0.5932147 0.4382913 -0.7503185 -0.46734834 -0.03277878 -0.13129236 1.0378193 -0.084439024 -0.053430088 0.0797282 0.38565138 0.24293397 -0.2310308 0.5782673 -0.55665463 -0.30775172 0.3283795 0.057732016 0.068722256 -0.4897838 -0.24284925 -0.73190475 0.48572326 0.24602623
1128 0.5431312 0.18968803 -0.43524948 0.38615718 -0.25722912 -0.10230463 -0.5061011 0.66638964 -0.69616544 -0.6040698 0.4104148 -0.7536619 0.37748948 0.05955929 0.2657345 0.02956717 -0.28851274 -0.1915782 -0.6840044 0.83834654 0.08232332 0.41722962 0.4735723 0.12378864 -0.19985597 -0.45684984 0.10242402 0.3458887 -0.15326896 -0.43521944 -0.73835146 0.53288555 1.3807983 -0.26707846 -0.8412406 -0.9703635 0.10249002 0.50332594 0.4200563 -0.42633903 -0.12917884 0.1747957 0.024627175 0.06614989 0.21093948 -0.15087375 1.0213356 -0.12470194 -0.21506621 -0.13238731 -0.8325072 0.44079062 0.021524495 -0.17859171 -0.68059635 -0.6691606 -0.43457252 0.98534656 -0.3067713 -0.2626203 -0.44456115 -0.33925855 -0.01407849 -0.023083296 0.57630646 -0.44681668 0.25244614 -0.09595119 0.13925007 -0.2193958 0.30859193 -0.24018885 0.47868922 0.1535754 0.0304753 -0.33255038 -0.30147538 0.31527802 -0.18148296 0.5015132
154 0.26529497 -0.081322774 -0.33438045 -0.58377135 -0.44995013 -0.20990884 0.4154835 -0.09640057 0.16081813 0.7325197 -0.20389545 0.16913171 0.108136654 -0.094935045 0.80724365 0.13257721 0.091004655 -0.051232185 -0.5695279 -0.9188267 0.89091504 0.2496675 -0.0062156017 -0.38009378 -0.53293484 -0.08912347 0.22417514 -0.15807317 0.23979288 -0.6918721 -0.52791846 0.34958792 -0.13280109 -0.35590538 0.07421071 0.21937509 0.14045541 0.2991362 0.533322 -0.042544995 0.48138237 -0.5072682 -0.19970733 -0.49161774 0.6098765 -0.5610926 0.2694321 -0.059447125 0.11516272 -0.27225074 0.057728652 0.35992956 -0.1986681 -0.23369274 -0.905233 -0.43383688 0.83634555 0.61262023 -0.06565976 -0.32078063 0.0009138677 0.21942334 -0.4106589 -0.12523097 -0.32319504 0.367665 -0.39318964 -1.0325885 0.6190417 -0.0485302 -0.09082514 -0.5930933 0.21708576 0.03048229 -0.5069382 0.4215038 -0.4082444 -0.20180874 -0.31762272 -0.0044659628
1379 0.5969144 0.73579437 -0.5250147 0.2586179 0.74257785 0.550871 0.044312015 -0.23191345 -0.21110725 -0.22807036 0.26712155 -0.354225 -0.13719067 -0.5246507 -0.07510374 0.015426319 0.05741761 0.07992368 0.10343397 -0.4383757 0.07705803 0.0010827124 -0.18821461 -0.32493073 0.26958743 -0.096919365 0.71461517 0.49377984 -0.57411116 0.17103389 0.56028014 0.17190322 -0.31748158 -0.021067593 0.1495068 -0.26682973 -0.5802867 0.114456065 -0.3675865 -0.17237544 -0.25162396 -0.33535835 0.043466397 -0.12549514 -0.32927138 0.10714141 0.064564265 -0.35481057 0.8454545 0.683247 0.42257637 0.28157833 -0.71778095 -0.096259914 -0.058460873 -0.015477111 0.044655122 0.84615785 -0.6101757 -1.4972425 0.11783404 -0.053616717 0.2752207 -0.37876356 -0.1450401 0.45299536 -0.26258996 -0.026496919 0.05423108 0.14373542 0.34580842 0.05153663 0.25494707 0.7872104 -0.281383 -0.05125378 -0.04479188 0.32756335 -0.64806527 0.15143631
704 1.0711821 0.14678377 -0.56404513 -0.3011962 0.5027873 0.23739605 -0.17560054 -0.14096221 -0.41285113 -0.3525961 0.45594975 -0.41467142 0.46727768 -0.7932663 -0.1435236 -0.32933265 -0.21259436 -0.18266702 0.007865295 0.18837036 -0.25364628 0.07096208 0.22047082 -0.6278576 -0.03225159 -0.06790151 -0.018441772 0.22487478 -0.11155503 -0.29773435 0.35941502 0.095181935 0.13699445 -0.03248882 0.39098594 0.18230288 0.62311 -0.21216485 -0.18929099 -0.49305362 0.14078766 0.101670004 -0.20806246 -0.10800481 0.064132236 -0.40819305 0.31080386 -0.5776324 0.29528058 0.288892 0.17155708 0.37562442 -0.17147939 -1.1586347 -0.113479555 -0.24382983 0.389054 -0.051286694 -0.7556571 -0.020325877 0.43698087 -0.07684973 0.16628139 -0.22444226 0.26441956 0.8405637 -0.2007112 -0.66171867 -0.3043546 0.41604048 -0.20308268 0.08344383 0.18611191 0.54132354 0.36430004 0.38474208 0.87546563 0.12785175 -0.41503167 -0.6544513
95 0.53672147 0.085323654 -0.3721919 0.11338564 0.5632396 -0.25145105 -0.46319067 -0.43198174 -0.52501667 -0.28597966 0.3016604 0.08070438 0.24317369 -0.27790895 0.5894906 0.36864588 -0.21336351 -0.17386648 0.47044498 0.8138231 -0.022253137 -0.22560808 0.39909226 -0.7250567 0.2476798 0.14583369 -0.4646267 0.18581153 0.11024417 0.07769431 -0.16769756 -0.31732562 -0.5273931 -0.05594147 0.11200063 0.064758964 -0.10040413 -0.20762496 0.28735504 0.26597184 -0.62349564 -0.32960126 0.79472065 -0.78281206 0.045685932 -0.42714524 0.23138806 -0.6811307 -0.233805 0.13929152 0.38145244 -0.13342191 -0.13898267 -0.12473131 -0.025819544 1.1029863 -0.21844494 0.48941782 -0.57769257 -0.80777764 0.19342656 -0.031927988 -0.06796379 0.6319576 -0.13146056 -0.46327236 0.6580887 -0.09992962 0.46700802 0.658818 0.22041658 -0.5348636 -0.064617746 -0.17401926 0.12262535 0.6660615 -0.49007192 0.29300138 0.0052395426 0.13178578
514 0.3383217 0.022379639 -0.15320668 -0.34347016 -0.26590055 -0.57147104 -0.028955178 -0.4071384 0.066618316 0.33678937 -0.22227024 0.060184725 0.071376644 -0.25355077 -0.37876508 -0.3197192 -0.122642666 0.29675078 0.30751404 -0.17351103 0.85121405 0.08153777 0.54280186 0.07934881 -0.018861044 -0.34019583 -0.049341477 -0.04647238 -0.5519212 -0.26489544 0.27771533 0.2703321 0.16466911 -0.31483632 0.25900206 0.027211033 0.0061676716 -0.025389867 0.2323739 -0.1849294 0.04779414 -0.13840233 0.28783646 -0.7036339 0.5609457 -0.12657024 0.24738225 -0.4893944 0.10692418 0.04318604 0.183888 0.4877926 0.41530856 -0.28202662 0.19542979 -0.06024924 -0.5796442 0.41874313 0.038871743 0.35893288 0.34028485 0.58573353 -0.7974427 0.48118004 -0.009761474 0.16849212 0.01954923 0.2162056 -0.07422372 -0.1688135 0.027800506 -0.67721033 0.32735446 0.39187127 0.009612502 0.010647432 0.55746305 0.08674799 -0.06210755 0.1636095
301 0.741311 -0.74107695 -0.42435065 -0.07243853 0.20501676 -0.92405325 -0.3380221 0.11432835 -0.3505327 -0.28267255 0.12886922 -0.6023385 0.03997268 0.27056324 -0.6399425 -0.13004427 0.14838472 -0.06659294 -0.030858831 -0.29012537 0.4521767 -0.709957 -0.1091306 -0.36758986 0.032558773 0.05082605 0.45861113 -0.22901906 -0.45319575 -0.22975461 -0.018639505 -0.33038217 -0.1438968 0.24432655 0.41657013 -0.46611446 0.061135285 -0.726744 -0.102789514 0.17023933 -0.0425345 0.18668336 0.311601 0.20654371 0.55582 -0.32702425 -0.52861273 -0.4630664 -0.15988126 -0.604119 0.4797197 -0.33203632 -1.4073681 -0.4370597 0.115935214 0.22437403 0.24234939 0.2289106 -0.033230353 -0.12255364 -0.03939632 -0.3703894 -0.2014392 0.57742304 -0.31805938 -0.16537708 -0.37878004 -0.25827274 0.61112833 0.31841725 0.30482492 -0.49202698 -0.1370383 -0.29884565 0.10094349 0.44876483 -0.68852794 -0.3205838 0.13599102 -0.09108625
285 -0.16026412 0.13200401 -0.115449056 0.2805364 0.12697092 -0.75144696 0.48007303 0.28976193 -0.45583424 0.050487895 -0.05477118 -0.18273489 0.22960848 -0.16427211 0.2301123 -0.2277923 -0.3921229 -0.017458113 0.004175833 0.16085261 0.28697678 0.20796074 1.0223187 0.309092 -0.23179805 -0.5945899 0.26185733 0.6353858 0.134543 0.04983937 -0.053208027 0.27418947 -0.31408682 0.056139056 -0.04616252 -0.4653432 0.4164886 0.2695707 -0.31239384 -0.53345585 -0.38894004 -0.7605857 -0.40602633 -0.23067872 0.45737088 -0.48524016 -0.3694014 0.44809693 0.8769 0.2909984 0.08669566 -0.04869113 -0.4145855 0.58263946 0.8107807 0.17097464 -0.0050366507 0.59363234 -0.5277761 -0.4167708 0.16019323 -0.08772451 -0.10404022 -0.4093303 -0.24835885 -0.1683827 0.15568148 -0.24803022 -0.5870898 0.4646814 0.08931828 -0.112896256 0.5604642 -0.8017867 0.46893975 0.23979151 0.4221511 0.4584758 -0.5365892 -0.21069361
892 0.122257106 0.16090389 -0.15989651 0.48787552 0.38988087 -0.25951645 -0.5791911 0.5957177 -0.086328335 -0.5691702 0.18331456 -0.62632155 0.5514823 -0.2664071 -0.3011023 -0.29675448 0.06071026 -0.4752846 0.1507761 -0.33732727 -0.5486061 0.07609088 -0.31279716 -0.18940829 0.09089675 -0.2369229 0.024607765 0.973406 -0.76377535 -0.3868442 0.42385346 0.19294058 0.046401806 -0.0078194635 0.3011133 -0.6028239 0.09770923 -0.093724705 0.33507833 -0.12982708 -0.47330353 -0.347944 0.5332574 -0.7040774 -0.19118842 0.07890789 -0.6981921 0.017899169 0.03916869 -0.4563036 -0.32816914 0.051796336 -0.63757443 -0.18376753 -0.2197655 -0.18370648 -0.17558898 0.7338112 0.34911206 0.21062827 0.13227554 0.23573595 -0.4458841 -0.2824074 -0.09556455 0.09960543 -0.3087449 -0.07755323 0.48818272 -0.07951172 -0.023590153 -0.24540949 0.66827816 -0.16906089 -0.07148296 0.2900401 -0.50550467 0.053898126 -0.7231904 0.39731488
476 0.011797616 -0.10796407 -0.15029395 0.342433 0.349815 -0.4258273 -0.044956006 0.0021208355 -0.47936815 0.52526957 0.058987085 -0.3301502 -0.32686374 0.48903352 -0.1740844 -0.26931274 -0.27786016 0.053792354 -0.08009488 -0.6965559 0.08726809 0.43540582 0.25547522 -0.5509315 -0.24328272 0.76632637 -0.071373045 0.004265721 -0.37048456 -0.19545597 0.18312638 0.07784953 -0.26221624 0.29094386 0.50897914 -0.20189409 0.6734496 0.3014573 0.14939336 0.16708094 -0.013467657 -0.67891407 0.2875458 0.3025012 0.042483557 -0.55403143 1.2855681 -0.12081332 -0.071955346 0.22071569 -0.06792774 0.6436413 0.35893434 -0.66399616 -0.45613396 -0.041441713 -0.07557977 0.12319217 -0.02991539 -0.5451079 0.35349366 0.3341156 -0.06915393 -0.57999253 0.4760945 -0.496166 0.22818357 -0.15380354 0.9026018 0.20074907 0.48530483 0.0066887755 0.15979217 0.05258037 -0.14139664 0.5650053 0.30144137 0.2658779 0.23664753 0.13492952
509 0.43717915 0.2630929 -0.5473667 -0.38476628 0.3718569 0.20106445 0.43596402 0.17920743 -0.37374604 0.18132539 0.0066318307 -0.08862937 -0.010450663 0.39351436 0.5008212 -0.19253285 -0.40696046 -0.067203246 0.18463355 -0.5662074 0.7901403 -0.14717166 0.66829365 -0.22338845 -0.37739602 0.3171417 0.2957246 0.60154283 -0.64334685 -0.5422755 -0.114264406 0.8091802 0.08954365 -0.02693105 0.07723135 -0.30493695 0.14018624 0.26343185 -0.09887652 -0.04812804 -0.06739841 -0.10297923 -0.0766005 -0.56315553 0.3654226 -0.29880455 0.14295675 -0.4049679 -0.283493 -0.1474304 0.34272534 0.5279809 0.32675195 -0.0021606116 0.87117964 -0.39232296 0.1824896 -0.06808411 -0.12742108 0.23671849 0.4194481 0.072387524 0.22190231 0.042888705 0.07708901 -0.06881295 0.32984397 0.09639835 -0.3896658 -0.10999944 -0.01884656 -0.380811 -0.6587944 -0.06450811 -0.30710438 0.79218954 -0.090712175 0.30526787 0.29568878 -0.50115776
1197 -0.025048615 0.46256232 -0.22814703 0.12442661 0.44782913 -0.35418943 -0.09204653 0.04304037 -0.11398212 -0.72167814 0.0017067874 -0.18144569 -0.45496732 0.58469146 0.19210435 0.5485253 -0.25224617 0.2272716 0.024483582 0.016320447 0.29557058 0.6614086 -0.1561918 0.40927443 0.6146888 -0.34712788 0.4435844 0.5042559 0.11348774 0.46421447 -0.26506007 0.14021698 -0.6999358 -0.088636845 -0.8135838 0.15360594 -0.51984847 -0.51544434 -0.5210831 0.27281973 0.16466281 0.18545632 -0.53390896 -0.90906024 0.48263225 -0.1507156 0.22654204 -0.6978365 0.24450935 -0.12277701 0.04332797 -0.036297616 0.35677028 -0.5859126 -0.48131436 -0.18853126 -0.5486353 0.26625702 -0.10349199 -0.698987 0.67779994 0.14266655 0.5126532 0.30489558 -0.3219372 1.4402274 -0.7285029 0.009156019 0.41111878 0.5093002 0.20846613 -0.70344377 0.011006146 0.5463581 0.072186925 0.43067232 -0.3331348 0.23020962 -0.34699228 0.28470707
1064 0.41923428 0.98520136 -0.40398717 0.027231814 -0.25514373 0.13988337 -0.0010030931 -0.2442463 -0.32438138 0.4464969 0.24075063 -0.3197557 0.28757057 0.48232108 0.24597158 0.017767953 0.011801601 0.2959034 0.3067864 -0.43346453 0.7957272 -0.24199083 0.38708597 0.1396689 -0.93082416 0.2692604 0.040327463 -0.10796221 -0.4960926 -0.05166862 -0.25918755 0.6944479 -0.258221 0.56645954 0.5156226 0.16254108 -0.078666754 0.033482578 0.39664716 -0.25881743 -0.32761127 -0.47615007 -0.3946506 -0.4630569 -0.24630563 -0.1529728 0.23497704 -0.013930234 -0.65960926 -0.122320704 0.00032077896 0.31845886 0.24136874 -0.7037933 0.00056969473 0.25528532 -0.10623171 -0.102275215 -0.34079945 -0.040163334 -0.23344839 0.092179865 -0.030962009 0.04434919 -0.04713354 0.34066916 -0.18066372 -0.8781741 0.49034983 0.21210955 0.18436128 -0.018439708 0.2927979 0.0429085 0.039220907 0.500897 0.29572886 0.1463589 -0.19159734 -0.11003617
1845 0.71548516 0.55084777 -0.20635332 -0.70892155 0.4573285 -1.0423024 0.18580557 -0.22492683 0.042675164 -0.047051653 0.016593358 -0.18810704 -0.09019508 -0.031375952 0.08930388 -0.30299821 0.19093381 -0.15485853 -0.4152662 -0.48489267 0.7044556 0.53284186 0.036781177 -0.37187234 -0.6100337 -0.98547554 0.5076692 -0.35942617 0.033602573 0.49048457 -0.15358305 -0.2749551 0.29093218 0.42491168 -0.44016373 -0.5288186 -0.22319672 -0.53512883 0.2528251 0.2560282 -0.76111966 -0.3127035 -0.29615653 -0.35775265 -0.5343847 -0.86027867 0.25542757 0.106194384 -0.28733966 -0.27977464 -0.23764095 -0.56008494 0.0809996 -0.23603204 -0.062883615 -0.4802287 -0.56951666 0.33268785 0.24742065 -0.286274 0.5030379 -0.67235154 -0.16847308 0.088074885 0.13075697 -0.5290674 -0.57129514 -0.22466557 0.5927846 0.44187504 -0.14388183 0.21404298 -0.17009689 -0.28827173 0.44328985 0.021586318 -0.35695362 0.3969161 0.3234759 -0.07083329
741 0.6074049 -0.08394102 -0.15058038 -0.31618693 0.0833015 -0.6595128 -1.163656 0.19012766 -0.285459 0.22188848 0.33870798 0.4350253 0.22532019 0.23137468 -0.853263 0.4336936 -0.6254724 -0.19684285 0.17743726 0.32911262 0.18640219 0.7245257 0.08779437 0.08993335 0.3758918 -0.07992741 0.3648485 -0.06267939 0.16514315 0.3005266 0.3393784 0.56647366 -0.050382014 -0.3556192 0.4281456 -0.6914787 -0.4704981 0.35841334 -0.11556347 -0.8129602 -0.15795061 -0.19724093 -0.2600127 0.12999834 0.2455565 -0.49106973 -0.1856431 -0.11149536 -0.44326377 -0.1869729 -0.318975 -0.3948 -0.2180729 0.5423717 -0.07083578 0.65173715 -0.98963964 -0.5282938 -0.24479146 0.9631341 0.4065311 -0.5189179 0.6572899 -0.46446604 -0.16620821 0.1520763 -0.32752103 -0.06560802 0.37267694 0.47836688 -0.24680805 -0.5005611 0.32433757 0.119176604 -0.42623696 0.32954466 -0.3037925 -0.3266018 -0.447696 -0.12615474
210 0.5647563 0.0808831 -1.0205915 -0.521118 0.046692085 -0.20501305 -0.41563612 0.5317926 -0.14740823 0.20306613 0.3731122 -0.30022457 -0.39051023 -0.17392348 -0.42615795 -0.15082908 -0.89819455 0.34373125 -0.19324897 0.20073198 0.09857882 -0.20997433 0.21763937 -0.13920274 -0.7563085 -0.24265067 -0.7698732 0.4444686 -0.75884295 -0.29588917 1.0597303 -0.096142605 -0.014357323 -0.61449146 0.12161086 0.096002415 0.29801974 0.024618166 0.011135484 -0.70406723 0.0485807 -0.36843267 -0.62654316 0.05745685 0.024619723 -0.002480415 0.37412357 0.10590943 -0.3882641 0.36820155 0.16700062 0.08225525 0.44247383 0.4481623 0.361407 0.2853443 -0.12928833 0.2631445 -0.45013902 -0.53896904 0.70320755 0.78697187 0.5418089 0.35997775 -0.4820391 -0.40931252 -0.054261003 0.058542702 0.2804842 -0.15745313 0.38982195 0.03784146 0.81786335 0.5774652 -0.24926779 -0.23052126 -0.9797213 0.49025154 -0.1166389 0.2867063
91 1.0304176 0.31605786 -0.20769934 -0.52636063 -0.008313369 -0.4566587 -0.40503162 0.5408785 -0.17985502 -0.41485196 -0.97286814 0.15732759 0.12156589 0.212476 1.0590478 -0.44127023 0.12509508 0.14118008 -0.436461 0.09736182 -0.5317519 0.37926877 0.040459637 -0.82720566 0.4721337 0.40534356 0.06144667 -0.18087398 -0.3947002 0.387914 -0.04235069 -0.035207808 0.6359277 0.4451426 0.23798497 -0.11418826 0.18227844 -0.13689932 0.0026389274 -0.76907855 -0.023615753 0.21349028 -0.022632299 -0.5659103 0.29508835 -0.024669446 0.20860186 0.45512983 0.7913306 -0.05798705 0.66970915 0.24878469 0.02768948 -0.33154765 -0.32691163 0.30529523 -0.52284575 0.28095 0.1764155 -0.66977173 0.6004716 -0.10962886 0.36818942 0.5957193 -0.55707955 0.053402986 0.25238013 -0.7486754 0.081810884 0.05192578 -0.13857988 -0.06053397 -0.117022194 -0.61733866 0.539143 0.2938317 -0.3211265 -0.3580489 -0.8830198 0.0763591
326 0.56532556 0.5008111 -0.20038898 -0.09529439 -0.034227982 -0.9530816 -0.07259716 0.45272002 -1.0131347 -0.09278253 0.3134514 0.34796354 -0.10580828 -0.23257096 -0.01409397 0.44093934 -0.49029437 -0.13834536 -0.3922235 0.08753064 0.30075553 0.4481821 0.53736275 0.017107788 -0.06263244 0.33174402 0.50490975 0.39298907 0.11376873 -0.026633617 -0.0047354726 0.13459922 -0.47758195 -0.36909822 0.23239836 -0.22563802 -0.26251382 -0.4197539 -0.24567623 0.029621987 -0.25545803 -0.34430072 0.09047924 -0.24984074 0.034453124 -0.5342484 -0.3348888 0.10337855 0.48865837 -0.078852296 0.31644887 0.11519583 -0.91408145 0.6301214 0.6073891 -0.34571537 0.1683971 0.49631023 0.45405552 0.05750698 0.022285894 -0.9484749 -0.45921606 -0.071399644 -0.14169234 0.1988076 -0.6619165 -0.22539027 -0.16654436 0.033731055 -0.30185318 0.040766917 -0.11119183 -0.57138926 -0.27042258 0.0230265 0.9309959 -0.14691408 -0.39359185 0.04883299
1765 -0.38831005 0.18732308 -0.019035084 -0.25129297 0.8095088 -0.41491675 0.21507898 0.111973256 0.26449323 -0.15384407 0.38821036 -0.75857234 0.6963917 0.2921444 -0.0044051185 -0.2188884 -0.13199751 0.16567855 -0.4251817 0.08888063 -0.10937026 0.5015142 0.061011504 -0.39824465 -0.08976372 0.08962099 0.0556033 1.0302162 -0.05945962 -0.37930092 -0.04928747 -0.09520486 0.002448691 -0.57489604 0.103452936 -0.62141275 -0.20393188 0.20790413 -0.049682636 -0.11705432 0.104080684 0.083261445 0.60618496 0.1220948 -0.10235872 0.10943193 -0.01599555 0.12775134 -0.017308198 -0.14524429 0.100949936 0.6929475 -0.450304 0.22574139 -0.2484495 0.14999256 -0.4636403 -0.038546607 -0.31952298 0.4143553 0.619695 -0.0082977405 -0.16424765 0.08091727 -0.052850634 0.17669629 -0.037419006 0.43819425 0.2560884 0.24220125 -0.2788286 0.06753723 0.77282435 0.09135865 0.51170117 0.8991034 -0.4191275 -0.03879059 -0.812388 0.4483759
1190 0.8445385 0.09051641 -0.63546675 0.7205278 0.22387573 -0.052039262 -0.11417441 -0.57891995 0.21660428 -0.3022389 0.10657181 0.15342431 -0.11872168 0.4821765 0.26710534 -0.06475367 -0.7753849 0.3051285 -0.29533157 0.40428686 0.50564116 -0.42027184 0.45492262 -0.3260283 -0.1911522 0.82292056 -0.22451372 0.4424858 0.43417895 -0.6945992 -0.26970458 -0.38369733 0.64434505 -0.25923952 0.12398915 0.027514234 -0.5638074 0.26975313 0.20951596 -0.26631722 0.11305423 -0.29074165 0.22080395 0.5749019 -0.123235375 -0.79288125 -0.2607774 -0.2122323 0.3028187 -0.42059535 0.16873084 -0.63686293 0.68197787 -0.49371943 -0.1490706 -0.08205843 -0.4100165 0.15472643 -0.18630652 -0.24838397 -0.30225205 -0.36930424 -0.2151631 -0.79496247 -0.09271798 0.14068073 -0.90495837 0.45291942 -0.18779758 -0.60840917 -0.29887325 -0.65494215 0.6687377 -0.8888306 -0.13109636 0.37161726 -0.4848868 -0.2753251 -0.53022605 0.15961315
32 0.511611 -0.10576732 -0.4500754 0.021032743 -0.7382118 0.01724568 -0.07008173 -0.78269583 -0.55493826 -0.09766218 -0.050786242 0.19260485 -0.5815359 0.5162834 0.3591048 0.07708212 -0.33835417 0.19351478 0.23416448 -0.089471355 -0.17967275 0.15880157 0.3030763 0.043051977 -0.6764188 0.08117101 0.44322667 0.9872155 -0.25254524 -0.20477885 0.7681702 -0.51341325 -0.7534543 -0.22457951 0.024039136 0.14763258 0.22955747 0.17501627 -0.1486842 -0.35435152 -0.08839984 0.084750764 0.39749455 -0.014923293 0.65109676 0.3354448 0.07528117 -0.1572674 -0.6294448 0.31475678 0.45990583 0.42713577 0.30691501 -0.35216597 -0.1330462 -0.5170029 -0.6783766 0.7710938 0.5474001 0.10255923 0.979296 -0.07248897 -0.2126584 0.4169954 0.1804655 -0.21186744 -0.12591563 0.28302798 0.1009987 1.0009676 -0.5098288 -0.49903545 0.48204622 -0.11314616 -0.1803961 -0.8320034 0.0039435965 0.20585375 -0.06607575 0.2296154
1841 -0.12241774 0.059563473 0.49756792 -0.34711874 0.3634735 -0.8941105 0.18809679 -0.067524865 0.07368501 -0.044244204 1.1213478 0.234319 0.3879925 0.4493617 -0.17576404 0.06785861 -0.4743185 0.34858912 -0.06476439 -0.35248873 -0.30757084 -0.028917136 0.43384272 -0.17830798 -0.73072076 0.45421183 0.5856794 0.39822683 -0.09529243 0.16714232 -0.57876104 -1.1259876 0.5962963 0.34998065 0.15039325 -0.57567555 -0.5280741 0.14111038 -0.23916633 0.25058234 -0.02648071 0.3179037 0.113345824 -0.24181618 0.29931548 -0.84387743 0.43712097 -0.6222422 -0.85939 1.1053602 0.18952693 0.19903837 -0.4110384 0.1895696 0.45563713 0.5309077 -0.8773777 1.008897 0.052579734 -0.12791152 0.5194174 -0.09668702 0.52526546 0.48906133 0.019132184 -0.13503602 0.09344474 0.12802945 -0.5011885 -0.5793946 0.266043 0.17358755 0.28504845 0.13388722 -0.6760099 0.09550284 -0.12976667 -0.5439161 0.038297907 0.42000127
439 0.52041 0.29605228 -0.08512246 -0.20001547 0.30954942 -0.24861719 -0.26191112 -0.06336315 -0.68862015 0.37529776 -0.52151763 0.24972117 0.015918981 -0.36430684 0.7695367 0.5488099 -0.16331188 -0.5535175 0.40442705 0.04829498 -0.030998085 -0.47845745 0.13725486 -1.3334262 0.7014136 0.23362611 0.04148987 0.28137755 0.26075166 -0.090634055 -0.23460898 -0.34768847 0.100570574 -0.35101745 -0.20301652 -0.017245645 -0.3416181 -0.13541983 0.073813334 -0.33685082 -0.5550322 0.33973572 0.2622196 -0.6078142 0.115024924 -0.7826629 0.40346006 -0.25694063 -0.48496097 -0.48053917 0.37904048 0.083433636 -0.06528958 0.16563793 -0.062867224 0.9377794 -0.041448087 0.225858 -0.4006887 -0.8559854 0.27988237 -0.08197173 -0.41350472 0.7738985 -0.53254676 -0.44616643 0.31077293 0.050041925 0.938056 0.42064655 -0.09250674 0.64521855 0.07195546 -0.29697675 0.42529562 0.8452859 -0.61684453 0.17096436 -0.335822 0.18575625
1335 0.24862193 0.08617058 -0.111819714 0.17467763 0.47109473 -0.30983004 0.40427536 -0.041915707 -0.020858841 0.34094152 0.08548967 -0.11384263 -0.28146318 0.060213055 0.5027446 -0.64538264 -0.12751058 0.3479354 0.21336718 -0.62014395 -0.46089625 0.23395559 0.49797934 -0.57485175 -0.5975935 0.24642873 -0.23722821 0.013457953 -0.29564497 -0.16981624 0.2737659 0.5113817 0.20292948 0.5876826 0.18273409 0.21885768 -0.2041533 0.27780235 -0.28989145 -0.07317364 0.35390958 -0.5768332 -0.61854625 -0.29954222 0.5144127 -0.33156216 0.6368226 0.90145373 -0.04358887 -0.15122877 -0.3237588 0.8085546 -0.9049606 -0.4556391 0.121900894 0.23759612 -0.42071843 -0.34427628 -0.12948774 -0.64249414 0.3072147 -0.34443393 0.04393134 -0.17467761 0.07592226 0.023230342 0.07078064 0.08439838 0.41549203 0.34379032 -0.32766 0.0647551 0.34628236 0.26892355 0.15505104 -0.07258836 0.32242364 -0.051232055 -0.07280466 0.0027759022
1369 0.5300455 0.62559247 -0.45663905 0.3158194 0.4763361 -0.59484696 -0.7047067 -0.7098619 -0.10513029 0.045953408 -0.07152174 -0.5540538 -0.4333275 0.4611701 0.16817106 -0.14134398 0.17740881 -0.40566653 -0.3470765 -0.50306106 0.17288765 0.9537394 -0.002698614 0.20651194 0.8203649 -0.082635134 0.9330761 0.8157183 -0.346602 0.00793401 -0.93369883 0.022174375 -0.18353312 -0.13635533 -0.50098544 0.065319054 -0.99372154 -0.548192 -0.6151349 -0.12544246 0.5828678 -0.3379777 -0.9367644 -0.014865354 0.42710838 -0.46426314 0.052441843 -0.78963494 0.33521 0.34695628 -0.29551116 0.6978601 0.5936945 0.032419864 -0.34441566 -0.9192254 0.29981452 -0.14228767 -0.30046964 -1.1945807 0.74418753 -0.41181275 -0.17930311 0.1830631 -0.6222334 0.42273065 -0.31591785 -0.19860327 0.4192328 -0.5249129 -0.4085512 -0.8681944 0.04240511 0.9027264 -0.2837566 0.57347083 -0.21737225 0.01882464 -0.26723364 -0.0007975224
954 0.7180669 0.45647192 -0.26945823 0.104661815 -0.6867959 0.55088127 -0.1747181 -0.26919913 0.2988442 0.9244875 0.40585697 0.012258967 -0.21867277 0.4665018 0.31389564 0.12945919 -0.16341963 -0.117483966 -0.33606917 -0.1488529 0.095617056 0.096077815 0.7714242 0.39711666 -0.020105515 -0.0875291 0.52940726 0.9544562 -0.18698427 -0.062002007 0.4355406 -0.513084 0.6628064 -0.66881275 -0.40017027 -0.28782144 0.04427946 -0.31564772 -0.12974295 -0.16138746 0.29702726 -0.6603244 0.46954545 0.60913414 0.50153506 -0.7383578 -0.021311684 -0.54757655 0.46162176 0.28881913 -0.3069748 -0.48983106 -0.27515456 0.22358169 -0.2982816 -0.025118323 -0.66161597 -0.50881684 0.6544376 -0.25987175 0.06714729 -0.6297043 0.40118966 0.20337127 0.18382838 -0.06820531 -0.7472088 0.4083966 0.177765 0.46710965 0.09161972 -0.050883766 0.37208757 0.21130666 0.21673688 0.5343562 0.2179262 -0.5318373 0.3839083 -0.019661574
860 0.8649878 0.5340638 -0.101402916 0.022775248 -0.9515988 -0.07701979 -0.050312284 -0.8531774 -0.87712544 0.2428896 0.21678197 0.020433439 -0.06992737 -0.29471517 -0.6633008 -0.09468334 -0.3800109 0.554973 -0.4899839 0.26516446 -0.19927822 0.32405442 -0.13861871 -0.6890007 0.3216363 -0.20475349 -0.28514904 0.10712455 -0.29954183 -0.26586533 -0.11032511 0.37137565 0.348493 -0.22492303 0.45597047 -0.10241634 0.20707412 -0.11250539 0.4189474 -0.077269085 0.361418 -0.36280558 0.2917626 0.003343559 0.24246773 -1.0816103 -0.031322088 -0.5225422 -0.014306846 -0.23900531 -0.31671005 0.15305123 0.005919528 0.012208399 -0.75308436 -0.27161583 -0.22700737 -0.31788248 -0.9341566 -0.012834782 0.07563296 0.20391575 -0.041213684 0.14416367 0.45970064 1.0852844 -0.3707372 -0.2607071 -0.33485174 0.37942448 -0.5435179 0.6597346 0.33287266 0.112790555 0.38496384 0.104614235 0.01271769 0.37698367 -0.24746859 -0.35638535
2038 0.33947706 -1.053107 -0.37413153 -0.42104763 0.01456489 -0.21813634 -0.4739371 0.5508235 -0.16725306 0.6603999 0.50046444 0.024657952 0.19527194 0.22468017 -0.23167624 -0.6680042 -0.19024947 0.15450007 -0.13090008 -0.55056095 0.32537988 0.020244228 -0.43883315 0.16886434 -0.24453634 -0.25741917 -0.26600683 0.018521102 0.20228566 0.18243235 0.1259984 0.4360643 0.49597457 -0.6420059 -0.3339611 -0.61636627 0.14497277 -0.38049546 -0.43490803 0.13400008 -0.24173047 0.06297939 0.38968068 -0.3561895 -0.12581255 -1.1572634 0.2771456 -0.40563327 0.07999704 -0.63499206 -0.3267879 0.37211904 -0.15062653 -0.035013936 -0.5747906 -0.39711067 -0.4325336 0.009093975 -0.0725186 -0.67182106 0.2189809 -0.052895367 -0.15896358 -0.5369109 -0.3641651 1.2118565 0.6090378 0.37735298 -0.018203786 0.39710227 0.22504368 0.0852325 -0.32869086 0.25505283 -0.22557698 0.13227607 0.5447567 -0.93150467 -0.49003863 0.29430285
546 0.08273457 0.2845357 -0.77027714 -0.35439184 -0.38870448 -0.23423757 0.17637189 0.11320165 -0.22777551 -0.054478236 -0.098724805 -0.5051549 -0.4614086 0.37873808 0.18445009 0.42625248 0.1444234 0.18010224 -0.33632213 -0.77648723 0.503847 -0.27741063 0.6549677 0.53136164 -0.10829395 0.72163886 0.03955042 0.44577008 0.055488594 0.058170065 -0.15145193 0.7445338 0.1935183 -0.019592071 -0.10144648 0.40601954 -0.22145127 0.4572143 -0.17158008 -0.39457822 0.07609677 0.06355188 0.06081762 -0.6941862 0.50409955 -0.27125323 0.05508995 -0.24498726 -0.3741001 0.007845535 -0.046065234 0.31379372 -0.17116271 0.079592064 -0.02119365 0.4337152 -0.60297304 0.31070572 -0.63391984 0.2052756 -0.30042747 0.33176258 0.24038637 -0.15812224 0.03167874 0.026653867 0.19667754 -0.35123664 0.4271163 0.09772511 -0.43630075 -0.37681442 0.27043816 -0.7303848 -0.45512664 0.21405758 0.3963425 0.5213261 0.068862244 -0.108374976
506 0.14355743 0.36027873 0.026852876 0.25744295 -0.031115847 0.21124716 -0.23723885 -0.09560932 -0.29220435 0.25551456 0.56427735 -0.046729516 0.20067523 0.31967503 0.16913822 -0.43861356 -0.23363502 0.31607082 -0.11017223 -0.5516257 0.3573732 0.79691637 0.06511694 -0.14118312 -0.60888743 0.53993714 -0.3050015 0.40582913 0.06987998 -0.16033839 -0.06944186 0.593417 0.22611527 0.82013816 0.60029995 -0.048889346 -0.3377737 -0.17766598 -0.0926758 -0.2329776 -0.17413965 -0.58181536 -0.619672 -0.9833857 0.12385385 -0.06620795 0.030100686 -0.094854854 0.030843414 0.26302654 -0.09536392 0.7645348 0.29849324 -0.23857555 0.4800758 0.06542529 -0.24681792 0.4947576 -0.23236993 -0.020896519 -0.017448246 -0.088153444 -0.43933135 0.094371125 -0.00833463 0.06252006 -0.16550285 -0.40278855 0.8019505 -0.28305757 -0.5527967 -0.52015465 -0.03164393 0.5635227 -0.06651215 0.2992818 -0.16855519 -0.4045738 0.43021205 -0.28227013
41 0.30213663 -0.010543397 -0.45402718 0.38053405 -0.39113256 -0.43544465 0.058141313 0.33343062 -0.62583286 0.22061075 -0.41554633 -1.066186 -0.09851409 -0.47160926 -0.32797235 0.06140531 0.588105 -0.15975226 -0.24522904 -0.044580877 0.1396455 0.32398656 0.20475793 -0.053596202 -0.55401707 0.048393518 0.1393682 0.37643483 -0.32139355 -0.23615213 0.44414246 0.48399144 -0.15866113 0.3652119 0.60344803 -0.47887588 -0.162127 0.3255999 0.023474589 0.48269883 -0.19906437 -0.5395448 0.21744837 -0.7242305 0.12493006 -0.6282689 -0.7341763 -0.37624368 -0.22506408 0.035676464 -0.19290486 -0.18198846 -0.25063273 0.37122545 -0.6077555 0.45902506 -0.48210204 0.41033527 0.23749074 0.0011211138 0.010975716 0.12190094 -0.09452702 -0.32452714 -0.14236128 0.6066556 -0.18349016 -0.13581093 0.04606799 -0.24007556 0.20057352 -0.22529721 0.06871095 0.11807507 0.21214518 0.0072672362 -0.3321237 -0.041122615 -0.17903505 0.52832794
677 -0.07414969 -0.43262398 -0.49514255 -0.18515883 -0.5510319 -0.71536064 -0.12594981 0.22887954 -0.1795174 -0.04463834 0.27088836 -0.8859751 -0.31583518 0.080667496 -0.21267562 0.1406382 0.34784022 -0.27979025 -0.013207202 0.64643496 0.21188521 -0.03303021 0.8424577 0.6497401 -0.6487754 0.688285 0.024947938 0.14525752 0.8682779 -0.31136683 0.5254654 0.013023965 0.0927663 -0.073256366 0.052642796 -0.24557592 -0.7226789 0.116484135 -0.015713146 -0.18046734 0.33334985 0.30866343 -0.48354727 -1.0880696 0.38881013 -0.64962 -0.13605632 -0.056197427 -0.18429604 -0.113540746 -0.17604178 0.32248154 0.029481964 0.33939117 -0.30305538 -0.0073787086 -0.032117307 -0.026877858 -0.4764474 -0.19651337 0.3651738 -0.14614789 0.0375418 -0.10504768 -0.18971916 -0.0013476379 -0.16082564 -0.29411343 0.31291825 0.090085834 -0.25321984 -0.52975136 0.43445992 -0.3267734 -0.048475415 0.30766606 0.53156024 0.98231214 -0.52274764 0.091545425
582 0.20749281 0.20478271 -0.3403207 0.18803073 0.45727766 -0.3977208 0.13480052 0.5459796 0.42812708 0.32587734 0.83771276 -1.146735 0.40600502 0.24901232 0.5310488 -0.43002164 -0.64961684 0.22067136 -0.8757449 0.3673912 0.0733165 0.7333545 -0.15261415 -0.56666166 -0.6769694 0.65457803 0.21371202 0.012855758 -0.2716836 -0.27979338 -0.31602168 -0.507426 -0.07773062 -0.56276786 0.75363517 -0.34797588 -0.61581343 0.090308554 -0.1881837 -0.32226932 -0.011876736 -0.22971348 0.50759226 0.36570695 0.18236986 0.5137237 -0.0024891682 -0.5196666 -0.29524738 0.31331235 0.4906553 0.55619556 -0.60897815 0.26263374 -0.2049447 0.42314866 -0.8299728 -0.1393926 -0.15431036 0.31345177 0.81671834 -0.00017549406 -0.09011567 0.27691355 -0.12426219 0.612025 -0.20744401 0.46641988 0.35032034 0.5412496 -0.52139884 0.3712054 0.55009055 0.0457174 0.15831743 -0.0005056109 0.09905475 -0.18970378 -0.53976214 -0.042454887
