2708 80
127 -0.07188793 0.46665955 0.03975206 -0.35606897 0.30317238 -0.05049818 -0.14480841 -0.224908 0.21363004 0.2501988 -0.22695269 -0.41739035 0.107381344 -0.13357432 -0.07049666 -0.11677336 -0.6027159 0.21613742 0.118282445 -0.25332126 -0.008132749 -0.017415004 0.060407836 -0.017942464 -0.27894023 0.116890274 0.06989397 -0.19914438 0.22806264 0.08917213 0.26220506 -0.24950919 -0.09055266 -0.12502947 -0.15851639 0.060774725 -0.023886567 -0.06279106 -0.40401363 0.18078819 -0.22679253 0.30256182 -0.32012358 -0.44210544 -0.037830934 -0.024118798 -0.34878573 0.20125853 0.042917386 -0.09481451 -0.35211855 -0.22351024 -0.08598935 0.22195698 -0.2359496 -0.14134103 -0.13065308 0.11963173 0.43324408 0.28820497 -0.09413821 -0.065354824 -0.31667095 0.107030384 -0.16978964 -0.13775402 -0.08771038 0.11753411 -0.15822814 -0.11562954 0.17904565 -0.19759476 -0.15760332 -0.34604168 -0.18699041 -0.1262582 0.25355926 0.1036448 0.26375172 -0.022465087
483 -0.19989054 0.41516414 0.44528082 0.123457 -0.30008334 0.060720067 0.023863554 0.0156201925 0.44945413 0.05103008 -0.3572423 -0.39617246 -0.13930231 -0.046843156 0.12789151 -0.1459508 -0.14742117 0.06896149 0.090246126 -0.21793917 -0.1079637 0.16982953 -0.026707169 0.042999953 -0.34538674 0.3998085 0.14785726 -0.12839548 -0.28838652 0.5185289 0.35928068 -0.17169124 0.08334879 0.20914496 -0.25770235 -0.076154254 0.5587405 0.18259923 -0.11088821 0.12423887 -0.060792726 -0.06349828 0.08940436 -0.16955008 -0.14729531 -0.06408632 0.22919758 0.2806221 -0.022496942 0.122881226 0.35503736 0.14169422 -0.07268172 -0.10829903 0.4851172 0.42967278 0.13690642 -0.040644273 -0.26890177 0.008625193 0.3486105 0.45891815 -0.38287964 0.32160363 -0.0867634 0.46040097 0.10846183 -0.24489082 -0.07293824 0.22751068 0.09346081 -0.26968658 0.10741516 -0.45434985 0.16422808 -0.09221344 0.01657229 0.27299902 -0.30363756 0.41618833
49 -0.24494635 -0.0037190672 -0.08306053 -0.57518303 -0.17538503 0.15112436 -0.00201917 0.34703243 0.47450423 0.558324 -0.14795253 -0.2110059 -0.00694895 0.08913053 -0.04305387 0.35721684 0.2127702 0.04543137 -0.022399185 -0.23955092 -0.34572145 -0.34761417 0.013951089 0.12335667 -0.10125551 -0.70807207 -0.09852778 -0.2941661 -0.5881995 -0.010286995 -0.3210944 0.115531564 0.124228895 0.14297143 -0.28716964 -0.44410136 0.3888866 0.30799493 0.047005706 0.22055395 0.10498801 0.08601495 0.5207684 0.19523428 0.17188255 -0.39044338 -0.21588494 0.23308694 -0.07281513 0.14838968 -0.27103338 0.12861605 -0.2711952 0.17450309 0.009679226 -0.41450277 0.24659136 -0.3424845 0.3457436 0.018950434 0.38492522 0.038573116 -0.24643448 -0.2361866 0.06728969 -0.054820053 0.30770248 -0.35549042 -0.009258688 0.3105968 0.15550004 -0.59218013 -0.17403673 -0.5611038 0.43334737 -0.24826863 -0.41863814 -0.36642617 0.40754184 0.09326354
11 -0.017013205 0.07859196 0.31320795 0.21709773 -0.05196766 -0.24790256 0.07013878 0.19964728 0.04071023 0.11505248 -0.07959517 -0.44036448 0.2173944 -0.1479076 -0.21318822 0.2786682 -0.016886972 -0.1801233 0.09208236 0.05484628 -0.45067713 -0.31117347 0.561139 0.3250112 -0.022915453 0.06290358 -0.52466875 -0.43590236 -0.12475774 -0.58437526 0.18556908 -0.07587057 -0.0018284933 0.44248223 -0.18989347 -0.46936333 0.23348379 -0.14865273 -0.2887633 -0.107463606 -0.11071006 -0.021072088 0.2984506 0.022530548 0.6451138 0.3911636 -0.15489988 -0.15483771 0.101819225 0.07547492 -0.15969926 0.28224075 -0.062134866 0.015885867 0.04820132 -0.14634609 0.21813877 -0.73870176 0.3353268 0.29388797 0.10944441 -0.31540838 -0.2450641 0.24709553 -0.35814005 0.32072058 0.58069605 -0.071385555 0.22087736 -0.016639056 0.18945232 -0.54779834 -0.03443409 -0.10315006 0.21488523 0.003070705 -0.114582844 -0.2739668 0.09094044 0.10783809
338 0.03756493 -0.26859218 0.20176639 -0.008428446 -0.16849835 0.2913226 -0.38571468 0.08195441 0.079995364 0.0016969905 -0.21307683 0.2587977 0.07149901 -0.18063036 0.08895408 -0.2586006 -0.013167315 0.05888043 0.14442734 -0.030014414 -0.119078726 -0.16491805 0.117289335 -0.16737586 0.24777818 -0.24327712 0.26183152 -0.3747805 -0.1649784 0.26170006 0.1255929 0.4367749 -0.50349283 -0.15566902 -0.1653441 -0.08774587 0.21754538 -0.017661812 -0.3935422 -0.032417323 -0.341744 -0.12707092 -0.27525428 -0.43421617 -0.097207345 0.29985604 -0.024136227 0.2445126 0.25848162 -0.29230744 -0.14317524 0.033187922 0.36032203 0.06501903 -0.10355602 -0.5281436 -0.0011848245 -0.2147533 -0.2631684 0.34322187 0.26663962 -0.13733552 0.107171044 -0.5697803 -0.9385679 0.7112345 -0.44608152 0.25562084 0.30958855 0.14379783 0.28509277 -0.10703201 -0.07053041 -0.18696806 -0.37025243 -0.18653674 0.10831576 -0.26694968 0.08573555 0.3508317
474 0.016561585 0.10564807 0.20385145 -0.303943 0.39409807 0.1469878 0.2271675 -0.24060193 0.48777997 0.15592594 -0.19905512 -0.18853353 0.19595112 -0.025131386 -0.39959216 -0.05046464 -0.29961243 0.0142653445 0.35132957 -0.14802943 0.24024406 -0.30804968 -0.004771643 0.10649733 -0.16577557 0.2731069 -0.00273518 -0.42531592 -0.121029444 0.04324116 -0.014171466 -0.0042431615 0.16328721 0.6168132 -0.37436077 -0.21544059 0.51737005 0.35329464 -0.16176684 0.049837455 0.12182308 -0.0023796253 0.30231044 0.05517572 -0.04115069 0.10165366 -0.1267655 0.456252 -0.3318775 -0.07595258 0.42313337 -0.01581571 0.4072004 0.05357736 0.005760731 0.32862973 0.19001947 -0.36347196 -0.6061752 0.57229537 0.5751376 0.17144781 0.18230073 0.08804087 0.102622315 0.27264178 -0.01766044 0.040916625 -0.15882513 0.023228122 0.25027838 -0.6597151 -0.058041554 -0.13780092 0.07943471 0.012671471 -0.41896197 0.63420606 0.05759489 -0.03490613
100 -0.33905452 0.5798701 0.24249172 -0.13955238 0.13417767 -0.29247895 -0.029490307 0.9369935 -0.46339458 0.15321553 -0.020410303 -0.477427 0.27085996 -0.49394637 -0.20862621 0.21857966 0.05327438 0.3204045 -0.0016281285 -0.3924693 -0.23550545 -0.47870615 0.040536307 -0.29854286 -0.06610516 -0.417796 0.24026741 -0.16701232 -0.7234391 0.16129284 0.045891356 0.39918962 -0.41494122 0.28710872 -0.038324177 0.36522815 0.07040084 0.072168835 0.20701985 0.39554068 -0.027710741 0.1152133 0.3285443 0.21179669 0.45778832 0.211695 0.08816203 0.097853884 -0.15935473 0.29241478 -0.15776782 -0.20872113 -0.21595067 0.26943123 -0.2811536 -0.1251414 0.027011307 -0.7058263 -0.32874897 0.08794116 0.12537563 -0.18732248 0.11418977 0.1800408 0.2246549 0.3153138 0.2534986 0.2597634 -0.104647696 0.36434639 0.1943854 0.45148468 -0.48068312 -0.5947661 0.5275504 -0.28645632 0.08230896 -0.23104838 0.37543193 -0.2619359
50 -0.27227193 0.387778 0.11441619 0.078048915 0.26808345 -0.57760125 -0.13668251 0.040238112 -0.013035732 0.058543768 0.5675829 0.33206025 0.7623175 -0.14389752 -0.24683523 -0.16649929 -0.016699845 0.6485608 0.20241332 -0.09198539 -0.12706633 -0.21238047 -0.074458 0.071291 -0.09769675 -0.09626874 0.042295553 -0.3194088 -0.6307534 0.22583017 -0.030593244 -0.4559159 0.06453403 0.15306962 0.6038873 -0.079508685 0.15406446 -0.17560196 -0.15089495 0.09247068 -0.34800288 -0.4665802 0.365299 0.33255893 -0.31386805 -0.109657615 0.22864456 -0.13433418 0.0786899 0.087498926 -0.1225385 0.024503667 -0.14066027 0.030458877 0.4274396 -0.37283304 -0.022257311 -0.5378951 -0.009894776 0.13681155 0.5819205 0.03198748 -0.48308545 0.7774751 -0.05583073 0.21290435 -0.2731703 -0.18171145 0.053295836 0.27121815 -0.020273546 -0.29350257 -0.08260269 -0.4677044 0.08094393 -0.05404009 -0.39199817 -0.5599341 0.2734876 -0.32212153
479 -0.35610634 0.33925962 -0.15285015 -0.4316773 0.0045918413 -0.08502653 0.22416425 -0.32021272 0.34899947 0.30993056 -0.38972712 0.0033239643 -0.29791427 0.0063872654 -0.042130295 -0.039040938 -0.3076787 0.1077845 0.3489495 -0.19295251 0.13761654 -0.1317125 -0.052499633 0.11374991 0.2367688 0.5111656 0.19201426 -0.37836143 -0.16637266 0.35310733 0.59063786 0.11049787 -0.071788624 0.43785095 0.046855785 0.39071757 0.16641282 0.40932024 -0.13557401 -0.35268763 -0.4496555 0.13318995 0.09726341 0.13318662 -0.30617896 0.31369227 0.54448366 0.8235764 -0.30246603 -0.13785556 0.0052533066 0.04970269 0.37892824 -0.09020581 0.18477598 0.37229493 0.14571151 -0.2941434 -0.21406591 0.3181605 0.50720006 0.33835754 -0.75096595 0.50583786 0.05526137 0.35719472 0.6183169 -0.13491638 0.16895334 0.13170458 0.24752298 -0.39394256 -0.16839051 -0.28419304 0.3697133 0.05876106 0.2552585 0.27618653 -0.34865764 -0.014038497
299 -0.01298998 -0.3191267 -0.17746751 0.4855932 0.24978104 -0.2654365 0.1747115 -0.002073337 0.4042322 -0.17171027 -0.20104118 0.429435 0.3399259 0.10875935 -0.46009773 -0.13713023 -0.31039277 0.030584993 -0.19267415 0.056862 -0.040695775 -0.44042525 -0.20669436 0.15022193 -0.5004003 -0.14403754 0.06300457 0.007680869 0.20589721 -0.13691187 0.26203218 0.27933848 0.15712097 0.2235616 -0.5115598 0.009503051 0.23474102 -0.48355585 0.43440673 0.18654715 -0.39926183 0.024118776 0.23199117 0.04599249 0.22320968 -0.33432555 0.361437 0.5222329 -0.21636981 -0.35909915 0.19989778 -0.18587485 -0.18518582 0.23700823 0.07032327 0.2950993 0.1045911 0.005396742 -0.43351817 0.33387408 -0.31666675 -0.007596011 -0.3183822 -0.6752979 -0.76030964 0.20644034 0.002719852 -0.2656637 0.22169657 0.4149338 0.32597834 -0.4190285 0.20667343 -0.7932279 0.23341423 0.019797942 0.10799219 -0.17368579 0.21722344 -0.33377242
53 0.20245017 -0.39493215 0.11981362 0.3156951 0.6179136 -0.5081513 -0.04480832 -0.064504795 0.33517742 0.30123442 0.09205637 0.03914741 0.27600443 -0.2066035 0.19000961 -0.4123993 0.30587447 -0.40211028 -0.38273 -0.28861073 0.28408825 -0.22565515 0.6039085 0.18642348 0.4673304 -0.6778097 -0.3205901 -0.10765876 -0.29689962 -0.117914304 0.3619334 -0.1875629 -0.33756223 0.10581958 -0.118930064 -0.11349692 0.09258574 0.037056256 0.4475911 0.17448959 -0.38332236 0.30258968 0.21634604 0.38358766 0.086860314 -0.07742528 -0.09018635 0.5449645 0.6306301 -0.0029997746 -0.52351177 -0.23927104 0.104571864 0.2377776 0.6268519 -0.08818424 0.34634158 -0.11839877 0.037512243 0.11920248 0.5784978 -0.08085321 -0.3558597 0.475851 -0.19527389 0.21142939 -0.451194 -0.02660289 -0.5241145 0.38367447 0.23339508 -0.0031764498 0.14109999 -0.3457248 0.16923983 0.25385523 -0.13418314 0.5745719 0.25052586 0.053161174
198 0.014375336 -0.444653 0.102222204 -0.2537073 0.013961305 -0.043818858 -0.16634966 -0.5418459 -0.51440936 -0.055798445 0.49088925 -0.086403005 0.5437845 -0.10448153 0.44622666 -0.45400253 0.047414333 -0.43350714 -0.22809073 0.2285676 -0.032706555 -0.71490735 0.44683793 0.090797275 -0.02706885 -0.049524784 -0.30108967 -0.37626892 -0.3695012 0.101925604 0.22648056 -0.0233196 0.347901 0.13807857 -0.2391601 -0.092982136 0.048848614 -0.28342387 -0.28015453 0.11196958 -0.98907876 -0.19227384 0.23171449 0.2810704 -0.36866084 -0.105485395 -0.18166633 0.43609706 -0.111119404 0.3430621 0.10044107 -0.37567544 -0.08470296 -0.44945154 0.290295 0.005759055 -0.2122473 -0.6653892 0.42681974 0.3933393 0.124488525 -0.06727674 0.014097563 0.4859558 -0.68290585 -0.25017408 -0.31071034 0.014376485 -0.0013367406 0.2801981 0.18366773 -0.34880242 0.35589314 -0.46541306 -0.19671501 0.07883387 -0.14276944 -0.440451 -0.2720407 -0.021206636
218 0.07160646 0.64176637 0.36969826 0.47417176 -0.076323874 -0.36660424 -0.58930594 0.20928524 0.40943652 0.034934282 0.012758281 -0.22597626 -0.17733718 -0.025284383 -0.32112765 -0.26665965 0.53555113 0.18043026 -0.4023514 -0.022169186 -0.73786926 -0.30233702 -0.017541708 -0.12625125 0.4993722 0.16286638 -0.66249406 -0.7217663 0.23044764 0.14479114 -0.15991004 0.2605138 0.37310398 -0.31510276 0.06288856 -0.2548116 0.13433287 0.3883372 0.0037083765 0.03572792 -0.47521663 -0.31892982 0.7584046 0.12683782 -0.34425375 0.19148734 -0.012058162 0.8823964 0.15894134 -0.526283 0.19681486 0.07422855 -0.17371024 0.5328299 0.16274203 0.049778126 -0.31854102 0.30274606 0.505426 0.55667436 -0.064863905 0.4809639 0.43795183 0.17511949 -0.2838667 -0.1551986 0.30414385 0.34037504 0.24863134 0.32146686 0.022733033 -0.041860763 0.70816034 -0.34051484 -0.08910678 0.62684655 -0.046299957 -0.011581252 0.12778668 -0.17857933
445 0.4957172 -0.0117801 0.50126886 -0.5658543 -0.11059789 -0.32868823 0.16767156 0.33379397 -0.41206965 0.42778343 -0.20190947 0.09943076 0.3738037 0.1216103 -0.29488906 -0.49889034 0.16317682 -0.34699187 0.18492275 -0.3414186 0.21968514 -0.453471 0.18687852 0.03646264 -0.24044831 -0.6338401 -0.40254265 -0.30586052 0.16952716 0.40583605 0.55897605 0.24258015 -0.004847438 -0.5176325 0.072349 0.09604058 -0.545884 -0.15249 -0.12904131 0.8426897 -0.26641774 0.14827526 -0.21361671 0.6835373 0.08419306 -0.24913497 0.39536202 0.08316341 -0.11216937 -0.34464654 -0.1901195 -0.0030071351 0.4284649 -0.24326788 -0.13005896 -0.0363206 0.29794812 -0.2262684 0.2789288 0.34916267 0.115802765 0.06872984 0.31435898 0.23229618 -0.24678256 -0.13618515 0.27655452 -0.18303722 -0.019914715 0.028215403 -0.23514833 -0.23377271 0.49782652 -0.46324894 0.1525694 -0.18250841 0.45588923 -0.19440587 -0.28407782 0.0760559
541 0.012773921 0.4429725 0.046072245 -0.2595598 0.49128896 0.052481048 -0.3278739 0.43973494 0.3432303 -0.22082198 -0.20365106 -0.8496501 0.17258617 -0.02065794 0.11776684 -0.18129635 -0.31186333 -0.23075591 -0.26873067 -0.21394457 -0.4170072 0.12047782 0.17846681 0.24173187 0.06338023 -0.12081566 0.4262411 -0.39821643 0.029296618 0.47057003 0.56580484 -0.19242603 -0.3995067 -0.05416443 0.09173657 0.67117417 0.13572665 0.25890708 -0.063625224 -0.32877058 0.07854773 0.119745985 -0.20596555 -0.7170213 -0.29609242 -0.23654811 -0.7434378 -0.18274355 0.1590284 -0.098880544 0.24745654 -0.37065202 0.4664442 0.409659 -0.58636034 -4.4248805e-05 0.08230832 -0.38166007 0.33496305 0.5075602 -0.13249087 -0.042411685 -0.106105074 0.116278335 -0.51109284 0.0023826822 -0.050394416 -0.22530644 -0.16556165 -0.03246272 0.22857568 -0.29476 0.22821984 0.21189645 0.21940945 -0.42586577 0.27048922 0.27824432 0.67468494 0.18984896
565 0.47821116 0.24657369 -0.05966546 -0.6219251 -0.21833198 -0.36116248 0.3260789 0.18421929 0.29620603 0.2803167 -0.3904429 -0.52555573 0.1971253 0.3172456 -0.23586926 -0.567307 -0.3812215 -0.3528938 -0.102754034 0.19424008 0.013930875 0.20882039 -0.31528413 -0.19134457 0.27610615 -0.09568251 -0.26152083 -0.12266886 0.556284 -0.33740035 0.17261204 -0.19183962 -0.12955968 0.08379381 0.0015880098 -0.0050038486 0.57006675 0.3041243 -0.13958299 0.11660588 -0.32926598 -0.085714124 0.1080629 0.44089407 -0.21407202 0.17256677 0.41318658 -0.48575512 -0.11324525 -0.49382883 0.06692259 -0.29369047 -0.76947814 0.27032435 -0.37191355 0.14209288 0.07146481 -0.27947053 -0.47043136 0.34729186 0.3737099 -0.30548534 -0.37759587 -0.27728245 -0.4107089 0.51500064 0.040937386 0.1327053 -0.46484616 0.8333304 -0.15229014 0.26111078 0.27501526 -0.7464391 -0.3888093 0.43129036 0.42265734 -0.17299785 0.17421868 0.7559342
81 0.33611867 0.33875322 0.6563903 -0.031765442 -0.033588946 0.24815653 -0.2942113 0.006742688 0.63081616 -0.13742694 0.26793516 -0.5613617 0.26117688 -0.10660137 -0.35469788 -0.12741365 -0.016605696 -0.09413791 -0.010186723 -0.2748412 0.039001733 0.14603588 -0.19980948 -0.30055094 -0.4812628 0.12541704 0.29402015 -0.0052793655 0.37481856 0.43238336 0.6593566 0.3056213 -0.021435818 -0.15192656 -0.28651062 -0.52284986 0.41820553 0.40978628 -0.46643987 -0.13028026 -0.39023387 0.11878071 0.03947541 -0.3376592 0.5021124 -0.521071 -0.26887712 0.58667576 -0.02688171 0.66408867 0.32673383 -0.090486236 0.31448153 0.14166 0.44032353 -0.013662286 0.11849977 0.07773747 -0.10773621 0.29332972 0.34554726 0.063251674 -0.30232733 0.10839944 0.27891716 0.6045748 -0.12565787 -0.3642166 -0.17308453 0.19744201 0.07676813 -0.047154304 0.24147157 -0.3998461 0.31594762 -0.38484186 0.11149749 0.2066608 -0.028241895 0.07081705
184 0.3641296 0.52652645 -0.3222016 0.46722466 -0.05240612 -0.2440284 0.74353784 0.06596164 0.053530432 -0.080965996 -0.04930613 0.21723251 0.59968954 -0.29202566 0.24836455 -0.30769476 0.19503476 -0.11508563 0.005857873 0.27558085 -0.29754934 -0.8706505 -0.7271979 -0.2752662 -0.073031016 -0.33293843 -0.12617272 -0.37487054 0.5560772 0.3953601 0.102485366 0.19212401 -0.35360816 0.10140807 -0.044378143 -0.16474988 0.32378018 0.18447834 0.04760141 -0.09673735 -0.31340468 0.1519698 0.076550156 0.4688369 0.048590295 0.267635 -0.11486048 -0.00010306933 0.23686935 -0.63981766 0.2545486 0.14795285 0.4602228 -0.23979972 -0.26962462 -0.013595426 -0.46285108 -0.28550372 -0.0075520985 -0.17401782 -0.37730289 0.26231006 -0.03957976 -0.3153726 0.055416245 0.12889512 0.0054018865 -0.18487862 0.117758565 0.60023826 0.67382807 -0.44928968 0.045941744 -0.6478072 -0.28710327 -0.33917502 0.3128467 0.48717743 0.5467764 0.2363679
25 0.43663615 0.03370921 0.5992278 0.39599591 0.29473504 0.43263978 -0.3098231 -0.6441499 -0.16567972 0.19640598 -0.053648897 -0.17027204 0.43985444 0.004714408 -0.06344294 -0.52132857 -0.03675014 -0.08453838 -0.050662007 -0.394266 0.22490704 -0.02034688 -0.015482729 0.20744947 -0.07965949 0.34738567 -0.26227027 -0.3822588 -0.09585822 -0.07741071 0.6121431 1.0127844 0.082879625 -0.19594806 0.11755753 -0.08455788 -0.07189139 0.1279277 -0.19200388 0.13234262 -0.004325828 -0.1966292 -0.5034837 1.2615293 0.14225228 -0.1999362 -0.20695862 -0.043583922 -0.334769 -0.6653914 0.09238649 -0.017361097 0.36914536 -0.17912477 -0.44496217 0.18062676 0.067398675 -0.25206256 0.049735725 0.16250817 0.17203802 0.7143397 -0.30795473 0.19335853 0.032995764 -0.30638197 0.2109225 -0.03986257 0.17424071 0.59446144 0.33325267 -0.46276665 0.0011882621 -0.019334052 0.028258324 -0.03307916 0.86284804 -0.519441 0.71125364 -0.30845365
854 -0.49722213 0.023786835 0.23674184 -0.7896213 -0.3436763 -0.2102184 -0.022987409 0.63202345 0.31786937 -0.20819189 -0.5795583 -0.34948784 0.40101314 -0.110750794 -0.07643582 0.50161177 0.18750933 0.15057296 0.4179879 -0.05148956 -0.37096074 -0.05568863 0.9228071 -0.57762146 -0.60129905 -0.12728795 -0.32568732 -0.18698865 -0.21065766 0.22527826 0.29079577 0.1819522 -0.41446525 -0.14405288 -0.50540584 -0.054699033 0.1492331 -0.05967241 0.46446866 -0.1658034 -0.15612641 0.41437003 0.7086045 0.99832934 -0.40396658 0.6038194 -0.48393655 0.08519969 -0.17237529 -0.021859853 -0.08782608 0.8210973 0.4650032 -0.020986775 -0.50865674 -0.021664724 -0.26515225 0.45268345 0.05149968 0.25731546 -0.103670776 -0.08790922 -0.26817322 0.07367515 -0.14378539 0.2391201 -0.24810305 0.3767263 0.15388913 0.21856402 0.0284518 -0.1860044 0.015678784 -0.715124 0.19668409 0.3652891 0.04945977 -0.29492262 0.14263184 -0.18601407
1670 0.362988 0.11864269 -0.41678643 0.56851184 -0.050398495 -0.5526394 -0.45076564 0.4487878 -0.19841315 0.28039852 -0.13157068 0.39328837 0.89673656 -0.028396238 -0.33500463 -0.21297683 -0.10252733 -0.22323348 0.22223891 -0.18185292 0.285776 -0.408319 -0.10856427 0.363846 -0.21943703 -0.08895599 0.4307709 -0.33112806 0.13160482 0.15792733 -0.022056585 0.07066172 -0.27644905 -0.5325154 -0.7608492 0.10003912 0.63131285 0.26671445 0.08174519 -0.19957168 0.31863868 -0.7561606 0.3604858 0.15021549 0.12685104 -0.12790719 0.1611125 0.48304895 -0.5061602 -0.31591728 0.053861495 0.21223472 0.2470613 0.468326 -0.027648702 0.1937778 -0.60442513 0.30120176 0.20248939 0.025661457 0.20200707 0.14393911 -0.4210406 -0.013921212 0.07072221 0.20029534 -0.5005068 0.46679556 0.045752272 0.119739994 0.32073134 -0.58864605 -0.17028287 -0.28336754 -0.38181654 -0.008472586 0.34210193 0.06826073 0.4781441 0.3697334
530 -0.12924296 0.13580918 0.15799485 -0.37870726 0.068899505 0.3129992 0.24230427 0.0838242 0.34375146 -0.022884317 0.039926786 -0.43222734 0.238549 0.02791038 -0.076209076 0.32721603 -0.48565373 0.12610875 -0.14161308 -0.2634526 0.041754495 -0.09240899 0.11719269 -0.033859342 -0.45342913 -0.05330693 0.101376265 -0.5744723 -0.4493908 0.24712737 0.055787686 0.057639807 0.009476437 0.7203259 -0.3562209 0.011292844 0.2907669 0.17330904 -0.013115425 0.3741733 0.004806501 -0.052366577 -0.17829396 0.12090179 -0.26969936 -0.32224038 0.5421348 0.83689207 -0.39494613 0.1557746 0.20278041 0.28996304 0.105738744 -0.022784246 0.100423716 0.41917142 0.29920092 0.038524225 0.01342381 -0.08210963 0.7613295 0.4109679 -0.6920449 -0.08269729 -0.17630884 0.39899397 0.030905716 0.0029761354 0.11858088 0.27065223 0.06617427 -0.25800493 -0.18188733 -0.4627201 0.39118466 -0.44234878 -0.35728428 0.04547195 -0.1597652 0.15290917
379 -0.09796566 -0.29167244 0.21746826 0.033449475 0.19584519 -0.3434073 -0.29165 0.24504222 0.4405371 -0.12726702 -0.14661841 0.049697783 0.21588564 0.017828967 0.4056475 -0.33673254 -0.49076414 0.31252664 -0.21051805 -0.1923185 0.29419997 -0.42829835 0.39353967 -0.23115364 -0.16684975 -0.39254105 0.3084185 -0.1815858 -0.3187068 0.12814564 0.2619471 0.56211704 -0.8850822 -0.152114 -0.34100324 0.23903854 0.45737636 0.1980096 -0.51154643 0.29565048 -0.39848748 0.2772123 0.20089991 -0.25528598 0.20059526 0.075069234 0.4862468 0.6403883 0.22559054 -0.26410615 -0.17113677 0.30275807 -0.20276213 0.019282935 -0.34088638 0.26920393 0.31529495 0.027831921 -0.16758579 0.64080614 -0.21261026 -0.25753903 0.4279689 -0.4811538 -0.746476 0.27266675 -0.019512646 -0.07893467 0.3914526 0.2844929 -0.18756081 -0.2390579 0.09328732 0.0011163144 -0.1457957 -0.42520583 -0.11202109 -0.5493364 0.42426816 0.22489758
678 -0.5329625 -0.0066280034 -0.07041554 -0.5259419 0.22368653 -0.15835425 0.17216411 0.17783695 0.54575795 0.024022585 -0.24243356 -0.29248765 0.58607614 -0.08386173 0.19196525 -0.27469638 0.1752893 0.32863688 -0.036315106 0.3462429 0.19439568 -0.54235804 0.23359317 0.76576436 0.006149236 -0.3992127 0.105662316 0.023990966 -0.44280946 0.6305896 -0.1332148 0.3283623 -0.11242512 -0.4744891 0.6972789 -0.38577086 0.307201 -0.44810772 -0.013020786 0.65399444 -0.7023103 -0.07041568 0.50470245 0.69894516 -0.38387722 -0.0546741 -0.057719596 -0.2641441 -0.77874464 -0.5657891 0.082818866 0.26477444 0.056632075 -0.0061889193 -0.20238808 -0.5120211 0.010074793 0.19057669 -0.29155403 -0.15693037 -0.23580359 -0.20795073 -0.7544936 1.1962547 0.40407765 0.38000152 -0.14518583 0.03986931 -0.08414848 -0.21688606 0.5032942 -0.101454005 0.13799495 -0.6457371 0.076536305 -0.001686705 -0.41641116 -0.41121298 0.6069039 0.11562415
165 0.066970944 0.0353328 0.20900884 -0.055447325 0.2822156 -0.7741913 -0.08745242 -0.076644614 -0.25439912 0.4733446 -0.41329834 -0.056963984 0.26410303 -0.28330824 0.21197712 0.009322135 -0.40325177 -0.22455014 -0.515657 -0.3798386 -0.3079116 -0.9315095 0.17054355 0.12806131 0.5126294 -0.30733135 -0.26234663 -0.17382848 -0.09393236 -0.106060326 0.91695553 -0.3086966 0.29194057 0.55292135 -0.14163218 0.45789656 0.09844625 0.593436 -0.13596465 -0.025178172 -0.18553187 -0.12704384 -0.2601896 0.0016101423 0.37163702 0.0010816269 0.06996778 0.45883664 0.21933214 -0.2829657 0.3702328 -0.1332454 0.6921741 0.08200105 0.09897594 -1.008859 0.037957896 0.41647208 -0.28793597 -0.29706368 0.37765867 -0.15501714 0.03384213 0.49600375 -0.51544803 0.13516405 -0.057927072 0.0071575087 -0.56449044 0.18525614 0.7286885 -0.0008106716 0.30855736 0.15997487 -0.017265622 0.28505564 -0.075417146 0.12244268 0.090464376 -0.10753699
233 -0.13670859 0.258632 -0.005372005 -0.47813898 -0.19845508 -0.8154007 0.25419545 0.06011981 0.2895519 0.37854567 -0.28082484 -0.25661883 0.42718726 0.116479196 0.04815939 -0.3377754 -0.14663845 0.030875737 0.23449856 -0.427846 -0.34032056 -0.009108738 0.567433 0.20608898 -0.6335819 0.53689516 0.049764894 -0.30085108 0.12049786 0.28691384 0.37240958 -0.23516174 0.1638476 -0.09743392 -0.35392004 -0.22180054 -0.16368303 0.6825351 -0.49398994 0.5034785 -0.0018279335 0.4405052 -0.22940266 -0.23123197 -0.6466266 -0.026470913 -0.5300541 0.007558971 0.48683476 -0.060511034 -0.6809731 -0.28725013 0.07343361 0.2635686 -0.29231995 -0.65784645 0.099087335 -0.027144685 0.08426013 -0.20301422 -0.014015741 0.04714869 0.12956527 0.4061639 -0.049970396 -0.12449804 0.32929683 0.2626169 -0.19185333 -0.12044348 0.8607301 -0.15948595 -0.26296532 0.24049343 -0.30654898 -0.16668577 0.34385878 -0.09382006 0.59621155 0.5761974
925 -0.02235027 0.13079117 -0.26685774 0.40268818 0.91517127 -0.07655864 -0.34790522 0.74218154 0.05429615 -0.45490402 0.062905155 0.09111793 0.27833426 0.06331097 -0.38921192 -0.6049812 0.05770283 0.10092862 -0.115155146 0.22845626 -0.12757502 -0.4415434 0.7043695 -0.3212664 -0.15756577 -0.085256934 -0.25901458 0.05740284 0.46375006 -0.22669338 -0.09498094 -0.029880293 -0.79349244 -0.52768755 0.014635391 0.2682805 0.38550565 0.13615523 0.045494784 0.14215219 -0.07935073 -0.05582031 0.08495726 0.053765796 0.0011599669 -0.39900377 0.417926 0.25121602 -0.08501982 -0.29197899 0.26949838 0.12951408 -0.25545844 0.24168266 -0.3405205 0.028381458 -0.053054225 0.27927107 0.23267823 -0.25768143 0.5831393 0.4714226 -0.31479284 0.21654452 0.54917216 0.1962928 0.28090852 0.2995508 -0.66647595 0.606347 0.14006904 -0.56300837 -0.10142875 -0.6029671 -0.12036963 -0.0637196 0.013547101 0.042709883 0.1306054 0.6212732
1362 -0.7211464 0.61453897 0.34960383 -0.29488564 0.23969597 -0.011430829 -0.5907572 0.5508287 0.02408456 0.060118865 -0.17645894 -0.070324406 0.34567973 -0.46231264 -0.5348683 -0.8803378 0.09204013 0.30885834 -0.8325051 0.162228 -0.13101709 -0.6625702 0.08928198 -0.34426355 -0.33677223 0.058360584 -0.49046147 -0.4657073 0.28784955 -0.055922728 -0.2803906 0.21049328 -1.004198 -0.2633266 -0.09103925 0.44698268 0.06590769 -0.065566756 -0.024885474 0.010516001 -0.0866335 -0.56113666 0.15153027 0.2309643 -0.29567933 -0.13247184 -0.055188376 0.089841135 0.36626455 -0.42211258 0.2293594 -0.22691315 0.2156146 0.079436645 -0.05456087 -0.10781909 0.21292669 0.53719115 -0.19272718 0.1796382 0.3622264 -0.015910778 0.1860843 0.16919199 0.15388933 0.52642655 -0.23040196 -0.36996534 0.16401325 0.10607567 0.62147117 -0.59819245 -0.06615733 0.44722012 0.08902599 -0.0999521 -0.22486496 -0.29728442 -0.526086 0.122820236
176 -0.13257359 0.15758598 -0.14913699 -0.42747918 -0.55645615 0.29521295 0.32522255 0.040863186 0.36106753 0.20722513 -0.4499488 -0.35078546 0.35730594 0.16494764 -0.4819066 -0.3032457 0.30863193 -0.05289591 0.18032022 -0.04133592 -0.14427876 -0.26694974 1.123765 -0.84444404 -0.50215536 -0.23399995 -0.34579247 -0.13097428 0.62069654 -0.1917549 0.33929995 -0.32476813 -0.19526441 0.16593575 -0.48093393 0.23771963 0.10590095 0.05396576 0.63088125 -0.5507886 -0.1502291 0.13890918 0.05384963 0.84314585 -0.5173584 0.48088747 -0.6159381 0.0058179274 0.10161051 0.06700615 0.47854218 0.9334819 -0.462161 0.06481893 -0.3739714 -0.3277173 -0.4217027 0.13012679 -0.09516434 0.21309492 0.03549621 0.23552398 -0.24418761 0.2999836 -0.1392306 0.108270474 -0.27856582 -0.14681046 -0.047883566 0.31628487 0.56197613 -0.5770678 0.08033561 -0.7010992 0.246806 -0.02941324 -0.1384265 -0.38278598 0.033283412 -0.2243069
1084 -0.02530007 0.65081495 0.48707208 -0.18380629 0.40646347 0.15948051 -0.54528826 -0.23689656 -0.18745172 -0.28290266 -0.21162912 -0.6587389 0.1678191 0.20268774 0.3461476 0.28824422 -0.106594436 0.16535622 0.27458835 -0.49206483 -0.032918517 -0.39550754 -0.0023958925 0.024575222 -0.012482669 -0.6284949 0.006653946 -0.36054802 0.35541463 0.24173214 0.6803942 0.25627548 0.4469261 -0.17368676 -0.062723435 0.2012153 0.47106645 0.015177435 -0.3223571 0.23920229 -0.13009115 0.11992599 -0.016193928 -0.2486895 0.18231487 0.13534257 -0.300965 0.35439727 0.25822765 -0.54725856 0.98844326 -0.2378199 -0.18637274 0.090387225 0.34755638 -0.591968 -0.13992812 0.11240562 -0.03379283 0.41816732 0.11283659 0.22374336 -0.73580456 -0.29337943 0.33647797 0.117158666 -0.3970273 0.07726973 -0.04704116 0.08558651 0.18428828 -0.075643145 -0.17726535 -0.6258691 -0.14023554 -0.6626541 0.08612402 0.3489953 -0.6549969 0.30470997
314 -0.20459937 0.3870441 -0.10213634 -0.41954815 0.18707368 -0.34685957 0.22284587 0.21626517 -0.09267476 0.17799498 -0.16487533 -0.33416212 0.14464614 -0.018019691 -0.51014 -0.3208227 -0.31845975 0.1608009 0.045410473 -0.32721043 0.055248342 0.60366875 0.4775998 0.12763718 -0.013204291 0.5786939 -0.43667018 -0.50941485 0.3007454 0.7970906 0.4994777 0.22063518 0.554497 -0.1041903 -0.06012228 -0.17327166 0.19036087 -0.6238921 -0.2655762 0.41817555 -0.8081071 0.11721656 -0.49155015 -0.10107803 0.06438843 -0.03915943 0.3435076 0.15562928 0.022304049 0.027817234 0.050636053 0.06086528 0.04487131 0.4776728 -0.7220689 -0.30270725 -0.8481048 0.59615 0.3268523 0.299408 0.21697241 -0.47166616 -0.2405536 0.30591005 0.08783348 -0.35884747 0.28402632 0.13319059 -0.40569818 -0.31654656 0.34084207 -0.4121985 0.12620668 -0.24403976 0.14339326 0.15285134 -0.20156807 0.08613908 0.12038574 0.24340864
555 0.4133006 -0.10498129 0.39992076 -0.08131042 -0.22409856 -0.092024885 -0.26606426 0.5953184 0.4634092 -0.055614214 -0.035346925 0.41911843 0.26973546 0.3062088 -0.5882812 -0.36710235 0.08684815 -0.24339798 0.122319646 0.5364698 -0.26382902 -0.22690615 -0.3142627 0.08331511 -0.17422336 0.022623556 0.21545804 -0.3733005 -0.1375779 -0.36586744 0.3809086 -0.22625116 -0.07595441 -0.079839334 -0.77341944 -0.6317249 0.656805 -0.041235734 -0.21643822 0.03781909 0.12478192 -0.5393644 -0.2588799 -0.36780095 -0.3136841 0.09120808 -0.27333757 0.28865823 0.053800546 -0.16491844 0.4343639 -0.31503817 0.20974104 0.08948076 0.46090555 0.36314765 -0.56507707 0.030858932 -0.23859024 0.16619787 0.16695596 0.1387999 -0.5406107 0.13217857 -0.18125781 0.2977143 0.20709874 0.48088613 -0.04629642 0.050748892 0.08778447 -0.4820782 -0.45747453 -0.7202248 -0.21036793 -0.4367657 0.12162769 -0.49097005 -0.16853587 -0.47156236
240 -0.77876717 0.008610223 0.39909902 -0.14195116 0.4103637 0.3441178 -0.010427411 0.100894704 -0.118440576 0.6172053 -0.78968877 0.7387893 0.12110857 -0.4599076 -0.5478469 -0.43920842 0.56042856 -0.15526539 -0.5249986 -0.18358864 0.46374586 -0.68730456 -0.07160533 0.67293394 0.23303178 -0.0015397682 0.0048939516 -0.550716 0.7201095 -0.09817192 0.6504214 0.047517743 -0.70141345 0.06883736 0.20569454 -0.018295523 1.3783726 -0.4956085 0.42104748 -0.2197894 -0.19563633 -0.1797657 0.20991637 -0.29788852 -0.130304 -0.19355246 -0.10296696 0.20277473 0.41826925 -0.22871983 -0.12663458 -0.0039036628 0.34213072 -0.008150265 0.24306098 -0.27724722 -0.04277457 -0.113888465 -0.10846551 0.10164232 -0.3319112 0.2018335 -0.090197094 -0.23467472 -0.29855624 0.043767363 0.13615502 -0.07929035 0.04625474 0.2982587 -0.14173475 0.16403793 -0.30584288 -0.26552165 -0.0003151733 -0.45422998 0.389322 -0.020956047 0.015159912 0.72154963
742 0.0573938 0.7501019 0.023456968 -0.21321386 0.26091248 -0.09942806 0.07815896 -0.017886119 0.19210273 0.29111966 0.81630105 0.42992857 1.0582771 0.3125217 0.11481235 -0.29797354 0.07569261 -0.110226035 0.18976504 -0.7650309 -0.10040967 -0.42845136 0.1511469 0.4481065 0.2471706 0.24384688 -0.41119725 -0.35394043 -0.43167818 -0.49692032 0.28773588 -0.7888666 -0.71284574 -0.8399915 -0.49746972 -0.19642672 -0.22234112 -0.03606758 0.012693954 0.058543738 -0.12890296 -0.27643663 -0.29163802 0.10956366 0.025210872 0.945578 0.12709181 0.95191705 -0.059978597 -0.05181664 0.45614624 0.107472025 -0.021550281 0.69573474 -0.6254213 0.24354142 0.062286787 0.12745422 -0.2088273 0.25335833 -0.1760895 0.22502477 0.14969856 0.6525646 -0.23933184 -0.5650941 0.09202745 -0.24524635 -0.20460834 0.30646116 0.103483446 0.24340181 0.6222142 -0.5479931 0.20404388 -0.23903666 -0.2753266 -0.4657774 -0.32558116 0.5029945
27 -0.4593213 0.20163365 0.24976256 0.46771365 0.27320445 0.34013116 -0.551462 -0.09602158 0.2199996 -0.08035399 -0.4422466 0.18236302 0.037131157 -0.032270182 -0.14157619 -0.15757856 0.0041094413 -0.47362766 0.099335164 -0.53762335 0.44813168 -0.2242948 -0.4632466 0.68796057 -0.48494226 0.10175752 -0.057287443 -0.69081724 -0.35811007 0.116871774 -0.6064643 0.38460428 0.064368 -0.49493355 0.077080436 0.0025243843 0.23026302 -0.10923529 0.35141456 0.035300445 0.070007086 -0.030056331 -0.121063 0.31328687 0.13465147 -0.00926741 -0.3510446 0.101096265 0.38368955 -0.79801184 0.65033484 0.12686212 -0.05944667 -0.47759488 -0.5335021 0.1211646 0.18751793 -0.17448372 0.31692162 0.11797657 0.54687494 0.2816436 -0.41316688 0.27598235 -0.63073796 -0.10603175 -0.111172564 0.48653072 -0.21637852 0.4336472 0.24143122 -0.32557353 0.14233059 -0.030615129 0.5035591 0.48770744 1.0692364 -0.22320844 0.2780841 0.27581692
232 -0.85795796 0.008887446 0.766616 0.18841688 -0.23873875 -0.56377786 0.17568024 -0.45297423 0.09426849 0.51408476 -0.026381873 -0.022624705 0.6093168 0.23059155 -0.117272526 -0.6987022 0.17084116 -0.2429162 0.22083157 -0.37614658 -0.19548307 -0.17556185 0.038568605 0.10980577 -0.47707424 -0.9305738 -0.32023656 0.16859302 -0.27692032 0.53465587 0.37488586 0.12693723 -0.24513625 -0.76543605 -0.14899842 0.028300105 -0.28483206 0.4005139 -0.7159869 0.04925285 -0.06599292 0.118605345 -0.17887728 0.3084026 -0.17816389 -0.17511906 0.5511941 0.46424374 -0.14477335 -0.40498933 -0.0004824002 -0.11298291 -0.26766613 -0.47021538 -0.30836752 0.28477612 0.3280971 0.19104053 -0.10903193 0.69909257 -0.0047244336 0.07924627 0.27022558 0.07462076 -0.31768438 -0.079590745 0.050291818 -0.32932952 0.13620593 -0.058466244 -0.34733495 -0.24471487 0.24119683 -0.118707 0.42498332 -0.46157798 0.21786745 -0.5328675 0.6188206 0.29733622
1211 -0.21476929 -0.08451473 0.45814908 0.09385212 -0.20697415 -0.52595794 -0.020945022 0.0017362627 0.31979546 0.3645024 0.6404696 -0.19098322 -0.618758 -0.38636988 -0.2412901 -0.33356562 -0.48016426 0.07772819 0.6373002 0.20592421 0.16821782 -0.422673 -0.37018445 -0.27500623 -0.42580974 0.41884166 0.1559335 -0.39757985 -0.07481728 -0.056341145 0.36582106 0.21538928 0.10156139 -0.12520926 -0.03933762 -0.30272305 -0.14431727 -0.16432418 0.62084013 0.059845604 -0.35604393 0.9858939 0.42835262 -0.5778129 -0.056135595 -0.042428352 0.20248236 0.26765838 0.5990001 -0.15719548 0.49708357 -0.18406062 0.8034409 0.08088796 -0.21144648 -0.032964926 0.08998976 0.4019697 0.25740266 0.62377435 -0.59749824 -0.20610085 -0.81603694 -0.2343616 -0.011150505 -0.019346844 -0.21608046 0.162816 0.092048556 0.9525243 -0.13108541 -0.43213612 -0.7864705 -0.43071166 0.52646184 0.6707298 0.20053276 -0.28013888 0.49841455 0.34962773
120 -0.38714212 -0.26125598 0.5064292 -0.23518361 -0.25671712 -0.5131829 0.7290996 0.11246411 0.5272549 -0.019242637 0.45178145 -0.29403144 0.22781944 -0.6484831 0.062185943 -0.61003995 0.11974963 -0.0064774593 -0.49960926 -0.019748164 0.03627839 0.07391011 0.64873785 0.06846657 0.017673776 -0.12414716 0.4296251 -0.6150657 -0.27443627 0.585935 0.6564901 0.21945788 -0.12080194 0.02009129 -0.4405065 0.10700231 0.84554696 -0.26921028 0.28438705 0.03430144 0.46728322 0.042914163 -0.14304408 -0.31938553 0.086171895 -0.11285914 0.10471019 0.59711015 -0.091584325 -0.80635846 -0.08324705 -0.12733047 0.2570438 -0.41924798 -0.21386833 -0.31697527 0.5348585 -0.21669838 -0.29741347 0.19110695 0.30136526 -0.5008688 -0.23488796 -0.3691801 0.81868607 -0.6194286 -0.15327792 -0.095445044 -0.027378978 0.13007052 -0.5216853 -0.8194069 0.42908615 -0.30376473 -0.57165337 -0.061599795 0.24565007 -0.45785835 -0.23102495 -0.7161173
283 -0.4698177 0.24501081 0.27635583 0.53300285 0.6423931 -0.31571952 0.15300345 -0.4085538 0.5343416 1.2607284 -0.5810073 0.41535106 0.22443701 0.5007453 0.13572536 -0.29812333 0.4382725 -0.38357678 -0.22605643 0.17191112 -0.28437784 0.3409365 0.09750003 0.5689031 -0.61193144 -0.23052937 -0.11421174 -0.20951505 -0.0114506 -0.037332647 0.16893014 0.34111422 -0.21052155 -0.3887818 -0.5249405 0.52696115 0.06407554 -0.07700579 -0.08309174 -0.04570815 0.15226598 0.08024357 0.186663 -0.3673741 -0.61312324 -0.06622186 0.3585891 0.7855717 0.5507721 0.46859896 0.26343787 -0.1785693 0.17395185 -0.332641 -0.7075113 0.3254113 -0.2697821 -0.31934863 -0.34947634 0.16520022 -0.0124600325 0.0035162326 -0.4630178 0.69132286 0.09322928 -0.15312211 0.28394687 -0.43989238 0.0018127743 0.37091738 0.21533908 0.033941433 0.21298362 -0.1255062 0.15766312 -0.40185118 0.29230994 -0.01862656 0.6228163 0.17376348
131 -0.03315527 0.4725586 -0.37447345 0.012992761 0.5133626 -0.42058918 0.05384794 0.34867686 -0.09498247 -0.14679249 0.19793129 -0.67677915 0.5724567 -0.6271705 -0.3979362 -0.25088516 -0.25773793 -0.093077086 0.45536685 -0.0479096 -0.7704912 -0.18371847 -0.19184951 0.21257362 0.6944989 -0.3242388 -0.4187547 -0.071456976 0.22121957 -0.38306245 0.14773668 0.003562459 -0.055639196 -0.23921986 -0.15530948 0.059028793 -0.20315851 0.54627544 0.46225503 -0.14496876 0.05769258 0.14765078 -0.17401643 0.5900582 0.2156316 -0.663031 0.25136444 0.32891634 0.55205494 0.034881834 0.34721723 0.117207125 -0.16530001 0.24332935 -0.5613847 0.7150567 0.47236863 0.23146425 -0.39907253 0.44656056 0.61226726 0.23651531 -0.61714315 0.21906732 -0.5195821 -0.3515304 0.09492451 0.25961342 -0.24680407 0.2306296 -0.07130558 -0.7716228 0.24576755 -0.22490604 -0.29314336 0.21654993 0.40683153 -0.23175274 -0.23172237 0.627375
688 0.13887617 -0.029197749 -0.12279829 -0.112436205 0.25687337 -0.174989 0.03877134 0.29658714 0.40718913 0.22690167 -0.3582312 -0.71472967 0.15381634 -0.064861566 0.063602276 -0.30219808 -0.44848183 0.41190898 -0.1518598 -0.1880774 -0.19410549 -0.0821365 0.16486087 0.029734347 -0.40030935 -0.2748063 -0.18605687 -0.82454354 0.11711284 -0.38382918 0.077974945 0.48986104 -0.69603026 -0.28455853 -0.49254945 -0.47538668 0.61686015 -0.888931 -0.57056713 0.09797408 -0.40458563 0.68742734 -0.27638012 -0.6001181 -0.25577462 -0.1281355 0.19404224 0.3559421 0.059921082 -0.046541672 -0.18295972 0.08177341 0.2869483 0.2254134 -0.1451911 -0.22392848 0.2303612 0.04293561 0.46715882 0.37736264 -0.6347811 0.027085494 -0.08218158 0.18319666 0.11215963 0.25681773 -0.3303505 0.35824606 -0.493955 -0.29978016 -0.0403177 -0.36410722 0.17049932 -0.1638517 -0.31602788 0.17632318 0.4261796 0.22594447 -0.010171123 -0.49159712
2073 0.41652492 -0.5646472 0.1398592 0.23686671 0.56786263 -0.79495656 -0.08831341 0.3551632 0.6051288 0.35176507 -0.06222848 -0.0333774 -0.28033635 -0.16116019 -0.27991343 -0.5832698 -0.14470614 -0.35565135 -0.11606737 -0.58388805 -0.03390112 0.2075028 0.16754104 0.27205345 -0.36152017 -0.00080288417 -0.15819402 -0.33813104 0.0005356527 -0.60526973 0.3641776 -0.44603822 -0.16287649 -0.4808296 -0.08633698 0.72242355 0.39340508 -0.91207886 0.0010298574 0.548198 0.06088496 -0.14401186 0.1938332 0.27188742 -0.056321856 0.08605766 0.24553733 1.2454733 0.1275837 0.3409579 0.2854347 0.021078937 0.55104566 0.3064112 -0.017843936 -0.7320613 -0.24507968 -0.8120654 -0.11044201 0.067426324 -0.36861822 0.6206073 -0.20639397 -0.48265308 -0.2943298 0.19828163 0.16143703 -0.5189703 0.4871492 0.40296096 0.17150377 0.25823575 -0.5885273 -0.11224222 0.7197435 0.85970795 0.37429214 -0.7437019 0.47669357 -0.010624118
272 0.2530817 -0.18555479 -0.4612165 -0.3160439 0.17358007 0.5570047 -0.26282302 0.3117478 0.027058473 0.1611695 0.116950065 0.20606104 -0.2314582 -0.2679698 0.67818046 -0.20881468 0.4098861 -0.26993993 0.12591189 -0.06407057 0.17421053 -0.5405539 0.5511809 0.14610091 -0.58896095 0.16978231 0.15708937 -0.4570758 -0.48940295 -0.20059973 -0.17370419 0.692796 -0.87380165 -0.12811597 -0.78513235 0.15548727 0.9711064 0.21703967 -0.14649135 -0.0775234 -0.6963348 0.44457942 -0.3089401 -0.35918024 0.16238962 -0.17116646 0.3089176 0.45430198 0.41877443 -0.376589 0.11040584 -0.20025092 -0.113115475 -0.1998004 -0.3381809 0.18588887 0.25824308 -0.13093773 -0.12274467 0.4802967 -0.029980272 0.32486615 -0.060078636 -0.43022472 -0.4498801 0.36763692 0.056360725 0.52032024 0.350517 -0.1903524 0.49578404 -0.5269269 -0.022877011 -0.21415688 -0.099113286 -0.23445234 -0.0070672096 -0.27814904 0.38724136 0.07407125
463 0.35910022 0.53829014 0.19300708 0.04362258 -0.30126512 -0.42333004 0.1150164 0.50735164 0.1179973 0.28250328 0.1270619 0.15714407 -0.3827694 -0.36226237 -0.15560383 -1.3191831 -0.1181375 -0.25048164 -0.26160356 0.17833464 -0.32396534 -0.61020696 0.6245856 0.14096212 0.34171855 0.3631719 -0.2402643 -0.6218696 -0.33007464 0.344181 -0.24076253 0.040451396 0.22803631 0.34637755 0.4516693 -0.303788 0.23115031 0.85559267 -0.14817421 -0.3049029 -0.42630982 -0.29416114 -0.49130902 -0.28866428 -0.19678186 0.52785534 0.41922525 -0.17979655 -0.404464 -0.12646104 0.10858932 -0.1987346 -0.05933149 0.6479812 -0.544851 0.49749428 0.21026942 -0.5583197 0.012493468 0.3815613 -0.7491972 0.40056106 0.04411034 -0.4053865 0.35945612 0.87316877 -0.23097573 0.30965117 -0.10306966 -0.23624155 0.3564909 -0.28519562 -0.51669043 -0.7534845 -0.14797503 -0.14631146 -0.09768039 -0.23611458 -0.0014751576 -0.13089286
435 0.032550856 0.25136325 0.004477059 -0.23013791 -0.58693975 0.55381155 0.0109651815 -0.32975772 -0.65746653 -0.41858354 -0.039247163 -0.5057635 0.32970998 -0.008093754 -0.042469665 -0.7225041 -0.15822493 -0.62755114 0.014540891 -0.3308582 0.10352205 -0.86684173 0.975729 -0.018935082 0.7323437 -0.059326805 -0.6531505 0.13015169 0.021774618 0.3784283 -0.5067978 -0.71886945 0.31208926 0.44182563 -0.51798874 -0.040744524 0.40488827 -0.3645723 0.12210887 0.7869221 0.21115957 -0.81693697 0.15062512 -0.18833952 0.11946099 -0.49542126 0.47185665 0.67138594 -0.24311286 -0.1812639 -0.29795027 -0.17678724 0.66849864 -0.028497063 0.26421663 -0.33168185 -0.054044608 -0.19037181 0.23387587 0.24222954 -0.22976817 -0.64404136 -0.64164144 -0.014117963 0.08800006 0.0440818 -0.45937762 0.107809834 0.3224588 0.8243724 0.24876243 -0.1922951 0.32487062 -0.40691465 0.16035785 -0.061770502 0.7046649 -0.34388626 0.8578465 -0.5221737
868 -0.39452565 0.25630707 0.47059304 -0.5192728 -0.48896617 0.15161914 -0.23154017 0.4677581 0.7647131 -0.07165308 -0.20826864 0.039636217 0.45533136 0.18831162 0.0113032535 0.3369281 0.49012864 0.32314512 0.32247746 -0.21216695 -0.38738105 -0.3911081 1.154404 -1.2440336 -0.4352102 -0.21118157 -0.470526 -0.108979024 0.2564661 -0.040202778 0.52199674 0.022701308 0.060035117 0.0024632781 -0.74661976 0.09285956 0.083085276 0.1969243 0.5139678 -0.6627503 -0.25010052 0.3004491 0.27395493 0.78901714 -0.89942265 0.6506613 -0.5086499 0.016180532 -0.04259457 -0.027523369 0.31066158 0.8352071 0.1356172 0.45712113 -0.6193176 -0.16292296 -0.72145295 0.6914384 0.0074228053 0.49951696 -0.014201516 0.2603495 -0.63898265 0.28930455 -0.06788647 0.14376098 -0.59615403 0.09481916 -0.11186376 0.5963527 0.44606578 -0.11522446 -0.29175472 -0.4376782 0.2714704 0.01978966 0.41688767 -0.2975142 0.27112305 -0.11203338
1781 -0.12770192 0.118759654 0.5492204 -0.5183715 -0.14366695 -0.49123713 -0.09061344 -0.34584504 0.023385141 0.53758985 0.68789136 -0.18996789 0.053921413 -0.58672035 -0.41192085 -0.48125795 -0.38184026 -0.38783723 0.24442936 0.10815806 0.21998033 -0.39993775 0.004029845 0.053811364 -0.19053999 0.2801009 0.27874142 0.037334267 0.40867424 -0.38352135 0.21174967 -0.42098483 -0.20780449 -0.1051583 0.027250748 -0.20456883 0.4027464 0.19971834 0.1572028 0.18537784 -0.24849167 1.132092 0.07085405 -0.84408504 -0.40050527 -0.009720598 0.23675682 0.11479181 0.11486304 -0.45564014 -0.03962934 -0.44132134 0.21315706 -0.032286983 0.07788606 0.11426369 -0.17529671 0.6119716 0.2482384 0.6401998 -0.5377759 -0.2618547 -0.6186864 -0.1699697 0.0675053 -0.21247111 0.17030497 0.40669143 -0.10146234 0.20109142 0.13013458 -0.40238804 -0.8006658 -0.64073735 0.42638534 0.6549357 0.33151332 -0.305686 0.30042845 0.458834
408 0.38635445 0.34928197 1.160033 0.14162678 0.6148936 -0.13108522 0.79234594 -0.024115663 0.20356107 0.38006613 0.18253046 -0.16858853 0.45079932 -0.09172673 -0.14936385 -0.05609342 -0.16740006 0.14269498 -1.0102538 -0.4041291 -0.52247524 -0.09886359 0.14321364 -0.49778908 0.116618834 -0.067263044 0.09806587 -0.52427167 -0.011269982 0.78231925 -0.025766594 0.12310451 -0.5153894 -0.5122013 -0.23031493 0.7487293 0.52291656 -0.5546293 0.062949516 -0.09694421 0.4955201 -0.7288339 0.20425269 -0.38951048 -0.30633003 -0.12948272 -0.1657699 0.15036213 0.15060207 -0.31894806 -0.22379088 -0.15335165 -0.23008142 -0.35873252 -0.034838624 -0.40648043 0.40838236 0.26210457 -0.3819145 0.5627365 -0.29622418 -0.23794748 -0.13616467 0.28905737 0.9188965 -0.18687992 0.31535554 0.36163473 -0.13591486 0.48947355 0.100827985 -0.5534543 -0.17681614 -0.49994835 -0.63379157 -0.052851304 0.34510195 -0.042966653 -0.35152414 -0.10526629
262 -0.35595876 0.64612216 0.26152694 0.038541723 -0.1015967 -0.33704868 -0.3447878 -0.6687328 -0.23431867 0.6696353 0.23111227 0.0029054887 -0.35153002 -0.55307823 -0.34175307 -0.32614407 -0.5231992 -0.39569578 -0.29445755 0.46989763 0.34287578 -0.35476145 0.46856666 -0.21004266 0.25442585 0.65180874 0.111930504 -0.3819825 0.18450846 0.25932375 0.60682344 -0.494305 -0.1008014 -0.25643706 -0.2175272 -0.044193357 0.17138946 0.09300319 -0.29248333 -0.1971127 -0.6447837 0.121962994 -0.1495674 -0.6016266 -0.22985055 -0.51472545 -0.30273372 -0.015103466 0.20790671 -0.26252845 -0.31704754 0.6375991 -0.1612095 0.16807722 -0.4510777 -0.09650936 0.074028194 -0.33057606 0.30843985 0.16507499 0.0957455 -0.31937993 -0.3764279 0.04992331 -0.19279775 0.096376546 0.279832 0.023981221 0.0900254 0.5082368 0.51445156 -0.055495277 0.0020424607 -0.3593701 0.4172894 -0.22508503 -0.3048244 0.2999269 -0.064637735 0.08426954
1040 0.049762003 0.8141872 -0.7814763 -0.29885074 0.20769933 -0.2819503 -0.3146284 -0.035257503 0.78771645 0.43469143 0.21073535 -0.96777916 0.14882138 0.058693998 -0.04500752 0.01916161 -0.683341 0.16334805 -0.14802602 -0.35126275 -0.25424764 0.052642446 0.41260505 0.46034274 0.22336511 -0.13775533 -0.20717265 -0.0077409004 0.2444521 0.6139432 0.33902442 -0.51910037 -0.377945 -0.2960463 -0.4793859 0.5863575 -0.26249975 0.14840597 0.18136078 0.4944697 -0.25290224 0.3368566 -0.75829935 -0.81480354 -0.31062284 0.50130326 0.043435104 0.3300393 0.13283998 0.2172734 -0.14140141 -0.05105378 0.10279427 0.40136686 -0.8561553 0.15471524 0.12598501 -0.045253824 0.14862454 0.58331025 0.24098231 -0.57223845 -0.073133945 0.30329254 -0.50486356 -0.013919121 0.08809274 -0.07400761 0.123244844 -0.1400575 0.24946286 -0.3808945 -0.09118722 -0.1662249 0.1393189 -0.10648517 0.16446516 0.00815286 0.6470505 0.17707705
895 -0.3831204 -0.6566973 -0.337825 0.039486185 0.3600783 0.2772295 -1.12995 0.18640475 0.05415257 0.13611846 0.2998455 -0.054211877 0.41625133 -0.2929424 0.21616496 -0.51514584 -0.29889077 0.5576921 0.140493 -0.7979479 -0.29960015 0.13056976 0.31278196 0.23105447 0.17044617 0.5773074 -1.0679489 0.079613194 0.26750252 0.23428002 0.30484158 0.54850626 0.15334967 0.4914514 -0.035320066 -0.14459181 0.3394995 0.396464 0.20034733 1.1257157 0.5490495 -0.44972923 0.3675834 -0.31652847 0.47919032 -0.1797555 0.123313315 -0.19555297 0.3669262 -0.26562655 0.74929786 0.77577853 -0.03146089 0.10432614 0.29899234 -0.53215635 -0.37561956 -0.22204347 0.2121288 0.68100715 -0.05642097 0.5461688 -0.36253408 0.22096045 0.17893317 -0.14402488 -0.21941444 -0.31507346 0.5855992 0.7549961 0.12627207 -0.08192501 -0.5594128 -0.9642553 -0.20884436 0.34901923 0.41200528 -0.16884752 0.38514742 -0.32022557
808 0.5700815 -0.13990739 0.4333778 -0.5863625 -0.105829045 0.010297434 -0.077631325 0.018260192 -0.77609015 0.7323093 0.12835677 -0.49597067 0.56193477 -0.4459843 -0.75484794 -0.5063453 0.13595966 -0.6450732 0.47218937 -0.7862494 0.360461 -0.13799176 0.35680807 0.37870488 0.3038601 -0.6152461 0.21715523 -0.24291418 -0.2120109 -0.37584388 0.35918614 -0.43179068 -0.27841204 -0.032957934 0.09540153 -0.80234975 0.73643225 -0.25080436 0.4976837 -0.028770171 -0.14906725 0.44247833 0.11428723 -0.57335263 -0.36923653 -0.1740552 0.46205088 -0.16797599 0.001532062 0.26216397 -0.079318665 -0.45068598 -0.47813222 -0.04264067 -0.4204462 -0.34095877 0.17153454 0.42569274 -0.41991705 0.36464798 -0.35867968 0.68897635 0.19465134 0.71045816 -0.07575288 -0.14001481 -0.47367686 -0.4012056 0.30761012 0.5185477 0.6662673 -0.16271096 -0.23825073 -0.4644229 -0.14644335 1.1934512 0.72402036 -0.14340188 0.44095376 0.66127497
330 0.3404833 -0.42109078 0.2364959 0.3970265 -0.067600235 -0.35387102 -0.4915814 0.1596032 -0.11668574 -0.14646915 -0.29498628 0.22480369 0.29544458 -0.42308483 -0.67375535 -0.2229332 -0.21293281 -0.5340011 0.107780635 0.29761094 0.41435078 -0.07759194 0.004746945 -0.021879805 -0.0724717 0.6137659 -0.26010954 -0.3727503 -0.005023932 -0.03798379 0.31386766 -0.22629876 -0.38798213 -0.97241396 -0.5550069 -0.08055983 0.5926049 0.085544266 0.08339196 -0.17494155 -0.040010083 -0.49603322 0.30691677 0.4789252 -0.025842508 -0.051056102 0.4248275 0.51508206 -0.0063742674 -0.8374532 0.3804326 0.5276001 0.24053112 0.17137963 -0.039260704 -0.11367884 0.45149124 0.14715779 0.53383327 -0.33816674 0.40348607 0.72251344 -0.4877406 0.23976746 0.29796556 -0.23184755 0.058054827 0.23349509 -0.27175793 0.32967493 0.17173396 -0.48551625 -0.36454374 -0.25287187 -0.50546867 -0.561643 0.3372279 0.033380114 0.5080536 0.1462476
861 -0.07896359 0.057089694 0.9033497 0.15083483 -0.43397626 0.45335963 0.20097515 -0.13676001 -0.27182242 0.16826901 0.51301396 0.12299155 0.44458094 -0.111029685 -0.4780682 0.1800172 0.33990464 0.54527545 -0.030446492 0.15556183 0.29807332 -0.38898173 0.9859761 -0.04794179 -0.6193167 -0.005637207 -0.23913364 0.13945784 -0.097609974 0.015414915 0.45005503 -0.52293503 0.16728935 0.39609516 -0.20037714 0.69433993 0.70051616 0.25811803 0.917358 -0.05164995 -0.7185223 0.08764972 -0.4239137 0.08414456 -0.10560545 0.3429124 -0.44401532 0.018343873 0.26206678 0.06857579 0.35476655 -0.3448762 -0.5672402 -0.21220197 0.24626942 -0.632924 -0.10075293 -0.53312314 0.2664157 0.30655313 0.31514677 0.36190426 -0.20564815 0.6171285 -0.38334638 0.4078769 -0.42410874 -0.43883824 -0.45685306 0.015672188 0.093240075 -0.9052952 0.31319824 -0.5242458 -0.23457597 0.49986288 -0.45297298 0.36140674 0.26775488 0.20049477
1836 0.085110694 0.08882026 -0.098208815 0.22879341 -0.036167067 -0.1535818 0.030432072 0.010153295 -0.50386834 0.5804728 0.11977702 -0.20346425 0.85452104 0.69443876 0.2864261 0.0043939957 -0.5098156 -0.01629733 0.11622176 -0.17587656 0.7062465 -0.19116457 0.2463849 -0.42065004 0.5721436 0.46721673 -0.3264584 -0.07944048 -0.74499273 0.2346196 -0.17729646 -0.23216604 0.049987003 0.65698916 -0.249987 -0.3243359 0.12943584 -0.0030676462 -0.028228553 0.19954091 0.28267553 0.40964022 0.40384033 -0.092843294 -0.534777 -0.39935657 -0.040573493 0.9789212 0.19626875 0.08344306 0.63895696 -0.20021693 0.37602437 -0.13206616 -0.05235219 -0.60364264 0.27995306 0.08567923 -0.42627442 0.020684443 0.53193057 0.13293967 -0.1244351 0.5370021 0.02147579 0.34644642 0.3104927 -0.23190354 0.12138506 0.06638187 0.33129248 -0.4052306 0.34004694 -0.37379172 -0.25396684 -0.39846048 0.68994665 0.28956425 0.94855714 -0.35743633
929 -0.84296227 0.90910417 0.23233053 -0.2923059 0.3582814 -0.12702993 -0.1373386 -0.09267781 -0.19952655 0.2063336 0.17566077 0.24896312 0.097180724 -0.14457218 -0.6774163 -0.3009614 -0.13810456 0.01769928 0.15626557 -0.51890695 0.43284047 -0.27231285 -0.071558654 -0.32472143 0.43358186 -0.010840838 -0.24310824 -0.38168076 -0.42507842 0.3057455 -0.0077554067 -0.7277147 0.37181595 -0.95209754 0.0077959434 -0.067182444 -0.21342173 0.11550998 -0.009041337 0.20048636 -0.22995524 -0.058061182 -0.3130971 -0.11468385 0.20991439 -0.3007186 0.12286409 0.30092376 -0.00890338 0.35937345 0.613169 0.19374694 0.5974288 -0.27164605 -0.47679773 -0.01383143 -0.05909965 -0.015548101 0.5809773 0.44456995 -0.31783172 -0.26392624 0.13962796 -0.4595921 -0.12485316 0.8402701 0.02388092 -0.3540833 -0.21658488 0.7335655 -0.18465763 -0.31008112 0.6316681 -0.0318953 -0.13487853 -0.17252415 -0.2627114 -0.40921763 0.51836395 0.052567165
268 -0.2558674 0.70793587 0.76210713 -0.33950076 0.25872788 0.19400544 -0.47536412 -0.2189182 0.09724707 0.09203595 -0.33158395 -0.17166169 -0.34575725 -0.08663497 0.021565972 -0.5977895 -0.6048526 0.079890735 0.14651312 0.1509102 0.4152128 0.27895123 0.12571943 -0.25662094 -0.0048647914 0.31636438 0.25072277 -0.48585445 0.2865691 0.089037724 0.8290578 -0.014023615 -0.22751343 -0.42984855 -0.33029678 -0.5366382 0.09792554 -0.2990862 -0.73664945 -0.25511578 -0.61551905 0.19563441 -0.0037558991 -0.44576812 0.64812976 -0.20113473 -0.26790774 0.16421989 0.10647645 0.07056285 -0.21378793 -0.06317455 0.20669663 0.52074885 -0.4660386 -0.5401686 -0.25392246 -0.03719065 0.2544337 0.24121869 0.5337096 0.2177449 -0.64540416 -0.005365554 0.07870218 -0.35943905 0.25058132 -0.45879748 -0.17673604 0.16297892 0.44178548 -0.72686493 0.5309529 0.14885303 0.5140059 -0.06663069 -0.20192918 0.5947835 0.1063377 0.09340314
305 0.066121906 0.31718814 -0.54423726 0.44265637 0.16218083 0.10485897 -0.024045678 0.68792146 0.6331456 -0.032544017 -0.034424394 -0.27751055 0.07132728 0.4456923 -0.16100803 -0.49211246 -0.07070682 -0.78427106 -0.2518751 0.14380749 -0.1407911 -0.044562966 0.1425288 0.08550582 0.21467769 -0.58907217 -0.28516793 -0.7091376 -0.23556723 -0.04005081 1.1830212 0.21262515 0.031539842 0.2483791 -0.20100327 -0.19847456 0.069091514 0.82965094 0.45954046 0.36444497 0.3434487 -0.27496597 -0.4007039 -0.05640113 -0.15035298 -0.029633611 0.042112596 -0.51748115 -0.32787463 -0.795235 0.46053693 -0.20192547 0.013217609 0.4612924 0.27616376 -0.4047652 -0.51669085 -0.23180781 -0.11892801 0.48209035 0.36288851 0.5452149 0.36501703 -0.10848709 -0.36088803 0.4873054 0.4739012 0.11910507 -0.26069155 0.47151074 -0.3761336 -0.1315197 0.16100745 -0.4038964 0.3719443 0.4173967 -0.19380455 -0.09475468 0.46019757 -0.1010268
520 0.023526687 -0.007883069 -0.24546842 -0.50536674 0.5005733 -0.2688104 0.11122045 -0.3546117 0.3632843 0.36657432 -0.009801847 0.25562465 0.009903527 0.2982695 -0.63226587 0.011601484 -0.012150737 -0.09964448 0.21407957 -0.14116232 0.07948599 -0.13343722 0.17540146 -0.4553107 -0.1122639 0.47198772 0.2811467 -0.6951272 -0.25391388 0.3547186 0.417419 0.19236761 0.28476128 0.6337712 -0.103709154 -0.04788494 0.2794602 -0.16985212 0.109471075 -0.169621 -0.00087398454 -0.51159817 0.26318583 0.05777565 -0.30734575 -0.2223466 0.23534526 1.230269 -0.16124982 -0.08898733 0.31478092 -0.10665057 -0.22403082 -0.018624067 0.4033546 0.32983756 0.24642156 -0.17160967 -0.8325603 0.8635477 0.18021625 -0.044725005 0.018553883 0.521246 0.2212356 0.41417986 0.5696791 0.04751006 0.17477094 0.17742835 -0.093949385 -0.014222952 -0.017363105 -0.72171074 0.14165746 -0.1671842 0.13684262 0.2938547 0.10114466 -0.3615959
650 -0.6027297 0.6693663 0.3864891 -0.51432806 -0.124567375 -0.9380889 -0.23065192 -0.084898 -0.03906779 -0.3558953 0.3786192 0.1990422 0.480918 -0.32213467 -0.7050081 -0.5522371 0.2285025 -0.047893014 -0.21714918 -0.2599961 0.05814529 -0.22922218 0.1905542 0.07878449 -0.5473371 -0.4686988 -0.2847803 0.12359731 0.27916256 0.5289356 0.3779743 0.5544664 -0.4547255 -0.50147694 -0.07280348 0.13906425 -0.052379083 -0.24818814 -0.32410422 0.20263338 -0.07340754 0.20664968 -0.38839683 0.6019716 -0.2700793 -0.047250643 -0.06995389 0.30464563 -0.2743861 -0.37727198 0.13181663 0.02136502 0.24547736 -0.7452685 -0.08161222 0.10101492 0.4208575 -0.16817668 0.029574249 0.78061116 0.05170572 0.25508812 0.63027436 -0.17978327 -0.6868851 -0.03167132 0.98756707 -0.61774504 0.45703474 0.12885821 -0.08885198 -0.28796712 0.2544151 0.037445977 0.05127338 -0.43130472 0.22704758 0.0013628326 0.6831735 0.53459567
1368 -0.2034349 0.60970944 -0.27265763 -0.64197487 -0.0840529 -0.0009523422 0.28472048 -0.33074638 0.8225356 -0.107449494 -0.09286488 -0.009083932 0.24242622 -0.4403531 0.086227566 0.023399753 -0.40202168 -0.13049021 0.16990604 0.13962466 0.32698077 -0.31728518 0.25587356 -0.09438844 0.886046 0.21427025 -0.5020169 -0.2070911 -0.59231174 0.82531685 0.8872884 -0.014327973 -0.10177083 0.12924054 0.55899435 0.30422342 0.930695 -0.6742027 0.061637707 -0.14660068 0.071829036 -0.1917212 -0.8437475 0.57250684 0.24546017 -0.40448672 -0.5819156 0.6027684 0.67925507 0.42184892 0.23901354 -0.81429744 -0.15971373 0.50197977 -0.35031402 -0.04887575 -0.45138767 -0.071564496 0.1346186 0.15495946 0.30263022 0.9078991 -0.445328 -0.64381856 0.0055359444 0.28672448 0.5893244 0.24305257 -0.2753271 -0.58048046 0.30988201 -0.49189362 0.62983227 0.10104656 0.3713366 0.2220439 0.051151324 -0.6065158 0.3696134 0.18011011
761 -0.13786082 0.36334634 -0.39296055 0.3483218 0.1559019 -0.59304047 -0.4812389 -0.23764876 0.36445764 0.15259904 -0.014096508 -0.09194203 0.30259582 -0.26930258 0.27514112 -0.7159868 0.41275808 -0.42281234 -0.15193383 -0.025079332 0.032271463 -0.5658903 1.3876545 0.11457266 0.5551498 0.5482952 -0.0113165155 -0.08962351 0.04714746 -0.106251925 0.45449653 1.004889 -0.35887644 0.4711957 -0.59585416 -0.028236425 0.37996545 0.401852 0.21865743 0.68393594 0.059172608 -0.04321532 -0.25506872 0.17354782 -0.40528482 -0.4429654 -0.13922484 -0.21760249 0.3724917 0.5272613 0.068322964 -0.09696825 -1.1461627 0.06981096 0.20253767 -0.44535273 -0.6927276 -0.7412475 0.0007278161 0.78863966 0.34883225 0.4453475 -0.02929255 -0.53964907 -0.4591293 -0.18208325 -0.91921717 -0.09248786 -0.60503477 0.117628984 -0.10862328 -0.48973978 -0.015915222 -0.30841368 0.47260612 -0.48886958 -0.089224674 0.53864145 0.25057462 -0.025718233
1559 -0.22912304 0.5493401 0.50808346 0.3585331 -0.091680676 0.14998293 0.24054 0.86812586 0.28134808 0.08201992 -0.013930492 0.012445756 -0.115876496 0.44195908 0.175468 -0.6173216 -0.15950042 -0.124864034 0.21995671 0.019261118 -0.48071 -0.47392696 -0.1687084 0.17014211 0.044317804 -0.50596994 -0.6701194 0.17714877 0.037919298 -0.2626405 -0.2782872 0.735691 0.42582035 -0.37218618 -0.5849923 -0.044978783 0.29376242 -0.5777432 0.3839539 0.594201 -0.09988116 0.08844714 0.18820661 -0.32207078 -0.09423945 -0.46984053 -0.45024765 0.9328683 -0.07147536 -0.14688592 0.0787316 -0.05536891 -0.5431249 -0.08945905 -0.17240366 0.27933615 -0.43987992 -0.20924309 0.36207253 -0.313942 0.28731933 -0.53895843 -0.30566418 0.81310767 -0.26827407 -0.18929005 0.48667136 0.3586344 -0.18372642 0.5091717 0.11147529 -0.8829453 0.5778339 -0.41965052 -0.014889731 0.31771064 -0.51256114 -0.033143844 0.36075294 0.09900512
405 -0.06264155 -0.3544426 0.53635156 0.17243256 0.63870764 0.3153899 0.13023226 0.20270789 0.34944332 0.21087681 0.1253316 0.3989351 0.15614088 -0.5341065 0.14591019 -0.7035749 0.96592623 -0.21481809 -0.070791356 0.5738293 0.3006827 0.006945884 0.41403356 -0.088682964 0.1400541 0.15866907 -0.07118362 0.2292495 -0.5825863 0.8459993 -0.038052727 0.8367417 -0.058264002 -0.15214461 -0.23252338 0.0450238 -0.37129796 -0.24626184 -0.115257226 0.0025882053 -0.14971285 -0.67412347 -0.20388351 0.06874083 0.15087008 0.19388907 0.07393845 0.17213231 0.14495885 0.21850094 0.31541222 0.066478185 0.23057438 0.7543449 -0.39843237 -0.70920086 0.19050705 -0.24452235 -0.09918461 0.7198386 -0.8040713 -0.19456361 -0.25682527 -0.23411581 -0.74995637 0.83335936 0.45935917 -0.0075870054 0.15784374 0.2695102 -0.25335515 -0.31094 -0.54793495 -1.1677487 -0.8140231 -0.0071303677 0.5903279 0.11160277 0.18399756 0.7402391
239 -0.9018957 0.36739132 0.59312755 0.056335256 0.20139343 0.25873753 0.6968251 0.20860824 -0.35284394 -0.13433562 -0.011953674 0.55740505 -0.21392718 -0.9238833 0.5388676 -0.61946833 0.3128357 -0.12821172 -0.045401104 -0.5001591 0.6723912 -0.83653444 -0.1032672 0.29396775 -0.306461 0.099770464 -0.60069126 0.030929301 0.2778151 0.018236285 0.30870575 0.081290044 -0.13642345 0.32070947 -0.056680202 -0.1984102 0.8497656 -0.2726971 0.60313475 0.35635793 -0.37412813 0.5473266 0.28471625 -0.32268885 0.2443981 -0.43460184 0.4000521 -0.029256962 0.454426 -0.071882926 -0.49671134 0.37095538 0.11102804 0.42865708 -0.15299946 0.33287683 -0.20771301 -0.61981773 0.107948534 0.45651162 0.32903022 -0.10783646 -0.26833695 -0.22188057 -0.43925035 0.37305462 0.11215919 0.118426986 -0.02736933 0.7487738 0.039574217 -0.110234626 0.12277051 -0.00823531 -0.21509454 -0.4238214 -0.07111123 -0.11251041 0.49120894 0.17683384
288 -0.35109958 0.34879798 0.64506507 -0.29955506 -0.30760354 -0.501542 -0.43931025 -0.04932698 -0.42447245 0.026441108 0.0002926155 0.45867497 0.6511828 0.32830006 -0.55201244 -0.44287908 0.41813934 0.07481914 0.038502056 -0.32093638 0.070514366 -0.148683 0.3591692 0.34560508 -0.69707024 -0.37783694 0.056205004 0.30968744 0.14683707 0.37143642 0.66728014 0.8717129 -0.074392736 -0.633753 0.0041473596 0.14774859 -0.09311616 -0.16835871 -0.34576526 0.20464408 0.002816178 0.22554997 -0.09141455 0.28824544 -0.3160848 -0.08419854 -0.32245994 0.343208 -0.16912816 -0.33283713 -0.31859985 -0.30851167 0.4413571 -0.4151637 0.19312471 0.08961417 0.09027202 -0.5591649 0.13353802 0.0549383 0.3412164 0.71951336 0.2919997 0.029748963 -0.2573587 -0.37857854 0.68860364 -0.19869223 0.06947794 0.38976297 0.71875 -0.4260379 -0.1748682 0.03511839 -0.007737164 -0.07435492 1.08662 -0.25924125 0.3622175 0.71798146
652 -0.13299854 0.9156119 -0.13912903 -0.26596028 0.041698664 0.11070423 0.041388225 0.5308013 -0.07088199 0.06329253 0.49484253 -0.13086465 0.35940483 -0.2863641 -0.25258118 -0.3168212 0.3204144 0.48410437 0.13100438 0.1731315 -0.57980615 -0.29923204 -0.22870465 -0.39143783 -0.2987117 -0.03474093 0.3953405 -0.08789231 -0.044608403 0.48122707 0.7124348 0.37594143 0.18269645 0.34207878 -0.026154442 -0.24039088 -0.011878113 -0.052271377 -0.024116486 0.44573572 -0.036944713 -0.43898174 0.3000983 0.0950552 0.5739638 -0.08574409 0.11343792 0.61641717 -0.06275184 0.24821702 -0.4607215 -0.17308708 0.010838955 -0.112514846 0.20322113 -0.5634434 0.08753829 -0.56160456 -0.04209999 0.80348146 -0.26331145 -0.021492662 0.06838178 0.57153296 0.11762182 0.35327128 0.74768394 0.32288307 -0.35382563 0.5598808 -0.046095893 0.22742358 -0.26402658 -0.21464397 0.43045926 -0.41723183 0.29135334 0.10380553 0.49537122 -0.21639894
136 -0.09270547 0.24334763 -0.7447489 0.19255812 -0.00046141897 -0.44637096 -0.42415014 0.61706406 0.23775601 0.3680579 0.3904383 0.07784216 0.65349245 -0.101513766 -0.052358564 -0.41909036 0.4429552 0.1117074 0.28238174 -0.1080027 -0.089939505 -0.29344058 -0.29110983 -0.038235635 0.21337463 -0.11981987 -0.10419815 0.44898662 0.042388964 0.68214065 -0.5701971 -0.461994 -0.21167034 -0.52923065 -0.963911 0.8779841 0.79202545 0.79561734 -0.00034058344 -0.16317604 -0.23629496 -0.51345503 -0.11531611 0.45088813 0.264929 0.19790037 0.01662608 0.23886189 0.10807763 -0.12739633 0.10092489 0.03577024 0.46136823 -0.060219087 -0.24017769 0.009697764 -0.08571615 -0.19314168 -0.0917866 0.6531642 -0.4375225 0.4581241 -0.3207793 0.121416144 -0.37933436 0.093253896 0.19084094 0.12534237 0.45103914 -0.3847788 0.39290988 -0.53270406 0.087937124 -0.98140514 -0.32695496 0.07569555 -0.10892475 0.014044265 -0.26687136 0.5831452
1005 -0.14006633 0.4770102 -0.5198979 -0.59541446 -0.20119227 -0.11832555 -0.12649879 -0.13976207 0.11797879 0.23467712 -0.61361486 -0.4194196 0.4613339 -0.08556519 -0.2829404 -0.64241904 -0.5070984 -0.08784339 0.11142159 -0.030294174 -0.8101471 0.27679238 -0.42159426 0.48081353 -0.13842733 0.6031377 0.26984376 -0.35039613 0.14775963 0.4385047 0.80377614 0.43958047 0.0923985 0.08924691 -0.28602627 0.094739914 0.5571187 0.5558754 0.19996716 -0.30308554 -0.21464856 0.17507426 -0.24652736 0.03756422 0.17529076 -0.022958703 0.032249734 0.286347 0.39344987 -0.73344266 -0.18355665 -0.36533025 0.4546981 0.20297 -0.45524082 -0.4748019 0.30096897 -0.4385024 0.023955777 0.6352859 -0.19013871 -0.10311302 -0.58809596 0.26867914 0.11039336 -0.2179377 -0.14031324 0.37803963 -0.45859447 -0.22496644 -0.037715882 0.23083861 0.015325871 0.5272533 -0.21840216 -0.18583491 -0.02836871 -0.034796808 0.41259068 -0.25653553
422 -0.1917538 -0.014846239 -0.27965415 0.52441156 0.29336095 -0.51394784 -0.032608747 0.17852645 0.15021932 0.84089595 -0.17711508 -0.00079337903 0.5303989 -0.31960416 -0.40678322 0.08079141 -0.27311522 -0.14397474 -0.29926673 -0.77136505 -0.4186635 -0.37836656 0.4427709 -0.31601158 0.22566439 0.63742685 -0.2686701 -0.13615206 -0.09426259 -0.75394404 0.70923537 -0.1932621 -0.16475864 0.3289665 0.1309849 0.42950523 -0.008548919 0.18628475 -0.06832766 0.4267625 0.01420447 -0.55298054 0.29548016 0.45603928 0.24106956 1.0224315 0.13805819 0.49946478 -0.106233485 -0.12477228 0.7593672 -0.2382251 0.86855876 0.526734 -0.060588475 -0.7894969 0.3919579 -0.5564133 0.042728093 -0.28806362 -0.18864301 -0.41712633 -0.27312875 0.6004419 -0.6201107 -0.08362694 0.47403666 -0.44359764 0.33771986 -0.6176418 0.40613598 -0.7524678 0.04876204 0.034651145 0.10338611 0.42769828 -0.33623505 0.046735533 0.13510492 0.5081089
750 0.021616515 0.65333396 0.44948798 -0.36130634 0.3420537 -0.36943337 -0.15838456 -0.35370514 0.10985267 1.090831 -0.54542005 -0.31552583 -0.064877346 -0.20700231 -0.0874722 -0.40434918 0.12995994 0.18932055 -0.06926689 0.19592771 -0.05546919 -0.41406655 -0.03705388 0.22951935 0.3149512 0.22993892 0.21252954 -0.24752133 -0.28362435 -0.18661146 0.48193732 -0.66900605 -0.22484186 -0.61158794 0.53977275 -0.054472975 0.055423334 0.21498917 0.2670823 0.16382213 -0.1035469 0.16184548 -0.42428702 -0.49264336 0.41323587 -0.033294655 -0.22561495 0.061661493 -0.10142973 -0.50526404 0.10537056 0.3902584 -0.22279075 -0.579624 -0.81545854 -0.5399749 0.0036861475 0.32104734 0.27585053 -0.06986324 0.5941575 0.16401729 -0.7351817 -0.41261557 -0.09634261 -0.3342988 -0.24932887 0.06709486 0.019992515 -0.040460188 -0.18334034 -0.43758348 -0.13897918 -0.55556107 0.22992551 -0.14570454 0.27198756 0.1642098 0.5631428 -0.57234997
687 -0.25743565 0.69377446 -0.27593604 -0.2324941 -0.30631828 -0.6136532 -0.5708837 0.36526495 0.64357257 0.06836464 -1.2583475 -0.836017 0.4354923 -0.24551322 0.82679856 0.030778976 -0.07585796 0.16555192 0.22577113 0.0342458 -0.074641496 -0.24135198 0.15115906 0.2747474 -0.41837817 -0.07827248 -0.43966204 -0.18835226 0.22309056 -0.17364798 -0.31510216 -0.32605246 -0.10566032 -0.10022617 -0.050484143 -0.10274836 0.24550739 -0.57274634 -0.2416288 0.29252928 -0.15547074 0.575083 -0.44111612 -0.40870285 -0.378534 -0.553657 -0.35647038 0.11398356 -0.1809797 -0.069993176 -0.4391945 -0.38098812 0.41867328 -0.010457207 -0.05441155 -0.06189874 0.12759517 -0.2799488 0.17103572 0.06947266 -0.5669889 0.22619213 -0.18751404 0.33887857 -0.41523907 -0.21369042 -0.37775332 0.050756097 -0.05940287 0.24429417 -0.004089064 -0.20333034 -0.37810197 -0.899624 -0.6305775 0.21033768 0.30897295 -0.058389895 -0.050640695 -0.03753384
744 -0.22959617 1.0790012 0.37341172 0.27000862 0.18021749 0.24180947 0.14534688 0.1394495 0.23448591 0.23196502 -0.036868818 0.13840392 0.28713474 0.10856753 -0.10284252 -0.5687581 -0.6408754 0.2144967 0.34463823 -0.3592524 -0.017749332 -0.08912036 -0.20390925 -0.09381868 0.5688732 0.07092743 -0.24123406 -0.11378338 -0.05572488 0.038584914 0.0038189872 -0.2161197 0.4283941 -0.6066584 -0.6341559 0.13257562 0.45873314 -0.5379253 -0.4978995 0.31353378 -0.11970449 0.29831228 -0.23000237 -0.3463558 0.4474463 0.062400278 -0.57150495 0.6850002 -0.09374634 0.13423844 -0.008069429 -0.32910872 -0.11508983 0.30517176 -0.7327893 0.16858974 -0.55050224 -0.1072596 0.5832881 -0.1287593 0.42283052 -0.0560086 0.019620355 0.024786782 0.031462558 -0.06381654 -0.18730888 -0.4588292 -0.19120823 0.27813202 -0.2993824 -0.26464137 0.27115738 -0.1374494 0.350882 -0.040756732 -0.19984937 -0.057978142 0.7478415 0.19704069
987 0.124557115 -0.075962715 0.98634434 -0.16173413 -0.026882192 -0.2439453 -0.13136123 -0.2395289 -0.02202755 0.28979087 0.19874376 -0.12017982 -0.20232318 -0.43475154 -0.51859915 -0.14348796 -0.63696206 -0.2845734 0.38139984 -0.13644934 0.14358282 -0.12433625 -0.07714622 -0.09971049 -0.26667124 0.05894274 0.28404546 -0.49757048 0.4555738 0.54300296 0.35675865 0.22482617 0.14719908 -0.28242123 -0.3369935 -0.5203523 -0.14260408 -0.23345594 -0.45095468 -0.3770821 -0.45827004 0.36741766 -0.27898154 -0.75563025 0.40399584 -0.12571654 -0.24597442 0.16925268 0.54819876 -0.011663275 -0.083533265 -0.51054347 0.68444324 0.4112993 -0.2937731 0.36141777 -0.3078677 0.2030996 -0.21164022 0.28972277 0.42280003 0.17138557 -0.58958095 -0.32709387 0.12385064 0.268228 -0.13356414 -0.37167433 0.30566666 0.18099639 -0.07164344 -0.19940557 0.048219386 -0.39338744 0.38551477 -0.3449286 -0.43540803 -0.08813545 0.39554992 0.57393336
666 -0.25952014 -0.1208676 -0.024847806 0.18606739 0.32019702 0.49090898 -0.4278338 -0.109842055 -0.35733488 -0.17946674 -0.6408804 0.679209 -0.18645525 -0.35061318 -0.091881335 -0.9329824 -0.1921203 -0.6726278 -0.42317733 -0.5676969 0.5737119 -0.14920017 0.19110355 0.18310459 -0.56124514 -0.24921982 -0.37444985 -0.7222211 0.52173686 -0.06092622 -0.2448658 -0.030784238 -0.35276964 -0.1645825 0.0854133 -0.45851704 -0.11290745 -0.33227155 -0.12549615 -0.123923026 -0.023906214 0.053314213 -0.043811 0.22548571 -0.59799653 0.3412357 -0.08713941 0.2920259 0.08148132 0.31127882 0.45577937 0.48404065 -0.4287301 -0.09165464 -0.67697644 -0.89445966 0.88352466 -0.30141917 0.7774313 0.027396165 0.44089243 0.1576021 -0.68392754 0.37273103 0.4342387 0.72749823 0.3011673 0.67100143 -0.11151695 0.45265028 -0.07426524 -0.53529805 0.39347363 -0.3259298 0.29291663 0.11510533 0.66022193 -0.28942245 0.6236053 0.29461372
447 0.3173017 0.5018384 0.7206377 -0.38381585 0.008852394 -0.89576274 -0.09989957 0.09349606 -0.04644492 -0.030093608 -0.07284883 0.1481716 0.71113986 0.18332297 -0.3120552 0.12386936 -0.2133864 0.024668677 -0.5817968 -0.05860836 0.19143653 -0.64511055 0.20673169 -0.07814395 0.16096832 0.1564032 -0.13181354 -0.78212553 0.08616671 0.15315512 0.50809044 0.88410646 0.16260043 -0.9273481 -0.72910035 0.20991594 -0.57431847 0.25016677 0.37069777 0.82051855 -0.46152 0.36133012 -0.31553656 0.65245175 -0.30809763 0.2586935 0.2290382 -0.063878305 -0.54992247 -0.33635542 -0.48108134 0.13779345 0.4740882 -0.25131518 -0.03248171 0.038420334 0.5286097 -0.046715695 0.21739596 0.3190162 0.20127727 0.287085 0.4739221 -0.635627 -0.5558865 -0.22477652 0.55065674 -0.20605503 0.62328875 0.28315753 -0.37195513 -0.33932477 0.84418076 -0.7378079 -0.36815882 0.06987438 0.081975766 -0.055676043 0.29071057 0.35406473
1128 -0.18742836 -0.006353137 -0.31435052 -0.64771914 0.3189158 -0.42697778 -0.31665838 0.24089228 0.6777289 -0.19681843 -0.46788308 -0.6817174 0.29545167 0.006172633 -0.18787663 0.018857997 0.31302863 0.63170767 -0.17180334 0.5234841 -0.25820923 -0.539199 0.58887064 0.9834191 -0.33975664 -0.36735052 0.124902435 -0.54667807 -0.61916894 0.5518736 -0.19364244 0.47540623 0.10541914 -0.080117926 0.9133147 -0.654623 0.54433244 -0.43511444 0.2581217 0.3403201 -0.45097917 -0.20339234 0.3213938 0.4412015 -0.5186497 -0.25837383 -0.45971078 -0.44872934 -0.5502175 -0.03346045 0.18857335 -0.17996918 0.65383136 0.2185334 -0.37629232 -0.06649995 -0.37163404 0.19443165 0.12584603 -0.44496557 -0.19525665 -0.39447677 -0.73478264 1.1321152 0.4323181 0.38431007 -0.23076601 0.55152965 0.1919262 -0.13170005 0.76918703 0.09341964 0.4443379 -1.2725595 0.21170719 -0.13248385 -0.28765985 -0.73992133 0.6832626 0.3245523
154 -0.007961897 0.8330304 -0.55781585 -0.08811401 0.29003105 0.20637392 0.074240334 -0.34470138 0.09696369 -0.17524026 -0.5472439 -0.26916698 0.28174323 -0.27145255 -0.26255116 0.031985167 -0.34037024 -0.578255 -0.17017058 -0.4329933 -0.30817875 0.2121556 0.2137927 0.17005874 0.22758342 0.36251178 -0.12252636 -0.27801067 -0.075162485 0.4409826 0.90305614 0.29351828 -0.2809941 -0.19947225 0.3170352 0.022672795 0.6864041 0.27010998 0.09264771 0.07991178 0.10333288 0.38495958 -0.10854119 0.008746563 0.19902827 -0.92538977 0.056140218 0.28116578 -0.49777523 -0.30560693 0.17797379 0.103233725 -0.52738637 -0.0030249327 0.22770147 -0.024788229 0.009794933 0.07553321 -0.8100664 0.9796058 -0.46757844 0.6237342 -0.4771301 0.109235585 0.062086303 1.6420244 0.08196092 -0.37050137 0.95288134 -0.15983286 0.5298722 -0.18868174 -0.41753983 -0.14706354 0.5720485 0.001636492 -0.0092416685 0.27248156 -0.12933977 -0.39882413
1379 -0.08436508 -0.4687371 0.13390249 0.13007537 -0.38831463 -0.7972193 0.38973516 -0.3567216 0.19403324 0.3782157 -0.21229708 0.12659746 0.18958363 -0.5763342 0.32325348 -0.5967655 -0.21903898 -0.3284808 -0.6084556 -0.019528937 -0.15390907 0.07491259 0.5086802 -0.5177209 0.5026633 -0.4648457 -0.8360989 -0.025656909 -0.3549673 0.3853133 0.95768726 -0.060823683 -0.560541 -0.23690888 0.21489212 0.30872855 -0.1333779 -0.22596256 0.2279292 0.37453318 -0.24673551 0.4503993 -0.057997815 0.5721754 0.64985716 0.082615435 -0.08364779 0.8858454 0.39446166 -0.050890476 -0.39158642 -0.57113516 0.0138488235 -0.21571524 0.6058121 -0.2827027 0.16583379 -0.10756919 0.38102233 -0.059682854 0.070701115 0.38611078 -0.025255168 0.6937765 -0.39143726 0.3298295 -0.36470395 0.4961 -0.9287804 0.32521832 0.58379155 -0.013140768 -0.118164755 -0.18699378 0.081347615 0.62848675 -0.13341826 0.24863967 0.22020227 0.16349548
704 0.3291349 -0.06733438 0.18408385 0.20556632 0.012093261 -0.19430208 0.23385902 0.37395784 0.5305423 0.6086415 0.0011014661 0.3699223 0.66020447 -0.3934629 -0.30060852 -0.28571057 0.11680217 0.1608878 -0.099805996 0.32884455 0.0824757 -0.37705603 0.5080875 0.43602708 -0.3251715 -0.36683464 -0.68400556 -0.10257154 -0.4435195 -0.46325684 0.934754 0.096631445 0.21512361 0.23888724 0.24343568 0.21116024 0.19591814 0.5746679 0.51769996 -0.53909373 -0.702795 -0.45546204 -0.28247795 -0.08909691 0.49786133 0.2411066 -0.15635099 0.6769479 0.4951987 -0.21833247 -0.563216 0.06877584 -0.60515475 0.19052227 0.8109188 -0.48596224 0.13183114 -0.35055733 0.11373814 0.34141377 0.4440704 0.06516739 -0.64937425 0.29180825 -0.032980785 0.12808359 -0.49944982 -0.001976859 0.1020929 0.5776321 0.10428028 -0.51420367 0.4781431 -0.11049046 0.4310087 -0.2182602 -0.526556 -0.022185741 0.35084957 -0.309134
95 -0.92256176 -0.4121894 0.054875437 -0.20340109 -0.1272615 -0.1898757 0.2390122 0.4413773 0.42412314 -0.39493158 0.61023915 -0.8611728 0.06505932 -0.41441727 0.34770262 -0.60483205 -0.023732582 -1.1676646 -0.10367182 -0.62536794 0.45008054 -0.0947063 0.30504668 0.10592072 0.13972408 -0.2569645 -0.03415195 -0.07603885 -0.19992362 0.26062596 0.06522255 -0.04865168 0.23966484 -0.26193902 0.3265408 0.11942759 0.543824 -0.4790038 0.55375314 0.27711698 -0.43031728 0.11942604 0.14616305 0.02464687 0.1402161 0.69013137 0.06897679 0.8361754 -0.094558455 0.034029875 -0.09157308 -0.21287702 0.533433 -0.58315206 0.0555877 -0.20338164 -0.26867762 -1.1209481 -0.230704 0.23857722 0.3498942 0.18460637 -0.4139222 -0.16073522 0.38900942 -0.40906394 -0.44579557 -0.19054405 0.20802979 0.68548506 0.14098492 -0.5885275 0.16690712 -0.17031848 -0.50572515 -0.038218845 0.051936943 -0.6549876 -0.15696555 -0.24631481
514 -0.12639888 0.5554234 0.26778215 0.18007348 0.10496455 0.11964596 0.8090761 0.3770861 0.116731696 -0.12834594 0.0035159064 -0.5130026 0.05270382 -0.4285451 -0.49971578 0.042160116 -0.6824033 0.022953257 0.06491586 -0.13037656 0.12889387 -0.3558532 0.45416218 0.038319472 -0.5007236 0.07631972 0.18563204 -0.34693715 -0.6832018 -0.21616462 0.03299442 0.17810018 -0.2197484 0.37339553 -0.290722 0.04257 0.7280289 0.02789877 -0.6525619 0.21372129 0.08875295 0.32582608 0.4530914 0.28192547 0.31090638 -0.14009348 0.23688401 0.09338855 0.37193426 -0.021002308 -0.049576525 0.4206624 -0.28224835 0.12461352 0.18271925 0.6148324 0.26164687 -0.34822613 -0.17990255 0.15908508 0.46795088 0.13390365 -0.0031772412 -0.026989644 -0.3030494 0.6902784 0.5530233 0.27456683 -0.1527819 0.44602516 -0.09750441 -0.1499015 -0.119554155 -0.27536198 -0.03053115 -0.514178 -0.16507815 -0.19541582 -0.13386421 -0.1363519
301 -0.1777822 -0.061714575 -0.69612116 0.30830652 0.062240086 -0.5150426 -0.07574991 0.5350034 -0.07012499 -0.4850065 -0.32761124 -0.31534 0.5516631 -0.30457377 -0.09059879 0.09562015 -0.014614273 -0.59014416 0.43441072 -0.45408788 -0.033221554 -0.6798225 -0.61169773 -0.72219396 -0.41985634 0.13296634 -0.46418655 -0.5643447 0.43972796 -0.029026076 -0.098933324 -0.423744 -0.4451701 -0.28631762 -0.39928937 -0.38125506 0.07955654 0.31538585 0.26882222 0.15844594 -0.77224916 -0.16216744 -0.28640977 0.32318538 0.3793779 -0.20372497 -0.16906627 0.19440946 0.09592524 -0.13608937 0.45884007 0.24014288 0.4108477 -0.053581648 0.058563273 -0.7378345 0.19182684 -0.43265662 0.4639412 -0.026527181 -0.2126706 0.37797952 0.17373939 -0.38359657 0.35005176 -0.008501554 -0.21785896 -0.65280277 0.21301554 1.0000007 0.42665872 -0.4509804 -0.2504095 -0.8895678 -0.41797742 -0.34363797 0.69096535 0.42911136 0.040103644 -0.18794812
285 -0.74838537 0.1970771 0.91785616 0.098008245 -0.2863677 -0.17309433 0.1896423 -0.5176848 -0.064532444 0.563131 -0.71461564 0.4430109 0.94594336 0.1576533 -0.54105985 0.0020183225 -0.0031661745 -0.082642816 -0.53963906 0.22001328 -0.15464316 0.18624818 0.17781575 0.4438347 -0.30492878 0.1393727 0.15125102 -0.07830781 0.37279293 0.34873152 0.03010353 0.49739552 0.1987134 -0.43408108 0.10299859 0.5049138 0.22054629 -0.6293426 0.121301174 -0.22048244 -0.4921496 0.29620245 0.32705605 -0.6021377 -0.010188541 0.21701932 0.010418489 0.46574682 0.1257442 -0.30882537 -0.1113222 -0.10358425 0.42082655 0.15887229 0.20227015 0.53786904 0.332773 -0.3466634 0.025199076 0.31500414 -0.02686177 0.3870943 -0.44522455 -0.08524802 -0.0383548 -0.24157146 0.15972455 0.11026144 -0.6519871 0.8787066 0.9030007 0.076835096 -0.0438476 -0.03246644 0.34292886 -0.3939351 0.92977464 -0.055898562 0.2367359 0.6727212
892 -0.48763508 -0.46280536 -0.18268435 -0.102714814 0.47151268 0.02324596 -0.23367997 -0.3680771 0.61064035 0.11110398 -0.049241487 -0.0056996257 0.09762243 -0.27069467 -0.2528689 -0.5355544 -0.19162239 -0.24747942 -0.24019067 -0.53967744 -0.1419041 -0.08813724 0.1642141 -0.008910212 -0.17419857 -0.22065604 -0.4527113 -0.7720084 0.20471382 -0.3924408 -0.16522582 -0.57878876 -0.33952084 -0.10827119 -0.03625413 -1.2175555 -0.060893517 0.018430702 0.6822486 0.08395713 -0.088672705 -0.20640807 0.39192358 0.110761896 0.484538 -0.43688965 -0.16453709 0.07448612 0.030652348 0.138833 -0.46392816 -0.34920132 0.27072957 -0.0941557 -0.06248925 -0.41426548 0.66131896 0.49958578 0.32770395 0.14532062 0.3680677 0.5073322 -0.36402136 0.35220072 -0.07432882 0.29170117 0.32429224 0.5543495 -0.2681144 0.6863948 0.66661316 0.40328127 -0.34911728 -0.53270274 -0.40640673 -0.73936087 0.115033135 -0.2967244 0.18484642 0.2520917
476 -0.22942789 0.66220295 -0.26719838 -0.5602022 -0.22630093 0.10415799 -0.5594748 0.18511035 0.13994431 0.4238065 0.27278388 -0.31348306 -0.32642815 -0.26230943 0.2851109 -0.20275538 -0.06221327 -0.22294854 0.20079316 -0.132681 0.5941204 0.0012335042 0.26558602 0.49088705 0.19763476 -0.63504136 0.331272 -0.603153 -0.5848498 0.24604535 0.19307655 0.04792795 -0.2626299 0.30403838 0.3305981 0.3363434 -0.026721938 -0.06598927 0.30982837 -0.4907375 -0.30312744 0.04757332 0.20458297 0.52049255 -0.14628723 0.3717306 0.57461154 0.88511837 -0.11177253 0.09077024 -0.46490452 0.24182971 -0.0020886713 0.33273992 0.51702887 0.23878923 -0.009032746 -0.28807625 0.2788295 0.19492397 0.031313878 -0.16462769 -0.6944784 0.06807464 -0.14324471 0.4552557 0.3084191 -0.31185684 -0.07020196 -0.6804926 0.4804691 -0.62197894 -0.70403755 -0.9871214 0.23782556 -0.15723301 0.17502649 0.8011071 0.023893896 0.21300127
509 0.17177172 0.4779803 0.48072323 0.08180112 -0.48434344 0.19586805 -0.106360376 0.01908605 0.34723946 0.1947638 -0.4629668 -0.25544435 0.23104085 -0.77974445 -0.7642874 -0.38328677 -0.07202917 0.30811703 -0.024454407 -0.22084488 -0.124437034 -0.15918553 0.3020286 -0.5726904 -0.6240632 0.16768114 0.09344963 -0.21672113 -0.073804945 0.3076225 0.31032875 0.120935395 0.093511604 0.5442879 -0.37558004 0.5333038 0.42456278 0.37344667 0.10294397 0.23296954 0.31943688 0.0073754294 0.112976044 -0.5448914 0.035714213 0.42025375 0.33904952 0.6065309 -0.85321844 0.5035903 0.40470558 -0.18932807 0.29100013 -0.1317691 0.4690708 0.44588298 0.3885266 -0.33587784 0.4201437 0.2535919 0.69168305 0.2391113 -0.38452485 -0.14992425 0.49407822 0.60652864 0.096001014 -0.27464134 -0.04056807 0.1418704 0.52952653 -0.1960041 0.28909174 -0.41073886 0.42051345 0.107033186 -0.21584949 0.28519273 -0.29866248 0.20572726
1197 0.16992512 -0.087104164 -0.2153827 0.10990727 0.12833592 -0.49557135 0.078152806 -0.41024005 0.88290036 0.18316291 -0.20079142 -0.27947685 0.35656893 -0.36236447 0.004156887 -0.34432262 -0.51787394 0.37060645 0.4946378 -0.050018203 0.8239738 0.014076632 0.54043174 -0.48675358 0.3109187 0.24471919 -0.22733161 0.018228445 -0.6076619 0.8178176 0.9520835 0.006626739 -0.40882722 -0.7724314 0.20075178 -0.23934223 0.27288297 -0.509488 -0.26848593 0.19664238 0.34419823 -0.4043643 -0.40686268 0.25728306 -0.014211242 -0.15066753 0.12393225 0.5369111 0.9449182 0.64331585 0.3726201 -0.8984428 -0.47753447 0.108497 -0.14689788 -0.44765708 -0.52279645 -0.23309235 0.2018712 0.18699794 -0.10249272 0.8548071 0.18587528 -0.7554319 -0.12698403 0.073211305 0.75972825 0.2330713 -0.26819938 0.151001 0.23224129 -0.65450567 0.8429977 -0.039104726 0.1485389 0.24824752 0.37667248 -0.6969752 0.09042457 0.047489055
1064 -0.5433182 0.39575848 0.16498803 -0.08433732 -0.045763437 0.42544687 0.044121332 -0.10530581 0.56158864 0.55612427 0.058259416 0.16524546 -0.14734682 -0.19936287 0.014651531 -0.12801637 0.016874796 0.27693865 0.20121582 -0.35290873 -0.44402334 -0.072502 -0.22772555 -0.5211463 0.16595462 0.64332753 0.11326682 -0.28294492 -0.5926726 0.50923705 0.5565751 -0.2694143 0.35018402 0.16180678 0.27922526 0.18387051 0.48156968 0.32724884 0.22323655 0.2614478 -0.40078923 -0.24349543 -0.22732395 0.17085946 -0.5095103 -0.044846438 0.4598038 0.36011788 0.13926396 0.20663708 0.13234922 0.011700254 -0.07527443 0.08606387 0.578435 0.41070023 0.23430857 -0.44455144 -0.3120741 0.23341213 0.33985814 0.3526664 -0.49057594 0.9417235 -0.43118685 0.6318506 -0.0453869 -0.07139432 0.41668522 0.51418465 -0.2676357 -0.6911044 -0.50236005 -0.50397503 0.47137627 0.016792126 0.14222495 0.13439462 -0.60173744 -0.21233843
1845 -0.07540932 0.5282938 -0.2184356 -0.44927257 0.0031356963 -0.5574433 0.3173094 0.16804616 0.36146343 0.37191743 -0.053571884 0.5160688 0.4969815 -0.44202158 -0.048819084 0.7320762 0.6873637 -0.19067234 0.6639069 -0.35365573 0.06001704 -0.124452926 0.34268385 -0.706298 0.6061916 -0.045116827 0.16078803 -0.46912783 0.18388619 1.122238 -0.3327247 -0.12885411 -0.7207256 -0.5773515 -0.98016363 0.07448279 0.38664922 0.09792308 0.19130605 -0.061580975 -0.2011792 0.15304415 0.17175388 0.5377312 -0.11752917 -0.062311597 -0.10973399 -0.3891037 0.0012787173 -0.6828948 0.43851152 -0.0035012558 -0.11114326 -0.102171995 0.25583407 0.3314095 -0.55640376 -0.3615027 -0.09938017 -0.21870635 0.07329366 0.49238464 -1.2047329 0.110083506 0.13365217 0.014511987 -0.073000126 0.44118738 0.8953346 0.26705295 0.5817749 -0.33869642 0.40821254 -0.10281403 -0.21431631 -0.396124 0.06836049 -0.09703365 0.0741825 0.0050612628
741 -0.63848484 0.7508204 -0.18303075 -0.40348846 0.32501945 0.2318124 -0.055538733 0.095121786 0.26783383 0.10571823 0.36489418 -0.03769611 1.0290004 0.35739675 0.1454167 -0.52667344 0.5036916 0.016045414 -0.2503555 -0.3652458 0.27073103 -0.8444814 -0.16662885 -0.13253371 -0.22216447 0.21479735 -0.22168086 -0.7158758 -0.47897682 -0.64161485 -0.14364389 -0.42656794 -0.654767 -1.0079608 -0.34438404 -0.08752206 0.19118112 0.05684812 -0.7286197 -0.120978296 0.5528183 -0.15859309 -0.6007322 0.16269284 -0.2655282 0.62500745 -0.0939199 0.54648453 0.1345925 -0.43464586 0.42838815 -0.0009423788 -0.17333537 1.0390658 -0.7171596 -0.12507705 -0.026939437 0.4390462 -0.026505327 -0.19531088 0.6356248 0.26937893 -0.07558499 0.5275033 -0.16834584 -0.45629212 0.10348968 -0.19808783 -0.13091916 0.8101236 0.051582213 0.39666918 0.5037239 -0.17138654 -0.102435894 0.07074728 0.3190596 -0.37950373 -0.3178614 0.55843115
210 -0.6365847 -0.35366914 0.5677371 0.10973423 0.42979953 -0.6615012 0.04807755 0.43550542 -0.053522144 0.47732827 0.2882748 -0.10755651 0.35276982 0.31430715 -0.10782221 -0.29498297 -0.11524461 -0.14848466 -0.99546415 -0.8115348 0.22903198 -0.7182362 -0.11926336 -0.72192925 -0.28449658 -0.42503554 0.47570547 -0.5046962 -1.2647811 -0.55458057 0.80703056 0.10599801 -0.13841727 0.4619053 -0.0022220733 0.13588724 0.15493256 -0.19215131 0.40559348 0.26339573 0.12851267 0.36999008 0.32622242 -0.15013559 -0.10387618 0.21540967 0.028761297 -0.13159508 0.0318701 -0.37795392 -0.57896805 -0.55176806 0.65275925 0.7871535 -0.078520015 0.11424842 0.03572182 -0.38723335 -0.3848667 -0.4410274 -0.35685384 0.42953673 -0.46809208 -0.12352741 -0.18652657 0.43891865 0.36478436 0.042288713 0.11999541 0.42861733 -0.03897596 0.18942204 0.4716518 -0.7826617 0.26885885 0.31260794 -0.30521438 0.7824625 0.1869078 0.018603608
91 0.06475579 0.1967891 -0.14074825 -0.622633 -0.9185094 0.6958212 0.025344715 -0.8938881 -0.25996712 -0.20365418 0.015742838 0.15690276 0.19658986 0.09707679 -0.5416606 -0.45734268 0.37615404 -0.26141348 -0.16114666 -0.56117165 -0.2957858 -0.6339209 1.2945265 0.14560407 -0.33948818 -0.49660844 -0.34499192 0.41950014 0.40483034 0.12912072 0.44710407 -0.5700989 -0.30873597 0.40098676 -0.2159189 -0.02233101 0.62826264 -0.6862252 0.84102404 -0.15704505 -0.16481778 -0.43530264 -0.027662981 0.31911737 0.23065293 0.06467977 0.26909098 -0.06667913 0.37904152 -0.15646973 0.10811196 -0.043132868 0.33729464 -0.21753226 0.014100995 -0.24592279 -0.41097283 -0.38909832 -0.74132246 -0.39706874 -0.110696994 0.39427242 -0.58405524 -0.04545221 -0.08250382 0.12716934 0.30661482 -0.27066955 -0.07372879 0.33753595 0.45959985 -0.59965855 0.30178472 -0.45405194 -0.12632953 0.42540514 0.29409 -0.6807236 0.97244775 -0.63369524
326 -0.022590093 0.007056352 0.37819007 0.25518304 -0.28588825 0.18537433 -0.16878687 -0.42410612 -0.22696213 0.010814535 -0.5140635 0.27876377 1.0242518 -0.31304872 -0.06451367 -0.042243756 -0.1746867 -0.0849351 0.049848285 -0.32722855 0.39139763 0.24094814 -0.12197239 0.18721077 -0.56656694 0.47048527 -0.77333575 -0.18335834 0.039964817 0.08059827 -0.028148415 0.5637063 -0.17254095 -0.3997662 0.17658131 0.3493853 -0.0047865706 -0.10561191 -0.093786225 -0.07434534 0.29767546 -0.34067646 0.10399312 0.26691252 0.5221644 -0.17827749 -0.09356015 0.38268283 -0.1709712 -1.3886448 0.44932392 0.5008207 0.21380065 0.26656517 -0.11609259 0.07050973 -0.1386844 -0.16119125 0.6516552 0.14045253 0.54852784 0.7841631 -0.4404077 0.28596386 -0.14272991 -0.15321921 -0.40788665 0.4403509 -0.13580614 0.5710482 0.58110714 -0.47348338 -0.4497 0.14390332 0.024564082 -0.14699863 0.9349137 -0.3919414 0.2792436 0.23747525
1765 -0.5554238 0.4411906 -0.042029493 -0.23076546 0.07776645 -0.19268377 -0.31043273 -0.031103505 0.3188812 0.2751219 0.007703935 -0.6005111 0.47881407 0.055712577 -0.43213055 -0.29049107 -0.55475914 -0.580169 -0.12697239 -0.0566217 -0.26085365 0.02709081 0.24098612 0.097735226 -0.4822617 0.15163153 -0.22813419 -0.122625515 0.41271788 0.10334221 -0.57228106 0.061716225 -0.274572 -0.110389635 0.34351856 -0.2574642 0.21314804 0.26875612 0.7767228 0.23212206 0.103087276 -0.13988648 0.15516031 -0.041942075 -0.22785945 0.31424165 0.4283523 0.123696916 0.20618534 -0.017593121 -0.40179786 -0.7717477 0.05379064 0.89368963 -0.017144902 -0.6729452 0.070732236 0.7089018 0.31544113 0.1731352 0.3868343 0.16806264 -0.31575438 -0.24784435 -0.4206828 0.4944313 -0.0491607 0.5035794 -0.50652933 -0.03784505 0.0003315435 0.26180428 0.5082992 -0.6021158 -0.7976087 -0.4804557 0.15029427 -0.09427913 0.33472645 -0.30458394
1190 0.03656685 0.7775881 0.56053543 -0.3710418 0.067496225 -0.031297565 -0.9639297 -0.20940518 -0.059175704 0.33968663 0.19641894 -0.7253932 -0.18038757 -0.21510316 0.6748208 -0.18498248 0.31796578 0.111952655 0.09428909 -0.23091495 -0.4156082 -0.6029744 0.030577686 0.4921191 0.3333318 -0.067467764 -0.5032754 -0.27884996 -0.051802948 0.33313054 0.6114251 -0.5320135 0.45522955 -0.31625468 0.70100194 0.3139014 0.593781 -0.13750406 -0.077653274 0.9126757 0.28624678 0.6124633 0.8310723 -0.326222 -0.096055485 0.31493953 -0.51217383 0.005109373 -0.26850024 -0.81327605 0.996254 0.29044193 -0.2580855 -0.08186595 -0.42669427 -0.7071593 0.007391091 0.510074 -0.22436401 -0.4669416 0.629121 0.2870151 -0.51102316 -0.6615936 0.093792744 -0.11073671 -0.41693005 0.54330045 -0.081004106 0.27972898 -0.0015265963 -0.09697961 -0.25258917 -0.5757188 0.010048516 -0.734715 -0.057960466 0.025867967 -0.028111197 -0.10340772
32 0.042847008 0.44119948 0.7787745 0.51815295 -0.24391454 -0.8148257 -0.09609929 -0.20985216 0.43768275 -0.23753744 0.16649587 -0.90533704 0.075263314 0.13887565 -0.58691114 -0.25172016 0.017884765 0.25861356 0.102347136 -0.552701 0.687923 -0.9527821 0.35431024 0.22226806 -0.14002247 0.5898777 -0.04117119 -0.10485207 -0.38099042 -0.0352927 0.26129565 -0.0962264 0.21306661 0.13069113 -0.4361851 -0.1913782 -0.35322452 -0.22259289 0.26648065 0.25905016 0.4710413 -0.020081345 0.2421916 0.27381814 0.42186317 0.2614 -0.4577885 -0.24349624 0.14000481 -0.5964216 -0.52810085 0.14326383 -0.4898487 -0.35251206 -0.36407313 -0.018453998 0.02051075 -1.1000922 0.3519342 0.572986 -0.16425464 0.580153 -0.5912063 0.073060006 -0.14518401 0.66861564 0.26849082 0.13204503 -0.8546285 -0.34367672 -0.28548923 -0.6228356 0.051403124 -0.23081078 -0.5993221 -0.09576189 -0.21276629 0.33476365 -0.25989178 0.6185418
1841 -0.07813834 0.5176497 0.59642065 -0.3592374 -0.070269905 0.12138687 0.36475417 0.6901178 -0.060313173 -0.25181788 -0.6941551 -0.25170264 -0.09281304 0.34964168 -0.14672084 -0.41652498 0.04758367 -0.07468666 0.15805693 -0.35562465 0.13973601 -0.24208993 0.4328336 -0.17943801 -0.28246182 -0.5179691 -0.8372181 -0.6573026 -0.38470784 0.7311369 -0.29250792 0.4999525 -0.33722764 -0.15447111 -0.19844171 -0.40526912 -0.15952952 0.27803415 0.37113026 0.083551936 -0.56823057 0.9409643 0.5129637 0.65570056 -0.99136424 0.34017596 1.0284946 0.17497887 -0.10982198 -0.79879767 0.9068319 0.030256363 0.8092474 0.4094913 -0.9714808 -0.29265183 0.01419348 -0.87399566 0.73915076 0.28763404 0.00756502 0.4204806 0.3817925 0.011701448 -0.62397116 -0.047360115 -0.318081 0.29316205 -0.15703009 -0.34825996 -0.3246005 -0.11615875 0.59883714 -0.31573057 -0.5616861 0.2122354 -0.24755965 0.24036667 -0.19552822 -0.26734892
439 -0.8333224 -0.0017353578 0.3824389 -0.34376737 -0.012156689 0.22238249 0.5069413 0.38673005 0.15813428 -0.13524906 0.25146517 -0.3702401 0.25668225 -0.38031396 0.19020846 -0.78953946 -0.028020777 -1.2770656 0.2854441 -0.95655185 0.3114332 -0.25197464 0.29025686 -0.11228046 0.102646306 -0.08015935 -0.045134615 0.26741704 0.32397863 0.090862736 0.10207949 -0.39634952 -0.13365822 0.018832475 0.38720295 0.116701715 0.91397935 0.57456267 0.4601715 0.3947441 -0.27359426 -0.109576486 0.23492932 -0.24327591 0.53749317 -0.078517504 -0.10607174 0.80706304 -0.4811932 0.2509319 0.040192362 -0.29818383 0.22024499 -0.2827398 -0.07422571 -0.40029496 -0.80307573 -0.8435744 -0.5994817 0.064613454 -0.41152218 0.23275228 -0.87663585 0.08143677 0.20031957 -0.5961758 -0.42696482 -0.22713298 0.3702722 -0.071563035 0.33469516 0.014975922 0.24974579 -0.50596803 -0.83222187 0.47851554 0.62470907 -0.5295159 0.42414367 -0.47279432
1335 0.43251333 0.33470246 0.82083225 -0.40982312 -0.21111105 -0.031667504 -0.25598133 -0.2918976 0.53982955 0.1411901 -0.08906606 0.14547044 0.112450965 0.5550682 0.18583806 -0.37605268 0.10681626 -0.26505104 0.33992463 0.19239089 -0.35233974 -0.20314617 0.11212473 0.109911695 0.16830751 0.023715464 0.31028986 -0.31050563 0.2547942 0.14329867 -0.15492202 0.24858288 -0.47316667 0.80656046 0.26412842 0.3769415 -0.29770806 -0.2119796 0.23465735 -0.11302507 -0.2052137 -0.082234785 -0.36128289 0.7365122 0.28708673 -0.43674254 0.4407732 0.8943528 0.3149143 -0.16504222 -0.0014512877 -0.067551754 0.34807426 0.551695 0.6963735 0.22959238 0.28427404 -0.24740322 -0.100232825 0.20442513 -0.32691482 -0.03980923 -1.2029957 -0.18385954 -0.8414651 0.30975753 0.16529493 0.059276834 -0.007881032 0.24429044 -0.034819692 -0.19090179 0.04493497 -0.59731084 0.39660084 0.16110483 0.011476839 0.19375937 -0.06585968 0.08277771
1369 -0.038958926 0.70982194 -0.13571699 -0.3248851 -0.08522256 0.075274974 0.16100566 -0.35464814 0.40382412 -0.33202887 -0.31238538 0.29995877 0.39642966 -0.5864182 -0.13872483 0.016581155 -0.50732636 -0.056605306 0.7526093 0.6187244 0.1190752 -0.48959178 0.27793834 -0.2617745 0.61979926 0.112267226 -1.2179152 -0.7192935 -0.87516105 1.1229002 0.9489643 -0.030672053 -0.6021489 0.12517038 0.26401404 0.44515008 0.92269254 -0.57801753 -0.29195857 0.14959867 0.11361659 -0.08594949 0.049670026 0.9489768 0.36887613 -0.36822984 -0.7264512 0.54963577 0.3340407 0.3690992 -0.046778012 -1.161056 -0.109021336 0.46385202 -0.34237593 -0.33643523 -0.052804984 0.38528755 0.37128386 0.2470644 0.6516864 0.75684434 -0.24760044 -1.0582652 -0.17531249 0.49353084 0.18539129 0.09171621 -0.111331575 -1.0124121 0.47513452 -0.19805668 0.2540742 0.03958594 0.34004357 0.78386784 0.5265532 -0.5472823 0.07792347 0.2717645
954 -0.26310393 -0.06335802 0.42796466 -0.27516398 -0.4327139 -0.79366773 0.048891466 -0.12862056 0.34647498 0.4172635 -0.49439815 -0.18695419 0.7957543 -0.02207868 0.28926715 -0.59752053 0.5147386 0.26049805 0.0047384105 0.432968 0.6537956 -0.5030179 -0.64061403 -0.53408813 -0.124418855 -0.3524996 -0.4741593 -0.23410745 0.4298122 0.39809266 0.49851438 0.2635946 0.23039863 -0.1135208 -0.24395452 0.5241461 0.11054519 0.2174466 -0.95291626 0.279728 0.3452489 0.32899693 0.3078516 0.4068093 0.34424943 0.624062 0.042926498 -0.44560263 0.5142789 -0.38434935 0.13487889 0.27911413 -0.5268795 0.41387695 -0.58036387 -0.42507192 0.28331086 0.40856048 -0.42090413 0.6218603 0.48168865 0.22830981 -0.2779553 -0.39428565 0.16498268 0.2748949 -0.40528896 0.20389678 0.35938495 -0.3666345 -0.16261354 0.10004107 -0.4372329 -1.1059914 -0.42486548 0.2558841 -0.051456835 -0.21096836 0.40121523 0.4820933
860 -0.52836746 0.5359919 0.24741732 0.022045186 0.6060107 -0.9258808 0.19934316 0.1410043 -0.3926064 0.52354556 0.44834992 0.2514473 0.8418556 -0.024301233 -0.2751913 -0.473843 0.041354597 0.38251263 0.384159 -0.058002543 0.16922203 -0.6062226 -0.05142845 0.42139405 0.021774655 0.18445632 -0.79754835 -0.0908836 -0.67998 -0.010509277 0.26726493 -0.06495508 -0.7507819 -0.16367991 1.1075188 0.047312394 -0.13601768 0.18024379 -0.22639269 -0.39976236 -0.42959258 -0.33027166 0.01651942 -0.1785131 0.046959706 -0.5641754 0.024750486 0.13548419 0.04173395 -0.06143482 -0.20327145 0.6128002 -0.5287853 -0.08934699 0.4458978 -0.3369696 -0.13746426 -0.029898532 -0.9016903 0.20364903 0.9891935 -0.41519704 -0.460738 0.19650695 -0.19181462 0.16734013 -0.40594837 -0.10388081 0.37329373 0.3897274 -0.2622838 -0.61735857 0.1446097 -0.44454327 -0.08740112 -0.14714076 -0.7564634 -0.2856054 0.6264562 0.14550994
2038 -0.08487902 0.06963471 -0.213882 -0.2689313 0.42979676 -0.38562688 -0.5466395 0.8136979 -0.00019883346 -0.43239957 0.23196885 -0.11469333 0.82307154 -0.89557487 -0.35761997 -0.4639195 -0.296798 0.7261343 0.052667443 0.36299527 -0.06251012 -0.3997253 0.6105072 0.27756485 0.44797933 -0.2655823 0.05434113 -0.10180936 0.24462527 -0.31410912 0.023621192 0.67691284 0.052062094 -0.5389965 -0.3650148 -0.6182229 0.40343243 0.5777035 0.008872003 -0.3261987 0.028077869 0.15854537 0.032470103 0.73396534 0.6015086 0.03296883 0.60877615 0.7103692 -0.017454544 -0.3738953 0.3824299 0.019169757 -0.13088357 0.18045959 -0.062362857 0.38603583 -0.086908706 0.94451946 -0.13238452 0.25360778 -0.11303311 -0.18122816 0.11920524 -0.18035865 -0.63849694 0.24632885 0.48228285 0.265827 0.8759785 0.44752404 -0.2056631 -0.3808196 0.09658399 -0.5900863 0.2597296 0.53582 0.45251912 0.13876937 0.8138478 0.39604792
546 -0.05536644 0.022842787 0.7344766 -0.24813004 -0.6681206 -0.058860242 0.013897802 0.025178589 0.9415703 0.19021215 -0.58114547 -0.42744508 0.1146186 0.186437 0.18554758 -0.5733571 -0.13029632 -0.18118823 0.044833712 -0.38800794 -0.046299998 -0.007859429 0.21901593 0.39615947 -0.095169686 1.0555737 0.09990635 -0.10838658 -0.9043768 0.32650018 0.052030567 0.08811081 -0.0006171823 0.021480849 0.07429955 0.24492352 -0.07419369 0.20265846 -0.51886433 0.085868135 -0.3088151 -0.55247265 0.18044159 -0.08724556 -0.6948462 -0.27702034 0.22401552 0.21041504 -0.8413088 0.044974227 0.528709 -0.07104748 -0.1083543 -0.39214846 0.028927762 0.25415105 0.20199983 0.15149769 -0.3049081 0.32078004 0.3213305 0.29206052 -0.25634873 0.13781369 0.48066366 0.4794888 0.43269557 -0.37952694 -0.16446644 0.53309065 0.15546359 -0.18038003 -0.006330566 -0.5330483 0.17283128 0.19038746 0.5706625 0.41647226 -0.025402293 0.17515245
506 -0.19444565 0.26472667 0.09482022 -0.3579729 0.37398124 0.42296287 0.5547237 -0.0104121305 0.55407315 -0.06811641 0.0047324714 0.53814363 0.0641332 0.32335702 0.113420315 -0.22749034 -0.30538854 0.18065268 0.44961113 -0.30614492 -0.12571988 -0.6424618 -0.1462031 0.12865698 0.100818105 0.22048739 0.060332045 -0.42223576 0.09556159 0.57970935 0.5007073 -0.033715345 0.1481691 0.7165266 -0.032248396 0.48841786 0.11323011 0.019493219 0.21602194 -0.06884003 0.13997227 -0.01055819 -0.32691383 0.7161568 -0.44633725 -0.33110332 0.22124442 0.99395037 -0.41599575 -0.13506219 0.02710711 -0.20361938 0.5071279 0.16652834 -0.19178042 0.031395137 0.31335518 -0.0764365 0.08087503 0.15744837 0.6898128 0.27911744 -0.6088682 0.4580728 0.08887262 0.9120281 0.73833364 0.28685552 -0.011134191 -0.010059814 -0.10948087 -0.5418257 -0.505735 -0.11384799 0.20549352 -0.08401625 -0.2832728 -0.06082413 -0.27671903 -0.08241247
41 -0.5572429 -0.33285055 -0.15313928 0.6332423 0.39527026 -0.21341991 -0.36921534 0.47029617 0.2479477 -0.25635585 -0.44173968 0.19342777 0.2968537 0.3874464 0.24362075 -0.5264886 -0.060965803 -0.23100378 -0.011552839 -0.41799444 0.03146131 -0.014189785 0.39155197 0.004940998 0.07420967 0.15185608 -0.09499703 -0.60114247 0.034343585 0.4135462 0.10016192 -0.26420873 -0.9008419 -0.45551163 0.13895343 -0.577669 0.29935524 0.1563803 0.18389875 0.3576347 -0.4210581 -0.20159706 0.34454998 0.011582564 0.027193634 -0.296873 0.3785422 -0.0039946306 -0.17012195 -0.33484203 0.004664562 0.02105088 0.09728667 -0.019662742 0.5208718 0.4365065 0.5796873 0.6566045 -0.35219088 -0.040682454 0.50451404 0.5562143 -0.07792345 0.082026064 0.15335262 0.24026538 0.44930077 -0.18311201 -0.6063788 0.3469014 0.5160965 -0.58731157 -0.64189696 -0.49346268 0.027254842 -0.09276596 -0.36826596 -0.4712566 0.008327887 0.57435274
677 -0.41287467 -0.40692753 0.5439744 0.67631143 0.0797635 0.04356623 -0.29120657 0.8912458 0.9806183 -0.06986418 -0.41254926 -0.15260024 1.2217594 0.6567123 -0.34669128 0.07665739 -0.27346566 -0.4456086 0.5380714 0.037791938 -0.17185538 0.16659722 -0.08544304 0.84724545 0.31877223 0.49915358 0.23945242 -0.265686 -0.74115676 0.03334086 0.30154994 -0.113794476 -0.43923685 -0.008176881 0.026781779 0.12878358 0.22528975 -0.39603528 -0.1057963 0.3455242 -0.31953272 -0.42478108 0.13611844 -0.22803167 -0.50710106 0.2238047 0.003622814 0.25259018 -0.51564306 -0.34090063 0.36059517 0.29985142 -0.41054377 0.0745521 -0.13125661 -0.24901932 -0.07115827 -0.029299013 -0.047597278 0.266468 0.25103375 0.20352317 -0.24921198 -0.36794755 -0.039921593 0.3321626 0.34085777 0.41031376 -0.34153637 0.23977995 0.6447331 0.103179626 0.040450476 -0.30349854 0.68597597 0.26092908 0.77981144 -0.057383075 -0.18730125 0.0071339644
582 -0.46166882 0.6011692 0.054049455 -0.11773827 -0.16102515 -0.39061812 -0.5889542 0.16798401 -0.09002029 0.59897894 0.48184636 -0.68463725 0.17153785 0.5134508 -0.1899392 -0.77997893 -0.43242377 -0.42881346 0.3015266 0.12298334 -0.3092331 -0.44292605 -0.260631 0.25054052 -0.44885057 0.39397287 -0.5132455 -0.4803883 0.18687889 0.19415143 -0.20156261 0.23729612 -0.3923918 -0.0024287766 0.18754128 0.19448902 0.223946 0.5147152 0.7443144 0.0008871566 0.40085435 0.08851246 0.29382953 0.79195964 -0.49444485 0.8005217 0.6196511 -0.13105027 0.32414317 -0.51339895 -0.18022114 -0.59095937 0.09244197 1.2211704 0.18000755 -0.47400597 0.11804837 0.5039169 0.38095236 0.5883514 -0.17891468 0.4704155 -0.06323823 0.009484997 -0.1735253 0.6313396 -0.08389799 0.34692982 -0.94917315 0.8600422 0.05089242 -0.49713692 -0.053045362 0.34465253 -0.4260463 0.38269144 -0.24772131 0.032296572 0.6357579 -0.6833699
