2708 80
127 -0.090414576 -0.26448596 0.032153804 0.12735634 -0.15049197 -0.28171965 0.028148612 -0.3850872 -0.2762061 -0.21436356 -0.17291667 0.1754803 -0.009454404 0.5476402 0.020067014 -0.15705217 -0.22712122 -0.110150576 -0.08291108 0.030066196 0.24649666 -0.0697005 -0.097552344 -0.065208636 -0.019105656 0.21059416 -0.28072047 -0.37031028 -0.18309413 -0.19110359 0.26422805 0.09798723 -0.031199006 -0.45607072 0.20045787 -0.17401576 -0.029413326 0.39469036 -0.0986399 0.08709187 -0.38614506 0.049946025 -0.070721395 0.20188226 -0.15421395 0.18528326 -0.13425872 0.35002986 -0.13147973 0.04841593 0.075788684 -0.43720093 0.037038486 -0.2214912 0.04398062 -0.04830832 0.058030743 -0.03719619 -0.47513992 0.46434844 -0.3210387 -0.22842826 0.27248797 -0.08628145 0.29108745 0.22292563 -0.014166355 0.2624413 -0.18530531 -0.16268362 -0.09156288 -0.10686531 -0.031322826 -0.11080962 -0.2361455 0.046134107 0.009919353 0.09562001 0.3903482 -0.25074625
483 0.11284365 -0.34467262 -0.251087 -0.5057142 -0.16547641 -0.33652663 -0.28701153 -0.6731979 0.61132956 -0.20929521 0.12024218 0.09297176 0.38834605 0.3143065 0.19211979 0.13320462 -0.06950584 -0.16653162 0.57602817 -0.2392994 0.475102 -0.07871124 -0.3981355 -0.25250778 0.0398806 0.35679984 -0.24790435 -0.10148701 -0.0023257928 -0.07994827 -0.15727839 -0.5058059 -0.19106144 0.12245979 0.17902048 0.17302999 -0.03324568 0.2523911 -0.20589037 -0.010654543 -0.19969518 -0.21737479 -0.061404772 0.048218906 0.22930378 0.23243555 0.37923273 -0.054467015 0.1366016 0.08167643 -0.035633232 0.06281397 -0.036429904 -0.063202746 -0.37037355 -0.14980946 -0.18029942 -0.09184797 0.17148669 -0.1638345 0.034756944 0.44758323 -0.17467296 -0.07548055 -0.08521232 0.14576782 -0.13356806 -0.025004769 0.061525114 0.00044163695 0.25520152 0.16640036 -0.12400884 -0.5019767 0.0058938353 -0.2858834 0.08524674 0.19127595 0.42380628 0.01725102
49 -0.17799696 -0.07960606 -0.15517397 -0.131684 -0.17240839 0.047345504 -0.16586526 -0.1434281 -0.16753483 -0.15271074 -0.13912955 0.3926666 -0.02200359 -0.45948952 -0.05431879 -0.28079432 0.12253055 0.2056086 -0.14111078 -0.39622262 0.2834015 -0.33158848 -0.52238464 -0.18956307 0.7950117 0.18779863 0.03415894 -0.00930705 0.32905188 0.59529614 0.76460564 -0.3905945 0.13738307 0.0043086517 -0.0033616442 0.31721976 -0.07424157 0.15717751 0.077665746 0.20462541 -0.35987756 -0.25064272 0.31114408 0.2975593 0.56128794 -0.007089705 0.5104396 -0.116772614 -0.15788843 0.033123046 -0.1759457 -0.3578357 0.06804326 0.033705693 -0.07291457 0.27453533 0.50788724 0.0494891 0.054256883 0.39614806 0.06883818 -0.11308375 0.2305289 0.16327822 -0.0956116 -0.005497027 -0.11580607 -0.5327428 0.2158642 -0.65931743 0.22799999 -0.058243126 -0.48895225 0.19556794 0.38494134 -0.21813774 0.014635353 0.117376395 0.11703322 -0.1462006
11 0.13298863 -0.101495385 -0.043565445 -0.48293343 0.15026261 -0.22576047 -0.22642465 0.035119176 0.11304982 0.3845424 -0.07807113 -0.10640573 0.13144453 -0.022261363 0.07704816 -0.4574541 0.21652502 -0.75368965 -0.2916959 -0.22491427 0.33039483 -0.47527176 0.059171725 0.4874458 0.53270555 0.08478133 0.09427248 -0.5090992 0.053128235 0.39771506 0.10730575 -0.009845519 0.20113246 -0.01807416 0.1732341 -0.109243475 0.11023938 0.24668133 0.016140878 0.17165983 -0.08606106 -0.09559204 0.5787839 -0.27605814 0.26223063 -0.250162 0.28359476 0.02980887 -0.2499683 0.24611141 0.059710495 -0.41293517 0.12837371 -0.0463893 -0.040806975 -0.36648482 0.31945142 0.07674069 0.21943893 0.31181726 0.47091162 0.05070823 0.11959221 -0.03625931 -0.32372406 0.19193882 0.32940802 -0.38150755 -0.11939492 -0.304589 0.06362508 -0.10742354 -0.31468016 -0.47717217 0.20470664 0.21393874 -0.49556094 -0.07773561 0.045640353 -0.3658522
338 -0.023991015 -0.23507747 -0.17396688 -0.08258266 0.066428356 -0.35193446 -0.3628803 -0.06297371 0.35814872 0.30097747 -0.07998545 -0.15374465 0.18623887 -0.014665012 -0.51116097 -0.16164784 0.21404423 0.26574972 0.11453716 0.53280556 0.46715596 -0.62813854 0.11596205 -0.21267775 -0.39873734 0.07248555 -0.16394629 -0.08721674 0.49440542 0.25219175 0.0041404692 0.06569794 0.5289201 -0.038829416 0.009424136 -0.75441 0.34981441 -0.28852674 -0.059701644 0.068657674 -0.3718691 0.16633953 0.10773812 0.5560456 0.16260386 0.35219413 0.18964155 0.44494998 -0.23005551 -0.24772877 0.15703854 -0.5469679 -0.13169934 0.008794669 -0.012611324 0.18019307 -0.32785425 0.08639626 0.16886882 -0.085100256 -0.04814171 -0.27379748 -0.0731193 -0.028802482 0.15837193 -0.054540023 0.048198532 0.09100749 0.10630379 0.11885323 0.2685052 -0.5546139 0.22496487 0.07496394 -0.013231565 0.026885433 0.13892946 -0.093506604 0.020939026 -0.5398806
474 -0.17868559 -0.030067377 -0.16822366 -0.37427273 -0.03304768 -0.34297842 -0.025355823 -0.31182095 0.15424128 -0.78780687 0.2861691 0.25010175 -0.11067035 0.019038478 -0.43366832 -0.14686726 -0.2295278 -0.33536792 0.1283135 -0.35579088 0.77309114 0.014082318 0.1812764 -0.16216896 0.42368683 -0.26758462 -0.42715403 0.33067948 0.3392976 0.0010397058 -0.2345107 -0.3886326 -0.07548759 -0.27887276 -0.0015788154 -0.14945327 0.091526955 -0.17315502 -0.09165326 0.18319386 -0.3429147 -0.17548546 0.275618 0.1349422 0.41808426 -0.08791673 0.29912108 0.08560797 0.31778663 0.08143284 -0.04933532 -0.28042793 -0.16123365 0.009816262 -0.26339018 -0.23843937 0.20494017 0.112327315 0.1255644 -0.21975057 0.072164126 -0.0701054 0.29906636 -0.48655954 -0.38900042 0.06572054 0.00043142002 0.13087262 -0.046183437 0.089993395 0.4814517 0.13907067 -0.24431537 -0.59669286 -0.2707064 -0.073923714 -0.3609014 0.28585005 0.32539856 0.27748117
100 -0.03459528 -0.14677426 -0.29922915 -0.0807976 0.053600155 -0.08554488 -0.54738545 -0.2372517 -0.20493805 0.29798496 -0.34631875 0.24198788 -0.001955364 -0.54937434 -0.26806498 -0.006337368 0.066721484 0.028570848 -0.071039505 -0.5096159 -0.0045847045 -0.46937442 -0.37961596 -0.25943476 0.50254154 -0.07931853 0.13650094 -0.38040653 0.4377583 -0.40101522 0.3121889 -0.24000575 0.6447649 0.32282954 0.3372096 0.106152035 -0.46613267 0.07187617 -0.07430845 -0.21156274 0.071718276 0.24604756 0.019643055 0.056578755 0.6477993 -0.22589158 -0.21633111 -0.66210485 -0.24825741 -0.47662452 -0.06235701 -0.72575206 -0.14117691 -0.11451498 0.11291852 -0.3584994 -0.3249543 0.23011763 -0.003149257 0.4893785 -0.39959678 -0.0121276025 0.22199047 -0.28111732 0.01790965 -0.3548319 -0.021197 0.30533653 -0.1594031 -0.35113177 0.116561115 -0.013343921 -0.34423772 -0.13172752 0.2906923 -0.48378986 -0.7978439 0.06920702 -0.307132 -0.2052595
50 0.32097095 0.082031325 -0.11878999 -0.44580722 0.38662538 -0.61374754 -0.23924305 0.025115969 0.11885509 -0.53602785 -0.32531467 0.09763753 0.30579266 -0.532254 0.10538494 0.3776328 -0.36937422 0.040435422 0.22140642 -0.65521353 -0.48990655 -0.36209142 -0.18081963 -0.09406802 0.3143811 -0.03215533 -0.16852725 -0.52313703 0.23420641 0.10717906 0.25541833 -0.028777784 0.62935776 -0.43786398 0.19404246 0.38826478 -0.019218467 -0.032497823 0.1574518 -0.42141306 -0.065581635 -0.07322295 0.22909857 -0.21811019 0.1714014 0.34185272 0.38908485 -0.23564188 0.32796898 -0.18000832 0.077571906 0.23231955 0.19052486 -0.19884941 -0.021029137 -0.15051953 -0.0013708584 0.46420988 -0.4366286 0.6103658 0.51295817 -0.23942658 0.14842433 0.114997834 -0.049705677 -0.3394764 -0.38339975 -0.20569476 0.06393153 -0.23397085 0.33011952 -0.047865134 0.19014773 -0.48962224 -0.05303052 -0.030425997 0.050973564 -0.025403708 -0.027981095 -0.5123268
479 -0.20039363 -0.30888996 -0.8277626 -0.29917052 0.049588922 -0.535785 -0.1749748 -0.538969 0.49532312 0.08112302 -0.123007536 0.07796312 -0.56979966 0.020071207 0.24895275 0.0808288 -0.49760222 -0.20218743 0.44205225 0.18657118 0.36621374 0.06533836 0.022613129 -0.155839 -0.17244242 0.06595761 -0.6479449 -0.084340304 -0.1726464 -0.068331495 0.06918292 -0.5094605 0.31023002 -0.3040525 0.14783883 0.0838794 -0.23800074 -0.04173898 -0.20078601 -0.46105066 -0.1106508 -0.49292073 0.6331192 0.2233091 0.2404262 0.5390615 0.2226578 -0.024064448 -0.059684753 0.15747343 0.07829585 0.090582944 -0.31914067 -0.18718253 -0.4381275 -0.18849792 0.19682606 0.1455806 -0.15248874 -0.19228992 -0.039985407 0.40774852 -0.06703452 -0.32778817 -0.34797066 0.16704643 -0.047394987 0.35933882 0.13634239 -0.016384004 0.08264964 -0.006225637 -0.6217132 -0.46495163 -0.16261446 -0.21601531 -0.41557896 0.29904884 0.728008 0.085277125
299 -0.60063684 -0.0027931891 0.3176518 -0.27897578 -0.25181973 -0.041840993 0.21042943 -0.3515387 0.23795839 0.62230146 0.08816428 0.24778184 0.058861602 -0.26350707 -0.104068674 0.07714669 0.34653613 -0.11040297 0.47943923 -0.612484 0.34449106 -0.5357784 -0.05523177 -0.04904547 -0.14909934 -0.08254571 0.22464733 0.16834109 0.4931923 0.12840517 0.47842255 -0.75503606 -0.39717934 -0.7140725 0.07321399 -0.34781706 0.23814666 -0.30092093 0.14328948 -0.15923765 0.021090254 -0.15814868 0.21297581 -0.15998895 0.11725223 0.447584 0.37811932 -0.3128596 -0.22287486 0.20290661 0.3200776 -0.37305784 -0.31582215 -0.31829458 0.015344308 0.033467516 0.32476488 0.080145285 -0.029660476 -0.31748992 -0.28015986 -0.15814032 0.34424388 -0.044197667 -0.16655137 0.08191595 0.1697882 0.101164475 -0.0028816124 0.31241065 0.031124724 0.5732132 0.5078347 -0.1931336 -0.2029184 0.11272596 0.028385542 -0.24117216 -0.10244307 -0.48716465
53 0.08885877 0.17781839 0.34066972 -0.4232821 -0.3753404 -0.09151411 -0.22115134 -0.22850037 0.33705342 -0.21009067 -0.44456553 0.57258534 0.018067796 -0.45037687 0.066495284 0.028372984 -0.18003239 -0.14350663 -0.38914907 -0.06730917 0.6513652 -0.5533012 0.10296879 -0.14469805 -0.058565445 -0.4687185 -0.1949279 -0.35004324 -0.50829446 0.47508082 0.6027253 -0.22098796 0.1734483 -0.041221462 -0.22241418 -0.05854316 0.15251651 -0.019233072 0.024776168 -0.72158724 -0.8277649 0.41643167 0.26061833 -0.11107446 -0.25052857 -0.02499948 0.05406384 -0.44653448 0.047743335 -0.3411368 -0.019019695 0.040644243 -0.3727755 -0.5850412 0.30758786 -0.68118376 0.39348534 -0.031310827 0.21165648 -0.0005035556 0.55819684 0.1776987 0.06186219 -0.21037 -0.17618474 -0.48253122 -0.19135356 -0.18877272 -0.10608572 0.23457874 0.19757016 -0.25797823 0.34014747 0.120178595 0.24773507 -0.06717099 0.23798701 -0.08641142 0.2556842 -0.018129462
198 -0.18048818 -0.11763984 0.8527384 -0.11735511 -0.2463308 -0.63045955 -0.6231302 -0.09751916 0.054758593 -0.2553571 -0.09905714 -0.017470727 0.5866467 -0.19618046 0.38580346 0.29666805 0.20227858 -0.7658516 -0.30580503 -0.004315932 0.19402324 -0.21299793 -0.13818046 -0.85528165 -0.30822644 -0.3628892 -0.066537246 -0.086823374 -0.025528926 0.06141738 -0.0126604205 0.38336268 0.46155244 -0.19178705 -0.44622013 -0.0386898 0.45766065 -0.21675034 -0.03742362 -0.27434647 0.2939887 -0.45656562 0.48479968 -0.34587285 0.06275388 0.24911882 0.67332506 -0.049251422 -0.2563258 0.4089502 0.16808796 -0.028583849 0.14310326 -0.6440937 -0.14544113 -0.056226477 -0.09057856 0.30821937 -0.17456236 0.37118408 0.49446157 -0.13283636 0.0772627 -0.16196042 -0.22941762 -0.21712197 -0.07553495 -0.15707691 -0.12996146 -0.15891586 0.12556589 -0.18648575 0.10382558 0.3633565 -0.028802002 0.1331985 0.026001997 0.010177647 0.12789464 -0.5602404
218 0.17324777 -0.083650246 0.07725987 -0.15635236 0.19835916 -0.43595314 0.12525506 0.06917213 0.16545044 0.18779871 -0.3722654 -0.7551197 0.33400705 0.2864235 0.6297439 0.27512726 0.17028604 -1.0412078 0.016177218 0.17694384 -0.02512728 -0.15699425 -0.055271093 -0.46523145 -0.34240296 0.25894293 -0.3756201 -0.043513987 0.13871059 0.13119549 0.2504631 -0.9569334 0.16870762 -0.23749119 -0.48394665 0.14977896 0.3629619 -0.06655249 0.09679057 0.56020445 -0.17926596 0.53834707 0.45646566 -0.03728265 -0.33101797 -0.13214307 0.11225083 -0.2551346 0.04877812 -0.50137013 -0.47843614 -0.32547206 -0.43576765 0.20413618 -0.33980384 0.14600444 0.10244502 -0.0035582061 0.100430794 0.11236387 0.13909538 -0.4920503 0.69472116 -0.064846665 -0.28450307 -0.6257847 -0.40495315 0.098914504 0.42534837 -0.1867835 -0.11740226 0.7148112 -0.020631747 -0.0815227 0.73565614 0.152528 0.16661924 0.10845699 0.42678022 -0.26293644
445 -0.4435304 0.6670321 0.33221036 -0.36000156 -0.13229144 -0.18243925 0.083448134 -0.3814745 0.06530602 -0.11473775 -0.46694314 -0.20332758 -0.08969601 -0.0041393335 -0.25326574 -0.03615106 0.09646286 -0.26226726 -0.4748284 0.66736424 0.6143529 -0.22103894 -0.39206323 -0.24705587 -0.16060291 0.065933205 0.18411544 0.0844291 0.3266105 -0.310864 0.497427 -0.39970833 -0.2413198 0.13097166 -0.22366512 0.19649202 -0.05659539 0.095728114 -0.108117774 -0.32059428 0.016022831 -0.32040995 0.17434789 -0.3980475 0.13380885 -0.24653643 0.25108832 -0.27881584 -0.124926865 0.33841723 0.5230844 0.051972058 0.025150983 -0.010573196 0.5634552 -0.32063872 -0.30213526 0.34396937 -0.42391554 0.2857463 0.32549328 -0.29662433 0.008580051 0.13628702 0.33393785 -0.46180668 -0.08851604 0.63340306 0.58630484 -0.083195575 0.021151362 -0.26442024 -0.4236856 0.33891302 -0.050842248 -0.0132168615 -0.1211482 -0.42847547 0.28331167 -0.6346882
541 0.06135486 -0.62093693 -0.2902677 0.23236883 0.27808827 0.1331831 -0.018371921 -0.6909948 0.29358566 -0.28251094 -0.13685066 0.17038089 -0.12523879 0.49306804 0.24431893 -0.49389806 -0.11571369 -0.57087135 -0.11105522 -0.20853913 0.6215789 -0.13245967 -0.008405787 -0.16890402 -0.10400349 -0.259596 -0.05784533 -0.28387797 0.15006553 -0.22578065 0.31939062 0.25329116 -0.19836642 0.027824411 0.31135678 -0.7369435 -0.15848002 0.3625754 0.043544307 0.41659653 -0.5692558 0.16670714 -0.4981795 0.49352688 0.04046304 0.22131713 0.081505075 -0.1705897 -0.53214 -0.58637106 0.09619383 -0.36712003 0.54983234 -0.23260644 0.08216766 0.38111866 -0.32427907 -0.15027545 -0.6879306 0.3537147 0.41310003 0.044144586 0.17446144 -0.05694516 0.44906673 -0.1342953 0.17061417 0.11443006 -0.35961294 -0.42753425 -0.12899499 -0.10541869 0.44739458 -0.19582415 0.16141304 0.037739005 -0.069799446 0.09889444 0.5829815 0.2835809
565 -0.118572995 0.32421032 0.09927351 -0.21476822 -0.18299538 -0.43688944 0.15170336 -0.371907 0.26800498 0.20483714 -0.18425587 0.46905652 -0.13808799 -0.026471063 0.2833994 -0.069325656 0.38983062 -0.2465117 -0.046350908 0.29205117 0.12371072 -0.13475645 -1.1516794 0.10685012 -0.6114359 0.035025872 -0.67540944 0.38686267 0.4422119 -0.16358563 -0.36758515 -0.42023703 -0.1440981 0.28874567 0.4771321 -0.42634654 -0.22724034 0.17410508 -0.20358583 -0.089442246 -0.727473 -0.119402744 0.16132419 0.44423229 0.31967387 -0.33111128 -0.20868503 -0.19663674 -0.33933833 0.19242932 -0.0041585434 -0.25476232 0.0219008 0.10776904 -0.56600106 -0.43025962 0.6117053 -0.100578666 -0.47370183 0.14533012 0.035971325 0.28425506 0.34824178 0.20562266 -0.08937484 -0.24284406 -0.4356325 0.13170557 0.25103772 -0.0025675131 -0.09121936 -0.19602972 0.3887392 -0.5345454 -0.23229012 0.34124795 0.30781093 -0.24777158 -0.77596885 -0.58529586
81 0.30508974 -0.35371912 0.09544349 -0.43954405 -0.26937872 0.27789098 -0.19455616 -0.22409713 -0.44860867 -0.50692433 0.17423569 -0.03237679 0.45629826 0.17892987 0.06083895 0.24924041 0.23868604 -0.10405783 0.46739614 -0.21996333 0.929805 -0.15046036 -0.46329322 -0.22694038 0.21457252 0.25559968 0.25273877 -0.2705049 0.38259202 -0.51464707 -0.23209032 -0.5843393 -0.2777009 -0.001723725 0.28842604 0.042812813 -0.42740908 0.26997513 0.036505304 -0.123470195 -0.61353356 0.26274633 0.5298292 0.041539676 0.018626908 0.011772982 0.3454298 0.15121469 0.14595516 -0.12679371 0.21649046 -0.5595814 -0.075455114 -0.31015077 -0.5563365 0.20439386 -0.27118087 0.0021848357 -0.2592936 -0.39630607 0.31461072 0.3951515 0.080239646 -0.16464989 0.39671236 0.14214687 -0.014251011 0.19056424 0.14728817 -0.026932888 0.43816438 -0.2882867 0.16324274 -0.011615636 -0.009769636 0.14591585 0.013741195 0.29180807 0.747115 0.19034886
184 -0.22811766 0.026071083 0.4923653 0.22309189 0.1754728 -0.5510931 -0.04996739 0.20770752 0.28098872 0.39356294 0.40261132 -0.29218206 -0.35779697 0.2743441 -0.20320083 -0.72529155 -0.1646513 -0.12213758 0.155431 -0.02019285 0.39035037 -0.7661354 -0.19358984 -0.35063833 -0.33856878 -0.16301721 -0.548438 0.22333519 0.426095 -0.06069641 0.6933985 -0.17740265 -0.01572733 -0.49669304 0.33441302 -0.08224997 -0.6219472 -0.017935991 -0.26418278 0.20774452 0.15934022 0.70456344 0.1469546 0.1050029 0.33005622 -0.20760654 0.23746768 -0.6469312 0.58011657 0.22644544 0.14701271 -0.49620146 -0.00792872 -0.07419313 0.08163003 -0.07470141 0.034968596 0.19446631 -0.1445937 -0.20053378 0.15824191 0.13853185 -0.49803132 0.13782336 -0.056666017 -0.4304431 -0.27147552 -0.09803793 0.26646745 0.25623426 0.16724892 0.39099646 0.55942905 0.00073047273 -0.2850719 0.4319282 -0.24109963 0.4979956 -0.027653167 -0.3719839
25 0.080449104 0.1351049 0.46446663 -0.0668204 0.27780578 -0.22865848 0.0629752 0.19159591 0.28052682 0.10758562 -0.2207317 -0.24780378 -0.39560142 -0.005560977 0.11552926 -0.46668088 -0.1201959 -0.52805936 0.024247881 0.627318 0.9220682 -0.23650399 -0.11350112 -0.50968754 0.24996108 -0.7484759 0.2963008 0.01048573 0.24534388 -0.47169906 0.08384803 -0.15128586 -0.42186043 -0.5625546 -0.1243729 0.3353522 -0.40831307 -0.40041804 -0.49824062 -0.24973519 -0.10704238 -0.4837061 0.17951077 -0.3435345 -0.04999721 0.17220901 0.10966096 0.063735574 0.52346015 -0.3310984 -0.08113213 -0.1312768 0.029413812 -0.25609592 -0.3189969 0.02376628 -0.23771444 0.55809397 -0.5955048 0.28425652 -0.10492545 0.028059455 0.1383165 0.070395045 0.16647822 0.43606862 0.058920316 0.109225534 1.2333155 0.24257697 -0.6246635 -0.09045884 0.4950445 -0.25700024 0.39230278 -0.37602514 -0.58026785 -0.053742424 0.015681649 -0.5445704
854 -0.5887188 -0.11331166 -0.38010988 -0.5036061 -0.23109959 0.108794 0.19260891 -0.048116848 -0.6154525 0.7037567 -0.24242996 -0.38720283 0.35416976 0.3272303 -0.12253668 -0.15376094 -0.01741435 -0.17045364 -0.078379385 -0.5610594 0.18707027 -0.7317941 -0.2983967 -0.58541185 0.24657968 -0.40065798 -0.9407407 -0.2565769 -0.4087852 0.20927244 0.043773018 -0.05970202 -0.049957782 -0.25387326 0.41132936 -0.15145446 0.0900396 -0.46109295 0.26717836 -0.11417132 -0.17637098 0.21345562 0.22899781 0.13473226 0.3766254 -0.3481033 -0.062008917 -0.26075545 -0.5277902 0.006547184 -0.31271133 -0.56152636 0.8209993 0.25412375 0.19455212 0.12285346 -0.10675567 -0.06285322 0.010598467 0.080214076 0.5131942 -0.08603601 0.016332075 -0.058130812 -0.18075018 0.14256339 -0.54158497 0.39161155 0.8113429 -0.14762226 0.16118897 0.14254679 -1.0121814 -0.17404696 0.107389934 -0.82320946 0.09162595 -0.0309008 -0.0873064 -0.31927016
1670 -0.36954027 -0.1263807 0.10200451 -0.5983092 0.4070863 -0.33028078 0.2041443 0.103432715 0.30009946 0.074282646 -0.028065251 -0.13211085 0.05255879 -0.39832705 -0.34239054 -0.112767875 -0.090890914 -0.074319825 0.1573449 -0.47608903 0.07923023 -0.34370762 0.37966022 -0.42582843 0.055004355 -0.43105218 -0.8530837 -0.35104278 0.3490307 -0.12805597 0.5359798 -0.40624425 -0.29213 -0.23069388 -0.32587522 -0.6208838 -0.53616726 0.03760699 -0.12882605 0.3968534 -0.2444466 -0.26974148 0.21879318 0.2577587 -0.2801787 0.31043375 -0.34683022 -0.07940029 0.46312815 0.6261737 -0.33175406 -0.606359 -0.27595392 0.110021986 -0.16974871 0.016881268 -0.21324657 0.10501366 0.058405075 -0.121708944 0.28356978 0.056924142 0.5389723 0.3962414 0.96940243 -0.46837682 -0.19697502 -0.09732382 0.2650719 0.25887224 0.07469509 0.13583322 0.5159411 0.15983012 -0.33045724 -0.29539987 0.010243227 -0.03449705 -0.065287784 -0.19964965
530 -0.15481967 -0.2977522 -0.36008677 -0.28346705 -0.32748234 -0.16470067 -0.1800352 -0.89577705 0.2954608 -0.6092149 0.018834177 -0.008687571 0.19396673 -0.29224765 -0.24801908 0.1405297 0.072537266 0.21315292 0.5645213 -0.34789655 0.54346097 -0.68380195 -0.21524043 -0.26979694 0.38848314 0.02406562 -0.44569808 0.1597021 -0.012360025 -0.090546384 0.020136612 -0.46639803 -0.09402234 -0.13348848 0.19361307 0.3006874 -0.16015536 -0.21580665 -0.48952997 -0.12321901 -0.20420259 -0.49332651 0.61371994 0.1445762 0.46781185 0.09895269 0.5492388 -0.075297005 -0.11930158 0.14768928 -0.12973522 0.17945191 -0.05391475 -0.3014868 -0.038358446 0.18735915 0.36147454 -0.10343735 0.21609956 0.068142 -0.10029324 0.046590008 0.30738875 0.39177462 -0.045249864 0.20108962 0.040581737 0.055245716 -0.17655432 -0.06833133 -0.17052828 -0.086041056 -0.26321137 -0.51846796 -0.15765648 -0.2847442 -0.2640579 0.33170763 0.38533992 0.07205526
379 -0.59836996 -0.4979771 0.18020032 0.08597874 -0.20958881 0.18529105 0.07652792 -0.22013004 0.41528922 0.4691433 -0.14898327 -0.29303437 0.21235119 -0.1820204 -0.5093544 0.13884838 0.3427915 -0.38839248 -0.055901255 -0.31981498 0.49960655 -0.89019513 -0.08921888 0.078547955 -0.30274314 0.36990744 -0.32932296 -0.22059296 0.5538349 0.25674686 0.24100895 -0.18548715 0.48526412 0.055946335 0.26633286 -0.15955563 0.45039427 -0.43207708 -0.23120077 -0.1412391 -0.24509773 -0.14580771 -0.27182823 0.2776528 0.50172395 -0.07323225 0.30659842 0.45047095 -0.48698762 -0.50629276 0.4450876 -0.33320826 -0.41684124 -0.22798117 -0.12765245 0.24024172 0.023890987 0.3588828 -0.0654022 0.27101573 -0.36387107 -0.40424162 0.24586445 -0.008307776 0.76833117 -0.45214865 -0.0042341845 0.058976073 0.2656903 0.42171204 0.20046157 -0.43540192 0.13559453 -0.24795151 -0.294026 -0.1429908 -0.019939728 -0.28731996 0.29973257 0.09534793
678 -0.16771118 0.14383815 0.10587878 -0.86888015 0.22448237 -0.5700324 0.09161961 0.1999256 -0.5232597 -0.37943292 0.112495154 0.47762293 -0.57692736 -0.44388223 0.12489563 0.38937038 -1.0059878 0.22981939 0.10022765 -0.52027345 -0.15699193 -0.7297344 -0.28910226 -0.13999134 -0.4162869 -0.23336618 -0.4826695 0.021630095 0.4267746 0.32060927 0.29255787 0.051935643 0.25778311 -0.04161995 0.45151612 -0.05805339 -0.048835825 0.03809539 0.10380709 -0.59876305 -0.020851558 -0.25241727 -0.30849043 -0.35728598 0.09251595 -0.4990978 0.55632496 -0.6066008 -0.0721981 -0.061148454 0.24120824 -0.474005 -0.019975577 0.098563805 0.06832895 0.8776856 -0.29535958 -0.22922848 -0.458535 1.0076793 0.60807383 0.14244625 -0.11349896 0.21059483 -0.24147607 -0.012344774 -0.59767354 -0.245347 0.5890716 0.14557101 -0.26879454 0.0045430213 -0.18366583 -0.41481355 0.25895232 -0.45821393 0.19492593 -0.030381385 0.46877122 -0.49995396
165 0.13159704 -0.17370333 -0.07707344 -0.348521 0.283764 -0.6235995 -0.49235952 -0.7055415 -0.1265735 -0.13941327 -0.122615024 0.6397363 0.1472158 -0.22096828 0.4812255 -0.4068113 0.09967035 -0.3958055 -0.224925 0.29718238 0.71413684 0.042427197 0.37758607 -0.29967514 0.13390565 -0.19248201 -0.012313641 0.07167256 -0.32063025 0.078625225 0.01341847 -0.01415077 0.19711934 -0.60447365 -0.26664823 -0.6834656 -0.36929542 -0.27316594 -0.16010377 -0.6818684 -0.466772 0.7014168 -0.17242594 -0.07262366 0.13788927 0.04917742 0.050097033 -0.11978948 -0.11253734 -0.15358189 0.9038961 0.010735555 -0.33152583 -0.04291653 -0.09674995 -0.10863608 0.3035929 -0.11798224 0.58130425 0.24584083 0.53009164 -0.293593 -0.030638648 -0.27200216 0.5317202 -0.8136959 -0.026387237 -0.14088935 0.17307387 0.015066204 -0.27580914 0.43285838 -0.1384485 0.25178668 -0.0057018776 0.32971448 -0.6422957 0.27363116 0.122493 -0.31385216
233 -0.037765574 0.3091444 -0.052555133 -0.18856417 0.19774312 -0.26148462 0.28989205 -0.4471932 0.26589313 -0.4737581 0.006329301 0.155457 -0.49625614 0.5207172 0.12971714 -0.4439431 -0.10457702 -0.4716756 -0.2246612 0.45311666 0.545503 0.37095395 -0.32692736 -0.41178665 -0.062059283 0.08404911 -0.34492746 -0.79833734 -0.37966868 -0.14168046 0.40500453 0.094168805 0.32709676 -0.7705436 0.13664694 0.030260596 -0.0013815427 0.7205265 0.09471364 -0.24101235 -0.05393023 0.38953194 -0.39984384 0.43380088 0.025538268 -0.010493138 0.4980393 0.42234176 -0.057071574 -0.054552875 -0.054221552 -0.68004686 0.47909164 -0.08048738 0.34894696 -0.025784405 -0.019361954 -0.612727 0.05699673 0.45473737 -0.056148168 -0.4316325 -0.22608297 0.07381333 0.7948747 0.10588726 -0.35356954 -0.3233524 -0.11346506 -0.28590038 0.1292081 -0.2348942 -0.4523861 -0.3077952 -0.19634491 -0.14327644 -0.2756993 -0.2763478 -0.17898284 -0.23416771
925 -0.21915396 0.16060004 -0.09560825 -0.19305584 -0.017848639 -0.012622548 -0.11541515 0.4582349 -0.13064608 -0.4780949 0.005718464 -0.07363198 -0.34991398 0.1898225 -0.2390608 0.056701645 0.60471225 -0.29631606 0.1934452 -0.29047358 -0.23712537 -0.7998484 -0.15575443 -0.26757738 -0.20737265 0.19766672 -0.35780895 -0.54408526 0.037823107 0.32034075 0.297084 -0.11736463 -0.65013677 -0.04356861 0.2237471 -0.37531635 -0.31818765 0.19993968 -0.72189 -0.27335888 -0.33111015 0.18508506 -0.19591644 0.05856384 -0.45880127 0.4150101 0.26054513 -0.4077369 0.23662382 0.0826431 -0.009695821 -0.3293605 -0.0019373314 -0.32158148 -0.48737606 -0.5428779 -0.05803485 0.042612746 0.23062009 0.3496666 -0.14463858 0.24601278 0.801805 0.34191138 0.027168876 -0.8116643 -0.76210576 0.17172767 0.45482242 0.13575757 -0.17883174 -0.06802585 0.47284254 -0.14317077 0.20452757 -0.25841454 -0.27610338 -0.54427105 -0.008651188 0.32994828
1362 -0.33552706 -0.00722154 -0.6295776 -0.34598064 0.39997715 -0.25084984 -0.037521116 0.14237556 -0.005308165 -0.09352945 -0.20757215 -0.028691169 0.17924806 0.04760736 -0.8744187 -0.18043941 -0.081857875 -0.41882253 -0.099836886 0.07049215 -0.1618965 -0.8352081 -0.2547918 -0.496776 0.025726492 0.5699929 0.223571 -0.08682956 -0.24504863 0.11300353 -0.5398632 -0.23774903 0.026913267 0.41002938 -0.67650926 -0.5768368 0.03283283 0.0046018204 -0.31011495 -0.22866392 0.009084419 0.42329645 -0.30387166 0.43842393 -0.41960606 0.43166387 0.19920212 -0.2990306 0.067250066 -0.18251534 0.33032724 -0.38351685 -0.19457728 -0.30766803 0.32128912 0.2398298 0.1587934 0.42691207 -0.2321514 -0.03518779 0.31613454 -0.4838916 0.21226034 0.7764269 0.044777766 -0.3218362 -0.8824836 0.25093994 0.5334725 -0.066236995 0.24804898 0.23813672 0.14443353 -0.7851443 0.20420982 -0.054641582 -0.41300422 -0.13405085 0.5208713 0.31584296
176 -0.48418796 -0.24755667 0.051441737 -0.13792388 0.13498712 0.28511295 -0.10421743 0.40495396 -0.2826494 0.5605028 0.8015871 0.009859059 0.37159422 0.70422393 0.38574502 -0.34133333 0.23299421 -0.054844648 -0.1419612 -0.22093722 0.09294402 -0.53364044 -0.56037146 -0.59434104 0.4558434 -0.44573268 -0.43436986 -0.19325554 -0.37902868 0.22817457 -0.39492413 -0.0555069 -0.5209641 -0.6861591 -0.093199864 0.08409514 -0.13901871 -0.3977722 -0.083665125 -0.17738958 -0.65576464 0.16316353 0.3226292 0.7557933 -0.10110023 -0.13960923 0.26897675 -0.4367329 -0.54787904 0.43010294 -0.1787894 -0.06469666 0.54316294 -0.057355575 -0.036850683 -0.15438421 0.09771619 0.0025870204 -0.24659574 0.36324203 0.6881413 -0.26057538 0.17386563 0.26047087 -0.4540381 -0.08281975 -0.4838632 0.44241384 0.53809905 0.2251666 0.63399875 0.11786598 -0.64730227 -0.3715618 -0.11103937 -0.67080164 -0.40677786 0.08515435 -0.21727678 -0.6482018
1084 0.2041033 -0.21971376 0.19363916 0.060852405 -0.16420971 -0.4642374 -0.44643807 -1.0650188 -0.105249226 -0.3408494 0.28534156 0.5750912 0.105842456 0.7653368 -0.03460606 -0.1758369 -0.20595075 0.1384612 -0.013955797 -0.020309288 -0.06011727 -0.41798067 0.11993286 -0.40248027 0.04493329 0.6259932 0.06500714 -0.28209987 0.42025694 0.32653755 -0.24641635 -0.46056464 -0.5220215 -0.24799322 0.32527164 -0.15800706 0.0740759 -0.383219 -0.72827137 -0.06551066 -0.4061881 0.15076067 0.26834044 -0.23421596 -0.08833631 -0.084254876 -0.4259373 -0.15242654 -0.05176404 0.18327825 -0.41637352 -0.48536947 -0.07567617 -0.32900774 -0.17541368 0.39869523 -0.29846853 0.04666781 -0.034721494 0.10653488 0.07970051 0.31325537 0.07051252 -0.2417881 0.42053112 -0.41304526 0.2769368 0.40446526 0.5234416 -0.46024796 0.21260974 -0.2446836 0.15977378 0.028743366 0.1386245 0.35976142 -0.055279247 0.74781805 0.5280483 -0.4473684
314 -0.11319666 -0.35131383 -0.40763223 -0.111318074 0.08200552 -0.6314438 0.31693277 -0.024565183 -0.7922138 -0.3954032 -0.052481256 0.29851043 0.11703034 0.46643347 0.40669066 0.18971173 -0.5541018 -0.28947785 0.058889523 0.4623752 0.44668576 0.19117634 0.14040084 0.16676167 -0.32193533 0.33331668 -0.12177529 -0.60241103 -0.37733468 -0.876077 0.43887925 -0.3740048 -0.1529717 -0.39737594 -0.064457454 -0.23133428 0.4851432 0.6221668 -0.36688748 -0.26185527 0.006845516 -0.1536779 0.43943125 -0.07017186 -0.28957167 -0.37424356 0.18717743 0.07473159 -0.46065882 0.32538348 0.26067755 -0.780285 0.23789355 0.46062362 -0.1983653 0.16884762 0.23157793 0.12782793 -0.052410696 0.6378487 0.19723828 -0.119021714 0.38535678 -0.0972646 0.020083176 -0.15238133 -0.48249057 0.5727393 -0.0034376823 0.10100883 -0.18105981 0.24649699 0.02865818 -0.09952839 -0.33383486 -0.459536 0.10765526 -0.20777664 -0.06377472 -0.25309813
555 -0.039308116 0.22407745 0.1503592 -1.1270288 0.13685024 -0.018547727 -0.14929959 -0.056467097 0.20704372 -0.1302183 0.05734197 0.28601602 0.15906838 0.6144805 -0.121700674 0.07017651 0.82801497 0.084523596 0.017122747 -0.45012683 -0.19146578 0.14391866 0.095803775 -0.32018346 0.4560988 0.06325899 -0.8565747 -0.078450225 0.53551376 -0.33980668 0.18512468 -0.4413679 0.075935535 0.19501428 0.16742225 -0.5801959 0.039875235 0.29035664 -0.15151894 0.28079775 0.04158694 -0.1538027 0.64178264 0.20796628 -0.2471319 0.68312204 0.31082597 0.2384994 0.18257618 0.1800874 0.26985073 -0.39889327 0.0057225735 -0.26508772 -0.36327824 0.2954805 -0.06466426 0.03873539 -0.22708048 -0.44784093 0.22384132 -0.15395603 0.33314398 0.54676074 -0.1827308 0.11825601 0.35367852 -0.018138282 0.26154003 0.28334862 0.5609572 0.12761448 0.343794 0.0517593 0.07514589 -0.08212403 -0.17397104 0.042530674 0.099606074 -0.6473397
240 -0.15862139 -0.18648528 -0.26424575 -0.2962676 0.15319562 -0.29966843 -0.5692466 0.43438172 0.7833683 0.535075 -0.4226212 0.995097 -0.20335756 -0.053272966 -0.49597538 -0.30924678 0.29559594 0.34523863 0.0009981595 0.06629103 0.01837805 -0.28445518 0.10892713 0.29638547 -0.42203537 0.26991233 -0.5298105 -0.02912195 0.16483615 0.27025965 -0.011813454 -0.38110933 -0.8236604 0.097955175 -0.3619063 -0.45479587 -0.41096225 0.11671763 -0.27078062 -0.14833458 -0.22406453 0.42104942 -0.020867733 0.06353843 0.27425048 -0.4347787 0.4066581 0.3129811 -0.10347303 0.06641929 -0.15816428 -0.42094415 -0.5698358 -0.7611036 0.087631546 0.30376512 -0.051568285 0.2611826 -0.2985133 -0.082613096 0.33540812 -0.3583185 -0.58484966 -0.40390337 0.19722441 0.13733388 -0.60768557 0.04430628 0.06675572 -0.23271185 0.49208146 0.64679813 0.75820106 0.072886966 0.15922025 -0.17104147 -0.34707788 -0.51004654 0.82443565 -0.43822613
742 -0.10935535 -0.075135864 0.22108604 -0.35891366 0.33276418 -0.49367893 -0.083141305 0.03138785 0.41050082 -0.011951403 0.22362329 0.46513084 -0.16196984 0.36824408 0.6151776 0.6334235 0.4707698 -0.34873584 -0.20170283 -0.20168534 0.2948135 -0.783253 -0.38447377 0.15408757 0.039195646 -0.4938917 -0.19445083 -0.23322673 -0.685967 -0.28315216 0.21679707 -0.0768186 0.35754913 -0.05285082 -0.08983103 -0.32273427 0.37870333 -0.14996728 -0.112746336 -0.0033447072 0.44565713 -0.35364765 0.11063048 -0.060590576 0.109694965 -0.6059779 -0.41885924 -0.49017164 0.51202244 -0.296028 -0.07393918 0.35326737 0.3587146 0.04883401 -0.19888476 -0.36121297 -0.18926542 -0.31007692 -0.16533254 -0.18657331 -0.1776508 -0.7138945 1.230727 0.42729983 0.62951535 -0.6517894 -0.45707694 -0.16930734 0.3290406 -0.3080055 0.54943335 -0.03964922 0.038260475 0.080917336 -0.6215099 0.092996605 -0.49455118 -0.1803401 1.252072 -0.69789076
27 0.3978903 0.3680308 0.22541903 -0.01470138 0.25154352 -0.7740219 -0.22846386 0.019060021 0.4732154 0.28311607 -0.6319019 0.13133514 -0.600184 -0.0025663006 0.16246827 -0.51403505 -0.042959232 -0.202517 -3.6594429e-06 -0.06100191 0.54049855 -0.45852557 -0.3557874 -0.29584444 0.37673873 -0.55218446 0.023700984 -0.19458562 -0.19835907 0.1791961 -0.07971413 0.04671187 -0.74358207 0.0137483105 -0.2960715 -0.17626557 -0.52773064 -0.37603965 -0.14054468 0.3528768 -0.14302583 -0.8800624 -0.022557165 -0.47248584 0.028613094 0.44205007 0.118811995 0.36453485 -0.03531024 -0.25623977 -0.11169702 -0.5264055 0.0099811535 0.41041073 -0.05748804 0.26229665 -0.2283722 0.3098818 0.18793717 -0.0069108233 -0.3492866 -0.39039558 0.019527819 0.20553094 0.16056131 -0.11842754 -0.20873904 0.47320336 0.29673564 0.26748753 0.08780579 0.34199688 0.64037895 -0.5705125 0.57168245 -0.33392146 0.68203485 0.27978557 0.46640268 -0.3840665
232 -0.99816096 0.32708457 0.5742441 -0.25727236 -0.37370336 -0.38101068 -0.16331367 -0.32374665 0.48276213 0.1539465 -0.03993164 -0.35801932 -0.57375765 -0.024791991 0.33634058 -0.043086972 -0.30535087 -0.7393348 0.11546901 -0.046766818 0.49513125 -0.41758493 -0.6208927 0.005432875 0.031291164 0.037971843 0.51919657 -0.16243385 0.27671576 0.18329856 0.06449262 -0.7043777 0.08405989 -0.040041424 0.12273954 0.433984 0.17484325 -0.0144702215 -0.097026415 -0.30420887 0.44290566 0.15081601 -0.042937443 0.41471982 0.28176785 0.062117513 0.15721972 0.56544054 0.08201878 -0.40092096 0.18264402 0.14739466 -0.0965848 0.31800187 0.4828095 0.201366 -0.14070183 0.7547833 -0.3365213 0.6084079 0.25281048 -0.4389942 0.24193278 0.29507488 0.6341383 -0.090213 -0.31244183 0.34073904 0.37665278 0.13114998 0.23248845 -0.53727937 -0.024846101 0.25789386 -0.41049033 -0.39863804 0.113956936 -0.24228908 0.65056115 -0.13740714
1211 0.35693085 -0.6640388 0.7688023 -0.34387 -0.58846664 -0.075913176 0.43172964 -0.29956993 -0.02752869 0.6354638 -0.25777942 0.02290849 -0.5286879 0.3585533 -0.032662768 -0.03724622 0.054303367 0.1861062 -0.3983273 0.10678316 0.4171915 -0.2622011 -0.086021 -0.29713959 -0.27938685 0.7463635 -0.41391063 -0.45379373 -0.4093849 -0.010207179 -0.026599254 -0.754873 -0.2463017 -0.9485758 0.83880687 -0.8398291 -0.3205871 -0.06991299 0.88592994 0.01584779 0.30523133 -0.1610825 0.46287042 -0.09850451 0.36673063 0.42844144 0.0132637005 -0.30198777 0.33035514 -0.52012515 0.2387176 -0.58109474 -0.055762637 -0.5444544 -0.06999603 -0.2818299 0.1984641 0.610006 0.3968069 0.15592079 -0.27548066 -0.27733296 -0.3608295 0.11014796 -0.09502967 0.24624547 -0.13447438 0.08926354 -0.022960482 -0.42072 0.22365783 0.33145538 0.06398796 -0.35021514 0.14244162 -0.27611405 0.6507589 0.021150555 -0.036197297 0.4046726
120 0.1645146 0.32642546 -0.36543056 -0.4874475 -0.28456885 -0.13497941 0.1275454 -0.25812548 0.32094073 0.4367203 0.41627714 0.13920501 -0.1458379 0.5885378 0.021645265 -0.35416096 -0.34809658 0.11224686 -0.44954494 -0.76844954 0.53594494 -0.17559534 0.15880784 -0.6273771 0.55218923 0.13118987 -0.0697265 0.44399744 -0.2086567 -0.37168086 -0.09182709 -0.19770783 0.46385726 0.3478594 0.19117731 -0.14259987 0.94467014 -0.115528956 -0.34390688 0.14803293 -0.18717203 -0.0476407 -0.007881364 -0.14472258 -0.04775075 0.113744155 1.0636592 -0.23388901 0.46466127 -0.39970115 0.29175913 -0.46671802 -0.7261619 -0.9637836 -0.046011552 0.18182983 0.46830165 0.8498875 -0.33232638 0.075379595 0.34017238 0.36504826 -0.16021037 -0.3625152 0.6552339 -0.089120425 -0.25754234 0.18892406 0.28395042 -0.32135126 -0.26120937 -0.059009135 0.038104277 0.41641182 -0.5567857 -0.29404756 0.21258117 -0.83132565 -0.17544322 -0.14881645
283 -0.3514855 -0.2948911 0.5210415 0.06674096 0.76562643 -0.22859724 -0.03676435 -0.46408546 0.43440986 0.2342057 0.27520835 0.39330524 -0.66147196 0.14226176 0.1664842 -0.11530465 -0.24629915 -1.1206793 0.28595752 -0.5354218 -0.03191433 -0.009586176 -0.34667566 0.5478959 -0.058980905 0.007227394 -0.24936798 -0.27586833 -0.17353772 -0.21354237 0.77687657 -0.16782653 -0.12200181 -0.2720782 -0.59549695 -0.31558368 -0.2715909 0.5023632 -0.17438881 -0.62507117 0.10585919 -0.17857653 0.45218083 0.40912315 0.31511846 0.28846225 0.4382976 0.33495212 -0.16615263 -0.63725233 -0.25573403 0.21981771 -0.3479688 0.011528945 0.58258736 -0.05192438 -0.14563246 0.33109316 0.11024991 -0.10316057 -0.29754007 0.44714737 0.2257705 0.054521374 0.05198607 0.256201 -0.6034985 0.21988535 0.42634434 -0.18269122 0.5196409 0.028182164 0.45193186 0.38096216 -0.16256939 -0.6725902 0.28129312 -0.49071625 0.83581716 -0.10625512
131 0.3308716 0.53279513 0.017198274 -0.1863585 -0.5097567 -0.38032043 0.50551337 0.06549296 0.49091443 0.29092526 -0.42760304 0.3305871 -0.09320936 -0.08403561 0.13432111 -0.29606694 -0.07802516 -0.7254184 0.23646784 0.23558256 0.06433515 -0.1289242 -0.33790547 -0.26342866 0.04773058 -0.3287456 0.15775116 -0.37921563 -0.14213282 0.5812735 0.15472575 -0.036347464 -0.5871798 -0.039669134 0.39567664 -0.30300707 -0.16512139 0.30668405 -1.0168949 -0.0019181797 -0.1228756 -0.04323857 0.37969187 0.34733573 0.65757024 0.5291967 -0.2714099 -0.95234734 0.16776912 0.036195315 0.08283146 -0.23541564 0.093658686 -0.045282036 -0.7314581 -0.23576503 0.19977887 0.47132418 -0.042078722 -0.10600369 0.49755973 -0.19473282 1.3115802 0.63069856 0.29533783 -0.22664599 -0.3708445 0.269866 -0.1698084 0.025328107 -0.42019337 0.05254426 -0.24957828 -0.0006943296 -0.35710454 0.1827184 0.2542409 -0.02369022 0.2725538 0.0038730255
688 -0.28824338 -0.06402625 0.3247268 -0.4928932 -0.30629402 -0.12835486 -0.077096775 0.13424692 -0.10892319 0.0808296 -0.1559459 -0.37127507 0.43754643 0.58806026 -0.5152294 -0.20951611 -0.27639544 0.039282523 -0.5925334 -0.52107984 0.2778479 0.032882858 -0.209621 0.15888321 -0.18464729 0.6315552 -0.42420667 -0.029827558 -0.45685363 -0.40155324 0.48806518 0.3870055 0.08462736 -0.6032613 -0.08450767 -0.25314584 -0.14022656 -0.09088947 -0.40463734 0.09770235 -0.5748772 0.20311248 0.02738573 0.050672643 -0.34320283 -0.06718826 0.35855585 0.041217625 -0.39062968 0.123815075 0.40426192 -1.294258 -0.48927373 -0.13159588 -0.19826373 0.2974705 0.29139447 -0.41818565 -0.3625679 -0.012760646 -0.20115878 -0.15787114 0.48816344 -0.1570868 -0.039454177 -0.066009775 0.32640335 0.39082524 0.07508675 -0.28694716 -0.08086246 -0.6057559 0.10541265 -0.18430202 0.04242551 -0.30412674 0.19472809 -0.51301557 0.6402261 -0.20512398
2073 -0.57710147 -0.30509207 -0.22162178 -0.55264056 0.31382605 -0.27222887 0.023370078 0.43276772 0.47372213 0.3137167 -0.60375404 0.036124 0.029491913 -0.1699695 0.110040836 0.10236595 0.62412363 -0.32898426 -0.68176943 -0.3589615 0.113699496 -0.2679062 0.39902914 0.23242679 -0.15618442 0.17058547 0.3885865 -0.04709292 -0.15898255 0.14074612 -0.15419781 -0.7756906 0.118304126 -1.2147254 -0.26966625 -0.7926258 -0.35903683 0.58206594 0.4818049 -0.6021016 -0.4349412 -0.82702804 0.75141436 0.115022935 0.655452 -0.18832695 0.36156887 -0.37819588 -0.0937687 -0.7617704 -0.041375313 0.0030962308 -0.06795024 -0.4669669 0.9788879 -0.2174269 0.471282 -0.57227755 -0.3216606 -0.35563913 -0.505506 0.19886574 0.04874631 -0.098503634 0.3726944 -0.54026884 0.3095065 0.39574248 0.41492924 -0.015929379 -0.40919474 -0.027058551 0.5527288 -0.28417832 0.29874355 -0.7452068 0.2754894 -0.052046955 0.14647077 -0.53043425
272 -0.58198243 -0.30207202 -0.004593192 -0.1255378 -0.27647692 0.47143835 -0.29024664 0.2983789 0.20889805 0.13575557 0.16620274 0.3762143 -0.23258781 -0.15755008 -0.5525042 -0.2822889 0.49158263 -0.28773314 0.03792927 0.19407779 0.87653446 -0.7749341 -0.09141439 -0.49385783 -0.37442857 0.26204854 -0.5695727 -0.15191723 -0.07620536 0.47149268 0.32293516 0.66541654 0.703543 -0.10030339 -0.12893857 -0.20767853 0.068932205 -0.42028138 -0.10280188 0.5677375 0.33977765 -0.37772653 -0.03665774 0.19549824 0.38981506 0.18222067 0.5123692 0.19249187 -0.45819795 0.21309336 0.015831301 -0.82351637 -0.5097648 -0.24057294 -0.13213205 0.184437 0.07239607 0.07402905 0.2685411 0.052963898 -0.50241333 0.09450265 0.3936526 0.03243487 0.23993218 -0.1032857 0.27769607 0.23551583 0.24990915 0.30136874 0.5039879 -0.2193376 0.7145274 -0.3421052 0.21170396 -0.25439388 -0.13923027 0.10106631 0.5028301 -0.10413421
463 -0.44284493 0.1322867 0.046646923 0.04173145 0.06823402 -0.49662375 -0.0031861418 0.65733284 0.117594406 0.021626439 0.2322743 -0.064728275 -0.37062883 0.30609325 0.25641283 -0.010936141 0.29923674 0.17263618 0.33283687 0.2527252 0.58151186 -0.37957188 0.20550525 0.039479032 -0.90331405 0.59252685 -1.164512 0.1338275 0.52735645 -0.115131766 -0.35041425 -0.28266087 0.5220666 0.29224786 -0.26910362 0.29889107 -0.10242342 0.7384867 0.20182702 0.8926196 0.2752342 0.014072181 0.12543708 0.28240603 -0.007795427 0.54178256 0.16512816 -0.48055553 0.2117706 -0.59046537 0.6368887 -0.4871691 -0.1445807 -0.25596613 0.025417307 0.0074838847 0.21076599 0.011815556 -0.14267854 0.2909839 0.46121818 0.33177227 0.8550278 -0.07552709 0.3087743 -0.2350897 0.08066144 -0.10935421 -0.23706521 -0.3481374 0.21658508 -0.089991316 -0.20996732 -0.87450296 0.35223565 -0.4241425 -0.5612306 0.34709048 -0.33659288 -0.56727743
435 -0.50308484 0.04491504 -0.27673697 -0.98528486 0.35510477 -0.823142 -0.56433445 0.17858595 -0.69944036 0.2629878 0.18980962 0.040217806 0.4537564 -0.05806739 0.5520411 -0.27822858 -0.011829897 0.38300458 -0.5607383 0.48938665 0.5098617 -0.41450915 -0.151312 -1.0997952 -0.16649032 -0.6771905 -0.12739193 -0.04800467 0.62486166 -0.13217634 0.24230866 -0.10446963 -0.37493986 -0.37520778 -0.13432185 -0.02960504 0.35892063 0.0019968888 -0.08790952 -0.10490214 0.08982432 -0.37854612 0.16513263 -0.03377444 0.059307966 0.07004146 0.035944637 0.6063497 0.093762 -0.11493245 -0.2571802 0.030730186 -0.21184266 -1.0056449 0.5857964 -0.3186431 -0.06117221 0.7957475 -0.048848573 0.57853484 -0.24161573 1.0019187 0.42989963 0.521195 0.10667907 -0.46756405 0.2730586 -0.59717906 -0.738252 -0.5000485 -0.30116126 0.56637233 -0.098789856 0.04077792 -0.009027624 0.19825438 0.2740138 -0.38796902 0.073187895 -0.26225528
868 -0.56523573 -0.14650415 -0.058237217 -0.20327681 0.26232445 0.4015378 0.05565979 -0.078424625 -0.7025072 0.48504308 0.13924208 -0.32519767 0.26735365 0.5831176 0.37861437 -0.32877052 0.4379118 0.21918356 0.00439129 -0.38700867 0.024795348 -0.7524889 -0.48398107 -0.80893624 -0.046851534 -0.3044973 -0.7768839 -0.661233 -0.7395214 -0.011991987 -0.06286335 -0.38230747 -0.45838714 -0.87789404 0.5127744 -0.36351863 0.054938238 -0.9424496 -0.0762963 0.015774246 -0.38932014 0.22874805 0.40616706 0.6658659 -0.06544877 -0.14834687 -0.21811183 -0.21716611 -0.5111083 -0.34746832 -0.58121693 -0.2705212 0.4907398 0.1370591 0.07359936 0.10586145 -0.16133857 0.10130386 -0.07534815 -0.035322182 1.0522702 -0.2737655 0.13939036 0.11006573 -0.16264595 0.19363478 -0.70920634 0.20324226 0.8186946 0.10546867 0.6741661 0.0064568585 -0.8690533 -0.35513267 0.08805421 -0.8801048 -0.24042644 0.4158113 -0.15824564 -0.5193979
1781 0.09608763 -0.11763061 0.3903409 -0.78720355 -0.8706867 -0.20938939 0.057871155 -0.022635555 -0.20776689 0.1130775 -0.2833681 0.51709455 -0.98028195 0.39684698 0.26531103 -0.27022618 0.29634583 0.011344015 -0.35534015 0.24039546 -0.017597018 -0.15134293 -0.28931284 -0.49054375 -0.3841342 0.81246287 -0.8135311 -0.28060362 -0.6780375 -0.050092347 -0.1814399 -0.5016468 -0.2847497 -0.65245175 0.447623 -0.58423066 -0.12609003 0.43170142 0.63625145 0.018964116 0.12234908 -0.10056792 0.26485494 0.11815135 0.24942751 0.13775802 -0.21803463 0.06176933 0.4048494 0.069001034 0.23608519 -0.5047852 -0.21277316 -0.59823173 0.059341636 0.14435787 0.28982273 0.59250236 -0.05852508 0.6211501 -0.1439803 -0.3288366 0.20996435 -0.059647772 0.2056247 0.39100158 0.25475156 0.45349297 -0.32422858 -0.14523117 0.47672847 0.013717928 0.13286786 -0.029491564 -0.25135118 0.06506672 0.094636336 -0.25977504 -0.04556607 0.3988897
408 0.4916563 0.10189157 0.42950454 -0.15232845 0.038617264 -0.007998943 -0.6942203 -0.42338786 0.12794329 0.16926838 -0.21101876 0.1695954 0.03372358 0.70110077 -0.20986108 0.11057952 -0.7339989 -0.069133826 -0.013104005 -0.49575433 -0.26672727 -0.43792582 0.12014915 -0.4125807 0.4140675 0.61276394 -0.03906577 0.46898508 -0.19908205 -0.738523 0.23952168 -0.26553106 0.31018907 0.058159508 -0.18286881 -0.30666018 -0.14397661 0.13841906 -0.187824 0.43189427 -0.13505584 0.15541294 -0.2873339 0.59103376 -0.06186206 -0.5571506 0.693109 0.289428 0.3591566 -0.7976861 -0.3440494 -0.2426766 -0.6112162 -0.9274667 0.17107768 -0.21679573 -0.13944963 0.6325469 -0.23884343 -0.010536153 0.4555591 0.15854926 0.37152174 0.046482082 0.12940592 -0.30414414 -0.047253646 0.514982 0.72119635 -0.47187096 -0.48997635 0.08826673 0.3694102 -0.4339591 -0.49764985 0.24491845 -0.51253015 -0.7829051 -0.19706108 -0.02800248
262 0.33615854 -0.25464863 0.06617651 0.56321335 -0.2849435 -0.85687536 -0.33683148 -0.005982559 -0.5450341 0.32947505 0.019101901 0.26152852 0.2155886 0.3364486 0.7367487 0.13528071 -0.039256755 -0.27654263 -0.03180415 0.44616538 0.18231094 -0.34438434 0.17858534 -0.07039044 -0.15406486 0.099766836 -0.60995024 -0.5066052 -0.15821452 -0.29645893 -0.18520406 -0.27354717 -0.075153954 0.034024633 -0.011836574 -0.09053049 -0.34732333 0.15697542 -0.056784775 0.077727325 -0.18784262 0.025439618 0.15623187 0.5328184 0.14563544 0.45756254 0.7298172 0.26421368 -0.16840868 0.0854116 0.11242982 -0.26878518 -0.3728261 -0.16522905 0.202911 -0.43874276 0.5005405 -0.18533932 -0.24923892 1.0315543 0.30039814 -0.09409914 -0.0519559 0.09559258 0.3285041 0.33148706 0.1613603 0.38511547 -0.003905587 0.13085459 0.70517695 0.17449112 0.22882992 -0.32522935 -0.0052193976 0.28767508 -0.57904804 -0.39147675 0.5640936 0.5158618
1040 0.06863658 -0.60955817 -0.26746082 0.06080547 0.20054494 0.12861098 0.062455386 -0.24813315 0.1511509 -0.2389334 0.0919619 0.31942353 -0.3899568 0.50576645 0.18288088 -0.39857766 -0.15538326 -0.45768175 0.07942965 0.088593274 0.30031884 -0.1082395 -0.118142374 -0.5110365 -0.34311572 0.12739706 -0.15255925 -0.33780697 -0.3637847 -0.63532406 0.5091674 0.19788587 0.21881266 -0.34104577 0.40684047 -0.34734157 0.5042661 0.28803924 -0.47737312 -0.08777694 -0.7826984 -0.286601 -0.15039775 0.52089024 0.35884422 0.11479636 -0.42283997 -0.3008282 -0.5542287 -0.51199096 0.2783112 -0.5451928 0.33385032 0.44584796 0.29370925 -0.3215089 0.5929792 -0.28931567 -0.3714781 0.6479352 -0.02990127 -0.08428191 0.73762786 0.59527457 0.73802793 0.17067146 0.36836112 0.13832021 -0.84077704 -0.082443744 0.036216967 -0.073309 -0.28828865 -0.36726743 -0.46074075 -0.03663478 0.17627996 -0.26030496 1.0064627 -0.20953946
895 0.049013797 -0.24416608 -0.028497495 -0.21481957 0.5103143 0.103003316 -0.38767713 0.5196601 0.3802931 -0.31854197 0.49477232 -0.3155595 0.79253894 -0.19364719 0.36934793 -0.3743901 -0.19586876 0.28405306 -0.102077715 0.40176558 -0.30252093 0.07801372 -0.33899727 -0.84987706 -0.0048759445 0.48482993 0.14608455 -0.77542907 0.37557733 0.2158621 0.51371825 -0.5453926 -0.48456284 -0.23337775 0.07072617 -0.6037043 0.63730854 -0.39655283 -0.51678634 -0.25506166 -1.1036866 -0.5453397 0.5458246 -0.6686952 0.63755655 0.30348358 -0.5512733 -0.091577135 0.79529184 -0.18777652 -0.05056974 -0.57268304 0.58032215 -0.709772 0.332516 0.21290256 0.2828937 0.12776214 0.27849457 0.59371364 -0.34895697 0.05738944 0.34891936 -0.4944211 0.18078254 -0.0785378 0.0716446 -0.28182402 0.7290438 -0.354662 -0.06550213 0.89419746 0.13898689 -0.67926365 0.41026962 -0.24415208 -0.03571115 -0.21370603 -0.15627603 -0.082291506
808 0.26808885 0.6648764 0.3311144 -0.7660747 -0.068856575 0.03196698 -0.38079995 0.41100252 0.91056406 0.1222382 -0.3823128 0.8576137 0.2522467 0.40752375 0.23694286 -0.13261786 -0.16705817 0.04769613 -0.3141264 0.63796026 0.21015765 -0.3766159 -0.721409 -0.12353723 -0.786205 -0.26946646 -0.25601676 0.038302716 -0.4962444 0.15082213 0.003995817 -0.3741416 -0.41153923 -0.5220487 -0.15300478 -0.63551676 -0.09723952 0.59341437 1.1489059 -0.56579334 -0.60801613 -0.34052965 -0.48484296 0.08531931 0.49263704 -0.80755115 0.15200791 -0.246799 0.30075815 0.60534143 -0.1010778 -0.65981895 -0.4410145 -0.14539856 -0.24434102 -0.02932313 -0.20256545 0.7147131 -0.12618166 0.6633952 -0.0015601749 -0.2176892 0.72235477 0.13321435 0.04122431 -0.112262644 0.22015984 -0.082255624 -0.07247527 -0.75145155 0.344263 -0.23356503 0.12306826 0.39074105 -0.27065948 -0.9190811 -0.0019256267 0.0662617 -0.23249118 0.06671824
330 -0.1606986 -0.07045708 0.024526974 -0.8696988 0.3127678 -0.30843893 -0.35285154 0.6984938 0.4265207 0.12710431 -0.26663896 -0.201559 0.33258238 0.12895046 -0.16251637 -0.032857202 -0.115077876 -0.15470858 -0.042855155 0.11809283 0.1642452 -0.13049121 0.10670285 -0.23093687 0.17133534 -0.36794525 -1.0051786 -0.45405605 0.01803807 0.18875174 0.020815939 -0.48606038 -0.8581175 0.20465338 0.25380573 -0.36071903 -0.7022655 0.006910032 -0.32645616 0.022199268 0.15088418 -0.121163264 0.11346924 -0.10900515 -0.8667342 0.67742145 0.75175285 -0.08170723 0.57595766 -0.19515532 -0.17546844 -0.25827515 0.15649687 0.10281361 -0.32566887 -0.57371855 0.24844974 0.25910228 -0.07984165 0.19733317 -0.29820603 0.20252033 0.20162001 0.2451645 0.9091476 -0.33391693 -0.0728523 -0.05963839 0.93917114 0.33342087 -0.23744506 0.24795885 0.21901007 0.26756993 -0.20806476 -0.0305289 -0.03243357 -0.35084528 0.22253704 -0.29635704
861 0.061042793 -0.3435075 0.57044804 -0.550331 0.081784315 0.2526088 -0.42275348 -0.017674813 0.15576524 -0.15823103 0.029030954 0.4450546 -0.05886706 0.048759397 0.18871103 -0.06423692 0.28001451 -0.44035 0.6609995 -0.14650007 0.30062324 -0.8339334 -0.0065736603 -0.57355237 0.31605572 0.05485381 0.012801982 -0.2294061 -0.5825079 -0.061252616 -0.7142409 0.06004258 0.06068329 -0.50879985 -0.37310168 0.41214275 0.4818262 -0.11643086 0.11319695 0.29549116 -1.0408401 -0.033215124 -0.1467087 0.07102157 -0.28529245 0.28078866 0.4668065 -0.26936457 0.048096582 0.48488337 0.20427343 0.08335783 0.24995285 -0.098985635 -0.065893695 -0.6906428 -0.006765232 0.022525093 -0.1991983 0.98283273 0.66843724 0.40835524 -0.4077514 -0.61374795 -0.79246193 -0.5773261 -0.5112826 0.1970566 -0.2400466 -0.37027887 0.9717333 0.24793251 0.15984024 0.24861164 -0.31797266 -0.07526477 -0.3106009 0.025745727 -0.1455114 -0.7113743
1836 -0.12881394 -0.26322982 -0.0090270415 -0.2574055 0.76652026 -0.28940883 -0.27596396 -0.35815793 0.30636165 -0.672183 -0.6802413 -0.049932156 0.07893927 0.518153 0.14231178 -0.28919992 -0.37128448 0.14431971 -0.13747402 0.058596995 0.55772007 0.15635276 -0.27212992 -0.7117178 0.3663836 -0.79363656 -0.2411266 -0.09256954 0.6150402 0.18016541 0.44804895 -0.18047734 0.42270035 -0.73907244 0.056726694 -0.0002865185 -0.2184411 -0.63400435 0.1443731 -0.53742677 -0.10333862 -0.13149746 0.23299193 -0.07650401 -0.07427077 -0.30662116 0.57691824 0.01918638 0.09798472 -0.12885678 0.055677213 0.30693892 0.080189876 -0.26746738 -0.16522937 -0.018071903 0.18746926 0.002254133 0.8611656 0.5911155 -0.3556696 0.870355 0.4765156 0.17699356 0.30810815 -0.056366213 0.021361696 -0.09938086 -0.05317597 -0.28827044 0.68898237 0.4625848 0.19407815 0.011002449 -0.88328695 -0.09359886 -0.1384262 -0.25982893 0.16014963 0.34588268
929 -0.28096196 -0.06765224 -0.14531495 0.32971054 0.4406331 -0.753334 -0.07100197 -0.24975581 -0.8436308 0.110340714 -0.354039 0.037276354 -0.23087718 0.23836312 -0.49283132 0.28863117 -0.03753506 0.16261579 -0.6326304 -0.05898647 0.34011963 -0.29968438 -0.057453506 -0.26703203 -0.6612298 0.11640622 0.3302199 -0.29575554 -0.019624032 0.14796516 -0.0699335 -0.6734527 -0.21407463 -0.19203484 0.15058157 0.12155715 0.4236399 -0.022459742 0.14095882 0.36747828 -0.25342187 -0.28356493 0.26210216 0.5506445 0.58092076 -0.08413332 0.48936018 -0.0327374 0.63890487 -0.2185591 0.47781873 0.25282168 0.65350705 0.39509162 -0.0062997746 -0.47424766 -0.093714565 0.8309986 0.27288228 0.012464007 0.22869052 -0.2635442 0.18654612 0.6947884 0.3912879 -0.23391241 -0.51862895 0.35899073 -0.44736916 -0.46753645 0.018503066 0.26090682 0.32115397 -0.011429008 0.11155171 0.19924964 0.061600666 -0.37311113 0.94568425 -0.18336494
268 0.09755596 -0.3348034 -0.4033619 0.3738979 0.25989643 -0.36005574 -0.041166965 -0.31823045 -0.62065434 -0.30793414 -0.1615597 0.14444922 0.35760775 0.849931 0.29378107 0.10049809 -0.25604296 -0.36660242 -0.14453721 0.22841093 1.1800593 -0.19878228 0.13808528 0.3401872 0.46146122 0.21966676 0.031423535 -0.74554276 -0.24392764 -0.42160243 0.13591075 -0.3590502 -0.5831306 -0.15798058 0.20490658 -0.41437736 -0.015323172 0.1589912 0.035192415 0.1134544 0.028020723 0.16348666 0.09724253 0.48276287 -0.0059035397 0.1264856 0.06641642 0.2328048 0.028721092 0.30778566 0.36174658 -0.47000018 -0.45838937 -0.25546506 -0.6864941 -0.098535694 0.43963057 -0.21727818 -0.57023346 0.64025664 0.059397608 0.035386454 -0.24028347 -0.20095512 -0.07730338 0.07626025 -0.07748775 0.22075567 0.45223248 0.1014177 0.37296784 -0.5632971 0.41978407 -0.019284913 0.3232711 -0.056628563 -0.067855 -0.04492888 0.812886 0.28501576
305 -0.5725157 0.28931537 -0.09301544 -0.6368069 -0.0301515 0.17618865 -0.053403303 -0.54755366 0.49141467 -0.33340073 -0.10894183 -0.23443593 -0.58184093 0.22435199 1.0001549 -0.5603876 0.76041484 0.11169769 -0.14954187 -0.13016373 0.5601276 0.098052524 0.5242445 -0.033877764 -0.28193572 -0.13285269 -0.02735978 0.3166145 0.4750828 -0.18207164 0.28640407 -0.46179995 -0.0954593 0.38367948 0.115529306 -0.16239358 0.24161245 0.13888569 -0.086437374 0.034909118 -1.259895 0.2954038 0.29529688 0.52272135 0.358048 0.30895552 0.044917714 -0.6273668 -0.056195058 0.016706847 -0.13956097 -0.22900073 0.2689802 0.4363766 0.001331515 0.13209307 0.10767636 0.21969824 0.0658282 0.3716059 -0.08383043 -0.17550321 0.36864293 0.3646172 -0.17080347 -0.5467671 -0.10519685 -0.42058697 0.39920458 0.16863458 0.1077985 0.42651215 0.63154775 -0.49185082 0.6877168 0.18221933 -0.39426172 0.05487456 -0.20437452 -0.32988766
520 -0.26171675 0.14036566 -0.37805954 -0.13809475 -0.17391706 -0.056776714 -0.12128413 -0.42401475 0.15620379 -0.29086876 0.07778977 0.25033766 0.0512972 -0.102638334 0.20682469 0.20493498 -0.39106792 -0.15568417 0.2947747 -0.52036947 0.29986203 0.34678867 -0.005371635 -0.14139548 -0.080741525 -0.14195521 -0.43032333 0.08670756 0.66816235 -0.26539013 0.13118899 -0.9167659 0.6900035 -0.3551661 -0.082483895 -0.08723139 0.13129067 -0.11965032 0.5263431 -0.520405 -0.26422626 -0.33823627 0.9638916 0.024173798 0.021895997 0.0535857 0.6074444 0.15493107 0.21862556 0.11795829 -0.4797448 -0.061810236 -0.3986365 -0.45651063 -0.34008184 -0.38256788 -0.12193948 0.3589749 0.10496765 -0.44298905 -0.1208601 -0.11865107 0.3558694 -0.10986846 -0.48344907 0.08225741 0.053495426 0.6087373 0.11360393 -0.031969026 0.23133923 0.57579863 -0.1099127 -0.43286142 -0.50620955 -0.16868812 -0.63926333 -0.25845784 0.5551135 -0.058037627
650 -0.44565022 0.29688305 -0.021882026 0.11369461 -0.22032155 0.17186925 0.3972593 -0.14936367 0.5506397 -0.10224409 -0.56283695 -0.30053344 -0.26576668 0.19530898 0.003293259 -0.39917368 0.3039497 -0.8113139 0.12652119 0.11199117 0.4739059 -0.5986698 -0.099565744 -0.2202174 -0.40048787 0.039496318 0.6327369 -0.056825288 0.41766527 0.10088513 0.022799836 -0.71040493 0.10127175 0.28115895 0.081411816 0.03138091 -0.115562454 -0.32901698 -0.18610352 -0.30714583 0.57187617 0.23619825 -0.10387056 -0.08698882 0.67610484 -0.32407215 0.59936285 0.37374792 0.35670495 -0.090593696 0.072145335 -0.45361865 0.75826836 0.24985218 0.59465456 0.12058253 0.105732165 0.57406193 -0.8776842 0.5643457 0.36268497 -0.29812324 -0.23951782 0.13981833 0.4426676 -0.38621557 -0.22318557 0.7615148 0.15239704 0.48075393 0.19938217 0.014982308 -0.032113664 -0.25273728 -0.34267232 -0.23986113 -0.2885437 -0.63783735 1.0537889 -0.30264235
1368 -0.5487748 -0.39192843 -0.712546 0.39874202 -0.5136939 -0.061049063 0.24825846 -0.08430235 0.24642326 -0.08885949 -1.0617926 1.0470564 0.24462695 0.7404327 0.39529765 -0.0411713 -0.16558848 -0.017310686 0.3918409 0.07960444 1.0468959 0.022642195 0.4352502 -0.5781531 0.17206366 -0.061134763 0.2319997 -0.19621342 0.20529124 0.19725277 -0.09877391 0.6975715 0.26578957 -0.7231238 0.74231523 0.0011045252 0.43598706 0.6367743 -0.38002777 0.046649486 -0.044397794 -0.9086127 0.5930609 0.63632226 -0.23619117 -0.36811265 0.26179212 -0.16876556 0.28270152 -0.34310296 0.03159744 0.04255644 -0.26641804 0.2831339 -0.21061102 0.56536734 0.40773392 0.1531418 -0.08574401 0.030228214 0.43206406 0.37562716 -0.23244956 0.30739787 -0.12390608 -0.63252366 -0.91943425 0.30320567 -0.1096527 -0.074710265 -0.25759026 0.35433322 0.5909246 -0.074258186 0.3651637 -0.09860871 -0.76853955 0.133651 0.39552322 -0.52045065
761 -0.8215717 -0.74250317 0.5413242 0.6735248 -0.57605994 0.11831603 -0.011338305 -0.4930663 0.38118017 -0.33302453 0.10131595 0.06101302 0.04684157 -0.3044595 0.5452257 -0.31247032 0.29049575 -0.101955585 -0.49633372 0.12637603 0.38610685 -0.30523863 0.08685738 -0.63720316 -0.25468934 -0.41052988 -0.019868972 -0.98696554 0.5113683 0.52290606 0.15227118 0.44982743 -0.19175243 0.033024438 -0.6200426 -0.10180818 0.8349161 0.6932034 -0.83546877 -0.20585059 -0.6331299 0.5318819 0.33045697 0.151414 0.18009791 0.41684505 0.20681226 -0.32022 0.4371784 -0.05806778 -0.59036493 -0.21275438 -0.57274073 -0.14314589 0.021480383 0.15170836 0.3393107 0.15676884 -0.15780231 0.19768797 0.47653472 0.4517639 0.28802264 -0.564874 0.24204835 -0.115280345 -0.17298333 -0.18097784 -0.19682716 0.47076556 1.0726376 0.18619515 0.23354983 -0.8661464 0.34876218 -0.49985525 -0.32571507 -0.43976247 -0.4616438 -0.5248061
1559 0.2475632 0.031061206 0.47750118 -0.58746815 -0.35122618 -0.062329724 0.1066195 -0.5733281 -0.1624101 0.32758883 0.043779805 -0.09226437 0.01876745 0.36833847 0.23784773 -0.06675226 0.2882635 -0.5704996 -0.5585178 -0.34478718 -0.24867278 -0.45244384 -0.063860156 -0.19639549 0.4236766 0.16734199 0.25021052 -0.56736684 0.4647907 -0.6687449 0.6197749 -0.4599136 -0.006620728 -0.21075118 -0.32505807 -0.1413257 -0.10065025 -0.111987464 -0.73633 0.36499485 0.10070349 -0.74106497 -0.17757073 0.14631046 0.12365342 -0.042831976 0.48787335 -0.32527745 -0.12951097 0.30400375 0.3765438 -0.3545593 -0.15227388 -0.018862503 -0.11338247 0.18446437 0.1971141 -0.119989805 0.54223967 0.61422527 -0.030692121 0.13705036 0.9538197 0.032592013 -0.9414763 -0.43157315 -0.89459854 -0.23148833 -0.14825301 0.30778086 0.27233797 0.37456867 -0.019323202 0.46913537 0.62173885 -0.18535528 0.75767833 -0.35270774 0.48073974 -0.25512573
405 -0.04828065 -0.1257478 0.21617748 -0.078688785 -0.011273042 0.089126594 0.4421132 0.23746002 0.027371464 0.2554987 -0.22321074 -0.42589653 -0.1598841 -0.2787089 0.20322278 0.5475348 -0.23451354 0.4161297 0.19354054 0.47188318 0.26590312 -0.8683329 0.41224992 -0.28706735 -0.80132514 0.683234 0.12414812 -0.08466083 0.59439975 0.5870986 0.44249997 -0.07089424 -0.1247227 0.717032 -0.1766005 -0.65535265 0.07127907 -0.12863807 0.40268606 0.33580053 -0.060672753 -0.43481803 0.7546496 0.5805187 0.48216072 -0.13536383 0.39111567 0.3197933 0.029663624 -1.0546829 0.24828658 -0.98993605 0.022997528 -0.4420269 0.35158145 -0.38874456 -0.56281865 -0.33899364 0.19828673 0.3185787 0.47447327 0.48956934 0.19668543 -0.24475327 -0.35138813 0.17871314 -0.4124145 0.22911696 0.5041607 0.045687363 0.22465076 0.097089045 0.7919623 0.0024269188 -0.8548175 -0.20938028 -0.3980495 0.0050087315 0.07413236 -1.1425807
239 -0.48849398 0.026285311 0.04923616 -0.1607166 -0.35233566 -0.51934934 -0.16384064 0.3795353 0.3568678 0.38455996 0.10890413 0.7927997 0.11905142 -0.020009197 -0.24875887 0.033100467 0.14366853 0.20713277 -0.04685251 0.13483647 0.5483248 -0.50719017 -0.04441181 -0.032621086 -0.20155597 0.13500078 -0.29610732 -0.8358644 0.049290143 -0.11840095 0.32936278 -0.2134535 -0.5850229 -0.1026683 -0.15721563 0.23073998 -0.321723 -0.64151263 -0.46205157 0.34094754 0.36649343 0.08253612 0.15569559 0.067007065 0.9632541 -0.18769784 0.41393712 0.083213784 -0.44748384 -0.2873193 0.37968788 -0.46434468 -0.43331045 -0.4635663 0.39007708 -0.48924157 -0.06355262 0.7300169 -0.099744484 0.5426839 -0.2689825 0.23307978 -0.2240276 -0.67522675 -0.28076202 0.06545301 -1.1781343 -0.44943118 -0.49837005 0.25941995 0.51244694 0.25572675 0.34583965 -0.28002897 0.4348358 0.4698667 -0.057391286 -0.40017265 0.22865345 0.015915288
288 -0.15803482 0.5299827 0.277327 -0.13431263 0.15654759 -0.13682887 -0.061083276 -0.18734372 0.76549476 0.23647709 -0.5984239 -0.12461677 -0.5943491 0.2615342 -0.21486184 -0.4519244 0.6248856 -0.57204175 0.37191182 0.35858178 0.3762293 0.10949771 -0.14510061 -0.62469625 -0.064182185 -0.09059198 0.54786813 -0.30242288 0.2280986 -0.44681993 0.29629758 -0.4315489 -0.38351902 -0.14447942 -0.17087497 0.19140798 -0.34073946 -0.29638204 -0.05769592 -0.4373936 0.49129552 -0.13717937 -0.15509476 -0.25099444 0.44269782 0.14084432 0.29365453 0.6623776 0.35830277 0.13413605 -0.24886696 -0.75499517 0.4635089 -0.13142991 0.46638682 0.1144393 -0.23246445 -0.18163836 -0.55929965 0.6312062 0.5590273 -0.016425613 -0.22786121 -0.07766488 0.4109543 -0.35950068 -0.32071328 0.64188904 0.63518363 0.17760773 0.24565372 -0.5359519 0.03465813 0.2967296 0.07218991 -0.66209674 -0.50394213 -0.31239405 0.58930117 -0.2991041
652 0.03875897 0.22832462 -0.0907512 -0.52656674 0.046955746 0.3727912 -0.0030524074 0.0054022837 -0.5617604 -0.027067859 -0.042562604 -0.5093599 -0.016948523 -0.34028763 0.30856133 -0.13871977 -0.2285329 0.15780185 0.17078318 -0.40089908 0.18420891 0.23245572 -0.28277904 -0.38494027 0.1320167 0.27422756 0.25399652 -0.53111607 0.5455913 -0.6827759 0.59323007 -0.54606134 0.60626334 0.02572944 0.22776097 0.1336523 -0.5518791 0.34813973 0.052395124 -0.12003008 -0.13752405 0.30057037 0.45878962 -0.23811467 0.9603546 0.064042695 -0.043742582 -0.09708519 0.009279874 -0.23052077 -0.34327427 -0.59321445 -0.28721672 -0.4860949 -0.2200981 -0.0729248 -0.27774018 0.1413738 -0.22477269 0.34267893 0.0046283896 -0.16334765 -0.20886907 -0.15430419 -0.228072 -0.46041414 -0.30522373 0.43081143 -0.33493158 -0.23902972 0.16318475 -0.0146771595 0.073118076 -0.25846577 -0.0723481 0.3322771 -1.0171412 -0.25752357 0.55973506 -0.5230621
136 -0.4719848 0.06468212 -0.15159726 -0.2715991 0.13600147 -0.13544303 0.59145117 0.44313174 0.1801182 0.36988708 0.06560243 0.0732404 0.26670316 -0.56179655 0.02207113 0.09900565 -0.21485084 -0.5089086 0.5414092 0.005408891 -0.3046786 -0.6164864 -0.09884533 -1.0610687 -0.2392909 0.21790747 -0.11945162 0.44230035 -0.100266896 0.4184291 0.53609943 -0.32079458 0.56143296 -0.1751031 -0.0012050912 -0.739609 -0.19942926 0.54952484 -0.5082694 0.86171013 0.11711782 -0.19331808 0.083706364 0.3779677 0.11881657 0.2662655 -0.270255 -0.31200197 0.15933438 0.3322539 0.036862936 -0.19835684 0.5513396 0.047739204 -0.11047202 -0.22531888 -0.29184094 0.101225615 -0.015947677 0.2540627 0.29458067 0.2480192 0.30465 -0.25566682 0.591848 -0.975795 0.106742956 0.18802296 0.12158353 -0.09135996 0.80908686 0.25195345 0.4362624 -0.14197327 -0.5192759 -0.27476588 -0.12741105 0.48390856 0.6927327 -0.5070324
1005 -0.33994547 -0.40436533 -0.09236503 -0.38483566 -0.04383193 -0.36736175 0.43591115 -0.3749735 0.017645983 0.17295916 0.45128906 0.3028536 -0.24891043 0.17238562 0.0758574 -0.5828009 -0.80679625 -0.6092368 0.3074177 0.33311367 0.48653284 0.7276441 -0.13521802 0.105490126 -0.0981892 -0.8423169 -0.17672534 -0.28236377 -0.15917598 -0.5162591 -0.081463166 0.044608694 0.51824665 -0.1626502 0.43388018 -0.28833774 -0.47474724 0.53855634 -0.15685727 0.17774592 -0.20584057 0.45063758 -0.022759154 0.31160182 -0.061715554 0.645411 -0.066284664 0.24359162 -0.23396194 -0.34533256 -0.21008612 -0.6766709 0.052870218 -0.412072 -0.48077887 0.48768866 0.44114545 0.16840783 -0.36202118 0.1835611 -0.24974032 -0.16830038 -0.23408782 -0.48865667 0.4615704 -0.40460286 -0.030251905 -0.021637956 0.2193119 -0.47438827 -0.17122325 0.32582298 0.07644221 -0.19280341 0.16405809 0.15564604 -0.10088966 -0.4102995 0.36911702 -0.5419871
422 -0.015491316 -0.7324698 -0.6965692 -0.76492393 0.7119431 -0.29878706 -0.0534167 -0.16346395 0.2936771 0.15463947 -0.118321024 0.21904476 -0.23729265 -0.72634107 0.4780729 -0.6306164 -0.18550032 -0.89166534 -0.38155967 0.18534985 0.2116963 -0.22771794 0.5936364 0.22038475 0.35581177 0.4204804 0.22754014 0.13525033 0.033923764 -0.0055411663 -0.20611612 0.13039231 -0.04717013 -0.715479 -0.2823147 -0.5128136 -0.20045286 0.04087845 0.01666487 0.1421817 -0.26798555 -0.066474356 0.55766237 -0.4951233 0.0022066652 -0.26964688 0.02958441 -0.93331724 -0.06915165 -0.27388003 0.5877501 -0.03603294 0.6224917 -0.26346508 -0.19752431 -0.7724333 0.48980543 -0.48042688 0.58073026 -0.049055967 0.3481609 -0.79776084 0.010006435 -0.24740788 0.26684496 -0.43208998 0.10695953 -0.2386314 0.40268758 -0.31854707 0.104256764 0.058367692 -0.0713152 -0.2682505 -0.6888218 -0.4460749 -0.7335683 -0.29982793 0.49686393 -0.53019094
750 0.4602318 -0.17355862 0.11841466 0.18261136 0.34321052 -0.5770089 -0.30309173 -0.34176365 -0.71568495 0.1481248 -0.16347404 0.3049473 -0.35453612 0.60143757 0.098718524 -0.5540842 -0.18655777 0.04458174 -0.31332088 0.5502073 -0.037702605 -0.38964424 -0.06319139 -0.22450122 0.6508252 -0.0014123669 -0.49916756 -0.12334206 0.07641486 0.40216213 0.23590806 -0.030035561 -0.18737663 -0.11056904 0.13805392 -0.18334456 -0.04300727 0.46516922 0.5323332 0.066387154 -0.42047822 0.17360681 -0.2611857 0.056682568 0.28574634 0.39742035 0.02505768 -0.20030645 0.3715625 -0.1383693 0.5593202 0.36979598 -0.82776666 0.36336994 -0.3022748 -0.023486093 0.77058583 0.14262548 -0.650045 0.6466008 -0.009139395 -0.104389966 0.30269575 -0.30765787 0.5466822 0.30474678 -0.16918445 0.5902679 0.1091222 -0.081853844 0.023818752 0.032443963 0.25976554 0.10218847 0.115913704 -0.5225947 -0.06431719 -0.23944625 0.5724695 -0.606197
687 -0.586642 0.29697582 0.26526165 -0.0008262613 -0.08153766 -1.0578694 0.17256738 -0.5999193 0.0054127797 0.010400778 -0.25926647 -0.13698588 0.49691787 0.063741505 -0.3139131 -0.4391117 0.25666642 -0.32208645 -0.38613707 -0.2872552 -0.11443666 0.19429544 0.12853551 -0.4342478 -0.31134906 0.3890937 -0.311287 -0.0060774726 -0.4468591 0.23522754 0.45238984 0.55802715 -0.039782736 -0.44744226 0.3453872 -0.31866786 -0.11638678 0.6036325 -0.120407745 -0.016353795 -0.43489942 0.12558056 -0.76880103 -0.09456652 0.017542494 0.04437745 0.1148429 -0.07251723 0.03422051 0.03680022 -0.009097524 -1.0127511 -0.05188296 -0.54718995 0.010901908 0.16329065 -0.20160562 -0.21957682 -0.5024579 0.3689466 -0.46546382 0.3616179 0.13594098 0.3252698 -0.23574679 0.55759627 -0.08358112 0.20565525 -0.2927166 -0.4297939 0.21172774 0.025190832 -0.55658215 -0.2590589 0.16603322 -0.2980553 0.5523608 0.04890628 0.6040565 -0.8922543
744 -0.33158025 -0.5361356 0.12362881 0.33406794 0.48335242 -0.52118695 -0.20561951 -0.25211957 -0.6116636 -0.29851705 -0.3501729 0.016866116 -0.072180174 0.69718415 0.07499315 -0.17594503 0.055698227 -0.10509725 -0.412628 -0.23404194 0.39599308 -0.5932402 0.046417054 0.26673412 0.36602542 -0.05278485 0.34267467 -0.50352585 0.0635829 -0.71425873 0.020729635 -0.58216035 0.04100418 -0.5242434 0.4152498 0.14157282 0.09843373 0.56471467 -0.62424994 0.3454829 -0.020786392 -0.54641724 -0.25058445 0.5801402 0.20708172 -0.22580962 -0.17836887 0.114036344 0.41992968 -0.15179902 -0.106849134 -0.27821484 -0.04878545 0.10521076 -0.0142407175 -0.2047795 0.28175035 0.011518571 0.1657722 0.20699997 -0.103584625 -0.032019477 0.6027863 -0.013908066 -0.00023711623 -0.27693558 -0.6221674 -0.10042381 -0.3179759 0.17938343 0.18850495 0.16951373 0.45602205 0.4089009 -0.023399588 -0.06358896 0.4477257 0.104379065 0.784078 -0.2915809
987 0.18225366 -0.53697276 0.03168581 0.23876475 -0.07360813 -0.120803244 0.030576795 -0.22611886 -0.09359176 -0.23379382 0.04199318 0.5848198 0.15456884 0.5866547 -0.2927163 0.4035564 0.24135987 -0.15599526 0.21250093 0.40162736 1.1501759 -0.6499328 0.18703476 0.13472389 0.21145646 0.49548286 -0.06063305 -0.29973608 0.10973848 -0.59935707 -0.18682638 -0.8170667 -0.27722096 -0.40530092 0.5675101 -0.42118302 -0.1323813 0.3969152 0.31237048 -0.062467758 0.23734203 -0.026813118 0.5778802 0.33794665 0.011070226 0.40992704 0.119559586 0.1424026 0.4191414 0.15947272 0.08190181 -0.733389 -0.11333241 -0.081207365 0.105941094 -0.07473578 -0.013918392 0.45530728 -0.070573874 0.1184953 0.3424062 -0.46072283 -0.13759169 0.041088175 0.1479373 0.5406868 0.19917974 0.2928899 -0.010491094 -0.24940772 0.31084487 -0.4706861 0.25093418 0.3800043 0.06496753 0.20575114 0.46588942 -0.031110236 0.27658448 0.26364675
666 0.22138643 0.3581634 0.20325203 0.101834744 0.12219916 -0.13956109 -0.6204411 0.8744705 -0.14518231 -0.626332 -0.22281216 -0.062088147 -0.32050964 0.4413802 0.58610016 -0.2495363 -0.25001672 0.10832915 0.022546228 0.14169347 0.52351993 -0.54076904 -0.39842817 0.39635035 0.3732642 -0.22274928 -0.51796126 -0.72007036 0.03625507 0.44981876 -0.29914084 -0.08771093 -0.56095797 0.045285713 -0.52472585 -0.32896408 -0.93871033 -0.8429186 -0.21047412 0.2854972 -0.38793245 -0.41420278 0.25178432 -0.004815402 -0.17309086 0.0885315 0.7099246 0.221401 -0.39813697 0.20407927 0.26245472 -0.47177956 0.1830163 -0.37915123 0.025775887 -0.29269108 -0.11087794 0.29509684 0.33201885 0.13921185 -0.40100837 0.010964383 -0.30062836 0.4606587 0.27684864 -0.09363998 -0.4204294 0.2825681 0.14526659 -0.4063314 -0.31226963 -0.32958663 0.5134627 -0.41305488 0.58923787 -0.7393499 0.29814556 -0.89941114 0.37614548 -0.839006
447 -0.42356327 0.13651402 0.47491813 0.15400219 0.029580543 -0.0017008135 0.580645 -0.9832596 0.2977405 0.16592534 -0.96464616 -0.49903575 -0.29802763 -0.041709483 -0.41807142 -0.062281724 0.20359579 -0.4549998 -0.008647558 0.5769355 0.5921799 -1.098383 0.32910615 -0.6552052 -0.43287706 0.07403604 -0.18650304 0.3720909 -0.019867942 -0.4473877 0.27096164 -0.78058904 -0.027685188 0.29686224 -0.08492082 0.2292683 0.6849144 -0.108982965 -0.002681113 -0.068119325 0.16705002 0.30327386 0.42856598 -0.29883805 0.42211744 -0.094359785 0.6341638 -0.44329554 0.0607646 0.35668606 0.008559583 -0.06086368 0.41459352 0.50219095 0.07294233 -0.30928192 -0.07542285 0.081826985 -0.51911783 0.39386234 -0.021350352 -0.07240931 0.2927444 -0.06282653 0.820413 -0.20336008 0.040394276 0.0908076 0.77867043 -0.011480926 -0.35462958 0.32021528 -0.3600779 0.0060831197 0.059085954 0.03228881 -0.05822276 -1.1563202 0.33742276 -0.81535345
1128 0.44208252 -0.012643363 0.26416093 -0.72174114 0.32348695 -0.74206704 0.14597644 0.119992375 -0.7660536 -0.1953382 0.13244669 0.85885936 -0.2739905 -0.403509 -0.044204608 0.53779787 -0.4830347 -0.3720584 0.114502236 -0.90355474 0.32014912 -0.5291736 -0.24007966 -0.3220351 -0.36672732 -0.10857193 -0.8735141 0.25583872 0.627053 0.16980018 0.5350738 0.4227014 0.37566552 -0.26234794 0.58023334 -0.026265489 -0.06587486 0.35847923 0.21429804 -0.6892083 -0.16779141 -0.019525358 0.10707279 -0.5002745 -0.30927342 -0.009794822 0.3785812 -0.46357957 -0.32188848 -0.02919652 -0.18095966 -0.9318788 0.46137956 0.20846157 0.033418823 1.10944 -0.61871445 -0.32388547 -0.39523926 0.7717793 0.63462186 0.19573788 0.08843642 0.76890075 -0.3546981 0.22155133 -0.45746684 -0.35696548 0.25003654 -0.41126895 -0.4808521 0.39000288 -0.22925492 -0.40515867 0.8382562 -1.2023667 0.072772235 -0.015370505 0.32097116 -0.5100992
154 -0.16021967 -0.06729381 -0.65277886 -0.4670005 -0.71026736 -0.07648038 -0.54438347 0.0009935522 0.018329158 0.0022763235 0.15555932 0.35009295 0.09251569 0.43546855 0.23484229 -0.5418531 -0.659749 -0.26190376 0.75888926 0.012362308 0.08759853 -0.2715504 0.4901264 -0.6205241 -0.89130443 -0.14369324 0.41665104 -0.344588 0.77203596 0.13906272 0.040118124 -0.4936154 -0.15096478 -0.30483103 0.14775728 0.08779391 -0.3097614 0.32536802 0.35762888 -0.58987105 -0.75259006 -0.45408404 -0.25777096 0.72600317 0.13732749 0.077779174 0.22111192 -0.5811398 -0.3455526 0.30749527 -0.15042932 -0.3335577 -0.12106954 -0.059546985 -0.18696097 0.6397286 0.16161056 0.56455314 -0.27963847 -0.6506037 -0.39727387 0.61220384 0.56335545 -0.12241011 0.059109434 0.27971947 0.3726097 0.16636302 0.31876966 0.022650542 0.14921701 0.3469778 -0.16678792 -1.0816069 0.2766823 0.35207364 -0.7721767 -0.22536203 0.6350642 -0.038598083
1379 -0.3537145 0.036131673 0.48378685 -0.50915825 -0.68828607 -0.023417836 -0.7548962 0.06807223 0.28683788 0.5005061 -0.80402863 0.10783255 0.09247495 -0.25884405 0.4256563 -0.21599263 -0.5052168 -0.3358935 -0.24451807 0.32671157 0.84385544 -0.106998764 0.3901647 -0.5218383 -0.1864219 0.056704763 -0.041138515 -0.21886058 -0.7550171 -0.090674125 0.41670245 -0.08627469 0.3510913 0.04086528 0.23390615 -0.08371032 -0.07094058 0.2974379 0.119047895 -0.86573005 -0.75217324 0.13040179 0.0858733 0.034153745 -0.37377104 -0.08486192 0.095250264 -0.5136133 0.42622373 -0.20580265 0.43191588 0.09453541 -0.2763877 -0.46821827 0.486289 -0.28775072 0.79136497 -0.3323447 0.49318194 0.09885065 0.45682898 -0.11290064 -0.27199808 -0.12808464 -0.13417986 -0.88638693 -0.92871547 0.7715782 -0.1633078 0.33542123 -0.26935723 -0.37049574 -0.1735675 0.16880298 0.22365876 0.024578962 0.0037410387 0.011016341 0.015219424 -0.429861
704 0.39029118 0.12553187 0.24112841 -0.72316843 -0.044449333 0.4181907 -0.16477327 -0.4912535 0.28913382 0.17666197 0.39101365 0.16585894 0.10328768 -0.8106941 -0.10978631 0.024386693 0.15473801 -0.29604888 -0.028695732 -0.16864409 0.56074053 -0.5566107 0.4366759 0.42240646 0.2936582 -0.15157169 -0.026103105 -0.7338029 -0.32022017 0.3236121 0.24254528 -0.3450333 0.5435113 -0.58882236 -0.024704795 0.39515892 0.4616561 0.0772666 0.34224066 -0.021099614 -0.7222898 -0.004527061 0.25767884 0.18485063 -0.034448665 0.5893458 0.30125114 -0.21355453 0.12505719 0.28708708 0.024590401 0.11107246 -0.58380115 -0.42653134 0.032424103 -0.2446284 0.9449007 0.1831489 -0.13559821 0.41133365 0.6670714 0.02800349 0.07378593 -0.066551685 0.06100616 -0.26338345 -0.8746423 0.0751253 0.18542232 0.07332892 0.7697957 0.05406238 0.3774786 0.15733126 0.5576899 0.2840254 -0.6409974 0.31721264 0.18321778 -0.9498092
95 -0.32899264 -0.009485358 -0.423861 -0.43586138 -0.14371233 -0.69821745 -0.30284175 0.23530439 0.6200089 0.38527298 0.4743658 0.28044194 0.08595999 0.3302979 0.010702914 0.24521223 -0.062030468 0.2488222 -0.6487419 -0.34609556 0.15649764 -0.34667763 0.2783145 -0.85942876 0.023633782 -0.4914381 0.3779099 0.4303134 -0.1521158 -0.41074955 -0.37205714 -0.0030880733 0.11241313 -0.10856419 -0.09150833 -0.22061786 0.31576055 -0.033874366 -0.06851177 0.038028013 -0.09426441 -0.59049153 0.832193 -0.6551914 0.70168114 -0.18288895 0.6824408 -0.65494794 -0.047559764 -0.5048136 0.011746081 -0.4974763 0.34198245 -0.93319094 -0.065802395 -0.051139243 0.5303155 0.62647754 -0.25840676 0.545348 0.08156951 0.55964255 -0.23017466 -0.41198358 0.43827763 -0.36146286 -0.4474854 0.071671866 -0.26313603 0.1981748 0.121265136 -0.9601013 -0.023034168 0.30214167 0.6310416 -0.16529565 0.5988188 0.22171958 0.21533422 -0.16469322
514 -0.13706683 -0.044121757 -0.17392273 -0.72024155 -0.28115335 -0.34427798 -0.10709575 -0.42303073 0.33679852 0.14005072 -0.07834099 0.0112585 0.28562552 0.20792504 -0.38496205 0.21692093 0.11273924 -0.12740259 0.014283154 -0.7969547 0.5156144 -0.7583649 -0.28715745 0.19100064 0.4528939 0.29120293 -0.14799872 -0.42697108 0.47630665 0.1622134 -0.08507989 0.056608245 0.22307111 0.10359563 0.17645943 0.5858868 -0.29263082 0.18594779 -0.6418881 -0.0075366264 -0.060875695 -0.2166306 0.0927139 0.19495645 0.5901434 -0.051541436 0.7240397 0.19941697 -0.38695052 -0.010203724 -0.23141181 -0.42213243 -0.13548121 0.015189623 -0.2388685 -0.6327652 0.17307098 0.42517126 0.15512218 -0.07335363 -0.28514853 -0.0102050835 0.34775376 -0.00052351423 -0.118133776 -0.07081424 0.00231995 0.39758652 -0.2336535 0.18285745 0.02150846 0.14421415 -0.17147525 -0.5823474 0.009950482 0.1777637 -0.76698846 0.053024046 -0.2565125 0.42630532
301 -0.5608855 0.043848637 0.030456113 0.3864524 -0.12743655 -0.47646388 -0.4288829 0.09936341 0.00018615887 0.3034168 0.34816688 -0.7159635 0.5207494 -0.04338112 -0.2684872 -0.5827393 0.13828991 0.021222861 -0.5079228 0.25355554 -0.10689273 -0.46035898 -0.24870098 -0.5027177 -0.011122142 -0.01936024 -0.06036705 0.23281062 -0.08141569 0.4042949 0.49672624 -0.46126893 -0.44241458 -0.48329422 0.6147613 -0.3432127 -0.6505286 -0.20901735 0.08972169 0.10240848 -0.523661 0.21996023 0.22537716 -0.5292833 0.04642916 -0.20633382 0.8640944 -0.56472677 0.6534004 0.35819367 0.2710279 -1.0608858 0.5580766 -0.3130539 -0.1801892 -0.57855386 0.3475557 -0.004280397 -0.5160313 -0.44344765 -0.38779035 0.12335395 -0.098999955 0.46725172 0.8526404 -0.4552043 -0.2456262 -0.16567881 0.017041361 0.017358998 0.6044554 0.21897283 0.2566059 0.08621849 0.15480156 0.23965648 -0.177452 0.6845365 0.15038764 -0.53817374
285 -0.07489609 -0.34259716 0.50565386 -0.20967767 0.60683 -0.6317009 -0.57087964 -0.6299765 0.50511175 0.9077583 -0.17648098 0.47535866 -0.47415176 -0.1164207 -0.17826182 -0.38826907 -0.022868412 -0.20570582 0.8401856 -0.14825414 0.3031454 -0.009086869 -0.48873252 -0.0038052683 -0.25991493 -0.04942591 -0.024185488 -0.22799425 -0.6146557 -0.30652666 0.2710864 -0.78848356 -0.9006062 -0.064801425 0.15343484 -0.21947104 -0.2601691 -0.04155427 0.28999087 -0.011422574 0.4593709 -0.1985919 0.071939014 -0.23650347 -0.09889308 0.13322479 0.3660925 0.7030284 0.099797994 -0.24475391 -0.5472122 -0.606477 -0.41545966 -0.26914024 0.45670247 0.24958362 -0.05174641 -0.1705174 -0.12032359 0.1855499 0.4679358 0.26876885 0.026613507 -0.3650439 0.16478941 0.08433301 -0.580965 1.1196667 -0.09431405 -0.011185924 0.12635237 -0.26368308 0.2368343 0.14225942 0.22270851 0.04058413 -0.37915382 -0.54610974 0.3220658 -0.14065485
892 -0.07352447 0.74265075 0.2721737 -0.12820958 0.16862649 -0.03686389 -0.7043875 0.1605266 -0.32174495 -0.023241153 -0.17507893 0.3530867 0.08393489 0.113105424 -0.08686195 0.3782994 -0.20474532 0.04207535 0.09871625 0.18897636 0.65264314 -0.3388194 -0.17698957 -0.13517454 0.14376964 -0.3032512 -0.23973034 0.129969 -0.4541465 0.9403772 0.640254 -0.40484917 -0.25713342 0.07550743 0.16769047 -0.5686808 -0.50123894 0.18546961 0.11688218 -0.19760454 -0.63312346 0.40368447 0.54485995 -0.5652499 -0.1577896 -0.024150003 0.5098626 0.17617005 0.3492523 -0.20651852 -0.20712182 -0.45532516 0.23985966 -0.8012252 -0.26427013 -0.22330137 0.37926325 -0.012722474 -0.062501 0.037598982 -0.4928403 -0.90849537 0.04647999 0.62996525 0.1684594 0.1829447 -0.6957445 -0.48373106 -0.6057579 -0.16007866 -0.14869046 -0.24864678 0.05579309 -0.4953355 0.45334896 -0.10581477 -0.32056278 -0.39687905 0.2573595 -0.09234012
476 -0.026630122 -0.17061345 -0.6880192 -0.21753205 -0.5550747 -0.3294787 -0.0032000514 -0.13545468 0.5111146 -0.011838402 -0.41247237 0.2775526 -0.21419096 -0.21639286 -0.10459518 -0.25055227 -0.552659 0.5507195 0.24765578 -0.2934731 0.6916906 -0.30207893 -0.18452166 -0.17476992 -0.24990773 0.5685044 -0.7929638 -0.59733355 0.043878257 0.4173208 0.45873576 -0.19831881 0.3463703 0.15379882 -0.6660954 -0.035798892 -0.23000483 -0.26949856 0.14960787 -0.3142978 -0.15376301 -0.65975934 0.56360424 0.33409637 -0.2615105 0.052812215 -0.40440276 -0.80875623 -0.27535057 -0.09754398 -0.25316805 -0.053193484 0.07773251 -0.36411843 -0.28346506 -0.25016978 0.25929084 0.13997501 -0.4194276 0.61527234 0.14842515 0.57480806 -0.06353765 -0.06177194 -0.1684054 0.12303514 0.58231366 0.084568836 -0.37188274 0.29566678 0.26660544 -0.19096473 -0.5620498 0.15261972 -0.09250566 -0.51427144 -0.3484618 0.549348 0.90242344 -0.32737267
509 0.29091293 -0.5372978 -0.39424694 -0.5328495 0.07017445 0.30939585 -0.44806266 -0.6399663 0.032433096 -0.447859 0.4966305 -0.038692363 0.49556175 0.15075411 -0.2919705 -0.28400713 0.3780939 -0.28577563 0.6830819 -0.17962426 0.88030434 -0.10476623 -0.25565475 -0.22795027 0.26801884 0.30667478 -0.4195986 0.59647125 -0.13014038 -0.32899055 -0.5139926 -0.62598133 -0.29282367 0.29641876 0.30067277 0.5386539 -0.52604 0.14182135 -0.11338039 0.25456265 -0.2784239 -0.30411145 0.41968042 0.06829183 0.07252645 0.6679477 0.1298482 -0.14530163 0.015138135 -0.07242169 0.0020092102 -0.21377033 -0.20119435 -0.39629984 0.09293431 -0.0935186 -0.07718472 0.2724677 0.24279304 0.18845151 0.07900109 0.49954543 0.35462928 -0.5619544 0.03884076 -0.35048848 -0.30000988 0.17049417 0.06451399 -0.109491125 0.21334569 0.0985915 -0.5282035 -0.59687924 -0.32660636 -0.73008126 -0.3525521 -0.13820684 0.46632397 -0.14333332
1197 -0.60216546 0.046265416 -0.3285174 0.27477497 -0.45014232 0.21285813 -0.16497096 -0.043681666 0.5449385 0.26059836 -0.65281117 0.09908749 0.30214143 0.86442745 0.33663085 0.95977 0.14212735 -0.13764013 -0.2172131 0.14699593 0.92251045 0.39679646 0.3768864 -0.6171382 0.25791147 0.23873201 0.3171839 -0.45055375 0.27967763 0.3295668 0.29828152 0.47903895 -0.04521498 -0.8118527 0.5669728 0.21077068 0.68448293 0.7204429 0.010178522 -0.1093001 -0.42834917 -0.6063073 0.5844329 0.297895 -0.026786702 -0.29061615 0.26185974 -0.037489403 0.5132112 -0.42551485 0.2833198 -0.16033621 -0.38391915 0.618426 -0.26983762 0.18401688 0.1960753 0.04709197 0.091189906 0.23693393 -0.040951934 0.25592598 -0.4516038 0.43148386 0.52610636 -0.6868831 -0.6986809 0.72476333 0.38810003 -0.22916979 -0.12420727 -0.15442789 1.0152494 -0.40614116 -0.39564052 -0.5592226 -0.3703541 -0.28468385 0.12117585 -0.35378328
1064 -0.012197503 -0.20807382 -0.40928352 -0.49455437 -0.36678147 -0.3787715 -0.4740683 -0.65458775 0.4988811 -0.17049438 -0.115837075 0.1012876 0.31780264 -0.20590551 0.4687479 0.08769235 -0.5293585 0.062378444 0.6599702 0.14183722 -0.48168695 -0.3342872 -0.16741282 -0.65113735 -0.10589731 0.21896942 -0.1493047 -0.27510297 0.08203599 -0.36851674 0.106422074 -0.5694135 0.36828098 -0.30661732 -0.06906635 0.28898507 0.036267944 0.41182834 0.10500575 0.16445933 -0.48102582 -0.5656896 0.43479145 0.08288939 0.37256846 0.7089764 0.37248048 -0.042846527 0.07160432 -0.380367 0.22375906 0.55472505 -0.09126071 -0.4218299 -0.6050274 -0.6675661 -0.15883243 0.059726644 0.028538844 -0.29104456 0.15455805 -0.0154159 -0.18986824 0.022311464 -0.50034183 0.22389254 -0.4715356 0.0786518 0.22846387 -0.139107 0.5341083 0.30645436 -0.23654073 -0.75785524 0.037338734 -0.48845834 -0.23511828 0.36554262 0.62065303 -0.13468227
1845 -0.1419714 -0.24059722 -0.8026469 0.026169412 0.115129955 -0.056271728 -0.25143436 -0.60942894 -0.41133916 0.76685375 0.17801839 0.44451445 -0.15257113 -0.031909093 0.14456004 -0.11385969 -0.12275035 -0.051416002 0.7506634 0.05113948 -0.41487765 -0.57851326 0.17159835 -0.99773306 0.01658274 -0.8082744 -0.60461557 -0.1544186 0.009473119 0.3253415 0.9184527 0.07183106 0.19526036 -0.13214888 0.434407 -0.09773278 -0.17615113 0.24914898 -0.30383795 0.6752238 0.44976372 -0.04706046 0.6497704 0.6209906 -0.4276859 -0.54350215 0.7894089 -0.4888117 0.867643 0.7072047 -0.42945322 -0.28757045 -0.13643654 0.1588219 0.4162332 -0.22704716 -0.41507864 0.4333248 -0.3841082 -0.06346105 0.19037393 0.011369656 -0.24394009 0.100982815 0.2230215 -0.5599537 -0.26287645 0.32934594 0.81602174 0.12233644 0.57271206 -0.19880708 -0.005406313 -0.57142776 -0.11455334 -0.3699025 0.41684735 0.33911332 0.1274316 -0.09440015
741 -0.12418467 0.35360205 -0.22095297 -0.1638448 0.5102861 -0.8968439 0.22215082 -0.25448608 0.5189514 -0.57050395 0.26378065 0.089459226 -0.13743444 0.42016095 0.49327832 -0.048354767 0.71989924 0.04296112 -0.7204138 -0.27559844 -0.04288249 -1.1503707 -0.6830777 -0.3413267 0.24713641 -0.29598755 0.06381981 -0.08574702 -0.7315044 -0.15732436 0.092634626 0.21611936 0.02788963 0.15446858 0.037049428 -0.39017838 -0.018412564 -0.40494743 -0.17590128 -0.28751138 0.40095925 -0.16330779 -0.0069494094 0.56423223 -0.37181762 -0.29235575 -0.2472688 0.1444062 0.24375974 -0.3381573 -0.32396513 -0.12805966 -0.0963492 0.23775968 -0.61543685 -0.3467981 -0.1748951 -0.37453496 -0.13892117 -0.07032908 -0.49626586 -0.7222757 0.7717327 0.5584761 0.67759246 -0.3876986 -1.1769555 -0.027215753 0.7205371 -0.5945965 0.10836993 0.11582727 0.5935297 -0.06095848 -0.25552124 -0.068750024 -0.48854232 0.08028422 0.855459 -0.29819983
210 -0.5666853 0.010003785 0.13124551 -0.5566616 -0.115462705 -0.95941 -0.01629695 -0.8886816 -0.0032832737 0.4462116 -0.76862556 0.6919375 0.040893395 -0.076935 0.3772495 0.11416659 0.45546526 0.27090693 -0.27667177 -0.53517157 0.38868 -1.0046171 0.45408714 0.26816478 0.008315433 -0.10427518 -0.078828156 0.6777747 0.2027914 -0.6520692 0.7060288 -0.50571656 0.29630658 0.27922812 -0.0007810288 0.20708066 -0.43454638 -0.42182422 0.7829657 -0.28842238 -0.3321885 0.6555881 0.25524616 0.33685458 -0.102760546 0.25687456 0.008925189 -0.5885876 -0.08922286 -0.3082044 -0.04752031 -0.19149515 0.08180415 -0.38622388 0.21947442 -0.38798118 0.12151358 -0.15208909 0.26716265 0.48057833 -0.15494257 -0.29782403 -0.20402701 -1.0052409 -0.10603311 -0.18962201 -0.058364917 -0.40102908 0.244594 -0.4559762 -0.0007516253 -0.40266666 0.7679678 -0.1501513 -0.044938434 -0.82612485 -0.8556625 -0.10082493 0.09932421 0.5447318
91 -0.9240434 -0.07950486 -0.319215 -1.094547 0.3908247 -0.07734713 -0.115625314 0.8397705 -0.40790334 0.9433278 0.4992867 1.0505464 0.19001637 0.6380534 0.49557635 -0.40428504 0.48671255 -0.004707798 0.39558718 0.36456674 0.50206727 -0.47361872 -0.37323448 -0.5484347 0.03928538 -0.39482316 0.19206646 -0.10776505 0.045461144 0.017719684 0.0266008 0.45583096 -0.38579077 -0.70550287 -0.29062194 0.1671453 0.28999516 -0.71794194 0.08942618 -0.588544 -0.50530684 -0.33873498 -0.06230825 0.13759442 0.3880822 0.05137584 0.5981692 0.23439841 0.528924 0.22477889 -0.25971097 0.041741867 0.02317903 -0.3548854 0.2431243 -0.20994173 0.302409 0.56197906 -0.5737078 0.26490778 0.24157488 0.19997953 -0.37304637 0.47818264 -0.68649846 -0.46679085 0.17419495 0.12844743 -0.19665995 -0.21803941 -0.026942821 0.3531531 0.0137059335 0.2466824 0.1344396 -0.47000524 -0.3559909 -0.28310126 -0.28973597 -0.621936
326 -0.005423622 -0.15463822 0.097535685 -0.5439463 0.54406273 -0.83642995 -0.45912972 0.3765073 0.60081613 0.25816062 -0.29607242 -0.18027323 -0.0058166604 -0.23712452 -0.13855886 -0.80506045 -0.2391123 -0.2427246 0.14589061 0.24919204 0.40924495 -0.06690827 -0.0734414 -0.42929745 0.23053136 -0.3462288 -0.06328789 -0.6862311 -0.18199141 -0.30089188 0.081195734 0.0023008997 -1.2115496 -0.120914385 0.13192396 -0.07472911 -0.55241746 -0.6544218 -0.2076035 0.17409752 -0.11950739 -0.7452327 0.08756656 -0.37768784 -0.55400866 0.6767261 -0.030398848 0.30341798 0.64794225 0.013386084 -0.29334554 -0.35502324 -0.00086962775 0.074907415 0.45090312 0.5131308 -0.07613174 0.40268508 -0.06271774 0.1653954 -0.3779524 -0.012764452 0.4617052 0.015578134 0.46678272 -0.05055374 -0.845382 0.49599916 0.8484927 0.34655443 -0.325118 -0.10594809 -0.009257927 -0.2725874 -0.15017408 0.24137172 -0.23000433 0.23894541 -0.11906755 -0.5857947
1765 -0.54080296 0.17163102 -0.3876481 -0.49958396 -0.014146273 0.067948766 0.20606245 -0.8145164 0.024525277 -0.18274927 0.012975337 0.14558232 0.08383151 0.3390578 -0.1854102 0.37369305 -0.5326904 -0.027275523 0.25583145 0.027625775 0.39894736 -0.41395095 -0.5412275 -0.23223393 -0.17165053 -0.13407879 -0.37198347 0.032141548 0.0057528345 0.26589802 -0.19682156 0.1065764 -0.09574246 -0.17149512 -0.5351765 -0.33965167 -0.36979523 0.11969024 0.1234014 0.23716146 -0.40321288 0.84740293 0.61643934 -0.10998659 -0.55912733 -0.05262982 -0.3733226 0.01638965 0.15444933 -0.6834094 -0.31619284 -0.56704915 0.16785619 -0.10758867 -0.3539284 0.025836151 0.55914295 -0.2072318 0.061571043 0.74143386 -0.2877033 -0.3149798 0.2951023 0.6334972 0.33004078 0.019289006 -0.56762904 0.2496494 -0.738518 -0.36085194 -0.010603605 0.039116062 0.34174693 -0.03999703 0.43461043 0.26334405 -0.036692515 -0.70161045 -0.3224706 -0.5740239
1190 0.487083 -0.19068584 0.31563774 -0.6116731 0.07437441 -0.964798 -0.4285344 -0.70554894 -1.0044188 -0.2251296 -0.055119913 0.62358993 0.032602314 1.0337507 0.21532197 -0.5310254 -0.08959858 -0.014055409 -0.2134041 0.5538999 -0.5115865 -0.29985088 0.031678822 -0.4826266 0.28154835 0.6280898 -0.5329901 -0.034598608 0.8918928 0.76724684 -0.11824302 -0.23466522 -0.24567556 -0.1374493 -0.055338345 -0.34539786 0.32395682 -0.45822027 -0.56487465 -0.2767177 -0.24526902 -0.052748572 -0.5477147 -0.34293592 0.5477617 -0.06644503 -0.061676398 -0.87672037 0.42151996 -0.72777426 -0.51936114 0.07200268 -0.39962307 0.18031248 -0.016133111 0.55614 0.1789677 -0.2548289 0.012316814 0.52542216 -0.025224134 -0.037845865 0.18625171 -0.25322893 0.759617 0.16580153 -0.48570392 0.47848654 0.22055219 -0.32397977 0.2433608 -0.25948155 -0.12460114 -0.0090736225 0.46762806 0.0037861802 0.08817838 0.66211104 0.070454836 -0.25255936
32 0.11143148 -0.085910715 0.67876285 -0.21506514 -0.28876242 -0.9680516 0.8828049 -0.0032250222 0.3335319 0.3561754 -0.46908036 -0.0041315076 -0.19835317 0.8600046 -0.16600333 0.4885945 0.20370221 -0.35638154 -0.3934532 -0.30125982 0.46551767 -0.2998385 0.11774179 -0.34290245 0.582578 -0.092853315 0.14730482 -0.48548478 0.44000083 -0.009775299 -0.16829117 0.037848074 -0.29576272 0.3945639 -0.025896838 0.16269001 -0.12899327 0.3305167 -0.2789531 0.25741312 -0.5574552 -0.3311679 -0.008041997 -0.18385783 -0.40971872 0.53260034 0.28197533 -0.37250736 0.3168704 0.034841362 -0.3958926 -0.19477406 0.0896095 0.41366646 -0.09067846 -0.6742475 -0.14081885 0.5225135 0.047503866 0.6698548 0.2156581 0.13228336 -0.39607584 -1.1229223 -0.02153705 -0.30844787 0.15803336 -0.5146743 -0.40607464 -0.3624008 0.01859589 -0.37978962 -0.44733298 -1.2448621 -0.39090183 0.15045665 -0.5949611 -0.369658 0.27147394 -0.78653395
1841 -1.0868409 0.3249358 -0.009872124 -0.18357384 0.22347246 -0.5089367 0.32059553 -0.5805525 0.23571186 -0.20377328 -0.3273395 -0.93967354 -0.38909805 0.5603856 -0.4259031 0.29492784 -0.34975514 -0.5449509 -0.16602956 0.12737313 0.7809847 -0.40182653 -0.34947765 -0.17990518 -0.82946426 -0.3188076 -0.5173179 -0.052562103 -0.094962075 -0.04088971 0.07089162 0.09305154 -0.4866805 0.26340878 -0.21972759 0.09141243 -0.078067504 -0.89484566 -0.2997837 0.66590285 -0.08176953 0.33265713 0.39785385 -0.075228415 -0.092793174 -0.426182 0.77494824 -0.7835066 -0.38626108 -0.29241872 0.51427674 -0.36212748 0.15050255 0.49482504 0.10738763 -0.11884415 -0.14671296 0.11609595 0.12446379 0.39478585 -0.43796614 -0.29970652 0.3105088 -0.49156713 -0.52535045 -1.016507 -0.023204966 0.5541152 0.32184613 -1.0764749 0.62910503 0.01906317 -0.5642553 0.13448866 0.376448 -0.7273841 0.68607235 0.13660851 -0.18468986 -0.47715613
439 -0.48659325 0.26149476 -0.6271939 -0.77491957 0.35045937 -0.47328794 -0.43811908 0.4760242 0.28548744 0.55146945 0.3171957 0.5333163 -0.06025139 0.25470862 0.40299794 -0.11972606 0.105464235 0.27375212 -0.3239095 -0.16651712 0.32299685 -0.14044887 -0.19996203 -0.8502676 -0.4471455 -0.6841694 0.10987013 0.15338232 0.3899489 -0.44825548 -0.5626771 0.62271065 -0.36804768 -0.57541126 0.005518863 -0.012014957 0.18262838 0.4448018 -0.02265695 0.13430189 -0.18582638 -0.23149809 0.6155987 0.012411818 0.70923656 -0.66867346 0.07257936 -0.3835607 0.46339813 -0.16427542 0.36794958 -0.286292 0.24817389 -1.4678783 -0.11982207 0.02127807 0.19985677 0.57472163 -0.5344623 0.5894233 -0.3968437 0.39257511 0.12761532 -1.0164546 0.44968572 -0.2201822 -0.24783127 0.0014865627 -0.11992092 -0.05121548 0.19067419 0.05295013 -0.0433275 0.4800171 0.3567397 -0.14984424 0.63916975 0.33616787 0.23261146 -0.05769694
1335 0.045114607 -0.4255096 -0.17256576 -0.41561776 -0.43932924 -0.34910184 0.7428237 -0.858049 0.32341352 0.45310935 -0.21443713 0.080582425 0.20430201 -0.3818128 0.03506717 -0.041906547 0.13769287 -0.047306508 0.5104455 0.17504519 0.7184457 -0.5594718 -0.39899075 -0.32091168 -0.10181973 0.07572497 -0.3371069 -0.26278672 0.26963472 0.21428056 0.24073209 -0.20354152 -0.18540634 -0.3162794 -0.08650693 -0.10530653 -0.46384576 -0.18201143 0.05176377 -0.44629613 -0.004700381 -0.51575947 0.6942194 0.39670652 -0.2905674 -0.038457207 -0.3161867 0.10076624 0.4383625 -0.31195474 0.3230319 0.58266646 -0.36543813 -1.0254102 -0.09241617 0.100942574 -0.11042437 -0.3360614 -0.23409127 -0.25216347 0.31517944 -0.007034181 0.052263666 0.15392445 -0.9169326 -0.2271498 0.575863 0.27437207 -0.08701303 0.10443411 0.24503238 -0.086921014 -0.13479413 -0.27523637 0.3430602 0.34665334 0.15065585 -0.41042003 0.26162127 -0.74538475
1369 -0.29792553 0.18676473 -0.8375927 0.02186987 -0.76809895 -0.13437326 -0.2977239 0.24908529 -0.20968954 0.024578825 -1.7362893 0.25140464 0.4786062 0.8494433 -0.013251949 -0.43144 -0.4235934 -0.2746617 0.74789166 0.3954159 1.3082141 -0.012091346 0.3680789 -0.7414582 0.46330148 0.32245383 -0.07493752 0.06620633 0.42074963 0.46081862 -0.21156847 0.79108065 -0.015462283 -0.7095056 0.6451853 -0.05675077 0.5357593 0.4384471 -0.38914737 -0.5994921 0.23691562 -1.2433565 0.35238108 0.7772943 -0.4435745 -0.13358492 -0.10210095 -0.54796 -0.041226063 -0.24545269 -0.104393296 -0.5626043 -0.3409664 0.5094322 0.09413544 0.4844651 0.39685655 0.17042515 -0.37983555 -0.42885476 0.3974854 0.0134455385 0.02341409 0.15811932 -0.12646806 -1.0141772 -1.0946051 0.0508642 0.03018936 -0.30300564 0.096603036 0.18114884 0.45949334 0.08020751 -0.043223806 0.15073875 -0.65357083 0.2059513 0.07902951 -0.75890005
954 -0.691093 0.38884297 0.8145184 0.13655138 0.33458042 -0.4187796 0.878348 -0.0638543 0.47859135 -0.27825862 -0.11427239 0.48488948 0.17507775 0.11539118 0.04032542 -0.49457765 -0.4152474 -0.18614304 0.08514491 0.30650973 0.06753304 -0.61029345 -0.54133976 -0.50907445 0.37049922 0.8510806 -0.51356393 -0.16587995 0.6201012 0.42594606 -0.30801678 -0.35157382 0.31046036 0.32095286 1.0148141 -0.53777224 0.30264854 -0.020736897 0.09002757 -0.45215327 0.019674871 0.71211094 0.23890352 0.6319349 -0.22560436 -0.26012412 -0.5154873 -0.0031279097 -0.17819819 0.022197556 -0.14213492 -0.11529358 -0.2211174 0.08554049 0.13156615 -0.25791666 0.06468312 0.48936677 0.36117482 0.36208028 -0.018227419 0.12839441 -0.17292902 -0.7624793 0.6215142 0.1327479 -0.6721623 0.26050064 0.97926205 -0.19004573 -0.1987329 0.13204853 0.050690062 -0.41969773 -0.2690892 -0.06682463 0.32636055 0.32259172 -0.29868752 -0.88317764
860 0.3932785 -0.1244716 -0.10955296 -0.31276047 -0.09890365 -0.88121873 -0.20902342 0.053101793 0.509855 -0.31662515 -0.23829915 0.23284902 -0.0682791 -0.6414403 -0.34276155 0.24110577 -0.16145545 0.05264428 0.16788371 0.0006470062 -0.29696077 -0.6946192 0.18828204 0.5125868 0.43045118 0.021619296 0.059964724 -0.8682478 0.6478348 0.3405703 0.07413045 0.15183166 0.6326448 -0.4484319 0.018978892 0.15318091 0.31885692 -0.27477086 0.52512854 -0.8216296 0.19863853 0.58447045 0.121850684 0.35047236 0.6475365 0.17011786 0.19754627 -0.1743303 0.5874647 0.27518484 0.3938281 0.27980733 -0.03254355 -0.053739496 -0.11885137 -0.13341717 0.38137177 0.5260199 -0.49504554 0.9832002 0.8100337 0.076519154 0.9857588 -0.046581056 0.37685397 -0.03157318 -1.1433761 0.14542101 0.28382334 -0.004441492 0.4912558 0.23584782 0.39058712 -0.5156744 -0.124384135 0.2484527 0.08949234 -0.27818605 0.35866824 -0.12704708
2038 0.17037702 0.58532137 -0.4138785 -0.3957569 -0.18025221 0.29903615 0.30329022 0.24020496 -0.039436627 0.37868506 -0.076400034 -0.5488626 -0.059778664 -0.53147763 -0.17155308 -0.047156155 0.44469476 -0.5459403 -0.06758126 -0.16567092 0.6308142 -1.2661101 0.1533108 -0.61751723 -0.47261557 0.12661694 -0.30375943 -0.8792109 0.22711554 0.8567743 0.14869832 -1.0638645 0.13731332 -0.07788802 0.2550206 -0.30658606 0.15536335 -0.019447915 -0.116963714 -0.053505793 0.054932334 0.1466805 0.20374894 -0.059331127 0.5068507 -0.35591805 -0.7358148 -0.08629108 0.39314455 0.30427742 0.06511635 -0.8213948 -0.1810503 0.040895537 -0.9808617 0.4404165 0.2624287 0.14887697 0.018306363 0.27010924 0.056008935 -0.25923026 0.6282503 0.32981348 0.16660964 -0.2460974 0.040940482 0.33215567 0.25822744 0.51134425 -0.6218923 0.7183573 0.40144747 0.13364546 -0.556433 -0.45223033 -0.04895728 -0.2558833 0.16598658 0.036295082
546 -0.37954503 -0.06008955 -0.079352856 -0.6379375 0.30898607 -0.98571 -0.32715973 -0.89982986 0.33399287 -0.42818022 -0.2139499 -0.49377197 -0.25611207 0.08134746 0.40790486 0.5897367 -0.13729896 -0.14524828 0.13660416 0.3088946 0.5325093 0.055556875 -0.6378362 -0.15226755 -0.033099335 0.4917754 -0.26042292 0.19425605 -0.038416825 -0.10831962 -0.2602146 -0.35255438 0.22807895 0.18461211 0.065481596 0.061558608 0.017056322 0.23264307 0.27792245 -0.12446297 -0.3047309 -0.87642866 -0.1704542 0.18428376 0.21860512 0.2782705 0.6791235 0.031539254 0.39327237 -0.38117304 -0.12583208 -0.14353423 -0.10107989 0.15246591 -0.2677666 0.3294726 0.03143249 -0.15036625 -0.33388117 -0.3175413 0.13935721 0.8339257 0.2937217 -0.15110856 -0.05951357 0.49660328 -0.175281 0.10739122 0.42476436 0.23959325 0.0195052 0.16465853 -0.3470345 -0.62708205 -0.0044367914 -0.5498143 -0.29259828 -0.14908919 0.16512088 0.25425068
506 -0.60045195 0.20455089 -0.7180155 -0.292785 -0.17989042 -0.098804094 0.109570734 -0.47683498 -0.0130682755 -0.6157042 -0.26214603 -0.046517853 -0.71766293 0.20939688 0.16695279 0.31501716 -0.28879344 0.09978516 0.78535295 0.16682258 0.25358632 -0.25622925 0.5047089 -0.38852653 0.49414882 -0.042926874 -0.45430782 0.052128527 0.18060692 -0.18209253 0.11723887 -0.43560228 0.33859324 -0.4326235 0.09551305 0.14018302 -0.9632446 -0.36683595 -0.5628851 -0.107637666 -0.28815544 -0.9616524 0.46697083 0.27745363 0.34014782 0.104101844 0.21659614 0.11545879 -0.07741128 -0.041108582 0.38895634 0.18942703 -0.18665797 -0.66435677 -0.026055276 0.008155907 0.04312168 -0.09493824 0.15227093 -0.19196634 0.53539944 -0.04932115 0.06992738 -0.057516053 -0.4487341 -0.18293479 -0.50568 0.043089427 -0.07973519 0.0926391 -0.0019444885 0.10078361 -0.226158 -0.5825944 -0.06225038 -0.06127532 -0.4824357 0.009565225 0.67339146 -0.18810569
41 -0.9431297 0.03759218 -0.074607 -0.3555631 -0.0374291 -0.5537975 -0.7189148 0.26350757 0.6250373 -0.12809975 -0.2440445 0.19033723 -0.25934342 -0.06464095 -0.19037071 0.09234277 0.08856727 0.15432517 0.78160983 0.0414282 0.21819928 -0.15689851 0.07622971 -0.13143097 0.38077292 0.14419617 -0.45626304 -0.10723791 -0.23071131 0.5492315 0.35564724 -0.66704667 -0.26632467 0.2158253 0.100498326 -0.0946166 0.1504651 0.36653605 -0.12495572 -0.58783764 -0.03249459 0.17553481 -0.29533973 -0.31806517 -0.2162679 0.093273 0.41045085 -0.35073978 0.16501208 -0.13602957 0.15065579 -0.56377304 0.37098598 -0.47471496 -0.5995156 -0.22167785 -0.25055063 0.04276263 0.30792135 0.1279209 0.008596724 -0.21608603 0.40102386 0.6482869 0.026982168 -0.44078898 -0.3415843 -0.40169728 0.4699957 0.39108083 0.05164002 -0.32840917 0.28364846 -0.642494 0.3573847 -0.02939751 0.18694602 -0.5667153 0.36810014 0.5466935
677 -0.36218795 0.14949676 -0.10801659 -0.96500665 0.32357815 -0.964053 -0.48731095 -0.8871201 0.62932044 0.1816596 -0.63125825 -0.6048574 -0.5664576 0.13887168 0.2828387 0.29914176 0.24474795 0.19653243 0.71405053 -0.3936497 -0.16475046 -0.07603348 -0.42601013 0.23474109 0.48614004 -0.656229 -0.14405791 -0.18840605 -0.103302464 0.34309456 0.13352218 -0.2882879 0.00948588 -0.3258455 0.406155 -0.7679404 0.5215356 0.5555943 0.22438331 0.064826325 -0.3573132 -0.61842734 0.17653924 -0.025392795 -0.25205666 -0.24139279 0.19774753 0.0018977929 -0.2761574 -0.33177328 -0.10805827 -0.53571284 0.1422929 0.42714787 0.13187233 0.55544144 -0.1895326 -0.34063953 0.3482996 -0.069017254 -0.10829909 0.22887892 0.5204215 -0.37195775 0.3622652 0.17321797 0.05711879 -0.032216568 0.4570078 0.3550045 0.0746056 0.10294055 0.7700663 -0.5065277 0.38289046 -0.15316802 -0.5042944 -0.081360035 -0.028439242 -0.14929688
582 -0.9675786 -0.019281752 0.17501043 -0.91393083 -0.2760328 -0.012732511 0.59042954 -0.4500415 0.42521986 -0.03643005 0.05936302 -0.2205286 -0.31690782 0.32125795 -0.12012033 -0.16388392 -0.22826475 -0.3076456 0.15115888 -0.15451057 0.20699352 0.29424614 -0.18760853 -0.47623688 -0.18114418 -0.058887955 -0.47504792 -0.04727777 -0.18074803 0.112416044 -0.19509687 -0.45367396 0.24211396 -0.47853372 -0.83957183 -0.15072167 -0.8340207 -0.6643766 0.22996469 0.12809817 -0.08167088 0.44899774 -0.02631098 0.5530639 -0.4132536 -0.15240654 -0.772651 -0.16821069 0.7094306 -0.95088613 -0.19891685 -0.70564663 0.2979512 0.06807494 -0.4355457 -0.57853174 0.7781234 0.2511603 0.13102052 0.91577387 0.1197719 -0.3683305 0.22338569 0.38378033 0.17966126 -0.36694774 -0.5208976 -0.14064792 -0.096940786 -0.6570871 -0.011503593 0.17585973 0.56220615 -0.94188553 1.0676031 0.43307695 -0.08007343 0.0034072013 -0.3881836 -0.40983537
