2708 80
127 -0.16682611 -0.121608995 0.0681829 0.44801432 0.04956455 -0.034012392 -0.20377803 -0.056319352 0.29671556 -0.13058674 -0.18511958 0.3047277 -0.43146446 -0.15926196 0.36041597 -0.22658856 0.12917577 0.31124339 0.021886516 -0.041954283 -0.14574681 0.712759 -0.14897381 0.41070896 0.2474434 -0.02929193 -0.20623003 -0.11588017 -0.31057742 0.13021766 0.15083398 -0.21810916 -0.13901138 0.065878026 -0.1542732 -0.10651871 0.058290675 0.104712814 0.0076828045 -0.27124822 -0.21801667 -0.35275212 -0.0996823 -0.16067912 0.098931044 -0.24749318 -0.08109097 0.22766843 0.16778421 -0.19230406 -0.17105299 -0.095126115 -0.11608461 -0.06210262 0.097942434 0.019615058 0.17006224 0.30360106 -0.21993205 0.29759732 0.031687807 -0.03577193 0.14120926 -0.20008074 -0.08496462 -0.26490214 0.112126246 0.09007889 -0.07603556 -0.11551393 0.15113717 0.3040958 0.36294553 0.43451315 -0.25176466 0.3509532 -0.119624235 -0.07107581 -0.023571135 -0.16532543
483 -0.17893949 0.09904931 0.24306372 0.25335562 -0.0062232665 -0.20972113 0.16369663 -0.39203143 0.109635256 0.24783671 -0.10812031 0.34051955 0.16257858 0.010226826 -0.20638235 -0.35040903 0.24594621 -0.07723404 -0.1779973 -0.34471598 0.024704266 -0.1037515 -0.32710972 0.07908935 -0.35554463 -0.13229118 -0.052146927 -0.24639674 0.18792675 0.569105 0.11535656 -0.036437653 -0.09711166 -0.4457638 -0.19445017 0.076624796 0.036130782 0.24156956 -0.1764537 0.050382756 -0.16233736 0.13535856 -0.36906183 0.31055778 0.64959455 0.27369624 -0.30710092 0.3074716 -0.325423 0.11479319 -0.14787075 -0.13338105 0.19460472 -0.055568185 0.18038128 0.20106815 0.51322234 0.0835004 -0.073904425 -0.0065657753 0.05200424 0.104563884 0.03520248 0.14348298 -0.054774534 -0.20493953 -0.07164716 -0.035736475 -0.66135204 0.30784848 -0.22484317 0.01251041 0.41665724 0.5868058 0.044033673 -0.42958382 0.26001015 -0.07959247 0.06684722 0.085527435
49 -0.551643 -0.25222185 0.049963742 0.18207802 0.02405817 0.22994296 0.4570325 0.06571596 -0.30193004 -0.33353066 0.2690244 0.12491259 0.10285995 -0.25084618 0.30330607 -0.16749243 0.071513906 0.05385644 0.09698137 -0.37909788 -0.42243746 -0.04656492 -0.07892541 0.5031205 -0.3749012 0.2563703 0.5794353 0.14456071 -0.11272073 0.33645457 -0.021899963 0.096637554 0.025065381 0.3503965 0.555017 -0.61073476 -0.04033814 -0.22920819 -0.06414588 -0.27176875 -0.15265284 0.51493657 0.14071254 -0.009017588 0.6538121 0.012741436 -0.02639815 0.36861244 0.06882725 -0.0412038 0.3319742 0.05759622 0.18261507 -0.05851231 0.35308343 0.23420049 0.42642102 0.45428383 0.39940566 0.29556876 -0.03339211 0.2532534 -0.33943063 0.14526802 -0.028438373 -0.36789852 0.14111254 -0.136912 0.18112957 -0.0050784056 -0.017764425 0.07061672 -0.019178078 -0.18904155 0.06062839 -0.2205356 0.34559005 -0.8595223 0.0059943916 0.040402155
11 -0.3212194 -0.037639026 0.19620281 0.05521523 -0.37278798 0.103222616 0.42532206 0.3286494 0.024479926 -0.15756911 0.24570073 0.11898434 -0.046260912 0.004005745 0.0016846264 -0.20968524 0.13067968 0.11003012 0.78618014 0.014957328 0.17276558 0.2778795 -0.00073774863 0.5832793 -0.28809705 0.11580442 0.12268293 0.23854728 -0.29297587 0.27831736 0.16526316 -0.079312466 -0.41940624 0.18410291 0.051691014 -0.062424783 0.30183214 0.31637383 -0.5580926 -0.40161708 0.107565485 0.33971223 0.015014498 -0.039996527 0.3368706 0.22586091 -0.03395286 0.6404684 -0.14633109 -0.09747556 0.02384067 -0.11754638 0.118181564 0.08890032 0.5660027 -0.19295748 0.007200278 0.4009831 -0.40055236 0.037999567 -0.21110792 -0.4825614 -0.04215505 0.49727252 0.3367573 0.038046815 -0.12241969 -0.3274245 0.26770687 -0.063124806 -0.016568713 -0.020412788 0.11299818 -0.5893339 0.19586957 -0.2491868 0.33927378 0.13233711 0.18876143 0.0021907312
338 -0.20224208 -0.3042075 0.22539349 0.004681572 -0.08101497 -0.09323336 0.09035103 -0.09004106 -0.5477742 0.31682354 0.1358178 0.6527255 0.45004618 -0.602608 0.059739195 -0.2191198 0.36896688 0.1862901 0.31801385 0.12584952 0.40279698 -0.18431534 -0.073748894 0.03877696 0.2485846 -0.077639356 -0.14707883 0.4657975 0.19587618 0.1141066 -0.084834345 -0.29163933 0.03823211 -0.05780271 -0.32477653 -0.021612661 -0.45747924 -0.005562767 -0.099988 0.010733667 0.1592946 -0.37121844 0.17172612 -0.049828727 0.22012426 -0.24982788 -0.37481833 0.022614382 -0.07156576 -0.21300648 -0.078255765 -0.25073513 -0.14898923 -0.16849269 0.03525321 -0.34685302 0.1429898 0.30532402 -0.19868734 -0.07337447 0.23647495 -0.012911015 -0.4524137 -0.27781573 -0.25930688 0.029494833 0.0621721 -0.2394641 -0.11337646 0.09472186 -0.0074657416 -0.0015804418 0.8276872 -0.5494164 0.05435159 0.40124878 -0.5017404 -0.2535714 -0.030623328 -0.53953105
474 -0.13375218 0.31514502 -0.14580265 -0.04631445 -0.47528055 -0.63084894 0.515143 -0.27715275 0.10131275 0.30725032 0.24091789 0.28631523 0.10497184 -0.22323471 -0.016026305 -0.45305607 0.10688675 -0.09886946 -0.21052855 -0.31089687 0.0519902 0.035760295 -0.18633756 0.22093052 -0.4015908 0.017965354 -0.07764125 -0.3381343 -0.12302158 0.48207378 -0.4948403 -0.32274815 -0.29740602 -0.0116831735 0.18908045 0.0356171 0.05850533 -0.3000162 0.03966389 -0.0047463668 0.013885154 0.08808665 -0.3189328 0.28980806 0.19064382 0.09541444 0.053019196 0.28514054 -0.072405115 0.20370907 -0.39772093 -0.37658936 0.26827765 -0.32957855 0.5198452 -0.5489247 0.40296543 0.06024103 -0.16844064 0.2865452 -0.097744465 0.26932713 0.13346876 -0.11710739 0.05206143 -0.5143902 0.49146348 0.058083855 0.100049175 0.043019723 0.019914383 -0.35231775 0.4076149 -0.02815296 -0.3578461 -0.22002427 0.3591495 -0.017549684 -0.13555615 0.25837725
100 0.0057625244 -0.031937536 -0.027670864 0.24414971 0.16891976 -0.23472172 -0.39874116 -0.22913921 0.12305293 0.2446428 -0.039576188 -0.026902901 0.44654354 -0.13024934 0.233677 -0.22495729 0.14328557 0.2596943 0.2855606 -0.11857087 -0.048890617 -0.09777888 -0.6519454 0.12227483 -0.71575516 0.38152426 0.029866565 0.018259672 -0.23351921 0.23822543 0.29920164 0.2853284 0.41328645 0.086963475 0.022448275 -0.30799893 0.082051426 0.34428152 0.09171397 -0.6489139 0.054293912 0.5041238 -0.007533798 -0.29264235 0.45576215 0.108642876 0.13213487 0.19709931 0.006604046 0.15787801 0.2856159 0.12084807 -0.52482665 0.6495731 0.8212726 -0.8237408 -0.09593198 0.19439799 0.22794457 0.3151183 -0.43176004 0.22757426 -0.09647648 0.16593304 -0.4816594 0.091326684 -0.11380709 -0.17573611 0.43075618 -0.097264074 0.029099448 0.3304552 -0.13213772 -0.34919852 -0.17198129 -0.12433754 0.051933143 -0.84777486 0.17860237 -0.108625844
50 0.02172109 -0.15995608 -0.023965947 0.2707738 -0.48504347 0.007784504 -0.2327566 0.075697824 0.263468 -0.25239432 0.2000849 0.22642374 0.32341924 0.122854374 -0.04642692 0.040719334 0.046236664 0.23880695 0.24125947 0.32398844 0.074378096 -0.15579237 -0.5462942 0.557921 -0.5540512 -0.039519995 -0.09701784 -0.27773255 0.3788971 0.7130742 -0.21231173 0.4481227 -0.090667196 -0.22506505 0.18434511 -0.1798093 0.14113745 0.12661536 -0.094858654 -0.09876092 -0.15516381 -0.19712181 0.14936538 0.19670154 -0.12790366 -0.08471589 -0.00062170584 0.6221469 -0.5122058 -0.34452438 -0.36292836 -0.5288666 -0.0075909104 0.20281976 0.37863964 0.42291173 0.09832693 -0.08305395 0.26220462 0.1565841 -0.17217985 0.7954396 -0.12782519 0.086160436 0.19496267 -0.044327725 -0.07989999 -0.0057134186 -0.20051412 -0.35372368 -0.11992657 0.6780572 -0.42870545 -0.62907016 -0.098377794 -0.091122024 0.006595444 -0.5764315 0.4366917 0.13268864
479 0.14864217 0.09444662 0.09307085 0.33842131 0.06008933 -0.15235478 0.23837546 -0.43663988 -0.06618175 0.3875499 0.210605 0.038363468 -0.45581797 -0.07936826 -0.029854555 -0.7567002 0.28346723 0.046500836 0.03239642 0.1940769 0.2718584 0.15853903 0.06527078 0.24067298 -0.5136827 -0.5539938 0.33617696 -0.74804884 -0.041875165 0.43340662 -0.34432742 -0.19519275 -0.1698352 -0.15381987 -0.6647004 -0.35540095 0.26767287 0.35400838 0.16656063 0.030952122 -0.07511587 0.1850899 -0.3711371 0.10489478 0.3648501 0.1582368 -0.33194563 0.2787085 -0.17475715 0.21372555 -0.36236486 -0.25430697 0.33155173 -0.21033123 0.118946984 -0.7101034 0.53113294 -0.43524393 -0.25425562 0.14876108 -0.020286554 0.36327797 -0.4190909 0.106249884 -0.08329297 -0.24522316 0.5290377 -0.31195 -0.34404513 0.3782706 -0.2533352 0.43802422 0.34320876 0.2693161 -0.27929053 -0.27157468 0.21468823 -0.1311427 0.3792394 0.10909965
299 -0.30628225 -0.34404907 0.048905853 -0.7762606 -0.41427466 0.19179872 -0.14690825 0.094695576 0.3928501 0.48803726 0.023834815 0.4032516 -0.18402392 -0.022666488 -0.5014977 0.31551954 0.3773319 -0.14145038 -0.117006436 -0.08037974 -0.048981104 -0.17129228 -0.32535258 0.51373106 -0.30700862 -0.47061333 0.16955672 -0.05122583 -0.41074708 0.38674727 -0.18981105 -0.23789951 -0.07576379 0.33609402 -0.14371902 -0.25882715 -0.44479504 -0.17399012 -0.11782926 0.031340797 -0.14948526 -0.27942836 0.0008136983 -0.34658742 0.4426594 0.46492702 -0.5549745 0.3699282 0.23477907 0.13726555 0.4537802 0.15496519 -0.39683598 -0.14197047 -0.059268743 0.20301579 0.22193299 0.007765179 -0.24688244 0.70808434 0.19761416 0.36764655 0.011849389 -0.3031771 0.016981924 0.20494239 0.38125387 -0.21675928 0.199209 0.4111265 -0.38572735 -0.43380466 0.12008453 -0.46773458 -0.37711746 -0.30833548 -0.11693452 -0.017095992 -0.03537128 -0.1663534
53 0.28810254 -0.22654194 -0.026126096 -0.09248114 -0.16612624 -0.53406453 0.6138226 -0.37131053 -0.05430924 -0.11197688 0.13882397 0.002972808 -0.004168512 -0.74842197 -0.66933906 0.008238833 -0.022943964 0.046598483 0.5037054 -0.085916094 -0.036209572 0.08218204 -0.41511315 0.6486911 -0.27796385 -0.1047611 0.15199716 -0.2911353 0.5846443 -0.14508252 -0.09665921 0.15216342 -0.23232982 -0.12776127 0.2901988 -0.39643407 0.3600877 0.40542746 0.15990387 -0.13422474 0.21288429 -0.042389672 0.1409561 0.0327137 -0.29119468 -0.0763892 0.22683954 1.0187464 -0.10044616 0.2520455 0.38355654 -0.12247148 -0.11384463 0.19785982 -0.27577344 0.6004754 0.477733 0.051833935 0.08838474 0.03486571 -0.3749401 -0.0013432231 0.37930316 -0.08645368 -0.3107367 0.24395008 0.31760886 -0.2382797 0.24926592 0.009158609 -0.19786127 0.3058766 0.3161699 -0.36014125 -0.21849856 -0.114857316 -0.25672337 -0.30446863 -0.6055064 -0.32409576
198 -0.099003084 0.026628539 0.11666821 0.027493084 -0.4456449 -0.30905142 0.22255759 0.20591883 0.06446985 -0.07947956 0.02174332 0.20570819 -0.5115644 -0.46317875 -0.10448154 0.15662768 -0.023152458 -0.34216642 0.4400068 0.5664794 0.40084946 -0.61907667 -0.6473384 0.37288922 0.03808764 -0.19725014 0.08072305 0.07908426 -0.047834624 -0.3380112 0.13124727 -0.0794283 -0.25033152 -0.14534836 0.14483687 -0.17852671 0.71949613 0.19558237 -0.5758937 0.48102975 0.11881921 -0.21594399 0.19170047 -0.092855796 -0.024560025 -0.25614005 -0.23654503 0.41667703 -0.69705635 -0.23550886 -0.1696061 -0.18544394 0.36281136 0.07266086 0.28817764 0.4261276 -0.26204562 0.41495883 0.15213774 0.48221785 0.5387956 0.3140997 -0.04722399 -0.36632222 -0.08818562 -0.20277256 0.17934865 -0.34074038 0.009627533 -0.3844626 -0.7620448 0.3545574 0.103456244 -0.24674621 0.09796304 0.09874111 0.30093458 -0.16753116 0.20491989 -0.59002376
218 0.19384685 0.4210967 -0.37555707 -0.7334767 -0.35529077 -0.050172947 0.24013624 0.26631644 -0.022026045 -0.49287292 0.5620467 0.065320425 -0.4994174 -0.32574168 -0.5442145 -0.46014473 0.08075224 0.026672672 -0.066924974 0.1100282 0.13766083 -0.048484515 -0.031848896 0.35333836 0.3797809 -0.5034373 0.11672816 -0.2902545 -0.3081259 0.31092212 0.14826776 0.39694068 0.084157996 -0.39994174 0.4805216 0.18735278 -0.3862299 -0.021311779 -0.059776254 -0.1714983 -0.49828443 -0.4340785 0.27311805 -0.1128296 0.81523836 0.010715957 0.018417351 0.32967165 -0.85312 0.12365351 -0.39835417 -0.061883766 -0.6269492 -0.29291227 -0.16179778 -0.06676227 0.059886556 0.07589107 0.122676045 0.48639807 -0.55253947 -0.72883546 -0.0071140975 0.3572045 -0.35024944 -0.12276655 -0.150257 0.11381659 -0.32296267 -0.15081914 -0.64939404 0.045518357 -0.0290342 -0.021880947 0.4506797 -0.098341614 -0.121586785 -0.49123266 0.49375987 -0.6450566
445 0.41458768 -0.013704464 -0.5548579 0.016926657 0.021092998 -0.34759176 -0.05028756 0.11967772 -0.073390484 -0.1165572 -0.10907591 -0.08589788 -0.28451934 -0.620151 -0.40647882 0.20720202 0.26024815 0.0386395 0.437108 0.07092668 0.050029494 0.0116446735 -0.49714282 -0.0100178085 -0.16156515 -0.35737374 0.24929999 -0.22900759 0.07679005 -0.013316964 -0.476913 -0.55842584 0.079342864 -0.05821795 0.1830669 -0.6873544 0.69726497 -0.33110633 -0.24120496 -0.18015055 -0.01891511 0.039967947 -0.45678243 -0.6706298 0.49118608 -0.23283577 -0.04367933 0.008188717 -0.5029 -0.50640935 0.4105404 0.1091452 -0.17922279 -0.10260742 0.22782364 0.21427137 -0.5034803 0.20985247 -0.6367711 -0.023158614 0.478213 0.23912084 0.12061887 0.53509676 -0.34103423 -0.050443813 0.22045995 -0.18734276 0.09877404 0.13128373 -0.0062427707 -0.19068865 -0.2198074 0.008291419 -0.4022639 0.3618926 -0.45343813 -0.5216899 0.20660318 -0.26824525
541 -0.09527964 -0.054894 0.22486006 0.22541459 -0.06587713 -0.18228136 -0.036383808 0.383139 0.1848701 0.05771512 0.24699578 0.11626505 -0.22578456 0.109444 0.34283575 -0.44707122 0.5303829 0.4945047 -0.123230726 -0.2177662 -0.050045285 0.43429574 -0.060774744 0.3815283 0.2318863 0.74810296 -0.092071645 0.062116504 0.109196216 0.14996073 0.34510994 0.15634789 0.52116555 -0.041391704 -0.5073631 -0.3531265 -0.1470449 0.2917858 -0.078052305 -0.33089396 0.18875381 -0.48751497 0.012784815 -0.29340208 0.27151945 -0.054893017 0.28822666 0.48525396 -0.020513937 0.027883437 0.24750504 -0.080360726 0.112035364 -0.30659288 0.18084012 -0.6182388 0.6406393 0.27936113 -0.48674217 -0.21568619 0.046219964 0.3707658 1.0129607 -0.15076065 0.030153397 -0.047197007 -0.041064583 0.1872854 -0.18323492 -0.5713247 -0.18732212 0.050179306 0.53602815 0.5570779 -0.070010275 0.69234544 -0.20149538 -0.09100495 -0.083131 -0.55629903
565 -0.046187274 -1.0671765 0.08252985 -0.6796747 -0.18103287 -1.0001489 -0.40623215 -0.029402304 0.0857121 -0.04540901 -0.129139 0.18798311 0.103032656 -0.68844503 -0.2564833 0.085422345 0.19148113 -0.008718679 0.24355687 -0.50042915 -0.008705817 0.68456775 -0.057750758 0.36281475 -0.087640114 -0.024700886 0.0019688532 -0.44442937 -0.3615863 0.59981114 0.1401474 -0.34056258 0.17173912 -0.17548569 -0.2446764 -0.22986148 -0.15405053 -0.09403091 -0.13761763 0.23324296 0.77407515 0.29355162 -0.24675146 -0.2127247 0.5167103 0.22216836 -0.24935448 0.13053474 0.17164278 0.44752595 -0.3220664 0.011405695 0.09274455 -0.124849744 0.26053455 0.44719782 -0.4266305 -0.39185143 -0.19620988 0.35784948 -0.1579747 0.18245348 -0.17130733 0.12949622 -0.26745117 -0.5268121 -0.25870737 -0.2345914 -0.14160308 -0.20103689 -0.10223812 -0.11041713 0.12807739 0.21311224 0.78995776 0.24341324 -0.46159118 -0.07270725 0.09519422 0.020699536
81 -0.36854497 0.28546736 0.20709257 0.13473523 0.14482066 -0.73219585 -0.1774321 -0.15003411 0.17784569 -0.051130794 -0.38543814 0.43746635 0.35589805 -0.02210627 -0.5626695 -0.31876877 -0.0777905 -0.09302965 -0.29549548 -0.29798022 0.03703163 -0.11469553 -0.15012254 -0.0072921063 0.105952285 0.30485177 0.35382283 -0.14612664 -0.46287262 0.36352283 -0.2238163 0.1845259 -0.07347473 -0.2165328 -0.49116036 -0.19164251 0.16624437 -0.04334894 -0.16827329 -0.13324046 -0.2829336 -0.06547712 0.12437898 0.37339127 0.2856422 -0.11256537 -0.18237981 0.8883037 -0.43319967 0.0773891 0.07854089 0.13149235 0.14908248 -0.061367698 0.23161565 0.13605516 0.48402843 0.55787075 -0.45714402 -0.01717959 -0.013678272 0.13741694 0.10877636 -0.16388837 -0.1672559 -0.11816519 -0.10777574 0.4356303 -0.45844665 0.09984784 0.68508965 -0.3795557 0.5547823 0.57992923 -0.42116943 -0.357684 0.28903192 -0.43486592 -0.023365429 -0.4158844
184 0.23606715 -0.022413058 0.2663307 -0.688819 0.108294554 -0.31169116 0.17806792 0.066622116 -0.026008643 0.0914852 -0.26243794 0.5742893 0.10933061 -0.067880005 -0.0027825274 0.3386101 0.07848525 -0.30391473 -0.11310415 0.3330874 -0.3090271 0.12211452 0.1160715 0.7352687 0.15230618 0.47520608 0.20355636 0.3978296 0.034251414 0.39885348 -0.06335973 -0.26061225 0.34761629 0.0605617 -0.2663252 -0.24140929 -0.16288084 0.10145967 -0.16571899 0.05398555 -0.31985265 -0.21035023 0.1712995 0.50458354 0.5322918 0.3855556 0.030370358 0.37739635 -0.43938777 -0.09467157 -0.10012872 -0.25597563 -0.304834 0.37864563 0.19080469 -0.34515768 -0.25459 -0.36172694 -0.6015684 0.52043074 -0.19738173 0.23008193 -0.033598714 -0.12130713 -0.85426146 -0.17448808 0.41453934 -0.61652255 -0.21741788 0.3157786 -0.34608558 -0.4659034 -0.6210694 -0.07033486 -0.43132558 0.39093632 -0.6009938 0.06531196 -0.023804028 0.041766923
25 0.3283537 0.049156785 0.17776415 0.40925232 0.09379664 -0.16882686 -0.09035442 -0.3508551 0.25271562 -0.43176076 -0.3795314 -0.27567136 -0.31150645 0.108516 -0.41618255 0.34943426 0.6909019 -0.4371057 0.21852842 0.18612227 -0.45710498 -1.0813388 0.20609543 0.47546926 0.19411865 -0.17973427 0.08013769 -0.20819387 0.22795005 0.4885081 -0.14003688 -0.56132424 0.13707143 0.15552302 -0.054186117 -0.044538237 0.17407031 -0.1359413 0.10126922 0.42302832 -0.4014607 -0.031903785 -0.37953043 -0.2731713 0.57979584 -0.030806564 0.0685898 0.7593725 -0.28150427 -0.21827455 0.25726026 -0.048901588 -0.31935853 -0.21291308 -0.1526234 -0.391435 -0.81498235 -0.14084652 -0.9692222 0.29593128 -0.25616592 0.20500332 -0.22325854 0.2897638 -0.12298816 -0.18214281 0.2895199 0.027630262 0.11722434 -0.91476804 0.14579223 -0.30996448 0.49747205 0.118336536 -0.09755351 0.5076513 0.24240689 -0.20052546 0.25578406 -0.09497787
854 -0.4166202 0.36261606 -0.22840473 0.53142697 -0.36205196 -0.58487093 -0.1295459 0.36676428 -0.40984488 -0.121660456 0.22150747 -0.42891666 0.30638394 -0.40535647 0.033648383 0.2269831 0.54459983 0.5576288 -0.024661733 0.09829768 0.14774208 0.343912 -0.39981243 0.10357467 -0.019809002 0.37518474 0.37236804 0.09210274 -0.14000508 -0.04762028 -0.4179039 -0.45203418 0.3373605 -0.24836536 -0.08241432 -0.45609513 -0.06219442 0.022047939 -0.15346625 -0.7620883 -0.19546852 0.5100211 -0.2827848 0.21262932 0.20456767 0.506529 0.09443001 0.4214822 0.22536355 -0.7933386 0.21132286 0.74144447 -0.27194455 -0.04161615 0.12726445 -0.25238553 -0.030025473 0.15830848 0.21458817 0.8076522 -0.5909679 -0.4526442 -0.50082123 -0.054353353 -0.13724093 -0.5549356 0.04534694 0.23589471 -0.37009165 0.17621568 -1.2090874 0.10236495 0.3048172 -0.31112763 0.018741356 -0.11767938 -0.0012174782 -0.164914 0.23636335 0.097279795
1670 0.33653253 -0.100918345 -0.26752505 -0.023143206 -0.17781685 0.10438633 -0.7776317 0.2711624 -0.14923352 -0.26049796 0.20222557 0.05316412 -0.23498063 -0.50199616 -0.4370675 -0.4075641 -0.17371467 -0.17672236 0.24270609 -0.016774822 -0.5626137 -0.040835187 -0.15570018 0.6103385 -0.092756376 0.18860188 0.033891864 0.28811473 0.7573975 0.9638135 0.12716971 -0.37526122 -0.01973033 -0.28970867 -0.21493845 0.043384228 -0.6290709 -0.30501446 0.09974923 0.21125184 -0.41058683 -0.19740534 0.3680632 0.43504226 0.34027272 -0.14135678 0.030566422 0.316258 -0.40511596 -0.16456696 -0.011454429 0.414617 -0.14047767 -0.0061996663 0.1984384 -0.12187984 0.27904293 -0.29878983 -0.52219236 0.9593223 0.020518996 0.12770557 0.2036411 -0.60516566 -0.2488523 -0.11789066 -0.054578792 0.14178841 0.22462091 0.47819516 -0.09883464 -0.2842576 0.39635897 -0.496177 -0.16189629 0.1262767 -0.14354964 0.13796681 -0.21669881 0.36523747
530 -0.52765644 -0.14918487 0.28466088 0.024568768 -0.20181184 0.16214725 0.08650801 -0.23813431 -0.055565525 0.38234234 -0.07219296 -0.39558905 0.06382654 -0.123070434 0.042183902 -0.20663315 0.16886106 -0.09906822 -0.17267996 -0.6116499 0.002268837 0.032548945 -0.51089805 -0.039566457 -0.8484579 -0.12518089 0.23516394 -0.29529688 0.0131674 0.5613481 -0.20109054 -0.45683783 -0.23837258 -0.35032904 -0.21177115 -0.50949156 0.18286064 -0.09841663 0.45624045 0.089916214 -0.43267035 0.104656674 -0.15622255 0.1715195 0.6483704 -0.030280724 -0.13773058 0.37596574 -0.1515234 0.21348643 0.18990542 -0.29386327 0.07648498 0.10879625 0.48216924 0.004758567 0.41248792 0.18667363 -0.02075483 0.35806602 0.14315286 0.2788825 -0.071505725 -0.25543383 0.0823012 -0.42550474 0.117676444 -0.21855773 -0.5549001 -0.18565013 -0.06545851 0.11769621 0.53230476 -0.098571815 -0.33175233 -0.44922033 0.68843216 -0.0998615 -0.04271308 -0.09474671
379 -0.38196856 -0.21744825 -0.024618855 -0.023975173 -0.15429415 -0.09690571 -0.45706463 -0.06255911 -0.13262081 0.6494542 0.31274083 0.82812333 -0.029075865 -1.2266917 -0.21280442 0.21183164 0.2122729 0.18657629 -0.34709185 -0.08685171 -0.13362816 0.021915402 -0.36801437 -0.09451275 -0.28336164 -0.40329736 0.01198914 0.6596509 -0.1254315 0.067557186 0.15171033 -0.2308796 0.15539715 -0.02620828 -0.3072401 -0.11422828 -0.15558009 -0.117254674 -0.20506437 0.06772823 -0.05114473 -0.17513472 0.2391489 -0.37942824 0.51049227 0.039246686 0.11497831 0.06909495 0.13989432 -0.49668568 0.142531 -0.53608483 -0.11904396 0.14020279 -0.16347268 -0.6305541 0.2179602 0.33378342 -0.23699556 0.25921172 -0.09827336 0.37347704 -0.15175955 0.42729583 0.36812043 0.07861835 -0.16268335 0.026430918 -0.14002413 -0.037672084 -0.15364169 -0.00058280205 0.6594561 -0.52894413 -0.17534977 0.11337127 -0.1710431 -0.46169177 -0.46699008 -0.7513765
678 -0.021123944 -0.008959801 0.4874291 0.3938372 -0.27566937 -0.23899138 -0.73642206 -0.06959233 0.3016838 -0.23647074 0.81044984 -0.099223904 0.56149626 -0.6882127 0.52621746 0.22378 0.7929483 -0.27994266 0.30516645 0.74458855 -0.09295614 0.20456138 -0.2893964 0.49068925 -0.27101415 -0.0056862845 0.255617 0.120670356 0.2610164 0.30486533 -0.5480293 0.50416875 0.6384254 0.16847575 -0.021509893 -0.19393745 0.5557558 0.0931467 0.10117155 -0.25573385 -0.3092632 0.07335399 -0.0034506808 -0.030029539 0.18483517 0.2658223 0.69115114 0.7211658 -0.04481659 -0.572014 -0.33602282 0.05795196 -0.31871518 -0.48477876 0.38503373 0.6078994 -0.16359317 -0.33426246 0.30395618 0.26898506 0.38278016 0.69294506 -0.20655046 -0.17617643 -0.028216828 0.058762275 0.22455594 0.03870311 -0.62751406 -0.29245666 -0.19685957 -0.2958717 0.0011580514 -0.16721228 0.059214484 -0.2814879 -0.18181494 -0.8379378 0.14379643 0.7705165
165 0.43493626 0.24821125 -0.0076042726 -0.5067948 0.03339116 -0.49865264 0.23007987 0.3251614 -0.104556695 0.4355718 -0.31386265 -0.0031161795 -0.2851163 -0.41865614 0.13079344 -0.27600875 0.21953444 0.530024 0.04990797 0.8853665 -0.4588389 0.030885218 -0.4120009 0.6328161 -0.0037081107 -0.14047514 -0.30370572 -0.14772652 0.13981292 0.16721998 -0.25989535 -0.14490965 -0.15461999 -0.021087846 -0.3230611 -0.115502805 0.21997382 0.020650912 0.6540138 -0.33733404 0.3213475 0.090546064 0.29787135 0.0067312927 0.5749701 0.09303406 0.50144035 0.7641588 -0.5682781 -0.09887659 0.043623585 0.0744551 0.38901004 -0.059430398 0.075359814 0.053925548 0.22908936 0.43191653 0.1543448 -0.4747256 0.017645331 0.014954526 0.39098504 0.114813395 -0.613116 -0.00624851 0.501398 -0.6196981 0.5290492 -0.48864397 0.103881 0.5261172 0.5497978 -0.1625571 0.09272202 -0.4596547 -0.47506666 0.37964728 -0.13144776 -0.345769
233 -0.16152512 0.17219733 0.14969872 0.7189186 0.010370102 -0.7601138 0.025927221 0.2692052 -0.06479101 -0.30784273 -0.06854263 0.3785161 -0.416112 0.2736932 0.845376 -0.057416487 0.29989213 -0.049378943 0.045811985 -0.09378583 -0.4935995 0.73202634 -0.18760684 0.05402314 0.09884011 -0.113365114 -0.34013045 -0.16398038 0.21328786 0.31096813 0.6929441 -0.7659526 0.13157308 0.3026464 -0.034314062 -0.33169448 0.27805087 0.36441848 0.34018373 -0.34539443 0.05751274 -0.4332101 0.10521376 -0.19251104 0.3444969 -0.13457689 -0.07679223 0.35187003 -0.47828254 -0.5236588 -0.36153662 0.19546579 0.4173317 -0.7363106 -0.067568004 0.17947346 0.19796927 0.5472671 -0.09984236 -0.057179637 -0.36520103 -0.16185883 0.075769946 0.2761201 -0.17881632 -0.2551422 -0.036864378 -0.23227143 0.13282605 0.29506922 0.17062043 0.3177587 0.20256688 -0.14622101 -0.21183291 0.5568856 -0.664923 -0.44447392 -0.15123434 0.18869936
925 -0.58747095 -0.42880347 -0.2511325 0.036083642 -0.070296004 -0.4756188 -1.0582968 -0.088414155 -0.24909493 0.09409665 0.1725451 0.17807618 -0.3885451 -0.62401325 -0.1296609 -0.15542439 -0.11291706 -0.43259636 0.1678395 -0.038210507 -0.43829912 -0.07424421 0.13665621 0.757716 0.118461125 -0.25148094 -0.17948171 -0.2666149 0.6422826 0.3665823 -0.17971867 0.38782018 -0.3206912 0.21556918 -0.30696234 0.13841945 0.07341954 -0.2981427 0.19440523 -0.37774074 0.03342049 0.51165813 0.10819923 0.030102085 0.0037395686 0.08065638 -0.37823528 0.24919328 -0.5509721 0.12023616 0.03250111 0.32746515 -0.79098535 0.34669653 0.016066069 -0.05487274 0.1061039 -0.236697 -0.2727044 0.18505606 -0.5474156 0.1786909 0.42974573 0.21614024 -0.35929418 -0.22112097 0.36463973 0.16222131 -0.6810535 0.018602045 -0.063971505 -0.11020064 -0.13103034 -0.41234303 0.26865998 0.4997316 0.18234581 -0.18970197 -0.5340118 -0.19440694
1362 -0.20198403 -0.065552995 -0.19522434 -0.07492125 -0.6771183 -0.25956 -0.37966287 0.59957194 -0.022701876 0.8016638 -0.02661372 -0.017173318 -0.1079607 -0.34856835 0.40711632 -0.64410925 0.06284643 0.08377396 0.5957248 0.31704974 -0.20492072 -0.50230074 0.14398858 -0.18356751 0.051667776 -0.44500726 -0.42931935 0.24588011 0.25353208 0.08104116 -0.34473193 -0.10231932 -0.12471562 -0.14136265 0.26077864 -0.17710711 -0.20357394 -0.09259738 -0.07163904 -0.72394407 0.4274156 -0.15190525 0.03878401 0.21503259 0.52919173 -0.18675758 -0.0059116445 -0.08330669 -0.5187789 -0.45052359 0.45408037 -0.31361794 -0.46055648 -0.009466042 0.16040818 -0.027967464 0.28832215 -0.5146314 -0.36406457 -0.012118171 -1.0226282 0.16752909 0.40547702 -0.1652735 -0.16279738 0.10910071 0.5855739 0.3786778 -1.0242803 -0.10000163 -0.0005522415 -0.078259915 0.06904757 -0.16308337 0.10799882 0.028262118 -0.1647538 -0.6145477 0.14663966 -0.35315078
176 -0.9548134 0.42275354 -0.37344968 0.42717656 0.045589965 -0.6116669 -0.12809165 0.096144974 -0.05298423 0.17143928 -0.11572854 -0.4636252 -0.26161358 -0.3360617 -0.03999973 0.23355387 0.5400218 0.666137 0.06978296 0.04211856 0.051254626 -0.42189133 -0.25151393 0.48713917 0.3767467 0.4195693 0.35731202 -0.2850528 -0.35296544 0.18496758 -0.154596 -0.53269064 0.09858809 0.28398776 -0.023188509 -0.32279977 -0.121648766 -0.388688 -0.29858726 -0.4159748 0.36173108 0.6155619 0.18451391 0.43965426 -0.12726408 0.73928654 -0.45598182 0.63041335 -0.46865335 -0.5000142 0.33097228 0.20247328 0.15050368 0.16026251 0.6606389 0.24414662 0.01888337 -0.39639294 0.2433343 0.61274195 -0.46810418 -0.5389608 -0.29242817 -0.0070546586 0.12022973 -0.68836576 0.46109685 0.024474079 -0.6054998 0.044449013 -0.8058209 -0.03324676 0.03266387 0.04907344 0.08282309 0.25972736 -0.6245466 0.20697221 0.112532526 0.2573226
1084 -0.082347944 -0.056111407 0.358933 0.33345297 -0.3170565 -0.049642265 0.3390097 -0.03990752 -0.10445036 0.8281067 0.06070473 0.07536661 -0.25230774 -0.37330484 0.35664195 -0.23886256 -0.013691439 0.14724119 -0.09409818 0.36419588 0.08307043 0.21192019 -0.35163194 0.6008324 0.09374984 0.11334645 0.032879 -0.23026858 -0.016273106 1.0792538 -0.36467063 0.11174678 -0.06149478 -0.35234556 -0.10846429 0.31804225 0.1150975 0.030320015 -0.25456035 -0.15016127 -0.48513848 0.30459362 0.22945692 0.014164168 0.32054302 -0.17215325 0.024414038 0.43691835 -0.13087764 0.45750338 0.341063 -0.07929606 -0.19891664 0.558304 -0.09875511 -0.013323592 -0.22561628 0.5693212 -0.21150382 -0.03937158 0.61526865 -0.2964937 -0.038544536 -0.40837318 -0.63609844 -0.53960276 -0.041766312 0.46529454 -0.32057092 -0.2754309 0.26831448 -0.27858114 0.3901215 0.94591546 -0.2888817 -0.0035259442 -0.59027606 -0.2697303 0.14839526 -0.4115925
314 0.19124132 0.18989794 0.35809907 0.10955903 -0.06753106 -0.44433823 -0.52234083 0.34397826 0.5683782 -0.26052698 -0.26751825 -0.35183042 -0.5413669 -0.3696863 -0.16226457 -0.5858944 0.60371774 -0.2043388 0.1364103 0.24685577 -0.27692112 0.7363048 -0.51442873 0.10657317 0.83399004 -0.30934703 -0.1434527 -0.6464739 -0.18163472 0.2187258 -0.13664313 0.014822415 0.25194958 -0.25650752 -0.00024849796 0.025270427 0.42410624 -0.0017861517 0.036172293 -0.909311 -0.43353894 -0.04994411 0.45549884 -0.24819672 0.38870752 -0.16098896 -0.36383185 0.3238257 0.336158 0.019560644 -0.5769952 0.16990674 -0.11836883 -0.30494255 0.44027007 0.2600851 -0.31103405 0.20426767 -0.021250103 0.250592 0.20105806 -0.14723037 0.19609746 0.045520168 0.51513827 -0.24995422 0.37228766 -0.076978646 -0.18568571 0.60912615 0.08801653 0.39447615 0.3882251 0.105993874 -0.12336806 0.37092507 0.10465592 0.06437733 0.19958735 0.018798145
555 -0.22547841 -0.23254758 -0.11539074 -0.0024589722 -0.1441693 -0.1127741 -0.27000245 -0.19568132 0.081745856 0.1899656 0.5105475 0.7607618 0.1379144 0.21709488 -0.112950236 -0.3043296 -0.37348947 0.09636595 0.43330407 0.13779029 0.14868231 -0.74779516 -0.07899887 0.37749466 0.17586672 0.010921868 0.026726041 -0.33242533 -0.21394607 0.6736502 0.1929465 -0.15904473 -0.057686877 -0.3037152 -0.75777894 0.20883968 -0.51243347 -0.55824834 -0.24572018 0.18402255 -0.042229686 0.017959934 -0.13699189 0.46738285 0.3063883 -0.37389705 -0.32899496 0.3172753 0.09655366 -0.30939025 -0.01008122 0.3620634 0.11420328 -0.1391786 0.21641962 0.5588465 0.45074773 0.24576177 -0.21046358 0.68918985 0.04561925 -0.42511123 0.47237957 -0.114345886 -0.34774038 -0.64715415 -0.06885774 -0.4490642 -0.17275377 -0.006464049 0.1225907 -0.5973063 0.29389328 -0.6372408 -0.2977978 0.0076359576 0.24167083 -0.22715767 0.4214131 0.04797787
240 0.49565828 -0.69107115 -0.2522853 0.15291648 -0.7529246 0.04530404 -0.242876 -0.63173175 0.20121697 0.47270274 -0.05700553 -0.20523849 0.31181937 -0.33789942 -0.51015854 -0.5347638 -0.45388263 0.13084121 0.826055 0.32993233 -0.40703595 0.10428838 0.30777162 0.4378899 0.5941352 0.07472702 -0.34706384 0.5965982 -0.16116108 0.5663063 -0.21664596 0.04992007 -0.1909281 0.47800484 0.0071837627 -0.5174605 -0.24860923 0.46620867 0.039601706 0.2673423 0.08662928 0.069912374 0.06325539 0.14363348 0.74807245 0.74778295 -0.23123047 0.3592744 0.09447477 -0.08008404 0.29153422 -0.1156925 0.4706927 -0.25037852 -0.09554956 -0.28809008 0.19170147 -0.25418314 0.32694477 -0.1647393 0.051526256 -0.13445555 0.35279807 -0.19750926 -0.26434237 0.2994481 0.2725387 -0.50938445 -0.7028018 0.23855476 -0.17088723 -0.755774 0.31053588 0.01964555 -0.50536484 0.1332115 -0.4953364 -0.6561449 -0.19506483 -0.49332747
742 -0.20713435 0.3724651 0.10767311 0.3491455 -0.12915523 0.17451185 -0.6261924 0.32738414 -0.33467117 0.10569741 0.4773317 -0.28922087 -0.396795 -0.6401662 -0.3464901 0.7300813 -0.19656058 0.38012323 0.65867573 -0.4162406 -0.30432087 -0.025844669 -0.62368196 0.16415668 0.5087452 -0.9213635 -0.5030325 -0.7389989 -0.009437666 -0.038064186 -0.35562107 0.2522526 -0.10843572 -0.3995267 -0.39884347 0.064013235 -0.48793286 0.31281605 0.058520015 0.19577892 0.3260461 -0.075316146 0.18785152 0.4549363 0.6504823 0.58213425 0.8013405 0.08451583 -0.8513897 0.033753853 -0.4475884 -0.38819247 0.27229777 0.3241477 0.7042578 0.46481133 0.1635042 0.24460584 -0.58511204 0.7197216 -0.13563043 -0.18840952 0.22479145 0.19637056 -0.07401484 -0.17448497 0.24876061 -0.073605284 0.71469873 -0.20860069 -0.31274557 0.033361364 -0.21590167 0.15072969 -0.4217774 0.56120896 0.08146907 -0.7037753 -0.04902279 -0.2674329
27 0.36990765 -0.3357572 0.44725972 0.4481343 -0.12888765 0.5010667 0.1910971 0.21368812 0.3535582 -0.07008828 -0.16582125 0.10379132 0.19928578 -0.167907 -0.17996004 -0.31187943 1.0163139 0.43809414 0.29249445 -0.3072355 -0.4248729 -0.261008 0.19228658 0.7722852 -0.02229154 -0.44840938 -0.50915 0.12521902 0.9450771 0.02656138 -0.24588405 -0.52387655 0.1807952 0.21972096 0.16296622 -0.19535196 -0.1514291 -0.38225478 -0.012495942 0.7529621 -0.05347342 -0.068752 -0.5211647 0.27120078 0.36743724 0.009614389 -0.035067003 0.67528605 -0.22912326 0.16094118 -0.278607 0.20187952 -0.45828107 -0.24155374 -0.26606464 -0.39396352 -0.63661265 -0.08266265 -0.26358342 0.6281379 0.008999795 -0.24189682 0.38398919 -0.046141163 0.13539602 -0.0938494 0.20377222 0.20050736 -0.14742419 -0.111168444 -0.19332245 -0.50674397 0.015036409 0.26594895 0.24461053 -0.27096292 0.043181617 -0.56602544 0.1643401 -0.5199663
232 0.24997096 0.54434854 0.34486815 0.46672064 0.12284854 -0.027145816 -0.4801591 0.30759415 -0.3228801 -0.025061963 -0.31931582 0.96432966 -0.64867175 -0.71288425 -0.290688 0.6770043 0.29748482 0.16327335 0.6032415 -0.25000829 0.032759096 -0.2728728 -0.2386671 -0.43794882 -0.26517054 -0.16835696 0.46674672 -0.09240968 0.03432712 0.5682649 -0.0057985513 -0.3268476 0.08622723 -0.07742231 0.35624626 -0.3816446 0.091040544 -0.14801545 -0.36353314 -0.012672687 -0.30575407 -0.018114226 -0.2870504 -0.11775164 0.7983799 0.2540647 0.14283837 0.011290777 -0.15599334 -0.5319731 -0.22845142 0.014014041 0.2069196 -0.15596595 -0.2328055 -0.030704126 -0.24147175 -0.33573994 -0.18040328 0.11583537 0.40166992 0.37555134 0.102814265 0.6025927 0.39734778 0.0492498 0.38551205 0.24707787 -0.16183066 -0.4686384 0.09440196 0.32904968 0.033079173 -0.07907372 -0.51229095 0.008800977 -0.4867635 -0.7780934 -0.28931 -0.72508645
1211 0.041201394 -0.17417169 0.74684954 0.7101304 -0.774756 0.19775414 0.23465557 -0.14205156 1.1201322 0.39429027 -0.44110528 0.7455335 0.4917499 -0.04689522 -0.7485838 -0.07931309 0.17590584 0.15068199 -0.38173002 0.24506079 0.41921908 1.0252709 0.6584956 0.28238758 -0.067979336 -0.5913544 0.5277501 -0.009116848 -0.30164278 0.050220694 0.306139 -0.38813624 0.26404247 0.276711 -0.43992645 -0.61252445 -0.44036153 -0.06517037 0.013092498 -0.7671303 -0.21186258 0.21247974 0.0214108 0.0123249 0.19477995 -0.49420044 -0.021635465 0.060342673 -0.46443093 0.114512585 0.026805528 0.36089724 -0.3122519 0.11132962 -0.69748056 0.16443978 0.07861758 -0.14464262 -0.14254096 0.35247198 -0.4132082 0.07924341 -0.024425367 -0.039765205 -0.36554432 -0.4362607 0.29713556 -0.105634265 0.24506857 0.2394354 -0.66026914 -0.18298471 0.17507508 -0.1530629 -0.25125143 -0.01221759 0.16288057 -0.28118432 0.09579552 -0.27301937
120 0.24726786 0.19684948 0.40963474 0.4613733 -0.7490711 -0.7763096 0.27209637 -0.38854042 -0.4947797 0.13322645 0.04491815 0.5263236 -0.15253465 -0.4238606 -0.41808712 -0.08379755 0.55397344 -0.0917163 0.21446717 0.3093668 0.22394706 -0.42611665 -0.04152537 0.28915253 0.55525684 -0.1757242 0.35312077 0.6278763 -0.15286332 0.50442845 0.49017817 -0.04975889 0.043167066 -0.71740973 -0.20398173 -0.27012748 0.16184923 0.16639675 0.4497933 0.19880196 0.45905414 0.21977761 0.025501642 -0.8882157 0.35953587 -0.190945 0.016331114 -0.20490338 0.21945062 -0.46305248 0.6928009 -0.31204224 -0.39644557 -0.0171058 -0.030443978 0.17535886 0.6048766 0.33382794 0.15816969 0.5759821 -0.3639054 0.63724184 0.038524542 0.11801586 0.585796 -0.6879963 0.9477779 -0.2164914 -0.074660495 -0.06413213 0.36342788 -0.28496704 -0.37492195 0.042628657 -0.5755674 -0.21215256 -0.015727498 0.18430147 0.0060078423 0.113229305
283 0.612858 0.36382377 0.66245735 0.73312545 0.11638073 -0.09029891 -0.03791812 0.15028976 0.26696524 0.08244137 -0.06530843 0.6823632 -0.97130394 -0.7283917 -0.5116634 0.31689778 0.13083911 0.5546358 0.31157494 -0.17979196 -0.4384102 -0.033657413 -0.11563971 0.032105383 -0.035243325 0.19165675 0.108952045 -0.69417256 0.23219757 0.815091 -0.18774423 0.3583427 0.09173337 0.8021226 -0.26495156 -0.11161542 0.011502187 0.35087913 0.35080564 0.3775506 0.020137968 -0.41172162 -0.0165315 0.7583045 0.7368815 0.22068627 -0.2511489 -0.017863153 0.24377765 -0.1736605 0.57446074 -0.25854254 0.1845097 -0.42489457 -0.2519135 -0.13592684 0.051351283 -0.28299713 0.1700835 0.30683672 0.0226317 -0.05409504 0.6401465 0.069099605 0.32837504 0.4383869 -0.041039396 -0.2523099 -0.24639495 0.4584249 -0.3142115 0.14982039 -0.0032081257 -0.119034044 -0.1556044 0.30622402 0.49662286 -0.71378976 0.08180802 -0.24989782
131 -0.103447765 -0.109758615 0.26580903 -0.05204743 -0.18508574 -0.2869397 -0.0189095 0.53862673 0.09631917 0.09705966 -0.23447461 -0.12532766 -0.53045154 -0.56142664 -0.37272915 0.11626954 -0.056423023 -0.4620066 0.6104114 0.06870994 -0.07582366 0.33684283 -0.20643972 0.7070081 -0.5468658 0.080908254 0.062299434 -0.47485393 0.37420753 -0.20768578 -0.07636755 -0.76803875 -0.57413477 -0.034045745 -0.58538926 0.002057937 -0.7640782 -0.05088861 -0.42990783 0.08405564 -0.022665916 -0.22569853 -0.058640946 -0.07932782 0.5114269 0.11635938 0.25482863 0.27210036 -0.4523565 0.9855761 0.11617167 0.59753054 -0.5144791 -0.057859313 0.29574862 -0.25608045 0.17319922 -0.20061333 0.07216668 0.18549964 -0.35434216 0.21159935 0.2602185 0.6392231 0.012337704 -0.7921863 0.83953875 0.46521872 -0.018538225 -0.32102904 0.19326217 0.30277073 -0.36365974 0.050902575 0.38629124 0.3516412 -0.008613002 -0.28804788 -0.092282735 -0.29333022
688 -0.25100452 0.009273735 0.33068877 0.09950687 -0.38348162 -0.52312607 -0.14710546 -0.59209466 0.39410952 -0.15866883 0.20699762 0.45619276 -0.6810743 -1.0299892 0.2189185 -0.1340817 0.047384102 0.6349108 -0.009349171 0.17955415 -0.42405844 0.35643113 0.37294698 0.6052661 -0.20302281 0.24692619 -0.22395387 0.348545 -0.68833363 -0.34499186 -0.20611796 -0.16240631 0.25377837 -0.4172899 -0.0077305767 -0.3637148 -0.0543942 0.557151 0.13938026 -0.2407487 -0.24892037 -0.22383843 0.009064491 -0.5664553 0.079017274 -0.14357068 -0.29676875 0.060217418 -0.011170882 -0.33826002 -0.11598855 0.08667939 -0.4882984 -0.01242034 0.2253432 0.23800877 0.1780207 0.7656544 -0.40239424 0.44027925 -0.04009992 -0.6599227 0.26043594 -0.24733962 0.013279938 0.13463031 0.19863392 0.27694613 -0.36273533 0.2808582 0.2790464 -0.41430694 0.37289193 -0.18567908 -0.31442297 0.3268069 0.2971685 0.1456918 0.04203336 -0.2438111
2073 -0.2135358 -0.14934038 0.029060705 0.12086228 -0.27218005 0.19196889 -0.4237269 0.0043969145 0.30554855 0.3953574 -0.045551058 0.19239849 0.03889018 -0.5851238 -0.7854556 0.5358393 -0.2417811 0.5218924 0.6023141 -0.1887192 -0.17848505 0.24416773 0.67613107 0.66301244 0.029037805 -0.59691656 0.1981511 -0.43289065 0.41978684 0.69692016 -0.06307378 -0.359859 0.5370894 -0.3198967 -0.090595976 -0.00851794 -0.07936473 -0.058762148 0.53267664 -0.65186447 0.37213296 -0.5853229 0.02600368 -0.7040467 -0.06485691 0.23046607 -0.9692047 0.4448415 -0.344249 -0.20519795 0.6649945 -0.08194872 0.42749232 -0.014721222 -0.40618527 -0.3915892 0.010928465 0.42266637 0.2679935 0.56810266 -0.30483785 -0.080814414 0.20799561 0.084014624 -0.058162402 1.1924336 0.16021062 -0.51673865 0.8468723 -0.12308044 -0.47827572 -0.101158544 0.64580154 -0.13242164 -0.17755446 -0.26863566 0.5413045 -0.5447333 0.89186066 0.060197826
272 -0.6335824 -0.6521713 0.3995267 -0.076369025 0.11846112 -0.55553234 -0.049699653 -0.5852165 -0.19054043 0.24048491 0.68842614 0.60159355 -0.10654267 -0.77606165 0.23243001 -0.08239522 0.50976795 -0.17465761 0.007992175 0.064118445 -0.59067345 -0.22187082 0.17574564 -0.047520068 -0.29394153 -0.41013363 0.03584948 0.8141977 0.08544016 -0.33019763 0.2599361 -0.41646045 -0.0024389601 0.39835623 -0.4351441 -0.034132905 -0.38379464 -0.10012389 -0.17895386 0.21924682 -0.061838705 -0.077562794 0.07446594 0.4143533 0.4826258 -0.45999578 0.13092436 0.34399027 -0.060338743 -0.04587349 0.3246314 -0.23413967 0.2484479 0.17195208 0.23020154 -0.6289147 -0.2436666 0.14719392 -0.079733275 0.4684412 0.20431043 -0.57184565 0.09585894 -0.2198879 0.002910261 0.2190913 0.40416262 0.018366242 -0.1097362 0.21653762 -0.5156076 0.00043568746 0.74908864 -0.4057659 -0.60396826 0.2033454 0.34117502 -0.42820036 -0.16793564 -0.64563143
463 -0.013404498 0.4260979 0.02930708 -0.72789466 0.023683911 -0.1684752 -0.87519944 -0.12451199 0.5184583 -0.26440045 0.78138644 0.6509976 0.63033843 -0.7337317 0.5824873 -0.8854516 0.27688858 0.042980894 0.040263582 -0.21213908 -0.041799154 0.15493047 0.15024371 -0.2964414 -0.08903832 -0.22012568 0.18100433 0.05419739 -0.21248743 0.84883106 0.9724128 0.21284217 0.1631823 -0.36745915 -0.14377943 -0.18243854 -0.48050496 0.09018047 -0.5370839 -0.21435532 0.4003886 0.04415338 -0.42091635 -0.034200657 -0.0065369927 -0.11148446 0.29395828 0.43564904 -0.8369024 0.37215784 0.012576099 -0.5969318 -0.0023182684 -0.44101948 0.19443892 -0.24553317 -0.34549394 -0.43827254 0.038004518 0.21018872 -0.15614852 -0.2144561 -0.2918775 0.23659691 -0.44186306 -0.34775344 0.43100843 -0.6449768 -0.1634499 -0.20615667 -0.0998742 0.3202519 0.042763572 -0.24237086 -0.69127727 0.65426946 0.16469578 0.49920473 0.42146617 -0.3811096
435 0.41304997 0.5542584 -0.089548096 -0.097893275 -0.57624876 0.46381664 0.28872937 -0.597267 -0.67213446 -0.09046951 -0.27840188 0.047039352 0.1510455 -0.3728281 0.12420502 -0.033414043 0.08493199 -0.18120913 0.12313268 -0.23181972 0.23648718 -0.18819827 -0.31127575 0.5215729 0.10042351 -1.0728854 0.15472746 0.16956495 -0.23598635 0.6610592 0.5279208 0.06603365 -0.50713336 -0.13115902 0.27734372 -0.14379546 -0.019470068 0.05035782 0.0014687567 -0.3813315 0.8461472 -0.34764642 0.5961964 -0.296427 0.59331477 -0.4773256 -0.26016635 1.3670906 -0.1923096 -0.79639983 0.2710722 0.7605526 -0.12067498 0.1771385 0.40173933 -0.06446886 -0.66550916 -0.023963591 0.07060254 0.37894583 0.63286936 0.7077404 0.10901518 -0.6489829 -0.033842493 -0.12541461 0.15306388 -0.49333704 0.103926 -0.4909933 -0.33461487 -0.014246379 -0.34333044 0.34088624 0.28777635 0.53905064 0.5983435 0.4030676 -0.3933287 0.005573453
868 -0.7755082 0.40183124 -0.007218494 0.5885576 -0.12693511 -0.31706375 -0.03993862 0.24913554 -0.34600005 -0.07003228 0.03137607 -0.2892895 0.07037047 -0.3610861 -0.04470276 -0.10099214 0.30233258 1.0099472 -0.3621408 0.3840916 0.25478595 -0.038075935 -0.30421108 -0.16774051 0.262926 0.38216466 0.468912 -0.4024735 -0.09313505 0.38576946 -0.24447723 -0.6137161 0.40238252 -0.03959492 -0.3163032 -0.29418087 -0.20109703 -0.30902612 0.032965455 -0.58544147 0.040516548 0.6296838 0.4809396 0.53446543 0.04685417 0.9311015 -0.32789418 0.71052015 -0.1692051 -0.6340124 0.27495435 0.7548715 -0.22009929 0.008948411 0.19370496 0.15601416 -0.12214255 -0.18246058 -0.026457654 0.66247654 -0.86911905 -0.762802 -0.42067254 -0.099511795 -0.29890835 -0.95381397 0.2205858 0.59386396 -0.48910767 -0.19064286 -1.4351199 0.10388645 0.3687584 -0.16508694 -0.3449757 0.43764985 -0.434827 -0.2545489 0.027087027 0.025524901
1781 0.21139452 -0.43227124 0.28038183 0.8791625 -0.2931873 -0.32245022 -0.32552224 -0.20551375 0.54527295 0.3785222 -0.13014619 0.7226766 -0.144056 0.034949135 -0.47704342 0.021265034 -0.011915735 0.12605286 0.2878262 0.27078483 0.36577353 1.1825356 0.6933418 0.39717197 -0.027528722 -0.90496165 0.15585357 0.28388268 -0.5595639 0.0977489 0.7621643 -0.28321156 -0.13890727 0.36729914 -0.12043545 -0.20835099 -0.25222522 -0.31137958 -0.0008053405 -0.8109771 -0.11668398 0.061832603 -0.0787297 -0.26806295 0.13731611 -0.22486804 0.07045557 0.045858406 -0.2878972 0.3725222 -0.31612927 0.44588378 0.4651538 -0.23780352 -0.18797547 0.46780768 0.06853997 -0.21478823 -0.20076606 0.46387964 -0.2686087 -0.013359863 0.11000035 -0.5009596 -0.35526133 -0.69731975 0.2099812 -0.20353739 -0.08566734 -0.15535544 -0.22295764 -0.123038426 -0.055025663 0.045919385 -0.6076595 -0.0051766555 0.05568997 -0.16045782 -0.30976048 -0.29242277
408 0.8469596 -0.27782613 0.22574896 0.33290103 -0.06274214 -0.25172997 -0.22936577 -0.5595354 -0.16257842 0.1263514 -0.08272932 0.3368484 -0.3021195 -0.609666 -0.11702731 0.42446515 -0.035792492 0.1722056 -0.08011241 0.6431247 0.14587404 -0.44713107 -0.26267162 -0.16215767 0.28430027 -0.103608005 -0.38741395 0.48590147 -0.15440838 1.0435007 0.17077425 0.31095698 -0.27997422 0.057106685 0.13951214 -0.6627611 0.20870985 0.4677434 0.530053 -0.20835832 0.13561264 -0.09038426 -0.2807042 -0.3632773 0.3551528 -0.58406985 -0.28638685 -0.18732648 -0.17965955 -0.009882184 0.41094497 -0.41872746 -0.40677533 0.07133511 0.6650483 -0.0028475851 0.6318668 0.49050158 0.2679319 0.4159043 -1.0978959 0.15412925 0.6615354 0.20590462 -0.079685755 -0.6689909 0.25488096 0.47218817 -0.37701353 -0.20890388 0.15145142 -0.7502882 -0.24740335 0.18800968 -0.102163196 0.4169772 -0.2712187 0.16081813 0.6394054 0.114102975
262 -0.03877719 -0.14634676 0.31447327 0.305135 0.07183797 -0.2646279 -0.31690788 0.13424888 0.36081746 0.20430577 -0.67316073 0.3707896 -0.080298126 -0.018226283 -0.18830785 -0.61768353 0.4300476 0.16445257 0.3230381 0.14789805 -0.2697561 0.72616065 -0.20326315 0.04638844 0.5950622 -0.6452013 0.27436265 0.07055401 -0.19439767 0.08643682 0.041656043 0.50391424 -0.5863656 0.67046356 -0.03636599 0.042172514 0.07830538 0.15493768 -0.5600175 0.35594985 0.1697481 0.21951634 0.31712592 -0.16049927 0.4217394 -0.3249325 0.0765729 0.4338711 -0.56745154 -0.07584794 -0.31172895 -0.11350972 0.09730079 -0.053937443 0.25582105 -0.18058038 0.589173 0.08755396 -0.006605175 0.26148924 -0.4318965 -0.11551046 0.30774856 -0.13514493 0.032832053 -0.07917012 -0.30982605 -0.4956372 -0.61683524 -0.38146773 -0.166593 0.6519618 0.31603524 0.2100233 -0.57351214 0.2018441 -0.07957585 0.48341757 0.28877163 -0.109647855
1040 -0.32813734 -0.047961228 0.53038687 0.58663565 0.26416624 -0.31227368 -0.022734484 0.5708347 0.259126 0.19735645 0.52651113 0.0063264943 -0.56636643 -0.66786987 0.07276356 -0.061179906 0.3758163 0.7212866 0.22189239 -0.39631656 -0.3751637 0.74155366 -0.48949158 0.06768934 0.08064502 -0.23037706 0.13426974 -0.49855712 -0.40374887 -0.32516065 0.9417366 -0.50137115 0.004621511 0.09920639 -0.58511055 -0.37053227 -0.28630632 -0.20267041 0.21018517 -0.54858786 -0.036888428 -0.42813927 0.46611166 0.027274335 0.45038489 -0.029286675 -0.25186774 0.44583142 0.1520071 0.070257664 -0.41853908 -0.5562772 -0.40504786 -0.37345138 0.55870575 -0.27932954 0.8133252 0.38426524 -0.40144762 -0.0879748 -0.05703883 0.32895547 0.37979144 -0.2750299 0.20119283 0.041055556 0.13130964 0.20466724 0.33563048 -0.36509758 0.016224261 0.3785508 0.14176755 0.6551168 -0.1070688 0.7133664 -0.24102944 -0.009925573 -0.15090173 0.14401263
895 -0.2366378 -0.77685326 -0.62418133 0.4668054 -0.977821 0.29041207 0.7002821 0.20173624 0.75557536 0.11620551 0.19825403 -0.18633932 0.4242301 -0.38183555 -0.38531256 0.70995104 0.20549904 -0.20100327 -0.088657685 0.31831223 -0.75680065 -0.56898975 -0.23803347 0.62113184 -0.0009995111 0.06834513 0.15471081 -0.10695045 0.17099188 1.0947118 0.3080513 0.4204803 -0.04767182 -0.15112299 0.23847513 0.41805023 -0.47291008 -0.08806712 -0.0010044955 -0.7010526 0.0116499495 0.22078587 0.990419 -0.24467333 0.21690136 -0.29632694 -0.7930111 0.64485 -0.54359865 -0.33914122 -0.14583321 0.22232236 -0.50378084 -0.55895925 0.09941427 -0.5828038 -0.34958142 0.030748282 -0.4498798 -0.14556251 -0.25021592 -0.30997247 -0.53880817 -0.21475498 -0.2048509 -0.16112016 0.12058423 -0.2365969 0.046627905 -0.30338803 -0.081231184 0.34389243 0.2224932 0.83369774 0.048864193 -0.078083664 0.59210247 -0.11183924 -0.33662516 -0.09131802
808 0.5150769 -0.4162297 0.025241962 0.63196564 -0.3702604 -0.24855511 -0.021928933 -0.30024043 0.52289313 0.065258235 -0.4151214 0.10122833 -0.16812027 -1.0148172 -0.621638 0.43938148 0.28884402 0.2807826 0.7181834 -0.54287237 0.16858602 0.38279742 0.732886 0.3973475 -0.30180952 -0.54939413 0.077159226 0.12268353 0.11909135 -0.30555457 0.3893502 -0.013576292 0.14792782 -0.2537952 0.23267461 0.1028467 -0.5004281 0.2534313 -0.31811523 -0.32758093 -0.4841549 0.05066955 -0.084866576 -0.5749279 0.18379816 0.29551557 0.10113595 0.5387483 -0.8464616 0.05597746 0.20288114 0.50483817 1.2785177 -0.7583001 1.2288542 0.5167109 -0.47000277 -0.12349556 0.6146802 0.14670068 -0.21732551 0.13782021 0.17508245 -0.36637226 -0.76532865 -0.15560625 0.07481157 -0.19726783 0.04882265 -0.28906798 0.11966749 -0.23361702 0.27120423 -0.12653752 0.06684752 0.8588011 -0.37531483 -0.28795615 -0.51488847 0.35352987
330 0.3467634 -0.15493074 -0.46041146 0.3167831 -0.15351409 -0.2804072 -0.8090627 -0.1568746 0.007482979 -0.16515747 -0.4199606 0.1874008 0.07101578 -0.111002505 -0.48623013 -0.22061042 -0.3116696 -0.15422131 0.31988508 -0.10527864 -0.54365444 -0.48055232 0.5575801 0.3716947 0.39699638 -0.28737086 0.22219719 -0.0065397522 1.1664796 0.55848604 -0.22860083 -0.21954283 -0.24916638 -0.028909843 -0.5257522 -0.017072378 -0.11031323 -0.066044316 -0.013879733 0.31802526 0.0016991396 0.45031473 0.0463136 -0.17851217 0.7480022 -0.36095893 -0.09331094 0.7318818 -0.37927485 -0.6564867 -0.3387342 0.21193771 -0.35816935 0.296508 -0.19927478 -0.16698806 0.6779672 -0.11588028 -0.44753885 0.86587363 0.19265886 -0.44382235 0.021062806 0.24865557 -0.35410064 -0.20710725 0.5857524 0.22217885 -0.19319022 -0.3393433 -0.20156242 -0.37150058 0.08573596 -0.39573544 0.27746865 0.08945106 -0.0008148513 0.3777283 -0.042545427 0.26284903
861 -0.93728775 0.34581852 -0.11612828 0.5377129 -0.0100219 -0.6258088 0.42795283 -0.14216658 0.20160803 0.009777578 0.07012121 0.4979806 -0.29089916 0.2467926 -0.7557415 -0.18286525 0.8986324 0.43680453 0.89963096 0.06341214 -0.08281337 -0.3141225 -0.46395653 0.46941045 0.07296949 0.3117586 -0.22070758 0.37906697 -0.17240219 0.33740374 0.0071218433 0.23242271 -0.7753287 -0.17755145 0.21170264 -0.095047936 0.71683174 -0.18114449 -0.15084173 -0.13375442 0.11611734 0.26178488 0.44023368 0.2260741 -0.23688933 0.2607648 0.03488369 0.46009415 -0.41647825 0.29745963 -0.012916301 -0.7383903 0.5192701 0.30926788 0.41563505 0.67688066 -0.15888964 -0.5011268 0.43403745 0.08942642 0.05840746 0.15544876 0.012536134 0.23332472 -0.82180035 -0.08096518 0.3593333 0.22405013 -0.3595715 -0.288559 -0.94482535 0.2213142 0.5145796 -0.19748007 0.07602513 0.35172573 -0.19598387 0.4906 0.13911915 0.101193465
1836 0.54228157 0.36777246 0.16578121 0.6813744 -0.7829406 -0.3918464 0.36231208 -0.43860784 -0.2466296 0.33767354 0.25518706 0.162601 0.050060872 -0.04406448 -0.05202319 0.0595742 0.3469228 -0.08655543 -1.056609 -0.3074576 -0.4087069 -0.45589203 0.0058638933 0.36824447 -0.17960721 -0.21090902 0.17772324 -0.20978977 0.20627269 0.47116664 -0.4910551 -0.2174166 -0.18414979 -0.028895 -0.15073028 -0.36222 0.024416065 -0.09872831 0.54584557 -0.068786494 0.10262324 -0.07353545 0.36481512 0.37129882 0.5895854 -0.43920213 0.10359128 0.9244656 -0.11345885 -0.027885493 -0.097626165 0.0015780514 0.4730604 -0.2773432 0.8923219 -0.1361336 -0.040199865 0.18282531 0.27929473 0.78025633 0.3862401 0.28501287 0.44145837 0.3311036 -0.40651986 0.38436985 -0.6132969 -0.05521234 0.32481778 -0.2425124 0.10620439 0.8221473 -0.098744154 -0.17577058 -0.08245777 0.27657118 0.032642305 0.4275226 -0.38323808 -0.25011766
929 0.14476849 -0.12680355 0.75001276 0.6312494 -0.32948324 0.34636587 -0.063225694 0.8034473 -0.7966393 0.01397367 -0.5096087 0.24896938 0.3202474 -0.3920086 -0.16771662 -0.29019123 -0.23794815 -0.0064434935 0.26482144 -0.4939021 -0.22654812 0.44148815 0.14266291 -0.11585386 0.5415599 -0.42152405 -0.18024184 -0.5335051 -0.49839628 0.27484313 -0.40799257 -0.12179007 -0.18700665 -0.21383753 0.24297264 -0.48874736 -0.2986982 -0.8250936 -0.42251766 -0.34605706 0.09368503 -0.22396117 0.20702642 -0.3096176 0.27159733 0.048139904 0.24187869 0.32054666 -0.6253796 -0.3419896 -0.36712742 -0.41064212 -0.72473806 0.12938209 0.20362224 -0.24737978 -0.014444225 -0.05963028 0.25346074 -0.28740802 0.33942097 0.65328974 0.5118796 0.24353892 -0.23031655 0.28745827 0.6061063 0.08958334 -0.19671519 0.16817392 -0.6873573 0.043287095 -0.049895965 0.05636368 -0.51249534 0.3660285 0.2787504 -0.22872107 0.25443387 -0.10053665
268 -0.24076852 0.03314752 0.2946121 0.16253768 -0.13167708 -0.49128893 0.10579138 -0.12336907 0.48225644 0.009150995 -0.44790807 0.3960444 -0.43038106 -0.18571983 -0.12725821 -1.0241151 0.42986494 0.16178456 -0.22199956 -0.40619847 -0.045156427 0.36417675 0.2854095 0.54176927 0.90188414 -0.23512149 0.114735134 0.100219086 0.059091438 0.13709272 -0.7546202 0.4777812 -0.29690066 0.1034628 -0.42180616 0.07695631 0.38717455 0.015698409 -0.32048035 -0.28436455 -0.39769527 -0.004788763 0.1758688 -0.12765248 0.4237022 -0.0069151116 0.30367595 0.25510946 0.07214371 -0.25405523 -0.16647463 0.3757217 0.124626495 0.20383278 0.18500787 0.12424019 0.49565676 0.3810777 -0.6636003 -0.07673924 -0.1504877 -0.21583666 0.28094575 0.046909004 0.5374872 -0.035987698 0.14678618 -0.18675101 -0.366076 -0.09421689 0.3019236 0.4613364 0.7316885 0.6120406 -0.46281728 0.61331034 0.11888808 -0.32055682 0.33718026 -0.050805766
305 -0.40303075 -0.6588241 -0.27974612 -0.50268847 0.17982739 0.22214867 0.079889864 0.05296781 -0.36030418 0.17385441 0.42063117 0.34218308 -0.042154286 -0.35209715 -0.45652905 -0.29407352 0.7653333 -0.100178175 -0.18896428 -0.5431588 -0.008340297 -0.48410586 0.028263165 0.94437945 0.096200824 0.35821605 0.40925106 -0.86210936 -0.48423657 0.5766912 0.49924242 0.17522556 0.3139297 -0.7065974 0.0012002032 0.051924974 -0.055943996 -0.33441052 -0.12273649 -0.16735786 0.52727413 0.16970858 0.09378366 0.039048333 0.4165831 -0.043887798 -0.031836744 0.21530408 -0.16605338 0.21069443 -0.14894228 0.2212648 -0.09746681 -0.8154529 -0.034341093 -0.29720858 -0.115238756 0.069555275 -0.47559658 -0.4208198 -0.2773808 0.016137345 0.916455 0.26561323 -0.5318088 -0.19508101 0.55788606 -0.30421996 0.076965496 -0.548786 -0.26395223 0.16906245 0.10329863 -0.6163274 -0.08781032 -0.1720068 -0.7502938 -0.21231182 -0.026506577 0.26613915
520 0.13251618 0.13091606 -0.120364204 0.24629804 -0.27945855 -0.2624491 0.38526794 -0.70077384 0.040377297 0.20795217 0.22554898 0.08142914 -0.12179391 -0.22622284 -0.35580477 -0.17381792 0.11624473 -0.6591983 -0.28486705 0.010775486 0.16565916 -0.0364995 -0.2905616 -0.094716564 -0.33180332 -0.43484297 0.059579745 -1.2469807 -0.8330986 0.76197404 -0.69562066 0.20325688 -0.2349772 -0.22435628 0.041161507 -0.39075053 -0.170646 0.27203935 0.014466608 0.1577246 -0.18743743 -0.038197014 -0.24950726 -0.05117009 0.31735268 -0.08310808 -0.6039231 0.40556824 -0.10788522 -0.1775429 -0.12206046 -0.21090305 0.28035793 -0.3045614 0.5192381 -0.52079713 0.46623775 -0.4434662 0.18675119 0.74091375 -0.16319568 0.20813449 0.106571436 -0.33232364 0.08874593 -0.16812171 -0.00074319093 -0.1650187 0.2840692 0.35332808 0.025960116 0.022400843 0.13088158 -0.4182744 -0.41464058 -0.4184835 0.13535748 -0.026823295 0.38181913 -0.291541
650 -0.39247718 0.013263588 0.13259211 0.42738268 -0.3207458 -0.59198207 -0.3504419 0.17747942 -0.06517492 0.31879848 -0.05259018 0.31728148 -0.1109001 -0.40398654 -0.2106541 0.37327185 0.34065735 -0.11820484 0.9900149 -0.12515742 -0.06762348 -0.3341894 -0.20628232 -0.7243286 0.36175418 -0.023841837 0.030488603 0.06602367 0.062319737 0.040779535 -0.26921397 -0.3760027 -0.117799774 -0.18129002 0.14422365 -0.63779944 0.2084314 -0.56399417 -0.4497435 -0.35444075 -0.77787787 -0.571503 -0.19617574 -0.5772376 1.0348454 0.53288347 -0.029821502 0.20102642 -0.21007773 -0.5429092 -0.2374859 -0.15146515 0.24301554 -0.30131692 -0.29319793 -0.79679203 -0.16814153 -0.058949754 -0.71818936 -0.025262862 -0.052522633 0.5701268 0.56322855 0.6226712 0.0021688114 0.16958661 -0.074832164 -0.055068396 -0.15578431 -0.33410028 -0.33134225 -0.01616423 -0.6640357 0.030139582 -0.54049176 -0.14841872 -0.55507666 -0.37086377 -0.014507743 -0.6046453
1368 -0.31725457 -0.02438554 0.42714936 0.32359523 0.19807085 -0.11167484 -0.5118273 -0.1993655 -0.322302 -0.25579265 0.4242356 -0.36964554 -0.17902909 0.14761658 0.009519912 -0.62973654 0.59718895 -0.63843775 -0.38093233 -0.007872621 0.400251 0.5327997 -0.044919822 0.6506589 0.12129513 0.10769599 -0.6456208 0.054699562 0.08214234 0.10528702 -0.50385827 -0.52854395 -0.22593597 -0.9843837 -0.15794097 -0.27895322 -0.21000819 -0.25173864 -0.2588673 0.018151427 -0.29761818 0.11718147 0.76800627 0.07832346 0.7149121 -0.19023757 -0.11310392 0.99240947 0.5663835 0.47325453 0.32715258 -0.37205836 0.5460062 -0.10921478 0.029728841 -0.02548439 -0.2527773 0.029784122 0.5628968 -0.14050211 -0.6438652 0.51757634 0.60935825 0.25465253 0.27922678 0.44588262 0.9922921 -0.6770188 0.26554394 -0.20630975 -0.3630393 0.098705895 0.3539765 0.6854562 -0.4892543 0.34700918 -0.15724818 -0.1908123 1.1735936 -0.5108997
761 -0.4758113 -0.21262994 -0.47168672 0.41621858 -0.6007213 -0.34741825 0.0799871 -0.5003866 0.09976708 -0.17435917 0.47325844 0.4823849 -0.5775623 -0.42485914 -0.2597205 -0.36716288 0.31545419 -0.35246566 -0.050096735 -0.09946677 -0.5786615 -0.28729457 -0.85284853 0.24744171 -0.104540884 0.55686986 0.30846715 0.046825673 0.22922428 0.34987897 0.10916399 -0.3177392 0.031155618 -0.26993433 0.33503348 0.18788862 0.27812278 -0.042230222 -1.2716137 -0.007977301 0.89943403 -0.58231753 0.8632806 -0.007262208 0.3616128 0.19542268 -0.47859746 0.5912836 -0.25965235 1.0162008 0.49934912 -0.20390871 -0.31954736 0.008696207 -0.44366398 -0.21307746 -0.47679004 -0.06283595 0.20892116 -0.5208595 -0.5923623 -0.31188318 0.2514684 -0.65905225 0.31133977 -0.47387558 0.15348066 -0.59403557 0.12632188 -0.16460447 -0.38294083 0.8002653 0.4577566 -0.21131638 -0.71742 0.18350852 -0.41053253 -0.1001725 -0.4992115 -0.19852893
1559 -0.7120167 0.18903974 0.63110673 0.0020883766 -0.6305591 0.25870475 -0.12614197 0.23563863 0.3983515 -0.40503725 0.51016724 0.70830566 -0.3455288 -0.5664977 -0.4472566 -0.08643599 0.15996252 -0.035000455 0.105102755 0.14575303 -0.026668334 -0.43634066 -0.8191406 0.9025299 0.010451434 -0.30064788 0.31443015 -0.1734388 -0.018710854 -0.14747858 0.28966248 0.3175035 -0.02809306 0.33947217 0.4075178 -0.13114524 0.4450761 -0.7232282 0.6396747 0.13033417 -0.15213773 -0.41140518 0.04358026 0.15428488 0.7655578 -0.28111878 0.07792774 0.05790352 0.1583767 0.21407211 0.14450821 0.7366485 -0.5418038 0.39253166 0.6262145 0.36503747 0.02276536 0.21947137 0.13336787 0.28360677 0.021145483 -0.35941255 0.63368267 0.8376893 -0.13418503 -0.29994354 0.047303896 -0.30552444 -0.23421675 0.6458381 -0.43045637 -0.36807707 -0.12759455 0.29043785 0.5403568 0.0692589 0.1523577 -0.40645438 0.106254146 -0.08481544
405 -0.0081219245 -0.18703535 0.32542685 0.096477054 -0.0318634 0.38195646 -0.2745251 -0.18744987 0.36022848 0.25395924 0.7103827 0.5048054 0.5667266 -1.2704184 -0.6942256 0.055264123 0.77849424 -0.58548224 -0.007104209 0.5085113 0.2553175 0.026523817 -0.0008434014 -0.9791285 0.8786358 0.8728374 0.08749327 0.30140233 0.29144213 0.81266356 -0.21282394 0.34280276 -0.8685887 0.07715991 -0.54680413 -0.45098078 -0.46346378 0.24339661 -0.35233438 -0.26280567 0.55823684 -0.58362746 -0.39932927 -0.27617034 0.016282303 -0.55714434 -0.39983916 0.59855586 0.04034576 0.09547454 0.08316783 -0.14757383 -0.27454028 -0.08249553 0.26510456 -0.07337538 -0.38504142 0.105433434 -0.014034931 0.31713128 0.24444121 -0.14748575 -0.38902357 0.5141166 -0.6533238 0.2244782 0.15895157 -0.11353193 0.17128038 0.050897647 -0.6143223 -0.13100594 0.13457364 -0.26355046 -0.20056446 0.37870076 -0.10119669 -0.7267285 0.05516624 -0.19295815
239 -0.47079322 -0.2804956 0.36155447 -0.25844726 -0.6976211 -0.10788092 0.08908767 -0.3264502 0.35108832 -0.123819515 -0.78510827 -0.023741134 0.685411 -0.38789526 -0.64185834 -0.3273674 -0.13738225 -0.107778355 0.3838393 0.028556181 -0.19786869 0.011007098 -0.134906 0.11512224 -0.37646246 -0.14390165 -0.23107798 0.8226309 -0.22967917 0.3455332 0.29553223 0.17361058 -0.45707622 0.8170757 0.37236577 0.19951689 0.13187829 0.36058888 0.30642146 0.17547661 0.21244764 0.10633167 0.18153645 -0.1607386 0.7127691 0.41153657 0.24793199 0.8055351 0.34547314 -0.020390764 -0.33043382 -0.049292486 -0.18000129 0.5489943 0.074080825 -0.29872295 -0.4197435 -0.26866266 -0.020127319 0.16220859 0.03000133 0.07908818 0.52576023 0.20766453 -0.003214285 -0.060194127 0.39159787 -0.58243454 -0.3724479 0.81937224 -0.797486 0.20911032 0.20223328 0.09781682 -0.92691433 0.3638837 -0.060036644 -0.625033 -0.29409143 -0.4715211
288 -0.01196741 0.103006214 -0.1320966 0.8568565 -0.1324949 -0.7487848 -0.31611875 -0.016589662 -0.008608911 0.07243856 0.0016362962 0.20234501 -0.5834208 0.10620991 -0.1859993 0.13836405 0.4219531 0.01242374 0.9575049 -0.021514537 -0.1824809 -0.71814835 0.010750137 -0.29088867 0.19286156 -0.08425036 -0.1306051 0.2039483 0.7201758 0.50915956 0.19494326 -0.3710076 -0.12567912 0.24640796 0.0867439 -0.5099139 0.4038848 0.0005070987 0.026252983 0.2109627 -1.040897 -0.010107704 -0.17936675 -0.29078352 0.52320284 0.5790047 -0.3657572 0.23516409 -0.32364258 -0.50548863 0.028163131 0.5376694 0.16514288 -0.44246146 -0.22799842 -0.25778645 -0.4526008 0.12851588 -0.6585794 -0.03986113 0.01377298 0.3783353 0.3925461 0.48340207 -0.6147236 -0.0051135565 -0.32879785 -0.18534084 0.323097 0.105489984 -0.20058541 -0.25301102 -0.1134102 0.25011924 -0.31070054 0.2777686 -0.3961904 -0.62695557 0.16730587 -0.7248662
652 0.13391022 -0.23223068 -0.22983103 -0.0013180331 0.043643672 -0.11925065 0.07797127 -0.33831102 0.34940147 -0.3297891 0.14627302 0.024377426 0.47436562 -0.01880046 -0.10253242 -0.05904131 0.3432486 -0.5257596 0.16474245 0.112735 -0.07362952 0.031207234 -0.44282523 -0.015434255 -0.49040437 0.5772529 -0.19216095 -0.26009193 -1.2340695 0.70495355 0.114365615 0.4915961 -0.026106 -0.12579109 -0.517966 -0.56871724 0.31981564 0.4139792 0.33452982 -0.48786688 -0.4305033 -0.23661439 0.1254634 0.14129391 0.633695 -0.1397612 -0.22384475 0.55348206 -0.55240977 -0.3256638 -0.008078635 0.53155714 -0.26378632 0.5986206 0.39730713 -0.5369042 0.061667215 -0.030968435 -0.19949482 0.01224154 -0.19836403 0.11356466 0.1760162 0.30843905 -0.031052811 0.1424008 -0.18848145 0.10671515 0.3985745 0.14523649 0.18500549 0.27354673 -0.43881667 -0.038085222 -0.47555077 -0.0906115 -0.015551947 -0.78984994 0.33811203 -0.31748542
136 0.17916283 -0.107346475 -0.12644535 -0.098441236 0.62867075 -0.31950593 -0.33305585 0.2138156 0.09197798 0.12816405 0.8411559 0.2218089 -0.060301147 -0.52824545 0.14504097 0.011594593 0.079910114 0.0042555905 0.7102216 0.38634077 -0.7832762 0.17356534 -0.5926807 0.12908153 0.09356713 0.21920185 0.09404111 0.43480507 0.30255705 0.5228814 0.02909092 -0.08632602 -0.28324515 -0.49269038 0.0051671905 0.4691962 -0.9267608 -0.35298657 -0.35498902 -0.4381396 0.08201607 -0.48751754 0.22055815 0.73654795 0.33566585 -0.29980415 -0.32761157 0.11064377 -0.6745098 0.12887907 -0.116123855 0.31237566 0.3575358 0.28851825 0.30400875 -0.29595417 0.47562075 -0.2914486 -0.27611986 0.94699895 0.27233112 0.69342816 -0.3797045 0.4427344 -0.32659534 0.13634466 0.36154425 0.28276214 0.06750244 0.29864123 -0.9309504 0.027278773 -0.2516116 0.306362 -0.16710417 0.19535309 -0.0892308 -0.08846741 0.11538275 -0.32642186
1005 0.3350534 0.2601068 -0.05555214 0.2933646 -0.04677451 -0.8040773 -0.005573049 -0.15348339 0.42182532 -0.15912288 -0.40515783 0.3625242 -0.27944508 0.18057466 0.547513 -0.5507208 0.35857132 -0.17590182 0.5609789 0.045473482 -0.54422027 0.25530407 -0.12456168 0.71490014 0.047197223 0.35489443 -0.30851507 -0.19430444 -0.61262715 0.37423575 0.17683485 0.06827495 0.6681508 -0.13849173 -0.6606487 -0.20184043 -0.30424482 0.76378185 0.42370504 0.06306155 0.2732465 -0.3814938 0.2587809 -0.060408678 0.9307479 -0.43137333 0.338166 0.2658803 0.19426382 -0.18226902 -0.16050404 0.19884019 0.17449898 -0.5427399 -0.4244411 -0.44913873 0.27356818 -0.22267303 -0.3052793 -0.047769494 0.16817348 -0.10064653 -0.32996294 -0.123594 0.42126757 -0.35478485 0.71551806 0.28005898 0.25561747 -0.07979437 0.025537662 0.19290084 0.2119784 0.118729465 -0.0068623917 0.17614122 -0.3057046 0.2881421 0.38396466 -0.34264427
422 -0.12531735 0.4662436 -0.021547174 0.39309135 -0.054523863 -0.2006813 0.20643227 0.51916546 0.5894943 0.6162508 0.47597525 -0.61105245 -0.31495768 0.13982762 -0.3843163 0.007995164 -0.19037919 -0.085846364 0.5664659 0.79378533 -0.57254153 0.503502 -0.0054049343 0.6084433 0.08401863 -0.12048941 -0.006791791 0.016410662 0.27323437 0.54005355 -0.18242528 0.1737145 -0.18894869 -0.27686837 0.16921872 -0.25635177 -0.23464313 -0.0011167511 0.6847775 -0.7187183 0.79051864 -0.044861063 -0.30590886 0.3521066 0.68590635 0.84019744 0.0636053 0.5332648 -0.74215776 -0.086188704 0.08097175 -0.7274553 0.25428656 -0.12275915 0.45082423 -0.18346749 0.32008976 0.6383185 -0.80976653 0.07187745 0.15681982 -0.22566815 -0.08056707 0.536129 0.10524527 0.5156639 0.48745295 -0.33234498 0.8886308 -0.25386065 -0.18137217 0.19622843 0.43837932 -0.685699 0.44355196 -0.15442967 -0.0003248316 0.41982198 0.37366048 -0.117955014
750 0.7030523 -0.2995395 -0.0515457 0.5876989 -0.021255616 -0.3459704 -0.09273512 0.23052157 0.2908614 -0.33185238 -0.08198087 0.27015397 -0.17093575 -0.09135403 0.22811607 -0.08368094 0.34230027 0.7384314 0.10594714 -0.124840066 -0.19317949 0.38156876 0.44563243 1.0596908 0.6156061 -0.5532269 0.31133577 0.2378221 -0.05865499 0.43882042 -0.46229517 -0.042264 0.03285859 0.42069083 -0.3898826 -0.31819525 -0.17819224 -0.5256183 -0.18932746 0.1029896 -0.17235242 -0.08267667 -0.48642272 0.04612815 0.67865324 -0.12608352 0.21666011 0.28870836 0.081521906 -0.07733359 0.13918741 -0.27260256 -0.7567784 0.29324293 0.34702 0.3421658 0.46738228 -0.17584553 0.46480733 -0.37803388 -0.18107066 -0.08119242 -0.2226107 -0.04814749 0.02241108 -0.26650524 0.07287665 -0.44232005 0.14022188 -0.5587316 0.22539324 0.73421305 0.09032779 0.5703028 -0.5248961 0.20027266 -0.14581929 -0.07164126 -0.008019277 0.038097043
687 -0.06404615 -0.066489264 0.4324776 0.5021446 -0.25365168 -0.18247883 -0.21981928 -0.26655477 0.3429191 -0.15405099 0.38102305 0.803775 -0.017168444 -0.035520088 0.5219869 -0.38071975 -0.41104606 0.5625642 0.18389809 0.10891096 -0.66783273 0.5534442 -0.21432295 0.7695991 -0.39777115 0.21085997 -0.354252 0.05936338 -0.40611216 -0.2414706 -0.07044846 -0.59559494 -0.24717523 -0.1954766 0.039089162 0.1737741 -0.13633603 0.63451976 -0.21651074 -0.19195853 -0.2217228 -0.66304 -0.49684364 -0.50891656 0.20734544 0.121181816 -0.3471744 0.04868688 -0.049370617 -0.76902187 0.35042536 0.3248507 -0.56456167 -0.45013815 0.19482234 0.36107147 -0.3291022 0.81124115 0.012632228 0.4020019 0.10386309 0.07400905 0.101409614 -0.5372349 -0.382557 -0.1528783 0.21168174 -0.2613917 -0.20910072 0.2196252 -0.5574742 0.3234053 -0.06203213 0.6923715 0.47035274 0.12722394 -0.14377668 -0.255521 -0.38436633 0.031225858
744 -0.2331368 0.28287768 0.6859902 0.2599475 -0.36639768 0.39133796 -0.3961643 0.28128374 -0.24704945 -0.25553378 -0.4109075 0.7473579 -0.20931023 -0.20071214 -0.22419323 -0.52439517 -0.18633802 0.31631884 -0.18670024 -0.49489316 -0.1752643 0.5133105 -0.521784 0.8303074 0.69631815 -0.24657391 -0.26290286 -0.24604419 0.019087164 0.21027645 0.0050480524 0.18976904 -0.040813524 -0.40535605 0.16665412 -0.036708932 0.47401038 -0.667276 0.18102546 -0.22868504 -0.15192887 -0.5378393 0.34054634 0.29552567 0.58414006 0.20847791 0.0023661086 0.07136004 0.27612415 0.13692111 -0.14288954 -0.033119198 -0.32848582 0.3217815 0.6190198 -0.12361937 0.081290476 -0.03408991 -0.02857413 0.20601493 -0.13588381 -0.042674363 0.23999743 0.37407997 0.0617776 0.27819508 0.37307507 0.040684685 0.40169254 -0.045644194 0.006601258 -0.13398813 0.12039564 0.61386853 -0.29428607 0.7163274 0.3535726 -0.4202793 -0.009026197 0.0033946072
987 -0.20608832 0.1894547 0.85114974 0.087674335 -0.22520551 -0.2920264 -0.12059822 -0.08738004 0.391668 0.25730982 -0.8517686 0.7448073 0.12352945 0.04440265 -0.4096607 -0.48742744 -0.06492365 0.1652062 0.043880425 -0.54234093 0.4936313 0.54835826 -0.124069266 -0.0068116765 0.6087025 -0.12912412 0.49859375 -0.08708742 0.07241126 0.042037148 -0.12611483 -0.013364815 -0.40660945 0.23562676 -0.2802311 0.046542447 0.071078695 -0.13611305 -0.298877 -0.6599917 -0.77654463 0.17117465 0.1406412 -0.0065651834 0.37554905 -0.5431311 0.07248366 0.09604014 -0.21604724 0.048443425 0.197949 -0.18868266 0.32035008 -0.23799549 -0.07529441 0.039568357 0.34828365 0.05138898 -0.46942765 0.17003003 0.04849237 0.081142485 0.06274203 -0.3588549 0.049342334 -0.24357936 0.23232515 -0.2357223 0.04893979 -0.024156637 0.3477165 -0.48467556 0.7806891 -0.03028545 -0.5503443 0.5091604 -0.047884695 -0.4267936 0.36697304 -0.40028036
666 -0.33860278 0.03306565 0.21034394 0.6651698 -0.3942425 0.011289326 -0.3031941 -0.084645584 0.033379912 -0.58839744 -0.7004659 -0.43433705 0.6645425 -1.1540996 0.09431627 -0.09243712 0.5394852 0.23707686 0.16142799 -0.13416474 -0.46613148 -0.3199831 0.7433333 0.9684933 0.22902901 -0.304324 -0.5482222 0.09675113 0.45386934 0.25967214 -0.07419026 0.25373185 -0.4841653 0.33663574 -0.12307368 -0.90204585 0.323848 -0.57606494 0.35751915 0.4015348 0.31644884 0.4835724 -0.39919537 -0.17580235 -0.039805807 -0.11027625 -0.478423 0.655189 -0.48986265 0.1123944 -0.14610893 0.04481085 0.059996065 -0.2957892 -0.11587388 -0.30559272 -0.21364048 0.2208026 -0.6998697 0.45706782 0.2907913 -0.7532059 0.06896619 -0.24474475 0.40386724 0.24899316 0.122745715 -0.22563063 -0.94479287 0.07352283 0.04449608 0.09546376 -0.44819686 -0.35506105 0.13208765 0.48974723 -0.3049459 -0.31083637 0.20132636 -0.281099
447 0.14228374 -0.36199117 -0.13028345 0.051505692 -0.015734348 -0.672123 -0.21185675 0.4799631 -0.2947362 0.12238331 0.032217253 -0.4709654 -0.4652982 -0.28471324 -0.654801 0.1541452 0.43674356 0.108560175 0.16482581 -0.3298402 -0.4236908 0.013396648 -0.66099066 -0.15764001 0.38643438 -0.738254 0.54337794 0.3349882 -0.27226725 0.38699788 -0.22747752 -0.52755934 -0.38714206 -0.61270505 0.107620955 -0.6881747 0.7199269 -0.20989023 -0.4375838 -0.06955303 -0.53626573 -0.6233615 -0.3822313 -0.6536963 1.1331437 -0.083367325 0.38133782 -0.42423806 -0.32409203 -0.07197884 0.18215111 -0.082497485 -0.9830188 -0.54488146 -0.1768911 -0.20287405 -0.19131067 0.27256173 -0.616077 0.05593601 -0.044643905 0.32144654 -0.2717712 0.338866 -0.57733095 -0.102933444 -0.28690743 -0.23245057 0.31996182 -0.10776969 -0.8815359 -0.17292245 0.094012246 -0.6004805 -0.5504341 0.13122123 -0.5477383 -0.15377212 0.24090128 -0.17423923
1128 -0.21346632 0.4651339 0.8490442 0.37977886 -0.2346986 -0.4613993 -0.6933188 -0.07669417 0.5776661 -0.6671657 0.9617626 -0.6120474 0.40968898 -0.23309931 0.7541921 -0.107987545 0.73928624 -0.15182728 0.26510718 0.5351085 0.014558081 0.49710768 -0.6162653 0.7906814 -0.0666671 0.29231584 -0.14450082 -0.10978298 -0.07334618 0.36875582 -0.181154 0.4212201 0.93688667 0.2759696 -0.063652664 -0.22889127 -0.01922904 0.32667586 -0.38018072 -0.25877008 -0.6270698 0.35180348 -0.040970765 0.21953599 0.17851113 -0.090907186 0.45247588 0.9058628 -0.21548913 -0.67693347 0.14864428 0.28084484 -0.5781158 -0.8169779 0.13710819 0.5672071 -0.25067404 0.062350124 0.41215977 0.48475415 0.28777134 0.71592754 0.107120104 -0.71161294 -0.39790317 0.022737896 -0.05789895 -0.4928155 -0.697616 -0.42413568 -0.17481115 -0.37555087 0.28723907 -0.6645411 0.5075981 -0.23776583 0.4459214 -0.822592 0.25812292 0.48082942
154 -0.41052157 0.148527 0.15003562 0.14135474 0.4329807 0.14986335 -0.25099304 -0.26885784 -0.1417653 0.64749813 0.30860382 0.39154696 0.08623907 -0.5368001 0.32735106 0.05584823 0.28191406 -0.9550615 0.32655567 -0.092540644 -0.0063955868 -0.14341764 0.21077599 0.48148635 -0.6491238 -0.5907389 0.1763448 -0.41435942 -0.46556753 0.6037313 -0.51334065 0.24523067 0.24843839 0.10840434 -0.10297792 0.17608833 -0.09334969 0.23321223 -0.4758138 -0.22890219 -0.14275593 -0.4980445 -0.013364549 -0.23033871 0.64228755 0.0008583678 -0.4557648 1.058891 0.17043117 0.34895214 0.48950556 0.0267648 0.43457982 -0.75892156 0.6041745 -0.90512127 0.16504745 -0.10063921 -0.12750989 -0.28609213 -0.6492337 0.26510572 0.005622235 -0.58209676 -0.26423824 -0.008664026 0.33243638 0.629536 -0.7629251 -0.13277349 -0.059250757 0.20537232 0.42601243 0.5882019 -0.45834756 -0.46235842 -0.6108749 0.6410743 0.478248 0.30273348
1379 0.5617084 -0.08867993 0.0005621905 -0.014873234 0.35676846 -0.49973494 -0.00044770012 -0.33207124 0.24881613 -0.419217 -0.055507876 0.3439017 -0.022610234 -0.72313905 -0.6310688 0.4477992 0.2834535 -0.2987501 0.52117753 0.14020854 0.06840573 0.16497144 -0.13742144 0.40831858 -0.41531268 -0.26444793 -0.16577196 -0.18757552 0.418842 -0.28951192 -0.14983664 -0.19072293 -0.23882152 -0.7928716 0.026798304 -0.8876327 0.87791044 0.5261084 0.29183465 -0.5587339 -0.0045350245 0.12227226 0.4668558 0.21081446 -0.22436424 -0.14586103 0.19297643 0.70474714 -0.12038298 -0.13447824 0.39507654 0.014706368 -0.28888875 -0.0011667878 -0.3015517 0.40712777 0.27501327 -0.022628866 0.40025082 0.07613406 -0.47716004 -0.30123273 0.39537752 0.40909266 -0.3621577 0.34830785 0.8729802 -0.72955745 0.40805608 0.0036709905 -0.5270188 0.5581829 0.51799387 0.36766866 0.16132036 -0.44482705 -0.82532364 0.27938518 0.0196708 -0.90870005
704 -0.5179764 -0.23241168 -0.20440316 -0.25020325 -0.5329882 -0.13101973 0.3526721 0.022673674 0.371442 -0.5102269 0.45774 0.157161 -0.10337303 0.07160174 -0.91681296 -0.07025627 0.388925 0.31883076 0.3923475 -0.107637174 -0.071730174 -0.046172924 -0.39138588 0.7584843 -0.3481056 -0.39636344 -0.54330766 -0.2921612 -0.310757 0.5616609 -0.03311947 0.089573085 -0.3575 -0.057811983 0.09610747 -0.39939627 0.3486867 0.44054195 -0.2195505 0.41574222 -0.13653146 -0.18709797 0.83096015 0.25126848 0.08036506 -0.1511924 0.34834665 1.0071476 -0.10339215 -0.14741783 1.1860476 -0.4738363 0.19246364 0.31122014 0.18191643 0.5562737 0.5083181 -0.29476348 -0.07792893 -0.41944847 -0.13635309 -0.09309658 -0.38317236 0.3967276 -0.10807789 -0.30229035 0.72989184 -0.09082715 0.13745637 0.173604 -0.19996955 0.42934018 0.2209202 -0.829162 -0.34702846 -0.2504746 -0.3943489 -0.24269755 0.07289299 -0.21542005
95 0.045339633 -0.30299288 0.7872694 0.5037085 -0.8215015 -0.6202717 0.0675287 0.0038801942 0.15307572 0.14721747 0.14322987 -0.29832613 0.35407308 -0.50813955 -0.5038734 -0.1754234 0.057529043 0.016792087 0.6796195 -0.39581618 0.4391374 -0.6490143 0.08586981 0.4438439 0.11092763 -0.20308103 0.8666906 0.6759106 0.051439434 -0.04843621 0.41968396 -0.18065046 0.4364833 -0.6586475 0.12445856 0.5694793 0.490198 0.17783763 0.72398907 0.006829448 0.38389692 0.10144866 0.15869315 -0.20193416 -0.32007277 0.19542377 -0.18091099 0.75644135 -0.31989178 -0.4291078 0.2937117 -0.23076636 -0.026242148 0.53577477 0.034558218 -0.27268955 0.015892908 0.5381821 0.24081658 0.38230145 0.4707632 0.6607657 0.027378667 -0.088030025 0.14188223 -0.58565307 0.9107167 -0.45611253 0.3740195 0.2372453 -0.38455653 0.0364686 -0.25683483 0.56187546 -0.21361284 -0.065847725 0.08933632 -0.32223567 0.5367169 -0.31590754
514 -0.67464083 -0.31189066 0.006164442 -0.067365624 -0.12082779 -0.22391838 -0.2745412 -0.3088559 -0.24890819 0.46149862 -0.4263092 0.5199206 -0.06556928 -0.27534762 0.041976593 -0.27554047 0.24084458 -0.14842492 -0.031681668 -0.38761836 0.22499381 0.10367948 -0.61762655 0.14846623 -0.81368417 -0.12362387 -0.2837708 0.25346664 -0.26188004 0.24094756 0.036707558 -0.20317402 -0.2575908 -0.03280457 0.08242352 -0.05383261 0.05641048 0.39670423 -0.18329747 -0.049905363 0.06574416 0.36541218 -0.41003254 -0.00500428 0.49128887 -0.0022694054 -0.12364018 0.7628996 -0.06345389 0.14769118 0.08447588 -0.408126 -0.09844514 0.4497389 0.39913097 -0.7587448 0.11287472 0.17158325 0.22892307 0.4432755 -0.21732143 -0.067949176 0.4364801 0.8261871 0.26169685 -0.43669608 -0.11422412 0.1085483 -0.3005943 0.15460996 0.1978311 -0.20488852 0.085612856 -0.49589518 -0.23598547 -0.40767998 0.5159045 -0.22247289 0.057008628 0.33953407
301 -0.24749644 -0.44087532 -0.053422663 -0.52081144 -0.28453824 0.1462706 -0.23808321 0.09021492 0.214856 0.6593109 -0.23012532 0.45646578 0.14793348 -0.09845055 -0.04523973 0.30707845 -0.24282919 0.06590804 0.07325875 -0.15708151 -0.8092775 0.16606018 0.5022218 0.6937702 0.16345885 0.3441358 0.82837766 0.05035104 0.21148622 0.05900173 -0.45435074 -0.79727095 0.08066543 -0.47737163 0.028697265 -0.09154687 0.14786473 -0.116261594 -0.4460073 0.05385598 0.24289362 -0.0023901698 0.28426543 0.11978295 0.21814466 -0.11407858 -0.2300757 0.89467955 -0.7604772 -0.76424116 -0.040679313 -0.027431179 -0.45220485 0.12609914 0.30473158 -0.5655178 0.1769941 0.95457375 -0.32306096 0.49165925 -0.16926028 0.032438096 -0.44363296 -0.24462691 -1.0220273 -0.08147651 0.5862281 -0.12800471 -0.1698006 0.61596555 -0.17884283 -0.01504574 -0.9668224 0.21111894 -0.16737206 0.44138148 -0.45087537 -0.028598892 -0.09781043 0.001993894
285 0.9442841 -0.0405496 0.33687374 0.27223197 -0.40847084 -0.093750104 -0.58195025 -0.52272195 0.24997029 0.56094205 -0.27215397 0.56096685 -0.59698504 0.23792644 -0.19518636 -0.07549405 0.5402816 0.5552909 0.83444244 -0.39618146 0.33699325 0.1325732 -0.00014080087 -0.22376554 0.07493561 -0.091047056 -0.33328176 0.24017546 0.4474028 0.8088314 0.015053643 0.068553604 -0.26434717 0.80324143 -0.29753384 -0.77524316 0.5170659 0.5055982 0.17136914 0.35690397 -0.31665787 0.19085377 0.55323255 -0.124806084 0.47444987 0.73210907 -0.124517426 0.33206207 -0.005479588 -0.07177781 0.13414103 0.2467704 -0.4058571 -0.761616 -0.16337883 -0.04697369 0.07621818 -0.29496074 -0.10433261 0.30495498 0.1785179 -0.1275637 0.2810364 -0.09537313 -0.2672166 -0.23856199 0.029756287 0.2581305 0.008891164 0.6241628 -0.4940917 -0.3438441 0.20441243 0.49484426 -0.13315743 -0.044281095 0.042970385 -0.35947698 0.37540424 -0.70243734
892 0.0004950603 -0.94186324 0.10585549 0.16057977 -0.1988279 0.3533497 0.20425712 -0.40600112 0.38599306 -0.46994513 -0.37677535 -0.3277278 0.3668665 -0.633375 0.5394 0.3042612 -0.46342295 -0.48810622 0.58031845 -0.7631571 0.031640533 -0.05464253 0.19382548 0.3384101 0.17801403 -0.20067367 -0.20528783 -0.25708556 -0.09646979 0.117042646 -0.46119252 -0.3541087 -0.3883035 0.3374151 -0.054039475 -0.20582448 0.1447093 0.27854252 0.2350966 -0.4277707 0.19361065 0.43087777 0.011184198 0.40731055 0.15958764 -0.04995569 0.27003857 0.9634975 -0.6954705 -0.4742107 -0.06636395 0.2750517 -0.54387414 -0.7229479 -0.4047116 0.28695014 0.5937877 0.6274823 0.27416274 0.6837577 -0.36869296 -0.11557989 0.15874933 -0.0624577 -0.16210854 -0.09483006 0.36133268 -0.33426183 -0.3984684 0.016715609 0.29322985 0.18017398 -0.01087991 -0.37043625 -0.055910233 0.17262544 -0.1593766 -0.41891477 -0.4282228 -0.359157
476 -0.08131929 -0.056737527 -0.04302625 0.6934859 0.72679675 0.09712916 0.024629362 -0.24879578 0.1509169 0.3252813 1.1794782 -0.24265681 0.27512735 -0.95763797 -0.19031604 -1.143222 0.18646927 0.026023319 0.42024183 -0.02292038 0.5130903 0.139529 -0.027355585 0.3835783 -0.3029148 0.04676849 0.603897 -0.32509717 0.3440444 0.02054172 0.10462765 -0.37227324 -0.14788593 0.09104051 0.102266945 -0.8605426 -0.13322255 0.40446573 -0.035928875 -0.23714817 -0.35335785 0.13717721 -0.3173845 -0.25288892 0.20223644 0.085984975 -0.13949966 0.5486414 -0.08723788 0.16799103 -0.011741298 -0.24668601 0.45281878 0.70929885 -0.008510061 -0.24589747 0.6236376 -0.43101946 -0.28147575 0.41311827 0.44427934 0.088184126 -0.20857656 -0.39059174 -0.4959224 -0.12605 0.25111234 -0.14500114 -0.24747366 0.22605485 0.09407616 0.832521 0.094872564 0.22872363 -0.36796606 -0.22192559 0.07624454 -0.18467352 0.058971338 0.35917252
509 -0.58865654 0.5774607 -0.01131208 0.2088318 0.06572629 -0.75696695 0.03710371 -0.4488727 0.14702505 0.16807896 -0.19236173 -0.38934493 0.19712102 0.07073362 -0.35183316 -0.61979693 0.072249226 0.34509227 -0.18825208 -0.63109666 0.38348722 -0.033112578 -0.2827289 0.1472884 -0.5817727 0.044484496 -0.4365013 0.043587755 -0.016058795 0.9947598 0.3522492 0.3298621 -0.18040316 -0.28150046 -0.20378146 -0.18878128 0.24069336 -0.42359033 0.04279589 -0.24678677 -0.14797518 0.31785992 -0.35006887 0.20439757 0.85230434 0.099574424 -0.34136268 0.081207894 -0.5693502 0.03019471 0.5592838 -0.42723727 -0.038983054 -0.3976242 0.6387888 0.070642434 0.52945954 0.050341934 -0.53396225 0.1604238 -0.084607676 0.20010643 -0.2672843 -0.071841724 -0.12571873 -0.1643788 0.29063347 -0.07016386 -0.4304052 0.15513454 -0.3002836 -0.34290463 0.13901265 0.42874604 -0.3249554 -0.6389433 0.71750116 0.44390884 -0.22211203 -0.53826916
1197 0.009648302 -0.2577536 0.11770733 0.70650184 0.019168125 -0.30967894 -0.43672612 -0.12177156 0.008502753 -0.5455502 0.49982873 -0.015440421 -0.7357825 -0.28380755 -0.5270058 0.33097368 0.53062385 -0.44972327 -0.8698099 -0.57510567 0.11684151 0.1929084 0.19061191 0.30661678 0.3940376 -0.13005817 -0.5311285 0.059810694 0.21591528 0.30275604 -0.26836267 -0.5585411 -0.106057204 -1.1113796 -0.5839304 0.04097169 -0.42775017 -0.1601411 -0.6027405 -0.15937178 -0.16851139 0.5549365 0.42651832 -0.36919928 0.49145532 -0.47242254 -0.68473047 0.65097713 -0.077115275 -0.056107625 -0.05407317 -0.42785567 0.09365191 0.19752267 -0.2077656 0.18577582 -0.3156595 0.5421146 0.6571529 -0.08342253 -0.5242431 0.5380545 0.5440033 0.5662801 0.5244421 0.8174695 0.6667698 -0.4092437 0.19082204 0.25946036 -0.10211875 -0.0041467757 0.42010564 0.3558405 -0.48552448 0.30043897 -0.58523333 -0.41422227 0.793423 -0.40791714
1064 -0.005395624 0.06253776 0.17079444 0.42946032 0.009991168 0.4191289 0.5480071 -0.4700114 0.53818226 0.17693971 0.08460686 0.36528784 -0.042587686 0.23564054 -0.3927912 -0.33130717 0.22615455 -0.26318493 0.1411189 0.26445383 -0.055268932 -0.09884375 -0.4230474 -0.04511495 -0.82169545 -0.5102673 -0.025636556 -0.4898419 -0.0568822 0.39816153 -0.08701566 0.36166233 -0.25337586 -0.8932702 -0.10446049 -0.20546344 -0.11100738 0.034788907 0.061618995 0.0010717455 0.34840813 -0.012466254 -0.5449089 0.4732851 0.3646823 0.21961452 -0.7137317 0.56503016 -0.36340442 0.023089508 -0.21841125 -0.36482167 0.034558564 -0.049618673 0.47392657 -0.027044617 0.6647867 -0.3876718 0.19633704 -0.13794358 -0.27890438 0.3909073 -0.43093702 0.039599244 -0.3354077 -0.42864794 0.11388869 -0.007164187 -0.6307312 0.05371265 -0.5387447 0.6323217 0.47293514 0.22743182 -0.3009592 -0.034946296 0.23909701 -0.36189365 0.7711113 -0.12958348
1845 0.20014437 -0.21398425 0.09374496 0.4527672 0.32165104 -0.31334305 0.41810098 -0.78331953 -0.49451736 -0.36412618 0.028329039 0.11322047 -0.31560707 0.13127846 0.56212777 0.17203455 -0.02569447 -0.13016194 0.019009667 0.09952942 -0.44491953 0.46879408 -0.69886005 0.11356482 0.18181758 -0.22268833 1.0014787 0.17467588 1.3310202 0.3670699 -0.3009374 -0.1595063 -0.21977466 -0.28421202 -0.40442097 0.25013608 -0.6294652 -0.072391935 -0.3034079 -0.42088115 0.0055097095 -0.121282876 0.620559 0.47871324 0.2739231 0.16536145 0.41192517 0.24283983 0.16240674 -0.26609075 0.11924061 0.13015547 -0.0726693 0.110216886 0.77857053 -0.37070715 -0.20391192 -0.23336554 -0.16597798 0.71703786 -0.33997005 0.18828009 0.0799495 -0.19157673 -0.30169907 -0.50865453 0.35127547 -0.0009475382 -0.71222067 0.5335405 -0.9098887 -0.2546096 -0.30719346 -0.27761307 -0.41452533 -0.20620932 -0.5880357 -0.19162774 1.17017 -0.006419516
741 -0.3175129 -0.047339212 0.551333 0.0800406 -0.24086386 0.017831638 -0.73603565 0.44675282 -0.6647594 0.33227983 0.05885049 -0.42391032 -0.8368251 -0.3097168 0.12167905 -0.08126731 0.15499997 0.34959653 0.2937438 -0.4274137 -0.47640818 -0.013563444 0.10003165 0.40843174 0.58875376 -0.51481175 -0.7080973 -0.31580168 0.40791842 0.01860491 -0.55819935 0.15883778 -0.16290243 -0.6632623 -0.3017769 -0.13740753 -0.6735504 0.21378116 0.6530969 0.5504246 0.6855431 0.07227542 0.0105377 0.3835776 0.56089246 0.03353653 0.11793259 -0.076241605 -0.6950014 -0.58462566 -0.43397936 -0.108239464 -0.02834742 0.26461136 0.6390542 0.33482566 -0.23313214 -0.020755226 -0.51148486 0.5406622 -0.7179076 -0.25303727 0.22762123 0.12034888 -0.2291808 -0.53338766 -0.0012312344 0.10573805 0.27033064 -0.58660704 -0.22288051 -0.005029384 -0.23516008 0.25474116 -0.31889528 0.2866008 -0.1988631 -1.5029914 -0.46025977 -0.010791893
210 0.336886 0.20047988 0.4624653 -0.07003463 0.29558596 -0.2244039 -0.30827248 -0.5235831 0.54932785 0.7844314 -0.19112056 0.30837205 -0.090861835 -0.29252073 0.16573896 -0.106314674 0.24421345 0.1578665 -0.040115684 -0.5250865 0.09815087 0.00974145 -0.2954297 0.8427799 0.14821751 0.06482009 0.5114152 0.29471344 -0.20353214 0.15074232 -0.21565431 0.7394329 -0.17353074 -0.46231648 0.7845196 -0.3786697 -0.16486599 0.53186655 0.80329466 -0.073297344 0.41484603 0.5250517 -0.37030026 -0.35397452 0.13411753 0.4416834 0.3159824 0.017361429 -0.0059594675 0.11624221 0.43208978 -0.13142917 0.027047545 -0.110752806 0.03765549 0.04899705 0.17310078 0.33054692 -0.44018173 0.29578125 -0.37262025 0.35918638 0.670197 0.27924505 -1.1076634 0.18788257 -0.26721704 -0.58991605 0.26847422 -0.49311987 -0.83185464 0.4128132 0.6699929 -1.1876408 -0.91914093 -0.30256188 0.05408639 -0.56640404 -0.0054157344 0.11312175
91 -0.37096113 0.09931605 -0.38677728 -0.010509915 0.2285791 -0.22482985 -0.01032089 -0.48318952 -0.06319268 0.17501996 -0.2318651 0.3637894 0.01760614 -0.16038957 0.026879253 0.44286823 1.160277 0.03521786 0.68804157 0.20735486 0.48103827 -0.95361173 0.08968522 0.71482265 0.38770792 -0.50478655 0.347795 -0.16343096 -0.34646192 0.3266348 -0.08597856 -0.60502315 -0.6247611 0.22744723 -0.009261054 -0.40489003 -0.4309808 0.0490149 0.23441109 -0.53242046 0.15774019 0.3909463 0.5002283 0.14803801 0.27602276 0.6465846 -0.0062771426 1.1720444 -0.2064444 -0.749975 0.55966854 0.071589984 0.60155433 0.032763824 0.07959423 0.0159962 -0.7695942 -0.26486304 0.6273468 -0.27029002 0.111074455 0.27957964 0.2672904 -0.55076456 0.33077618 -0.03357924 0.54602593 -0.5596196 -0.05113824 0.07262552 -0.82174903 -0.37035763 -0.40273878 0.09402578 0.10603376 0.8539527 0.18289834 0.17657787 0.20996422 0.571149
326 0.3783061 -0.19327587 -0.32109037 0.48282933 -0.2888383 0.4037899 -0.45182222 0.1584468 0.06820967 -0.38079885 -0.4877007 0.15449332 -0.19143179 0.3437809 -0.20332661 0.055316966 0.44182047 -0.015870223 0.40381756 -0.03955194 -0.21610841 -0.57636243 0.49109843 0.3241767 -0.02817597 -0.17623131 -0.3568607 0.110777594 1.0366192 1.1055181 -0.3719177 -0.6425649 -0.03738085 0.37275347 -0.10566976 -0.21537004 0.13832086 0.09844721 0.31920338 0.5897369 -0.37970492 0.22332998 0.3034708 0.07361277 0.2876882 -0.12930612 -0.06416501 0.6633545 -0.2575988 -0.4233346 -0.08660588 0.10921081 -0.59590733 -0.105919644 0.30495912 -0.3600414 -0.670777 -0.18803942 -1.0351142 0.77314943 -0.11952903 -0.4100301 0.0041819196 -0.096748434 -0.12886304 -0.32993272 0.8075014 0.4278855 0.09193933 -0.017629148 -0.19645959 -0.064913966 0.48822764 0.5986043 0.35315442 -0.31583816 -0.19261417 -0.022345891 -0.12657906 -0.36448228
1765 -0.074702725 -0.6909994 -0.11119737 0.23639709 -0.36534417 -0.5290803 -0.62138003 0.10581194 0.03915179 -0.32512286 0.072261214 -0.29651594 -0.5134826 -0.20395374 -0.06508647 -0.49716932 0.26484078 -0.16113044 0.30973577 -1.0481851 0.31148908 0.12382251 -0.21659657 0.087373674 -0.20908599 0.37056077 -0.4505872 0.17321107 -0.4939206 0.18658055 -0.033031497 -0.007710862 -0.20613995 0.0656798 0.22887816 -0.2282142 -0.65606827 0.034106243 0.841589 -0.81602234 0.5329398 -0.13649814 0.057694353 0.2656605 0.672165 -0.3020867 0.38022432 0.6862482 -0.19798703 -0.051369537 -0.31606632 -0.082625166 -0.6697439 -0.24746823 -0.6213874 0.41621312 0.13074996 0.20236419 0.18377103 0.48234513 0.27317894 -0.3625785 -0.0565586 -0.57370186 -0.3312194 -0.1471883 0.0838498 0.0009524249 -0.23249142 -0.060424857 0.2640452 0.33248565 -0.086077265 -0.11954017 0.09899893 0.26979432 -0.6257854 0.060980644 0.20901142 -0.039918892
1190 0.6550223 -0.0307585 -0.032189485 0.47340024 -0.60953397 -0.3958678 -0.14976457 0.69549376 -0.063899696 0.21924043 0.1180897 0.13782129 0.46242324 -0.2820135 0.72041345 0.123307236 0.48402405 0.009626529 -0.4333529 0.5543207 0.6272079 0.32241 -0.014672699 1.0700966 0.17969514 -0.72853434 0.089902766 -0.06002248 0.3967418 0.81838435 -0.28820068 -0.0922259 -0.023065712 0.16815823 0.38857007 0.45927274 -0.11215176 -0.35461152 0.071410865 -0.3522133 -0.07610559 0.35048857 0.16202974 0.15661639 0.7805265 0.31212103 0.080436505 0.12310813 -0.13244304 0.45515642 0.31781542 -0.524295 -0.7093844 0.35193965 -0.14074455 0.08976269 0.10209426 0.79430425 0.5739137 -0.28047785 0.30000508 -0.5083857 -0.14379382 -0.29540116 -0.82899547 -0.742782 -0.36398154 -0.005438158 -0.25125986 -0.7262982 0.0037393533 0.2959537 0.080934644 1.1034707 -0.27786162 0.03780386 -0.2725057 -0.6653745 -0.16136035 0.2231471
32 -0.30665746 0.5526054 -0.24623065 1.0880837 -0.13157885 -0.13850644 -0.02767542 -0.12547886 0.4508471 -0.45981753 -0.0030436788 0.33775365 0.34517246 -0.3068067 0.60822165 -0.6523284 0.30465993 -0.12696938 0.6519158 -0.5231073 -0.05153349 0.015194261 -0.5011269 0.6871585 0.13887142 0.26239577 0.25925896 0.32762828 -0.26652604 0.5518498 -0.19921637 -0.48469082 -0.60536444 0.07097815 0.24218524 0.6131077 0.38581148 0.6034347 -0.48303592 0.15620013 0.25512737 0.057662513 -0.45021436 -0.51076263 0.51937306 -0.1963916 -0.2951267 0.38284802 -0.56697464 0.712348 -0.48858795 -0.52897304 -0.5083623 0.65805286 -0.27250794 0.40633377 -0.12536328 0.019819736 -0.5485205 0.23992828 -0.29504743 0.3313201 0.45366818 1.0614513 0.15634993 -0.31265682 -0.26180354 -0.12797406 0.5296474 -0.1925428 -0.6186813 -0.532614 0.18995008 -0.043747745 -0.2031278 -0.35314125 -0.4298946 0.4106713 -0.04444006 0.18409692
1841 -0.23299581 0.4353108 -0.7281813 -0.03211697 -0.49613434 -0.6532642 0.5439786 0.35617277 -0.042582285 -0.14407311 0.080677465 0.08763257 -0.22724575 -0.8565909 -0.20667009 -0.6480347 0.64391875 0.52565914 -0.1584555 -0.5330935 -0.13755828 0.13095832 0.18306883 -0.04052622 -0.4445021 0.09117403 0.2680506 -0.23422182 0.12005459 -0.020310206 -0.705624 -0.10145318 0.8354148 -0.8235221 0.2895214 -0.41798785 -0.15728557 0.40683922 0.39745498 -0.53014493 -0.0011632509 0.08711358 -0.48732 -0.37727743 0.463214 0.022751587 0.66524625 -0.17338482 -0.2589648 0.28309956 -0.39982617 -0.14917763 -0.80900717 -0.12070262 0.30788115 -0.14663096 -1.2537372 0.46713603 -0.099143386 0.73948306 1.0008702 -0.1123989 -0.15899634 0.38139609 -0.21107171 0.0077508767 0.34465882 -0.19394287 -0.736936 0.11784048 -1.2791189 -0.1156375 -0.11894302 -0.4205253 -0.2024976 0.6677505 -0.2888404 -0.028259743 0.16337931 -0.76531434
439 -0.05123092 -0.27770013 -0.03618202 0.61947185 -0.092251696 -0.68351066 -0.11060825 -0.29497752 -0.032054227 -0.112792656 -0.051291477 0.08777118 0.32005128 -0.33450967 -0.561669 -0.033116277 -0.3317707 -0.1083361 0.4485149 -0.2329847 0.22112407 -0.30884758 -0.036711548 0.86222047 0.2444654 -0.3604615 0.8719219 0.7729116 -0.26453796 0.25738138 0.5230468 0.23282309 0.29699674 -0.18178444 0.025635792 0.57470846 -0.23231897 0.12263561 0.7044069 -0.058383826 0.76994157 -0.6051239 0.20412119 -0.0417964 -0.35752937 0.656959 0.23479557 0.930052 -0.15169369 -0.58840525 0.05781505 0.37650836 0.46702996 -0.059780307 0.4795973 -0.5351136 -0.7882818 0.2963344 0.3867386 0.6212779 0.50610435 0.6578378 -0.08732577 -0.05235611 -0.18938774 -0.31444737 1.066094 -0.6690892 -0.011914256 -0.14835157 -0.007986455 0.0048511364 0.022763576 1.2187915 -0.39107975 0.073290154 0.20531863 -0.17127818 0.340691 -0.022879433
1335 0.03895078 0.009005328 -0.12818533 -0.11908198 0.21381785 0.15061311 0.1259629 -0.61468875 -0.1138692 0.5816369 0.5317235 0.31234673 -0.05948119 0.015732381 -0.57746637 -0.2742103 -0.006598058 -0.19103529 0.1999692 -0.10869864 0.6431774 0.004759806 -0.5696243 0.34067053 -0.5193265 0.026105143 0.14860447 -0.4390609 0.0295126 0.25341725 -0.54513305 -0.4288098 -0.40999848 0.40505335 -0.37065917 -1.153941 -0.54157 0.12214428 0.21063273 -0.3566781 0.058083653 -0.67737186 -0.099351995 -0.38855624 0.20010716 -0.030203724 -0.02259893 0.620953 -0.34010634 0.25852752 0.2302651 0.07811788 0.018862808 0.40098342 -0.32869092 0.6930711 -0.116156615 -0.3535735 -0.68979543 0.02581875 -0.051381484 0.030635362 -0.54436326 -0.18047923 0.17315868 -0.19464709 0.025823256 -0.7627961 -0.27358696 -0.034947876 -0.3526231 -0.2662295 0.5158535 0.35643068 0.13770398 -0.16594674 0.18654005 -0.08051051 0.54873514 -0.37517092
1369 -0.5432587 0.2004982 -0.0919407 0.09064028 0.43920198 -0.44031578 -0.54130465 0.25786254 -0.6878431 0.0036616975 0.42178577 -0.4708051 0.16466144 -0.2303271 0.07418952 -0.5501063 0.46095368 -0.78326553 -0.37133527 0.1442586 0.93430525 0.5460039 -0.098117664 0.930824 -0.24429427 0.029956331 -0.9278657 0.22375005 0.76311827 0.18865374 -0.5796992 -0.6827799 -0.3413924 -0.68282646 0.13219234 -0.4647124 -0.04642325 0.04880872 -0.72943723 -0.0114700105 -0.3715997 0.0026273567 0.53852487 0.31508085 1.0130215 -0.19419348 -0.550099 0.70504093 0.83396786 0.13205186 -0.011372081 -0.17422993 0.5107616 -0.37086257 -0.12911172 0.31764546 -0.34824944 0.63497937 0.36252552 0.44322276 -1.0683097 0.39810136 0.10023584 0.23988539 -0.26605687 0.76784635 1.3515649 -0.24714568 0.15174359 -0.4879472 -0.05624016 -0.07516829 0.15962759 0.61102104 -0.295385 0.46622995 -0.34407365 -0.014463067 1.016287 -0.68158925
954 0.06816582 0.21112221 0.035853848 0.3035584 0.06269595 -1.0846552 0.032683898 0.4799948 -0.06422031 0.47827622 -0.4635364 0.38769117 0.2905277 -0.69901526 0.4095389 0.19380943 -0.0050887596 -0.045081273 0.13344444 0.38918507 -0.027106544 0.49403113 0.24732174 0.230812 -0.07776355 0.40132093 -0.16501442 0.3450483 0.051810615 0.9764089 -0.13059269 -0.01662076 -0.49513814 -0.5720933 0.34370497 0.13411888 -0.1605216 -0.19701168 -0.3899889 -0.2470505 -0.11516674 0.21956435 0.30887982 -0.14729197 0.7446096 -0.24769439 -0.6570534 -0.34919176 0.5510256 -0.22455089 -0.116840325 -0.36293924 -0.3481161 -0.06368367 -0.13849008 0.65412986 -0.54090816 -1.0304272 -0.42170152 0.959887 -0.14530385 -0.14440739 -0.8158031 0.39127246 -0.09028135 -0.23339508 -0.056249578 -0.3394485 0.2909555 -0.4569876 -0.15072723 0.27697444 0.54244286 0.15265955 -0.30070144 -0.050274026 -0.9984467 -0.7561518 -0.2822664 0.1557721
860 -0.2268587 -0.31012085 0.28022492 0.27706835 -1.2372873 -0.5080429 -0.79674816 0.40567422 0.08681537 -0.17561416 0.18772249 0.16246675 0.28835964 -0.092723414 -0.5927443 0.20533532 0.008008436 0.110197216 0.24965031 0.37751463 -0.06114599 -0.052845497 -0.40454665 0.5614582 -0.41631788 -0.6214178 0.18751174 0.07474986 0.30674937 0.8570462 -0.7439317 0.24043572 -0.46457586 0.36183596 0.41650715 -0.4147511 -0.32188535 0.4576429 -0.39744335 0.017587725 -0.4698786 -0.54751843 0.1817533 0.3693309 0.12514883 -0.21713778 0.42618087 0.34065917 -0.0029139302 -0.21331012 -0.33513033 -0.62109214 -0.0184402 0.47923058 0.7661553 0.15667833 0.08059086 -0.5896244 0.3776388 -0.6744515 -0.30407998 0.5926808 0.08970172 0.3167309 0.1553404 -0.22660086 0.16189912 -0.2327821 -0.06621267 -0.22501008 0.36479867 1.0815938 -0.11648281 -0.5261417 -0.32144326 -0.20788492 -0.38366082 -0.48926762 -0.18979537 -0.28489995
2038 -0.3595568 -0.2517843 0.16188918 -0.53613114 -0.4021012 -0.3021643 -0.1323098 0.5137123 0.03342147 0.26623997 0.90827644 0.10522336 -0.30854827 -0.71514326 -0.84581834 0.19036737 0.071592405 -0.58252597 0.10586088 -0.13961229 -0.21057013 0.3783593 -0.055287763 0.510276 0.3707667 -0.4561811 -0.28812048 0.19439168 0.21052378 -0.034536824 0.22351094 -0.32422283 -0.27466807 -0.5415084 -0.7044926 -0.40472826 -0.4988417 -0.6501175 -0.28019676 -0.7240606 -0.88221145 -0.08529393 0.18543564 -0.59203225 0.72932446 0.27430338 0.2588452 0.48366776 -0.43695655 -0.0011447569 0.12036951 0.9522201 -0.2399176 0.091901526 0.18391119 -0.96588 -0.094879396 -0.66017365 -0.08657421 0.32077098 -0.46267256 0.0027948455 -0.7049765 -0.016421815 -0.16629241 -0.15382437 0.1122446 0.39937228 -0.1531024 -0.32781914 0.1295387 -0.17417572 0.007828968 -0.75658435 -0.045937195 -0.3692931 -0.100549474 -0.5053274 -0.6060233 0.062145803
546 0.1737464 -0.040446013 0.3947042 0.38560686 -0.029228348 -0.21877083 -0.45536172 -0.017558882 -0.029033279 -0.03994788 0.30587444 0.5647546 0.038788874 0.017701106 -0.037613288 -0.21986799 0.3763075 0.12749052 -0.48017755 -0.20919742 0.15532565 -0.35981205 -0.084781 -0.34763327 -0.21135032 -0.5555947 0.33063027 -0.24990456 0.040959634 1.0248479 -0.46642116 -0.48325798 0.23658921 -0.6361993 -0.14332925 -0.16521652 0.39792213 0.59189767 -0.088020004 0.2264317 0.23113997 0.13707043 -0.83654034 -0.32315227 0.6246522 -0.079579875 -0.308576 0.37284428 -0.5081183 0.20125921 -0.36556503 -0.1500376 0.124977544 -0.9626198 0.23980395 0.11863168 0.13719144 -0.28525445 -0.006784643 -0.10304975 -0.09398019 0.009733429 0.038734265 0.20866849 -0.19446723 -0.24027082 0.049794033 -0.124906264 -0.26659685 0.24911574 -0.24608499 0.31777224 0.5057915 0.63195574 0.11120862 -0.30316022 0.88033605 -0.36287 0.059028998 0.37529036
506 -0.4526504 0.28896078 0.1358016 0.1560534 -0.28432158 0.43409312 0.09714598 -0.3749061 -0.19297335 0.26012936 0.41153577 -0.28524548 -0.01270742 -0.3589393 0.096311085 -0.5089313 0.1019977 -0.4115028 -0.18426089 0.3060826 -0.04749047 -0.1760062 -0.4851499 0.15859368 -0.7269673 -0.04665009 -0.08270207 -0.51080984 -0.028504236 0.5247173 -0.4907763 -0.3436526 -0.57163686 -0.1692675 -0.607662 -0.48471335 0.44192255 -0.24686337 1.1538857 -0.21593282 -0.119930126 0.0991018 -0.6111011 0.27449533 0.3018334 -0.1450977 -0.12043111 0.6032128 0.04588613 0.25449908 -0.34904197 -0.06074504 0.3667879 -0.32114515 0.085146606 -0.16758023 0.35884652 -0.54559314 -0.19802353 0.30848598 -0.20446251 0.34650335 0.03649268 0.35285068 -0.031323798 -0.00882719 0.4702262 -0.37243947 -0.3864195 -0.1435738 -0.25482917 -0.0630762 0.20362945 0.13961957 -0.7543469 0.18571006 0.118702546 -0.0012690399 0.7014695 -0.18075648
41 0.1256229 -0.6555909 0.18203193 0.11932335 -0.0014860966 -0.002860703 -0.6262726 -0.22218215 -0.2675084 0.5335001 0.19872192 -0.018544491 0.35951206 -0.33171794 0.0023571232 0.035145443 -0.2716189 -0.593002 0.08725331 -0.27197066 -0.5603876 -0.75126284 0.0692737 0.59980744 -0.37705088 -0.56369406 0.2882393 -0.17322315 0.63077 0.4580369 -0.049188662 0.17528346 -0.28280312 -0.13459589 0.10441 0.11846381 0.08732436 0.38099316 -0.2788883 -0.5857519 -0.23015009 0.51955235 -0.34941787 0.123326816 0.32724324 0.53217405 0.063538715 0.37567535 -0.39761838 -0.38589963 -0.62951654 0.16997796 -0.37772185 -0.42030495 -0.230535 0.40220726 0.570384 0.019282646 -0.08750668 0.2802908 -0.3849146 0.21640931 0.33647937 0.044072982 0.102316245 -0.13934468 0.4522282 0.00942946 -0.4633555 0.6735583 0.22465947 0.033884317 0.45904723 -0.33747208 0.20060521 0.24764927 -0.09715937 -0.23467511 -0.41923928 -0.6623417
677 0.6384513 -0.6464352 0.15496989 0.35674554 -0.22848286 0.49118203 -0.8060206 0.3903525 -0.23289108 0.22914611 0.8587424 0.25610122 0.10513905 0.1770091 -0.10580718 0.17599964 0.80089027 0.57668024 0.0010677369 -0.46447542 0.24310967 -0.037647374 -0.26841527 0.57533455 -0.345983 -0.10669 0.23073678 -0.14243773 0.29621586 1.0740914 -0.4822045 -0.46164283 0.45119002 -0.6892967 -0.37105334 0.47462624 -0.10023432 0.6565133 0.010899322 0.35003397 0.33630002 -0.02023653 -0.107425846 -0.20453267 0.266344 0.2914302 -0.21564348 0.68847877 0.33334053 0.4628273 -0.45107442 0.684306 -0.18548106 -0.7878889 0.35888407 0.23415364 0.15671834 -0.014746966 -0.15595697 0.14300264 -0.055036414 -0.42925903 0.36231405 0.29766354 -0.12422896 0.210257 -0.13711685 0.27432406 -0.062745064 0.19323139 0.023431543 -0.11103564 0.42228493 -0.4264187 -0.16350329 -0.2407072 0.39377847 -0.40259886 0.37322512 -0.40618384
582 0.21254236 -0.15159452 -0.07486727 -0.11161421 -0.7860388 -0.5095062 -0.68274975 0.16568193 0.38990554 -0.23443733 0.11912433 0.21871379 -0.39260846 -0.58305514 -0.13438873 -0.63512045 0.44642395 -0.016828438 -0.22735913 -0.6151832 -0.2690402 -0.47234446 0.5148887 0.47251728 -0.92557967 0.31615254 -0.30746415 -0.43186387 -0.33839017 0.23678768 0.4063089 -0.45846155 -0.20100161 -0.10150006 0.63344103 -0.31699115 -1.0044245 0.19710572 0.736468 -1.1030666 0.70717734 -0.10508713 0.19875745 0.15801287 0.45501196 -0.36129597 0.7638784 0.64844686 -0.22918776 -0.20511574 -0.62695086 -0.105140515 -0.09121138 0.0837069 -0.9674456 0.13518107 -0.1602881 -0.46682438 -0.47854903 0.12616259 -0.35591233 -0.3236826 0.055483412 0.015646257 -0.5428405 -0.60556465 0.08919628 0.46558464 0.037255898 -0.39881137 -0.5984017 0.118019596 -0.25269124 -0.1010491 0.07959707 0.11117206 -0.56283706 -0.12743258 0.6052797 0.040152416
