2708 80
127 0.03956851 -0.09089824 -0.07441778 -0.39124563 -0.031279847 0.07757557 0.10350484 0.186604 0.14684427 -0.07748616 -0.20672855 -0.13498572 -0.033899046 -0.3978274 -0.3951899 -0.03904909 0.2760121 -0.0069237608 -0.15506196 0.14802733 0.037516695 0.29302752 0.104366615 0.23447138 -0.016683523 0.33587164 0.24038081 -0.42555216 -0.036624465 0.14498094 0.3807582 0.046857584 -0.042822186 0.33381087 0.49696806 -0.16582912 0.2521391 0.011753709 0.081109226 0.0902531 0.18719994 -0.040800333 0.2054193 -0.08569099 -0.12593892 0.3871552 0.026785364 -0.28977022 0.14200397 0.08323275 0.10405941 0.2108014 -0.009705858 -0.26008815 -0.24928658 0.4548201 -0.41324013 -0.10306324 -0.22410522 0.0050501386 -0.08122331 0.0069202157 0.33722532 0.19440325 0.25064102 -0.2533352 -0.06585328 -0.24615125 0.0042320397 -0.13112049 -0.23583265 -0.36727285 0.047142636 -0.029017532 -0.17635009 -0.016283847 0.08795427 0.3400169 0.07720866 0.4606878
483 0.18807505 0.36644223 -0.1608915 -0.35896483 0.41306105 -0.13631478 -0.22806709 0.066450045 0.11547585 0.12875147 0.32069173 0.016979635 0.2929669 -0.096004605 0.44161862 0.0985091 0.13978505 0.28072256 -0.011321536 0.059832044 0.07059323 -0.5440314 0.29370975 0.14913301 0.44214463 0.83888346 0.04967894 -0.0726951 -0.35453215 -0.12614988 -0.08740255 0.20903045 0.021852644 0.43633047 0.30992907 -0.04126203 -0.26946327 -0.25505957 0.2381323 -0.26554826 -0.22809471 -0.031895224 0.5413106 0.23417103 -0.092970684 -0.13370374 -0.19056904 0.101933695 0.3239027 -0.0362108 0.15430833 -0.12912951 0.057790067 -0.4531866 -0.19891392 -0.19981205 0.2401018 0.36427245 -0.16455775 -0.086668506 -0.06787753 0.032433808 0.36590776 0.276547 0.07470672 -0.14934216 -0.06923066 0.30328044 0.13813815 -0.5089371 0.20837392 -0.26118612 0.18652263 -0.040283795 -0.063306816 0.015243672 -0.016508654 0.021144034 -0.12945923 -0.046352886
49 0.058526345 0.0932196 -0.19641404 0.08056279 -0.19236377 0.0662435 0.19778396 0.00048134528 0.2785889 0.53547275 0.26451722 0.08912096 -0.0073669218 0.022111146 0.39850527 0.18992867 -0.5850743 -0.1764893 0.03251337 -0.08357218 0.317366 -0.050139677 -0.30664635 -0.09024891 0.57159114 -0.06170968 0.20637931 0.16106346 -0.45413858 0.20028241 -0.1031085 -0.3923403 -0.2747722 0.4596835 0.16576606 0.14194359 0.055277225 0.048528165 -0.035650488 -0.14260039 -0.19019246 0.053958483 -0.2209284 -0.09125327 -0.1965885 0.24427034 0.28300384 -0.21275902 -0.21483074 -0.15005268 0.3639069 0.2022667 -0.55151963 0.040384352 -0.042924 -0.25546357 -0.11411169 0.36592266 -0.46620804 0.3957318 0.12501234 0.09926783 0.40373394 0.42686003 0.09301272 -0.029562684 0.21964923 -0.5988331 0.47132185 -0.32101423 0.13794641 -0.04958022 0.075579636 -0.32723868 0.0035652495 0.23108418 0.8422641 -0.02736737 -0.8086823 0.19749357
11 -0.4483412 0.18388948 -0.534551 -0.20479244 -0.0071910084 -0.112149626 0.17192721 -0.14804927 0.037851375 0.40504664 0.0069261487 -0.05495847 -0.24867839 -0.0247844 -0.1722814 -0.102862805 -0.33289498 0.09064421 0.018317984 0.36478883 0.11411323 -0.15547465 -0.013934389 -0.033664983 0.7083489 0.02164253 -0.37750444 -0.38682267 0.016356625 0.81481814 -0.0630399 -0.26160973 -0.3724235 0.27662036 0.2945874 -0.05041603 0.27479997 -0.24996746 0.17788278 0.1600949 0.18735725 0.3122516 -0.3453206 0.30758876 0.15278554 -0.067064226 -0.009255388 0.06379154 -0.10968401 -0.23510848 -0.14098075 0.16728906 -0.042069335 0.02917092 -0.009629841 -0.34620547 -0.15583697 0.33115777 -0.18414322 0.016742863 -0.1592617 0.072754376 -0.08526587 -0.25273114 0.14101167 0.4626908 0.15078902 0.040380284 -0.02840686 -0.86548287 -0.1772293 -0.048761208 -0.015783558 -0.44118968 0.06674804 0.06409615 0.55801433 -0.32456017 -0.18406695 0.41063604
338 -0.25270113 0.2105879 -0.32675788 0.009090276 -0.458359 0.3939164 0.07256322 0.5284117 0.3116857 0.12946409 0.24876899 -0.37879768 0.3110411 -0.24113934 0.102961294 -0.0057270126 0.24035673 -0.12529372 -0.42946318 0.014994515 -0.28405872 -0.11276605 -0.04393429 -0.27204284 0.32589233 0.17339765 -0.08625669 0.058160547 -0.0669552 -0.27017868 0.14317401 -0.35996664 0.07757279 -0.033124052 -0.52205384 0.4378698 0.03746741 0.039358787 0.34685528 0.08603009 0.13455985 -0.5011363 -0.25618273 -0.10721242 0.16767812 0.047598075 -0.3555625 -0.49850386 0.3732419 0.09776776 -0.5117446 -0.16629373 0.37632087 -0.024259053 -0.19251253 -0.06929755 -0.25868326 -0.30194208 0.046358135 0.10755991 0.29314113 -0.099254094 0.13281517 0.3755397 0.19709682 0.12011587 -0.25496003 -0.1051333 -0.15104108 -0.60056645 -0.089539975 -0.13192886 0.041704256 -0.37874857 -0.55423075 -0.45381242 0.45934793 0.17986214 0.19041614 0.04855405
474 -0.3030419 0.21003966 0.1037228 -0.4847995 0.03471837 0.10922132 -0.13297923 0.018152008 0.4925902 -0.023096332 0.28057662 -0.08132393 -0.038749356 -0.15774281 0.46978945 0.4006742 -0.25439537 0.030995553 -0.21386673 0.11852828 0.100713 -0.12524086 -0.10979843 0.308647 0.45210353 0.2561825 -0.097713426 -0.061505258 -0.04129232 -0.1317085 -0.18015707 0.11142548 -0.04509481 0.06710217 0.6032352 0.38046196 -0.4488201 -0.19288187 0.27044463 -0.08688266 0.039373703 -0.18576209 0.5873653 0.5658208 0.24067608 0.37981328 0.11991451 0.29538202 -0.46789378 0.0212523 -0.38416708 -0.14346369 -0.5314908 -0.22684467 0.20867263 -0.13640082 0.06654865 0.37886438 0.1150401 0.09765149 -0.6295141 0.30545145 0.22675973 0.43065512 0.010452207 -0.07720041 0.10188781 0.19146277 0.063638695 -0.3728033 0.18210419 -0.15568638 0.10141859 -0.21400824 -0.16813932 0.036707427 0.18018346 0.13838685 0.18247584 0.4084944
100 0.08775794 0.93975043 -0.3296927 -0.109018385 -0.08921804 0.16397764 0.073637575 -0.19073366 -0.3789909 0.34877077 0.061469093 0.24791795 -0.53715974 -0.23752078 0.31448555 -0.3651372 -0.49919936 -0.6401346 0.17621095 0.25342098 0.12546736 0.27359495 0.36041138 -0.17107274 0.16466057 -0.07546873 0.342008 0.53329086 -0.06449911 0.40747088 0.08820759 -0.23566867 -0.40213415 -0.29333773 -0.24209633 0.07383896 -0.110895775 -0.22607289 0.13332698 0.21760014 0.2823901 -0.60684687 0.27442917 -0.079766564 -0.08766135 0.36232245 0.20554872 -0.21904534 -0.20866702 -0.2268762 0.23878492 0.20535044 -0.0037210493 -0.21673 -0.44962502 -0.35075843 -0.34901202 0.27793133 -0.64492154 -0.1477872 -0.10360543 0.052046046 -0.2448987 0.3616349 0.39698228 0.3580455 0.44762534 -0.04209239 0.18772317 -0.1067484 -0.03078922 -0.28410992 0.5443719 -0.61711097 0.08553828 0.28014955 0.16750878 0.35328105 -0.35783958 -0.11967238
50 -0.19255708 0.36957827 -0.65165836 0.41170916 0.22428586 0.2722673 -0.31121635 -0.025491852 0.49035183 0.10276446 0.10147614 0.6761631 -0.014200913 0.5463348 0.27794877 0.36812043 0.06839815 0.19665194 -0.022624137 0.45042405 0.175627 -0.3910051 0.21410945 -0.124755874 -0.42791542 0.110767774 -0.0072934413 0.15263444 -0.1939663 0.31502366 -0.3339183 -0.7611774 0.18002304 0.06814698 0.28423387 -0.046459336 -0.3220192 -0.023195446 0.0838487 0.0073941625 0.40474778 -0.32013437 0.13736007 -0.3430675 -0.12107107 -0.010139446 -0.08737423 -0.1414859 -0.13213529 -0.5167214 -0.19858108 0.4919629 -0.3954684 -0.035311777 -0.69175607 0.17535132 -0.07482694 0.2631314 -0.6351416 -0.09902884 -0.27371284 0.11925966 -0.035808686 -0.31516477 0.27301094 0.016047655 -0.19872145 -0.14487019 -0.12229939 -0.28650078 0.13134985 -0.17506796 0.23614705 -0.29163095 -0.12971418 0.6195047 0.027524544 -0.011592733 -0.39591533 0.20365581
479 -0.017776562 0.50602937 -0.2812212 -0.3021869 -0.2667416 0.19808912 -0.13763112 -0.13574122 0.047704827 -0.08274399 0.19629708 -0.40494326 0.11369388 -0.23015805 0.31119415 0.4411865 0.01935418 0.35372546 0.22963712 0.1267728 0.24243803 -0.19113538 -0.07295859 0.46893415 0.45890024 0.39252755 0.16696814 -0.14600869 0.04241569 -0.07279952 -0.036616735 -0.04548091 -0.36104348 0.42101216 0.70688844 0.2435452 -0.70456624 -0.63210315 0.064310774 0.10836123 -0.3843461 -0.3046492 0.6681862 0.15690346 0.13306645 -0.2503685 -0.07805598 0.24433492 0.29400578 0.0018294944 -0.23744702 -0.30451626 0.059620198 -0.07617104 -0.4121881 0.040364288 -0.36471245 0.23501296 0.21413146 -0.34683162 -0.58744866 -0.17171308 0.6183202 -0.03248658 0.15723385 0.23673417 0.07674384 0.24072708 0.017766047 -0.5139296 0.3863501 0.020963812 0.41323882 0.48341823 -0.45664942 0.19412908 -0.11019739 0.5533099 -0.4750394 0.24913025
299 -0.21429582 0.32000133 -0.10642766 0.17229423 0.008644676 0.61673886 0.17124489 0.09688973 -0.06836343 0.58441156 -0.018304408 -0.1710568 0.3685893 0.2080868 0.38938615 0.14175181 -0.08731563 0.21669462 -0.016675955 0.14833468 0.6041584 -0.5274564 -0.2987774 0.20793693 0.23012713 0.19616295 0.53993356 -0.53234965 0.17894587 -0.2195375 -0.0062479847 0.13619205 -0.64160866 -0.15239774 -0.24181257 -0.21014765 0.011710649 0.19352673 0.20061433 0.2592617 0.6276853 0.12334437 -0.13270369 0.3425198 0.07198546 0.19125065 -0.5990204 -0.49703458 0.31665516 -0.112801515 0.0056202803 -0.63164455 -0.25724536 0.39726603 -0.36108315 -0.1499722 0.09639342 0.14067441 0.17888647 -0.01087334 -0.66865736 0.28243342 -0.10855238 0.3997461 -0.2992928 -0.3872052 0.05536828 -0.053049203 0.07446495 0.2049087 0.3117729 -0.3356648 0.33772236 -0.29549405 -0.15141411 -0.11896599 0.31942964 -0.15062977 0.17163883 0.36784714
53 0.26010844 0.1817611 -0.35033587 0.4372906 0.20982829 0.19281554 -0.4411586 -0.0338104 0.7639681 -0.47994462 0.29529563 0.2283306 0.15335636 -0.035808053 -0.100410014 -0.24529546 -0.5839829 0.14985333 -0.18884438 0.4769538 -0.047537815 -0.053067688 -0.05214586 0.072169684 0.15123361 -0.07294698 -0.040152974 -0.035302635 -0.14896902 0.23159079 0.015283735 -0.15190783 -0.5108366 0.21812814 0.19834204 0.55273503 0.6779141 -0.00711061 -0.18483248 0.21187378 0.27813083 -0.52009785 0.36618596 0.092410006 -0.1420318 0.31052482 -0.4643078 -0.43154937 0.09958255 0.13059694 -0.5419544 -0.07760951 -0.27348033 0.099913195 -0.35447899 -0.19413148 -0.024998127 0.25329763 -0.2821871 -0.2201715 -0.4423334 0.03510961 0.4836588 -0.7117734 -0.635389 -0.22803064 0.19789629 0.12492667 0.0014247654 -0.050377358 0.13780934 0.06063879 0.11113954 0.007887676 0.2861279 0.14241873 0.96758664 0.12803054 0.04998387 -0.39827693
198 0.09819507 0.3465965 -0.761686 -0.4016128 0.15748182 -0.18457855 -0.071883656 -0.2054502 0.8583587 -0.032423098 0.010781403 0.030725135 0.58232397 -0.22310092 0.12546994 -0.039710104 0.0027150887 0.3573014 0.24838515 0.16157582 0.15523192 -0.22966717 -0.049064424 0.5899944 -0.54754245 -0.10957579 -0.25583103 0.15292363 -0.54981625 -0.30652696 -0.07748323 -1.0736367 -0.196164 -0.10478288 0.3030965 -0.29155496 0.48140585 -0.2661257 0.24466972 0.18960981 0.41804868 0.033950634 -0.32762092 0.03519887 0.25734857 -0.26206064 -0.5583356 0.07197042 0.23070984 -0.207291 -0.4556562 -0.12464485 -0.32563594 0.10835798 -0.4533265 -0.42515102 0.15460089 -0.04455705 -0.41554764 -0.06433944 -0.04454009 0.08418332 0.0063704317 -0.38988653 -0.26485813 0.26879385 -0.19262236 -0.3469622 0.30979523 -0.023792552 -0.45179734 0.07068655 -0.14235485 -0.18409234 -0.011684683 -0.24587534 0.30696234 0.099361256 0.08548062 0.48176193
218 0.07489266 -0.10710373 -0.06588717 -0.28082773 0.395365 0.44002846 0.26536238 -0.7442686 0.188856 -0.28612047 0.47105354 -0.1699965 0.5915982 -0.13913926 0.22722524 0.034899145 0.24403799 0.35244322 0.53224456 0.13385387 -0.8139457 -0.704821 0.2519624 -0.48793882 0.24802105 -0.37735072 0.054527167 0.14298816 0.33452275 -0.07559438 0.71308213 -0.031155262 -0.49919665 -0.027246423 -0.2130782 -0.2683249 0.10650127 -0.29660192 0.64663357 -0.025764372 -0.05762536 -0.3772197 -0.13376014 0.10901542 -0.14891295 -0.15740779 -0.31912634 -0.5121705 0.11092463 0.35332954 0.11562284 -0.26652545 -1.0253087 -0.043798614 0.013068616 -0.2782252 -0.23435505 0.3831416 -0.4138807 0.13130999 -0.34657428 0.2739277 -0.066206 -0.5101578 0.35206413 -0.32496807 -0.09387621 -0.31757817 0.041969676 -0.6779824 -0.47197664 0.06382698 -0.02676975 0.30342257 -0.29600805 0.32980722 0.061353523 -0.5132939 -0.070074745 0.38364074
445 0.10554126 0.24087498 -0.56871414 -0.63073504 0.00825445 0.118850514 -0.39457247 0.17134096 0.31575045 0.04254564 0.72889864 0.0394402 -0.44868025 -0.3287481 0.21930556 -0.030565353 0.43749928 0.08042685 0.06198705 -0.18770076 0.4902973 -0.14346498 -0.3111072 0.22936396 -0.91833204 -0.3810553 0.060246397 -0.34911802 0.29301855 0.50228125 0.30698326 -0.5307301 -0.61812097 -0.29873136 -0.32618815 -0.10750865 0.12444951 -0.18203704 -0.033154998 -0.12638605 0.57949793 0.040034078 -0.07026626 0.14182958 -0.45880142 -0.1176636 -0.31331718 -0.17923722 0.051477216 0.025685081 -0.33326143 -0.11550115 -0.2164606 -0.201114 0.37413996 -0.2935958 -0.48412597 -0.016338062 0.06433854 0.008851919 -0.017851481 0.018802382 0.4428059 -0.046744358 -0.1054688 0.24553001 0.36980173 -0.32400474 0.70015883 0.052545805 -0.0049392204 -0.37245747 0.25563213 0.20918219 -0.17734484 -0.18793604 0.2989526 0.12148089 -0.084190525 -0.39490294
541 0.123907134 -0.20509738 0.42961314 -0.5099539 0.040690042 0.3826454 -0.09884582 0.2809363 0.11042013 -0.19095512 -0.023629164 -0.32607532 -0.043814443 -0.19035922 -0.5658703 -0.12382338 -0.09042591 -0.25320444 0.6048927 -0.39451718 -0.19502199 0.3659463 0.34184372 0.286744 0.42874628 0.29712352 0.07458886 -0.33943468 -0.47192243 0.38727906 0.46369186 -0.27206093 0.19941516 0.27728814 0.094025284 -0.1399517 0.31595472 0.13233885 0.3910719 -0.25962546 0.53554153 -0.44613802 0.39580372 -0.4092944 -0.22294681 0.19885515 -0.120256685 0.3297405 -0.00088190346 0.25396955 0.24781567 -0.048118472 0.3758503 -0.38657615 0.11093216 0.38581848 -0.44558036 -0.29597968 -0.35830933 -0.3515026 -0.46146822 0.50775677 0.11479196 0.39517888 -0.28468522 -0.17980553 -0.5182657 -0.17030433 -0.0922108 -0.6740136 -0.114139974 -0.062815554 0.40770707 -0.62281096 -0.37229088 -0.11080532 0.39191845 0.3727396 0.1360829 0.2190507
565 -0.2817008 0.4214527 -0.18737148 -0.69738334 -0.31301907 0.11629012 -0.32329145 0.045562297 0.334315 0.2390482 0.023830494 0.05074916 0.19023453 0.15737149 0.2992909 -0.34333405 0.16437607 0.10688134 -0.0023371445 -0.26935923 0.22215326 0.43733317 0.12927218 0.05654411 0.13372745 0.24704304 1.0758361 -0.77146834 0.30131584 -0.25888193 0.31067544 0.30518705 -0.23176508 -0.35061574 0.3301983 0.30430996 -0.09927312 0.32766894 -0.6116227 -0.47466415 0.53060544 -0.44787496 -0.36244768 -0.07043442 0.3532555 -0.10359412 -0.07268338 -0.41218412 0.3247075 -0.33888236 -0.40467834 -0.6120347 -0.12841006 -0.37761405 -0.06840457 -0.44098416 0.017123915 0.24421945 -0.37860748 0.37647364 0.034360956 0.5374325 0.37924388 0.09720984 0.24478452 -0.09842782 -0.12859596 0.06479858 -0.02128043 -0.9536237 -0.29796544 0.15057085 -0.36609447 0.11212246 0.4860906 0.18073125 0.008716288 0.09073889 -0.1585134 -0.4961771
81 0.23462872 -0.022111665 0.28033403 -0.33330107 0.53031224 -0.19326091 -0.0757091 0.63270074 0.8151623 0.35156015 0.3890263 0.45524246 -0.111828156 -0.5059861 0.5143542 0.32556945 0.16057245 -0.02077467 -0.033787023 0.12454146 -0.39082253 -0.2769546 0.21362115 0.06378192 0.17097221 0.7702415 0.22643702 -0.072315216 0.17556106 -0.15948382 0.27212143 0.19880658 -0.29219726 0.100297645 0.03754035 0.30891296 0.08420888 -0.0588361 0.023378698 0.14885414 -0.41079336 -0.031242851 0.15699154 0.29205662 -0.48595047 0.21680678 -0.12907141 0.4083075 0.1664068 -0.06366056 0.3550461 -0.4182597 0.24705377 -0.5131076 -0.17341185 0.4326406 0.1916906 0.13847451 -0.6461677 -0.5093479 -0.2512767 0.23571594 0.26232737 0.43365377 -0.026955148 0.18041162 -0.12308705 0.28127226 0.3909623 -0.27917534 -0.03439652 -0.3958992 -0.24232781 -0.40257788 -0.15330607 0.05516885 0.4104987 -0.028693985 -0.01572842 0.29131597
184 -0.32489154 0.31575176 0.28997064 0.6214897 0.020537416 0.45734814 -0.39021078 -0.48709664 0.01474875 0.64978117 0.6653173 -0.37236193 -0.09130222 -0.48772284 -0.11914855 0.5578728 0.10725663 -0.3132211 -0.24375394 0.12486882 0.04292476 -0.07392807 -0.073961996 0.38648936 -0.11717726 0.73409396 0.16886166 -0.23627537 0.3043312 -0.25416788 -0.014207641 -0.13588439 -0.6415836 -0.1317755 -0.09075616 -0.21410319 0.102414794 0.53485906 0.4232833 0.40063548 0.40607616 -0.35330954 -0.06827141 -0.2968457 -0.5136974 -0.108886525 -0.39952615 -0.027042028 -0.40560973 0.22395386 -0.2745474 -0.32682478 -0.22638421 0.04950999 -0.034444913 -0.69254184 -0.19680166 0.14580068 0.106849134 -0.22982094 -0.11763893 0.7476215 -0.2564788 0.124583945 0.26931202 -0.03119046 -0.13000618 -0.20607206 -0.39940807 -0.44179487 -0.23164204 -0.15396823 -0.02434182 0.4298145 0.23949726 -0.31706536 0.08299054 0.47273448 -0.17918167 -0.037930965
25 -0.32785296 -0.30785802 -0.03078111 -0.5580515 0.4086015 0.32716984 -0.38768604 0.21400867 0.28609008 -0.27696738 0.44535884 -0.15897429 -0.040432416 -0.30798176 0.3433249 0.043448422 -0.005033996 -0.605851 0.65117717 0.20059124 0.6049281 -0.26939383 -0.5207184 0.47822928 -0.7692365 0.45412537 0.0004941551 0.13422494 0.29526773 0.28006354 0.35679656 0.20759413 -0.035736725 0.23388429 -0.05210148 0.26333857 -0.36875638 -0.27096403 -0.18601747 0.16599934 0.6979316 -0.6846301 -0.59203655 0.2807291 -0.3333144 -0.15290193 -0.119118065 -0.14153072 0.375679 -0.32342407 0.2343174 -0.19696763 -0.37727103 -0.15863824 0.1808166 -0.29065213 -0.22345833 0.49265254 0.37308398 -0.8788611 0.45229834 -0.048008155 -0.3074509 -0.045106065 -0.499862 0.30406743 -0.29526034 -0.54175776 -0.18252169 -0.31706896 -0.33414924 -0.65826917 -0.1087764 0.5061433 -0.11593383 0.08620886 0.31060368 0.005645156 -0.19101319 0.37220368
854 -0.3162617 0.46745667 -0.50437146 0.2553344 0.21144037 -0.07579133 0.18053056 0.14605586 -0.016394723 0.41583928 -0.3648855 -0.34257537 -0.47905722 -0.012769247 0.6231826 -0.22135612 0.52157474 -1.1832507 0.25876248 -0.03413112 -0.42172042 0.37175864 0.3109312 0.072592854 0.4400654 -0.6695255 -0.3752795 -0.17566693 -0.44044477 -0.15903611 -0.15923518 -0.24879827 -0.9861917 0.30699503 0.117397435 0.3982737 -0.13685876 -0.07101608 0.20471954 0.030268447 0.48757514 -0.03710191 -0.4744881 0.28927645 -0.4337791 -0.041982327 -0.3371781 0.00497783 0.14066711 -0.038909525 0.15270858 0.108263694 -0.5368967 -0.5608984 0.14772952 -0.5439993 -0.40597612 0.32150903 -0.32547152 0.1017426 -0.47471306 -0.27949336 0.692326 0.40775043 0.1886959 -0.56955665 0.2394171 0.24743825 -0.0077972137 -0.09137874 -0.4482284 -0.024114393 -0.00518944 0.12257032 -0.35779423 -0.011464451 -0.06286155 0.16554156 -0.5033696 0.2965321
1670 0.0021023254 -0.12049546 -0.51608455 0.48955664 -0.03677687 0.58944005 0.19730175 -0.2574988 0.5410556 0.13392344 0.81428057 -0.5651435 -0.27228567 0.24365273 0.33892208 0.21386927 -0.064254306 -0.004627554 0.024915105 -0.20977657 0.011266183 -0.31899107 0.35969633 0.24839382 -0.17328632 0.31393605 -0.13698754 -0.15404667 0.45303452 0.13232248 -0.29749385 0.5344458 -0.31232384 0.11861488 0.014002844 0.0981444 0.09125576 -0.15083611 0.0706406 0.34428203 0.730395 -0.39091092 -0.19134939 -0.02426574 -0.13076107 0.6223652 -0.010666879 0.33717573 -0.17401741 0.08582438 -0.56399035 -0.5948395 -0.05216127 -0.14108896 -0.31780204 -0.1629343 -0.078878395 0.2131299 -0.28214842 0.1815983 -0.03808977 -0.17574738 -0.31539473 0.6567247 0.22353238 -0.9310927 -0.7620305 -0.65743196 -0.39069775 -0.024254397 0.17173715 -0.35361522 0.030645419 0.007882814 -0.21240124 0.08444131 -0.064957544 -0.014598376 0.082717635 0.10963026
530 0.39989093 0.4435049 -0.15335864 -0.21603033 -0.003659968 -0.110709354 -0.3181868 0.5932307 0.32141954 0.53645676 -0.079220414 0.21440384 0.34819764 0.011390513 0.3718686 0.20349726 -0.33040255 0.114082284 0.06586013 -0.18166788 0.5209458 -0.5352974 0.011655198 0.24454118 0.22508988 0.4263172 0.19130799 -0.0057818163 -0.34062898 -0.1005727 -0.1918416 0.1028438 -0.1033188 0.6014916 0.29089305 0.25490898 -0.50217515 -0.57723856 0.33983302 0.10466365 -0.08248522 -0.11817444 0.0042618928 0.48143193 -0.14447965 0.80138075 -0.07351203 0.2885015 -0.07875959 -0.24522187 0.22175771 -0.2264565 -0.23737344 -0.18344595 -0.24957065 -0.18362023 0.058101516 0.33416438 -0.10033513 0.411225 -0.5885722 -0.26783198 0.35533312 0.28800097 0.18313985 0.12767416 0.07311119 -0.10224183 0.16834061 -0.4001704 0.15430412 -0.32558253 0.46870583 0.019257896 -0.32983395 0.08345839 0.0040339343 0.33379212 -0.1438642 -0.108472556
379 -0.0063545355 0.38337904 -0.24094771 -0.008532502 -0.12786214 0.39030772 0.056159098 0.3984736 0.5015341 0.17796299 0.12236391 0.08120791 0.09703064 -0.32417122 0.24544093 -0.25504273 0.07735086 -0.38247907 -0.32960021 -0.84948593 -0.015643686 -0.04143756 -0.55828303 -0.20019165 0.41467485 -0.070774384 0.4898639 0.0084977 0.1368902 0.19471507 0.036741976 -0.483682 0.1287153 -0.17097677 -0.20302138 0.32282034 -0.01244093 -0.23093285 0.71052754 0.23593369 0.31536216 -0.16447192 0.14436705 -0.009224754 0.21704508 0.51979876 -0.48042274 -0.31742942 0.663145 -0.10856298 -0.020667037 -0.24180552 0.43703708 0.020556604 -0.61412823 -0.23019595 -0.77573395 0.16903107 -0.037152164 0.08764116 -0.20623814 0.19654739 0.19105548 0.40929496 -0.07924631 -0.31385705 0.34810355 -0.3713644 -0.25503656 -0.32093188 -0.27549604 -0.426839 0.16792163 -0.32051826 -0.41603485 -0.5706749 0.1698665 -0.67847055 0.29529646 -0.009642993
678 -0.0682485 0.5856577 -0.2599235 0.7241761 0.5038093 0.61837393 0.28735676 -0.34432444 0.58419293 0.6806739 -0.020865666 0.13156943 -0.3508847 -0.05980627 0.21436636 -0.10987976 -0.06313155 -0.066041894 0.31267345 0.7217872 0.45333093 0.20603381 0.10711734 0.37723035 -0.5274558 -0.4958371 -0.68088603 -0.34165817 -0.5520936 0.073555045 -0.086853735 -0.25378704 0.43914947 0.15031424 -0.025170157 0.17865983 -0.664411 0.26381984 -0.4685939 -0.13247365 0.49663815 -0.35331017 0.14622411 -0.48424786 -0.41401199 -0.23139684 -0.42972103 0.14722174 0.03849606 -0.2759301 -0.09561073 0.08814371 -0.30211782 -0.50739074 -0.61383575 0.307502 -0.087969474 0.5923983 0.053498182 0.21475127 -0.47650835 0.8066801 0.7078428 0.1707482 0.35018277 -0.13022326 0.39081863 -0.5046138 0.047612138 -0.23239395 -0.47417778 -0.22842334 -0.028973758 0.29149908 -0.525843 0.31842023 0.21886769 -0.24548048 -0.6609948 -0.37336534
165 0.23622032 0.16798134 0.19358012 -0.15414922 0.036467478 -0.018247588 -0.37036046 0.020539612 0.33536398 0.40276533 0.2855942 -0.28803664 0.07162965 -0.17957436 0.12655556 -0.32969588 -0.44526583 0.3809857 -0.23079152 0.45799655 0.10093926 0.21607813 -0.22640789 0.055673942 -0.49022862 0.17759556 -0.19782934 0.35100883 0.064888075 0.3410884 0.47513163 -0.49021962 -0.8459935 0.24959165 -0.061978966 0.2686378 0.9433301 -0.5257144 0.17590675 0.028006107 0.105134144 -0.30462372 0.3533544 -0.07599614 0.35454905 0.17268105 -0.54153216 0.063514546 0.15748122 -0.1338874 -0.5430834 -0.31123248 -0.3742891 -0.749628 0.12005051 0.38019937 -0.35002148 -0.04687997 0.3776363 -0.10046993 0.056229584 0.4079285 0.17966245 -0.121606834 -0.2311717 -0.07986476 -0.10952443 0.20371583 -0.7834784 -0.31865716 -0.39372584 0.53312474 0.5731339 -0.3672799 0.029836312 0.82282126 0.40064436 0.38922575 0.010611356 -0.035447672
233 0.13051414 -0.46441966 -0.09266625 -0.27267602 0.013310881 0.28505796 0.3610472 0.07241545 -0.09752367 -0.055493783 -0.06874024 0.038484883 -0.36450905 -0.33474112 -0.063468456 -0.2030557 0.50714815 0.28562063 -0.3206797 0.02101798 -0.2398596 1.157554 -0.039615035 0.22634369 -0.094322175 0.7594373 -0.41424862 -0.36338973 -0.27394083 0.5553839 0.11792469 -0.2323096 -0.10582694 0.17680132 0.32824555 -0.58194137 0.32699057 -0.3418188 0.23091343 -0.39435878 0.32350373 -0.48337302 0.5573131 -0.5005858 -0.3258709 0.5631921 -0.21140578 -0.36695698 0.24219002 -0.37018985 -0.20702502 0.04609039 -0.07848337 -0.13525155 0.5849707 -0.29882768 -0.18218762 0.2708495 -0.012143815 -0.10404195 0.13678192 -0.047118545 0.97839636 -0.018897526 0.3937891 -0.09702617 -0.045969043 -0.42533842 -0.17136246 -0.36980876 0.059949428 -0.07485488 -0.039090265 -0.20680456 -0.15689258 0.017591216 0.16586547 0.3608019 -0.42041296 0.4611946
925 -0.09006186 0.42943847 0.16191025 0.8639254 0.11136731 0.24615398 -0.059240974 -0.11200915 0.5557592 -0.2209408 0.3182628 -0.105678715 -0.067739226 -0.048863824 0.23663779 0.21795255 0.06945954 0.3997121 -0.3174276 0.015935779 -0.0631165 -0.19262916 0.47956955 0.30398732 -0.08815364 0.018313495 -0.12145882 -0.06652479 0.1165803 0.8503134 0.36417595 0.83269083 -0.27490962 -0.1389069 0.33444384 0.16155483 -0.124644764 -0.101099595 -0.14720188 -0.16656148 0.49046612 -0.46921584 -0.43538457 -0.70393854 -0.090774916 0.7697964 -0.071981594 -0.11105468 0.5017053 0.11123509 0.14251894 -0.2835326 -0.39858437 0.06646361 -0.4265137 -0.22911309 -0.47712898 0.42374495 -0.59235424 -0.12848209 -0.05413132 0.26639867 0.093061216 0.380353 -0.17484984 -0.30008408 -0.21891296 -0.061394606 0.45780173 -0.3694165 -0.09287735 0.2640908 0.6983899 0.3083228 0.39056775 -0.5377178 -0.282682 -0.30956146 -0.016338421 -0.09525424
1362 -0.38746023 0.35993934 0.08334022 0.3328558 0.3781821 -0.0062139616 -0.05457131 0.09300544 0.24317251 0.20639718 0.9530116 0.413089 -0.030124113 -0.13725033 0.30864444 0.37335035 0.36013362 0.1437487 0.27236012 -0.018073898 0.20773701 0.20470226 0.17335361 -0.5113483 0.39616007 -0.4576983 -0.4906418 0.16164581 -0.074704975 0.1720191 0.23505583 0.19617276 -0.28244027 0.00753555 0.27415645 0.23898298 -0.2530076 0.2442208 0.7814425 -0.09011186 0.5136842 -0.24745604 -0.22923237 -0.6684996 0.36914024 0.6252188 -0.3529194 -0.3388059 0.11866468 0.39433017 -0.30816457 -0.5737839 -0.0023058706 -0.51654303 0.16549496 0.4220043 -0.21002631 -0.06361565 -0.3407367 -0.41573244 0.15174171 -0.10640508 -0.030168388 -0.42769444 0.005379186 -0.2618702 0.23157834 -0.18719755 0.29353794 -0.551023 0.033751957 -0.10784887 1.1953001 -0.026132533 -0.5055821 -0.25464028 -0.53349495 -0.106300935 -0.0036039632 -0.008736404
176 -0.46089756 0.34378412 -0.2705662 0.55152094 -0.237709 -0.1811045 -0.36434722 -0.063310735 0.24878518 0.22395621 -0.6343061 0.18960321 -0.15871255 -0.039939485 0.25843453 -0.18037423 0.35842457 -0.5712139 0.4989313 0.057368685 -0.3617934 0.16674952 0.108506076 0.49277705 0.42268673 0.030388657 -0.24584256 0.017160377 -0.071382634 -0.006214762 0.06679268 0.118368536 -1.3345339 -0.06971194 0.33392876 0.29717618 -0.15254125 0.31690478 0.56131893 -0.3123255 0.69251215 0.4727046 -0.40817013 -0.023243705 -0.09348719 -0.50887704 -0.39214247 0.021451496 -0.028866168 -0.2912783 -0.32770512 -0.15627594 -0.4649629 -0.33401948 0.29481837 -0.17242074 0.15950888 0.27467617 -0.6077773 -0.24377377 0.09863086 -0.26661265 0.9393746 0.6545616 -0.23151968 -0.6997748 -0.12531163 -0.024555888 0.49457487 -0.5104984 -0.52410096 0.24588862 0.27045563 0.44562387 0.23704854 0.21401928 -0.065568596 0.22569278 -0.36839977 0.59305406
1084 0.39785603 0.27327746 0.32413435 -0.63433075 0.064256705 0.20697337 -0.6129649 -0.15981221 0.3772197 0.59700465 0.49645284 -0.7862055 -0.1699393 -0.5268573 -0.27594417 0.43274623 0.27291626 0.47628325 2.643843e-06 0.014302279 -0.17152748 -0.21087998 0.36105484 0.034676027 0.2732203 0.42657748 -0.22896846 0.19207801 -0.06899216 -0.033965282 0.20116894 0.119425155 -0.19761837 0.37739438 -0.018201338 0.086000524 0.026575727 0.19206394 0.23609251 -0.15635599 -0.014669714 -0.29414263 -0.30243754 0.4582307 -0.32958695 0.40485922 0.08936395 -0.034336086 0.2608171 -0.5618658 -0.08462555 0.24156123 -0.3247528 -0.24989429 -0.85050255 0.5180439 0.09290859 -0.60270166 -0.39362022 -0.055575978 0.34033224 0.49479058 0.33606264 0.4741864 -0.25475207 -0.22926904 0.33361632 0.22342585 0.27786237 -0.2622416 -0.5945293 -0.58204234 0.27574784 0.14999065 -0.20073836 0.302105 0.16660737 0.36385423 0.31946194 0.034282688
314 -0.036699954 0.0035725147 0.06487276 -0.4581404 0.11465848 0.34222922 0.29166472 0.2475739 -0.005750212 -0.12300469 -0.14113833 -0.44521266 -0.24316649 0.25895 0.12783499 -0.5085538 0.9425115 0.15374121 0.3781296 0.67511314 -0.07299583 0.07263838 -0.14279355 0.30403525 -0.44126388 0.10979198 -0.3199618 -0.97448504 0.4616078 0.038699504 0.5818814 0.3275898 -0.18356423 -0.12764575 0.80814725 0.038923327 0.257285 -0.37552655 0.114336304 0.12737359 -0.36814186 0.39861163 0.19817285 -0.39897278 -0.2175149 0.383751 -0.45950457 0.2614683 0.07698577 0.07432463 -0.05631285 -0.0635267 -0.7838779 -0.24209926 -0.43875986 0.14069499 -0.2908005 0.105857015 -0.22802459 0.04085321 -0.09321304 -0.200537 0.50873965 0.12460358 0.7459144 -0.017542673 0.037029985 -0.5447278 0.34629232 -0.10919208 -0.48726383 -0.1807377 0.0002375666 -0.44431764 -0.26489702 0.3277876 0.0795115 0.3076387 0.07746429 -0.08904198
555 -0.10639214 0.1479275 -0.2571339 -0.06320494 0.26557583 0.052633688 0.34211117 -0.20015763 0.27918145 0.634264 0.34079406 0.039353848 0.0886786 0.3642766 0.6215674 -0.110998414 0.08158086 0.8919298 -0.13511157 -0.2501193 0.022996828 -0.6613869 0.10588931 0.019927464 0.1521957 0.6936509 -0.080347285 0.16574518 0.35113576 -7.5293414e-05 0.12128989 0.20842476 -0.051069323 -0.040374808 0.064416155 0.4553364 0.27894762 0.009959842 -0.08462949 -0.018833235 0.5584116 -0.34656644 -0.6981527 0.48504147 -0.124108724 -0.30526614 0.07142774 -0.2684728 0.014898852 0.38686812 -0.41099045 -0.15873937 0.015136549 -0.11328582 0.08918815 0.14095727 -0.017645372 0.16509196 -0.7786943 0.06716668 -0.28451043 0.016755892 0.24833755 0.77119225 -0.05432288 0.036945987 -0.4549863 -0.04073933 -0.179508 -0.19282807 0.19702467 -0.2749172 -0.15916814 -0.4756487 -0.05786271 -0.2904848 -0.32695898 0.40135783 -0.041147605 0.9341551
240 -0.63564384 0.7866554 0.17549883 0.4102681 -0.07061807 0.18701631 0.3836073 -0.039012484 0.36614028 0.12165273 0.7843593 -0.10870739 -0.12810297 -0.3205072 -0.20374256 0.30846426 -0.30859673 0.13688497 0.5415186 0.37978038 0.54797155 -0.060659394 -0.3676178 -0.52165395 -0.12599684 0.08778621 -0.016232997 -0.5290486 -0.23480377 -0.08583128 0.8025687 -0.11530714 -0.34420136 0.8457997 -0.05878049 -0.036573526 0.63627833 0.36005184 0.51469153 -0.00890409 -0.12022198 -0.61444455 -0.28869537 0.083144985 0.3420072 -0.17775944 0.036467444 -0.30974948 0.10768305 0.33945543 -0.64622086 -0.47718215 0.17324038 0.32879242 -0.27303126 0.053023566 0.023403883 0.051639136 -0.3857152 -0.68884736 0.101004176 -0.0586809 0.5714575 0.9340427 -0.2798347 -0.23622659 0.11998876 0.09256001 -0.43379197 -0.44025132 0.46422714 -0.42538223 0.00434163 -0.11148152 -0.005571498 -0.057702575 -0.3438232 -0.16414328 0.27998248 -0.84600264
742 -0.05965391 0.2563713 -0.36221755 0.37014136 0.4991733 -0.371978 -0.43621892 -0.14081916 0.24986826 0.27984533 0.45034885 0.20445193 -0.48838228 -0.67560536 -0.18825737 -0.42560995 -0.06819581 0.07238503 0.5746665 -0.25449932 0.20979413 -0.97324896 0.5147984 0.5708607 -0.23587571 -0.30644578 0.31144875 -0.24430937 0.52831906 0.3460712 -0.26876932 0.06849141 0.13461064 -0.12165594 0.26349664 0.07210457 0.54609036 -0.015950212 0.74056745 0.14478053 0.5331057 -0.52204 0.78945404 0.2366859 0.3855902 0.48078355 -0.41095406 -0.29671642 1.0605199 -0.27693802 -0.6231482 0.12588798 -0.702184 0.3713867 0.684884 0.2732966 -0.43100277 0.11661205 -0.8395726 0.27301627 0.030974144 0.019036252 0.070199534 0.219219 0.12359733 0.06090295 -0.23721401 -0.45810375 0.07922323 -0.12928407 -0.38884953 0.59581894 -0.54619414 0.084198244 -0.5395485 0.38975495 -0.32726467 0.029919876 -0.20358738 0.17245962
27 -0.41459876 0.027761595 -0.48580566 -0.56905186 0.63456845 0.61352944 0.10907002 0.04057592 0.35101312 -0.3312668 0.13794076 -0.5759535 -0.2781946 0.072889075 0.046815448 0.13879527 -0.50139177 -0.1128019 0.4251521 -0.05871133 0.76635057 -0.8839313 0.10609309 0.17899427 -0.29845825 0.2587696 -0.048243172 0.32443288 -0.34782737 -0.14142492 0.26907647 0.7945882 -0.094459586 0.4438385 0.09017487 0.1015685 -0.2741151 0.24408743 0.6264327 0.27662158 0.6349825 -0.59494734 -0.6099363 -0.21723534 -0.2616105 -0.072965354 0.16493733 -0.14929943 0.28021803 -0.25177884 0.28863925 0.009724781 -0.26567465 0.052025378 0.30694613 0.080558926 -0.24122728 0.13320383 0.52370614 -0.44424358 0.5049234 0.20193106 0.24079199 -0.36802384 0.17314859 -0.7065582 -0.045572206 -0.085842706 -0.1950936 -0.4834131 0.031249925 -0.07438166 -0.25418448 -0.37661603 -0.37456587 -0.26627743 0.27237716 0.19653559 0.021506168 -0.3652807
232 0.016551288 0.22050011 -0.29885024 -0.11304124 -0.0025497207 0.5920923 -0.30197778 0.41787896 0.6684006 0.14999495 0.96079004 0.09368573 -0.56141824 -0.19383143 0.3830992 -0.11351547 0.3734529 -0.025001235 0.20453243 -0.5262701 0.45684624 -0.31005526 -0.2664937 0.51712346 -0.038932644 0.030563783 0.46165895 -0.44846123 -0.06385853 -0.28234732 0.14270417 -0.5983995 -0.25087017 -0.101173595 -0.26098934 -0.18299656 -0.057645693 -0.14810942 0.41242942 -0.28507748 0.39258534 -0.07120252 0.4003348 0.16838045 -0.50280064 0.113601804 -0.5163339 -0.13580492 0.3063921 -0.22740224 0.39839798 0.29274508 0.4384006 0.23678587 0.2829174 0.14850761 -0.78644764 0.5638684 -0.1991388 -0.04316231 0.6337326 0.024051348 0.6001786 -0.66475725 0.157883 -0.109122254 0.37021932 -0.6895705 -0.047622498 0.059423182 0.036034983 -0.22817403 0.1216316 0.105713286 -0.06704427 0.10890883 -0.0370347 -0.74961764 0.20010227 0.23948492
1211 0.41834626 -0.16803332 -0.33151454 0.0825727 0.82867104 -0.15562479 0.39105195 -0.38990626 -0.55117244 -0.0862753 0.19706823 0.048938252 -0.39938787 -0.22151141 -0.3657317 0.7965273 1.016131 -0.16137576 -0.048205175 -0.13137202 0.31513104 -0.2952615 -0.7053536 0.5215765 0.76725507 0.13045183 0.255035 -0.25779992 -0.32865193 -0.39151978 0.6114672 0.022525659 -0.7204754 -0.025284728 0.5173135 0.34810418 0.27343452 -0.13397661 -0.17981707 0.7358933 0.43157402 -0.8124033 -0.38465947 -0.36874616 -0.12296257 0.1299384 -0.24829029 -0.58054316 0.3172196 -0.101645775 0.39128184 -0.102851 0.010157104 0.25969788 -0.4829745 -0.06666555 0.0233412 -0.16273375 0.321551 0.061126623 -0.48552135 0.20732251 0.34111077 0.2019285 0.7088342 -0.24625808 -0.026545795 0.8100855 -0.17013507 -0.22427242 0.52614385 -0.26328883 0.0057191723 -0.40293276 -0.14062382 0.117046684 0.38057026 -0.18875499 0.08087751 0.30113623
120 0.51998204 -0.07578959 -0.26649553 0.0966686 0.42874676 -0.2170987 0.34578934 -0.0052811587 0.08340729 -0.16513275 0.91705304 0.3340927 0.21718979 0.3911151 0.26041672 0.12043566 0.3784019 -0.39178273 -0.25323483 -0.3537219 0.4832577 0.06090001 -0.21676157 0.23309793 0.39155507 0.5017094 -0.37162063 -0.3264599 -0.13555129 -0.2683893 0.57732934 0.04859197 -0.08887489 0.22492097 0.24758874 0.3017797 0.22835273 0.21632142 0.099901 -0.54315305 -0.11593732 -0.1660112 -0.27333206 0.16494073 0.1813279 0.046754662 -0.81113625 -0.22748175 -0.36004078 -0.46787992 -0.73707664 0.49407202 0.44705215 0.15365456 -0.63130313 -0.5526443 -0.8366052 0.39727533 0.3536646 -0.5170894 -0.4833654 0.45994705 -0.108708344 0.5254857 -0.77530676 -0.13628821 0.6102031 -0.6145289 0.67934394 -0.116857186 0.13121857 0.26919794 0.3853677 -0.13474 -0.48524368 0.43545595 -0.1687963 0.36717263 0.13537082 0.5195728
283 -0.15371612 0.047145434 -0.08512575 0.36750275 -0.40399325 0.42693728 0.73504496 -0.17883551 -0.0022690867 -0.21737042 0.6539283 0.08624659 -0.12219694 0.28328684 -0.09499258 0.05123036 -0.46140087 0.37519264 0.7892612 -0.560622 0.06847082 -0.43978837 -0.5106586 0.9674094 -0.18842709 0.45068675 -0.03350176 -0.61759627 -0.25049257 -0.52584034 0.10159549 0.2824956 -0.08218194 0.11085887 0.18908161 -0.24554467 0.13112465 0.031085398 0.27590084 0.22110374 0.64255506 -0.11197379 0.9706532 0.14730571 -0.42158586 0.32548085 -0.23339549 -0.069372244 0.58827955 0.16635731 0.4818487 0.07771259 -0.4071074 -0.017573375 -0.1407291 0.072824515 -0.41016895 0.5345823 -0.6893359 -0.57146245 0.43040735 -0.2918893 0.5972149 -0.13871802 -0.44354713 0.070971616 0.74680215 -0.07154762 -0.7155715 -0.6070853 0.31378606 0.08419309 0.046449445 -0.12928586 -0.19226031 -0.19028005 -0.0041151596 0.055313494 0.16330191 0.032344334
131 0.1622197 0.16310427 -0.14433502 -0.5690754 0.079188794 0.27021798 -0.50614065 0.21962906 0.17929417 0.2474542 0.24827172 -0.34590155 0.25458038 -0.011246607 0.41892081 0.4366992 -0.5975855 0.04315624 0.23627023 -0.47910622 -0.028389417 -0.005421586 0.5008281 0.471551 0.17004992 -0.20438938 0.70366657 -0.6802574 0.20217228 0.7508154 0.116666056 0.7530792 -1.1531023 -0.044790007 0.79245216 0.37133634 0.10781631 -0.2305813 -0.07425232 -0.0075631435 0.50000805 -0.9732405 -0.23015434 -0.35247752 0.15817535 0.1636572 -0.6494622 0.22649118 0.14624974 0.003585772 -0.18660145 0.72417146 -0.27234915 0.1471337 0.0036270136 0.07762619 0.20450342 0.02609674 -0.15197936 -0.23371169 0.40042734 0.35902894 -0.12591489 -0.40350342 0.36832067 -0.101936296 -0.2310148 -0.35170344 0.16469066 -0.23357333 0.07289264 0.41157812 0.3286769 0.20070757 0.0080333315 -0.027670307 -0.025393827 -0.35618395 0.034789193 0.18087737
688 0.44088912 0.13652337 -0.30215362 -0.22333048 0.47362953 0.06393802 0.52760386 -0.07981154 0.37892398 -0.4889353 -0.273338 -0.008110577 -0.10195737 -0.35478032 -0.46178487 0.024189204 -0.4275809 0.1851873 -0.48664254 0.014274545 0.06851962 0.46159223 -0.14971957 -0.09842069 -0.079260096 0.18681315 -0.04555502 -0.7035237 0.53531224 0.03712805 0.40314767 0.19957474 -0.37829018 0.33362213 0.17945829 0.22697096 0.18197186 0.71350306 0.40091303 0.03946127 -0.030277748 -0.050965462 -0.23229304 0.035226393 -0.2006168 0.15889399 -0.77618355 -0.16430773 0.088015705 0.10031069 0.07732695 -0.23540618 -0.25211665 -0.8779619 -0.40963537 -0.03556791 -1.0239625 -0.20738602 -0.53819376 0.3730267 -0.22431134 -0.27320594 0.004344676 0.5244275 0.017776106 0.016087392 0.33087838 0.08008793 0.06263673 -0.16472058 -0.29467097 -0.5414589 -0.1588862 -0.3566871 -0.5552693 -0.34926203 0.17272456 -0.19277939 0.18179187 0.57056665
2073 -0.39678934 0.13284905 -0.48858386 0.18851005 0.118806064 -0.039068103 0.5280907 -0.06730422 -0.34543386 -0.46983808 -0.5589089 -0.596731 -0.725498 0.3409062 0.0715685 0.49925488 -0.1844898 -0.17057957 0.50491124 -0.25414932 0.10810274 -1.0271126 -0.037987776 -0.7179775 -0.31516013 0.55473834 0.013284033 -0.16154219 -0.05774432 0.1954096 1.0536028 -0.41774723 -0.5152825 -0.23759276 0.163694 0.06704746 0.2380179 -0.03740086 -0.5124291 0.5195704 0.72457457 -0.30789444 0.4974524 -0.11810545 0.20132032 0.54194045 -0.45421904 -0.5696423 0.5481729 -0.57433665 -0.26362163 -1.1601434 -0.08594708 0.28775454 0.09982665 0.09265012 -0.37058237 0.09846307 -0.24940382 0.461008 -0.24040827 -0.3918383 0.098008774 0.15520053 -0.6748037 0.073919155 0.86622113 0.0036764545 -0.075628616 -0.54984945 0.8991326 -0.16284092 0.123321235 0.058557596 -0.3308175 0.37968895 0.755303 -0.081901416 0.017044015 0.3991721
272 -0.44304696 0.44096193 -0.033817038 -0.09902055 0.018180462 0.45286363 0.30699778 0.22669987 0.5959725 0.3680851 -0.013829476 -0.23351707 0.17580228 -0.5712936 -0.5480351 -0.3303648 -0.53426516 -0.112447925 -0.17707993 -0.3325088 0.089272715 -0.18430579 -0.7295469 0.101883136 0.2952525 0.3442674 -0.056101166 0.3140554 -0.11569654 -0.28215793 -0.078090176 0.15571386 -0.15879099 0.23242006 -0.22251444 0.37917137 -0.1942849 0.09621514 0.509207 0.697472 -0.07692799 -0.49742216 -0.3310342 -0.40466386 0.30214038 0.5848203 -0.015579283 0.07646189 1.0588919 0.14764836 -0.4359252 -0.27145764 0.18593284 -0.35394257 -0.22891042 -0.94216245 -0.34960386 0.20433798 -0.18482363 0.0048015574 0.03591399 0.0042024697 0.22637595 0.27734125 0.03904474 -0.091663934 0.036642063 -0.40212792 0.17202331 0.028037135 0.10170833 -0.19562434 0.00964425 -0.4358022 -0.40246457 -0.9477468 0.11689514 -0.1391654 0.12725405 0.67281765
463 0.61056405 0.5382235 0.10034684 0.19064163 -0.17004187 -0.34218323 -0.06143721 -0.23176065 0.38618502 0.19784684 0.2523169 -0.2932831 -0.29794565 -0.15405256 -0.4763971 -0.364646 -0.09445342 0.06677832 0.7816214 0.4558741 -0.53016967 0.02847249 -0.22502077 0.062777124 0.12540577 1.0006149 0.474037 -0.110862754 0.3987037 0.023866951 0.41003516 -0.3879143 0.1357658 -0.46350703 0.03307141 0.0042645205 -1.0733029 -0.36169308 0.4448509 0.34875777 0.08353838 -0.47735703 -0.7278269 -0.2224746 0.11871358 -0.039530452 0.10217503 -0.6291912 0.10512417 0.46831566 -0.7999683 -0.0029457374 0.19468312 -0.9665648 0.3851966 -0.3772343 -0.27024126 0.48832858 -0.10835033 0.26230973 -0.5727153 0.7487524 -0.022380644 0.0575832 0.8154483 0.02103114 -0.27959263 -0.3963023 0.041038364 -0.5166492 0.42018127 0.3307538 0.030568426 -0.22053312 0.09832956 0.117211916 -0.12158551 -0.2519881 0.12336216 0.4328793
435 0.07389592 -0.06831983 -0.764036 0.032787714 0.045443412 -0.27591032 0.25870588 0.6014742 -0.24058378 0.43447348 0.26800105 0.26269755 0.12520356 0.0044814516 -0.4302941 -0.50821334 0.037726168 0.13468039 -0.07000326 0.36936954 1.1155602 -0.2400562 0.60568494 0.565189 -0.5155707 0.24640858 -0.9755882 -0.0074570905 0.07104271 -0.4481475 0.25636008 -0.8662377 -0.6263713 -0.11514846 -0.03820764 -0.23720066 0.030531034 -0.47786528 -0.24175586 0.5794162 -0.32755923 -0.7630375 -0.38961735 0.31559533 0.443551 0.4232288 -0.08688915 -0.1743001 -0.35593602 0.3632035 0.101053685 -0.14454342 0.08092633 0.12779064 -0.18945721 -0.51006234 0.005750899 -0.28452393 -0.24060762 0.16742434 -0.11691762 0.6352824 -0.10108682 0.12806576 -0.611113 -1.012929 -0.4328214 -0.73257 0.5264504 -0.8701332 -0.012056791 -0.2683024 0.15725267 0.49436814 0.28966692 0.6256623 0.50099367 0.010904946 0.1426571 0.28580782
868 -0.16814063 0.57035726 -0.070079744 0.7112252 -0.038343895 -0.1732421 -0.2992945 0.20780809 -0.15277709 0.31072715 -0.3725457 -0.21053207 -0.3538205 0.060008973 0.66055894 -0.07934288 0.54844666 -0.77067006 0.58992505 -0.17693539 -0.7457803 0.29937285 0.177817 0.4174176 0.7166358 -0.18676548 -0.58802646 0.037185825 -0.17326169 -0.33543774 0.111977436 0.04900635 -1.4342577 -0.15091576 0.05619204 0.5250068 -0.003357985 -0.011516404 0.65785414 -0.24024324 0.7910407 -0.19399549 -0.5722984 0.159785 -0.43087894 -0.10518627 0.04305397 -0.20634608 0.4871939 -0.272277 0.15511839 0.05243454 -0.682238 -0.6057045 0.006958376 -0.14406425 -0.37087622 -0.089032136 -0.620948 -0.27255145 -0.38320318 -0.6248733 0.9960815 0.3787774 0.10676843 -0.9122113 -0.43790197 0.28124902 0.099686615 -0.2568247 -0.62488484 -0.11834061 -0.37688404 0.5565539 -0.15048017 0.36051178 -0.008433878 0.19025224 -0.4845579 0.57723683
1781 0.24060908 0.21497545 0.11357803 -0.33710882 0.3991249 -0.40127856 0.4506433 -0.28559023 0.10896067 -0.3338253 -0.035556134 0.2994171 -0.6697806 -0.13720058 -0.4662614 0.34761667 0.8888681 0.21997188 -0.19495954 0.20183256 0.40016782 -0.004031957 -0.5639619 0.49682844 0.4968436 0.0396397 0.28260115 -0.4942669 -0.17944579 -0.43535447 0.5568212 0.16854966 -0.7332688 0.17916703 0.7300394 0.15899424 0.7271606 -0.0811466 -0.39318183 0.3135038 0.24451669 -0.83349794 -0.24495623 -0.12187248 -0.07522653 0.22041057 0.36818057 -0.31976968 0.4773218 -0.12544258 -0.23442656 -0.20746705 0.49501055 0.44614947 -0.11025705 -0.15709846 -0.21734342 -0.052285798 -0.11845006 0.44277778 -0.15842016 0.58459514 0.61941403 0.17580448 0.7228877 -0.22217606 -0.19124292 0.01966103 -0.23491248 0.10030369 0.20806071 -0.37380242 0.38313514 -0.17373304 -0.12503842 0.15583801 -0.1303013 -0.21230985 0.14724338 0.5663696
408 0.26288882 0.9700636 0.071416534 0.19492416 0.36111787 -0.37282404 0.513794 -0.22123419 -0.21704294 -0.7126288 1.2575593 0.7217094 0.43098783 0.4458769 -0.16666912 0.2488539 0.60214496 -0.057067074 0.23030834 -0.25365186 0.35603654 0.50655115 0.5919675 0.13619606 -0.06843785 0.08998577 -0.113485046 0.0095525 0.3245652 0.37765414 0.42066368 0.17415278 -0.22064611 0.6482588 -0.19146147 0.36950833 -0.19005221 0.42511117 0.21210617 -0.13783306 0.325024 -0.11937068 0.31019962 0.085870445 -0.33854917 0.22409041 -0.13921264 -0.37826192 -0.0640565 -0.21617751 -0.26111266 0.038845487 0.00755945 -0.2960222 -0.59035516 0.04695402 -0.3957777 0.18950364 -0.16593866 -0.23284197 0.0046332846 0.37279582 -0.21944894 0.46860078 -0.18477115 0.18371955 0.684981 -0.79746675 0.009280044 -0.53907824 -0.10212073 0.012317161 0.16442744 0.07653635 -0.023323234 0.18796447 -0.13519949 0.6572596 1.065042 0.52295935
262 0.1817032 0.5109871 -0.31234595 -0.17715172 -0.026635462 -0.08231821 0.29889235 0.23890829 0.5523565 -0.1956177 -0.21277574 0.16589484 0.10736207 0.12916112 -0.6975343 0.2733942 0.60877866 0.13983728 -0.15713385 0.6016075 -0.07543402 -0.31692246 -0.69245154 0.1589296 0.3939726 0.16806205 0.02237409 -0.3263585 0.0016786675 0.212518 0.82906723 -0.3827658 -0.43686992 -0.056590036 0.88048273 -0.11822456 0.26327455 -0.3186822 0.50596994 0.29305634 -0.22151183 -0.08316618 0.17047685 0.14270525 -0.049270663 0.18398625 0.29391688 -0.17574845 0.47757277 0.15533397 0.083958566 -0.21334891 0.5482392 -0.45611304 -0.038924623 0.3413326 0.25172162 0.6620174 -0.37530342 -0.35424042 0.22451434 0.4130732 0.051308867 0.1036186 0.10401534 -0.045841567 -0.5130511 -0.55449706 -0.32090592 -0.3264013 -0.5732991 0.33537242 0.03482994 -0.16791603 -0.026298074 0.009229561 -0.20300461 0.47934964 -0.1931526 -0.19335659
1040 0.61518884 -0.22174597 0.12762277 -0.3776603 -0.36666444 0.18931447 -0.05615981 0.5796018 -0.10780018 0.010572107 -0.4666476 0.19535132 0.010636371 -0.115528695 -0.50233823 -0.52023387 0.14541923 -0.04585559 0.5033669 -0.15783544 0.008427089 -0.0886233 0.2275527 0.5033545 0.73758066 0.21509646 0.6178012 -0.6414008 0.21454649 0.5385298 0.446019 -0.14797506 -0.2588794 -0.34041455 0.6151789 -0.18112849 0.17122163 0.09268568 0.07726387 0.28113794 0.24972197 -0.2629464 1.0352874 -0.70506644 -0.07570714 0.8296109 -0.10788643 0.24812855 0.080084495 -0.0016704667 -0.2682908 0.15975335 0.020226989 -0.12242519 0.12655897 0.24107634 -0.71126574 0.055098645 -0.19476943 0.1721788 0.28591338 0.14381954 0.47936323 0.26901165 0.12117551 -0.5383542 -0.23346014 -0.09522824 0.043717757 -0.5206591 -0.64550704 -0.05163467 0.06838845 -0.20731182 -1.0751436 -0.018760495 0.40712628 0.42195383 -0.10830151 0.4619989
895 -0.08370015 0.12488245 -0.09633206 -0.058261868 0.036173478 0.27850202 0.115628496 0.32869592 -0.16054106 0.23425299 0.024595382 -0.06243745 -0.07535269 -0.12937625 0.31585076 -0.15905158 0.69438094 0.29849127 0.6151766 0.5795523 -0.09597843 -0.38067758 -0.6316636 -0.33795083 -0.3641487 0.5809993 -0.3594564 1.1584804 -0.7328335 0.65770984 0.0033158103 0.1362561 -0.94541574 -0.13509548 1.0473955 -0.08731875 -0.41310996 0.49663147 -0.40694073 -0.14261808 -0.11211611 -0.5633038 -0.2729133 0.3030125 0.21172059 0.50035924 -0.06694089 -0.18867184 -0.011947748 -0.14514662 -0.031386603 0.022334116 -0.57511157 0.37122703 -0.33795103 -0.15054944 -0.21691783 -0.52122754 -0.4020929 -0.23245403 -0.12615603 0.054440238 -0.900746 0.6151314 -0.04080938 -0.73507345 -0.0015560384 -0.21719655 -0.26151147 -0.8130857 -0.23768055 -0.71422595 0.009994971 0.38588166 -0.32077545 0.35842872 0.8592708 -0.8095053 0.25353646 0.057216626
808 0.088872455 0.05475043 0.30001155 -0.3898038 0.41348 -0.45953652 0.62664944 -0.59829974 0.45653373 -0.8577038 -0.017455883 0.2531121 -0.76345676 -0.22592239 -0.126748 -0.49085388 0.034432035 -0.35781103 -0.1373018 0.46812367 0.9182995 -0.12733318 -0.27889037 0.15720241 -0.024706101 -0.3929564 0.2718999 -0.49611416 -0.38805562 -0.2085934 -0.1406483 0.10915749 -1.3981003 0.018141096 -0.06720687 -0.020000989 0.24203856 0.25790894 -0.20660564 -0.17070547 0.3782789 -1.0057769 0.28279665 -0.30407178 0.1623849 -0.087146915 -0.5033588 0.030836498 0.41477898 -0.512631 -0.9469097 0.10210633 -0.010288389 0.0052258875 0.00649374 0.07662439 0.34988904 -0.10692578 -0.64298713 0.63292265 0.4627335 -0.053320527 0.5307024 0.34378144 0.19620393 0.10171309 -0.83278584 -0.6358798 0.21543683 -0.8307328 0.6465274 -0.78736037 -0.09126656 0.169757 0.39900523 0.26495758 0.487927 -0.29273477 0.48671463 -0.11243585
330 -0.081273966 -0.2826308 -0.12145576 0.30436182 0.49378565 0.5166106 0.18750183 -0.22899154 0.6083164 -0.25835872 1.2182657 -0.5254088 0.013075521 0.15298359 0.19428015 0.56520355 0.04323269 -0.0996749 -0.36368668 -0.25992948 0.38516 -0.45245004 0.54334855 0.23696157 -0.35327488 0.45961133 -0.44638413 0.18900143 0.16206847 0.77038515 0.499523 0.29750404 -0.6157375 0.29049912 0.35116193 0.27539286 -0.14440218 -0.318623 -0.50839806 0.42690888 0.38774914 -0.053978946 -0.49074978 -0.19452049 0.30947036 -0.2106073 -0.19822676 -0.42341638 0.57231927 -0.13515879 0.011748258 -0.25247058 0.18525222 0.012241731 0.26843235 -0.27393922 -0.058207225 0.79172075 -0.21415037 -0.3492831 -0.25489846 -0.4108393 -0.03040955 0.64871395 -0.06812822 -0.6291789 -0.5579158 -0.26397502 -0.20351605 -0.33346167 -0.30365956 -0.0085045025 -0.13541031 0.25183156 0.20995526 -0.025605312 -0.3525383 0.15319757 -0.11367085 -0.107442096
861 -0.19082764 0.5872524 -0.24176867 -0.035053603 0.41854748 0.08238523 -0.47588855 -0.20659436 0.41406304 0.1725506 0.21005526 0.6780774 0.2331227 0.50794864 -0.48681834 -0.33754826 0.11331478 -0.2289683 -0.2540148 0.9752594 -0.6249642 -0.3449031 0.024388194 0.5685466 -0.1475033 0.11214671 0.098766804 0.04193449 -0.62844485 -0.4002364 0.07680618 -0.25746557 -0.38468117 0.290969 0.38066566 -0.09583913 0.4635404 0.022498075 0.6892613 -0.4388364 0.46249485 0.5267176 0.019792812 -0.1906408 -0.23562574 -0.14327246 0.36719966 0.4998678 0.53765434 -0.64530635 -0.9091484 0.11937884 -0.4738769 0.09507963 -0.110024996 -0.30944535 0.080918066 0.44808024 -0.21472244 -0.46931946 0.02276601 -0.39625326 0.121630274 0.32043216 -0.11473894 -0.40177828 -0.37647313 0.60297644 0.5818469 -0.53085846 -0.059169877 -0.069698796 0.77307737 0.121683836 0.5265966 0.18814322 0.6919864 0.012855163 0.3143249 0.5550284
1836 0.3831586 -0.23624624 -0.037221424 -0.28133827 -0.08115264 0.34880337 0.09590199 0.089662924 -0.056776468 -0.06860973 0.38391262 0.14863907 0.33684546 -0.51607406 -0.11437178 -0.3901769 -0.15562919 -0.07598229 -0.6028408 -0.18391058 0.9318758 -0.17386638 -0.058332548 0.16870838 -0.7232519 0.56164294 -0.42597902 0.03294719 -0.31539193 -0.13395743 -0.6795823 -0.43444723 -0.3712869 -0.5716378 0.17769307 0.544001 -0.122955434 -0.2676307 0.25337866 0.44624278 -0.33942255 -0.77184707 0.4227709 0.13112098 -0.41724133 0.06640131 0.38947898 0.42136917 -0.00075458345 -0.6645744 0.1468713 -0.003944392 -0.5571562 -0.24156587 0.073617466 0.1052073 0.10873306 0.48699024 -0.6292701 -0.22119862 -0.745915 -0.17064734 0.32441843 0.26938525 -0.36554912 -0.5276713 -0.01036088 -0.3602072 -0.7119442 -0.7627384 -0.19868557 0.39209795 0.36894357 -0.15274581 0.15469016 0.35097623 0.35455126 0.05289424 0.2631781 0.40963733
929 -0.053195193 0.20759095 -0.1791141 -0.10671794 0.37458715 0.1427847 -0.5579415 0.4494775 0.23703937 0.20533846 0.6471106 0.15838751 0.0162615 0.12596077 -0.26654485 0.3187401 0.4340738 -0.46665347 0.21477656 -0.29828987 0.18607295 -0.5604312 -0.0990529 -0.3021258 0.04803668 -0.40232298 -0.65120476 -0.6924836 0.26167074 -0.2739863 -0.011799707 -0.58902895 -0.2999699 -0.48523045 0.6068151 -0.5661655 0.22548124 -0.33081478 0.39244178 0.47877896 0.10812612 -0.38652557 0.26623452 -0.2726196 0.14986895 0.37471032 0.064263254 -0.295676 -0.1755295 -0.10504494 0.34296522 -0.04758381 -0.46824312 0.13041516 -0.011766913 0.883556 -0.855049 0.081501395 0.012023318 0.063011736 0.51415324 0.4485745 0.035829864 0.29345414 0.5789053 -0.2562216 -0.28187057 0.009952638 0.7087725 -0.58936095 0.7563868 0.51858187 0.030363714 0.08209672 -0.258672 -0.21329261 0.17443374 0.17338549 0.12492367 -0.19565725
268 -0.18765903 -0.42862913 -0.2109111 -0.3717468 0.32434136 0.1534973 -0.094421424 0.16163012 0.31492552 -0.23288183 0.22991455 -0.44554266 -0.6205265 -0.13597366 -0.19450073 0.1891375 0.38062832 -0.2145753 -0.30242732 0.38984132 -0.0873356 -0.3404831 -0.33054075 -0.015813505 0.062140126 0.4075574 -0.07859652 -0.66169566 0.061988886 0.057560362 0.7938897 0.1762035 -0.10660747 0.16478348 0.7330808 0.6289332 0.28079265 -0.13326512 0.566533 -0.26973307 -0.55929047 0.18138342 0.37019873 0.07893141 0.18715219 0.24257876 0.020016517 0.018217228 0.46093014 0.5017713 0.29150626 -0.14693409 0.115153715 -0.7380385 -0.42697397 0.88854516 -0.1624958 0.005459443 -0.4500592 -0.65516853 -0.17411481 0.27881384 0.36122987 0.22736861 0.008444602 0.46686345 -0.3921049 -0.3768625 0.06476145 -0.3312862 -0.62975377 -0.061860625 -0.00044243498 -0.15391178 0.10637316 -0.35113707 0.35560715 0.3173468 -0.45727295 0.28885397
305 -0.0035697063 0.025231916 0.46305713 -0.108415134 -0.055077296 0.85236204 -0.63784164 0.12636043 -0.33777604 0.09585862 -0.04240084 -0.200409 0.06528752 -0.057882078 0.18303834 -0.61364365 0.008781998 0.64997065 0.36169693 -0.18799247 -0.3274283 -0.6856258 0.0109228445 0.0407487 0.45382863 0.19592924 0.22841993 0.37215778 -0.23414598 0.44639462 0.26026413 -0.052999567 -0.30221266 -0.44005677 0.040974952 0.24389566 0.2926493 0.56635904 -0.100309364 -0.8420843 0.53987545 -0.32297358 -0.4632382 0.40791065 -0.1747783 0.32406408 -0.08258822 -0.099494405 -0.45903847 0.13121894 -0.42025992 -0.8557488 -0.3211635 -0.21089026 -0.011902318 -0.1915004 -0.691108 0.750674 0.3221471 0.12829566 -0.15123369 0.60731775 0.409586 0.15567347 -0.07353142 0.20027207 -0.7749717 -0.4273511 0.041775156 -0.7661799 0.561104 0.1484374 0.25253516 0.01920963 0.058032688 0.32388666 0.4588774 0.054562006 -0.30122462 0.08148338
520 -0.11838008 0.5808563 -0.27539954 -0.1635614 -0.3299152 0.45316738 0.55118626 0.030368617 0.14070892 -0.03134152 0.24882346 0.27798262 0.5698272 -0.3612291 0.3288466 0.20658651 0.40719423 0.33392698 0.17190601 -0.112359814 0.2853899 -0.25693566 -0.1959001 0.15368158 0.1441564 0.14146052 0.1433665 0.036044583 0.29174715 -0.080266036 -0.29173478 0.10393393 -0.36164686 0.14140046 0.3616272 -0.09512448 -0.720452 -0.40130383 0.052588228 0.22434212 -0.083272114 -0.4874861 0.61269605 0.9858125 -0.11072688 -0.16699632 -0.18901692 0.2184717 -0.08286155 -0.21412542 -0.28991872 -0.49005976 -0.8127955 0.030351693 -0.4010073 0.30742693 -0.009069763 0.57593614 -0.35391092 -0.08489588 -0.9720825 -0.105905674 0.3522723 0.07340395 -0.16022485 0.07730445 0.3505849 0.002840416 0.20927237 -0.21649398 0.6409512 -0.11735891 -0.051994037 -0.33412 0.11311319 0.42544487 -0.16258854 0.42265493 0.20410955 0.50810647
650 -0.3324253 0.24769865 -0.025753662 -0.5614693 -0.12886076 0.7417161 -0.37234393 0.59795415 0.32679713 0.1744916 0.8008878 0.3637654 -0.48497805 -0.5538809 0.24410883 -0.04547257 0.79013854 -0.29259035 0.38091153 -0.33850107 0.36058912 -0.6511149 0.020073127 -0.14140424 -0.049220957 -0.5863579 0.18937583 -0.5984634 -0.09099459 0.24114007 0.53949237 -0.5935384 -0.5133618 -0.18370187 0.17983304 -0.5845084 -0.08412186 -0.27065948 0.5044414 -0.3579098 0.17841305 -0.25793096 0.31223744 -0.34787425 -0.71346676 0.07647151 -0.4968874 0.18683511 0.054871287 -0.7019223 -0.25860962 -0.24723926 0.34458306 0.17410807 0.5942473 -0.117199525 -0.7628146 0.25542304 -0.011971014 -0.46141008 0.018715424 0.3835382 -0.013367583 -0.22819218 -0.3092399 -0.030728312 0.42849767 -0.41045246 -0.3264257 -0.033308536 0.100234166 -0.41648835 0.15358846 -0.19070472 -0.13511482 -0.78841865 -0.23596124 -0.33362526 -0.25131005 0.017827092
1368 0.15099691 0.5990257 0.37120652 -0.2977848 0.42841253 1.1043434 -0.36128095 0.15993841 0.13158 0.23448135 -0.5847052 -0.27509043 -0.035849012 -0.16959167 0.19008856 -0.22794956 0.5068204 -0.20657016 0.8000501 -0.53937346 0.35868192 -0.043462142 0.34173688 -0.48017377 -0.037762396 0.6207347 -0.08615964 -1.06464 -0.30615863 -0.24458931 0.44110918 -0.27970392 0.1692205 0.55099237 0.46364892 0.4611567 0.3826081 -0.18454719 0.47814733 0.75743204 -0.36955705 -0.5544731 0.17529264 -0.21395412 -0.22323616 0.1475067 0.30171037 0.34524545 0.35518348 0.35347778 -0.8253636 0.05952633 -0.70778304 -0.11100081 -0.46965763 0.3732025 -0.19990249 0.14439873 0.7740717 -0.25112483 -0.14696655 -0.40695542 -0.085103996 0.10187406 -0.5219017 0.27895626 -0.01546136 -0.57354337 0.88993603 -0.52968687 0.13742505 0.5132583 0.42228067 -0.29416475 0.679998 0.45189723 0.19098076 0.10557825 -0.37512878 0.49633273
761 0.0021060067 0.48140588 0.29164726 -0.09470852 -1.0286992 0.4236701 -0.5232094 -0.5691711 0.48357502 0.15651256 -0.30478156 0.2171427 0.3185589 -0.13307558 -0.50360125 -0.12263493 0.22002245 0.38168955 0.787865 0.08895953 -0.48663118 0.33474284 0.21135004 0.17225835 0.058569007 0.9696401 -0.51741606 0.004835734 -0.31134 -0.06466617 0.0939803 -0.10847062 -0.37665895 -0.41949388 0.9337686 0.3105013 0.33866134 0.0026575385 0.56182176 -0.5201364 0.25523055 -0.6053152 -0.020145921 0.77058816 -0.08535675 0.62141186 -0.13530865 -0.3877837 -0.06291043 0.11090655 -0.542672 -0.036320746 -0.1643561 -0.08083363 -0.7244862 -0.6779974 -0.09498775 0.31649816 0.043864083 -0.6075713 -0.016262216 -0.47308195 -0.08198264 -0.27241272 -0.42731395 -0.74880445 -0.18030971 -0.6833063 0.3334488 0.06410571 0.17762618 -0.19741255 0.52217096 -0.5238812 0.21192928 -0.61967885 1.0462105 -0.89777756 -0.25461906 -0.15309164
1559 0.4081838 0.52580076 -0.6615481 -0.72814196 0.38717824 0.4323208 0.19296262 -0.28251126 -0.36232385 0.260623 0.40289143 0.2533033 0.13577786 0.35137796 0.45221102 -0.3825324 -0.36461103 0.4961701 -0.09317361 0.21039753 -0.030373454 -0.67051 -0.100767255 0.9449198 0.11414061 -0.3655958 -0.048899207 -0.20286241 -0.3358163 0.36920962 0.72985494 0.6766138 0.2930984 -0.51799595 -0.07808741 0.23886381 0.557722 0.19770916 0.5519494 0.40550366 0.1640475 0.1681349 -0.23180173 -0.25496778 -0.20886168 -0.1607597 -0.49574658 -0.07188036 -0.1986302 0.14719422 0.56879514 0.07718228 -0.88594544 0.015905777 -0.44819972 -0.33111033 -0.12830454 0.032948602 -0.7192531 0.30130684 0.19365843 0.35207066 0.31947488 0.2973118 -0.24500103 -0.5528353 0.2683696 -0.47147962 0.1631398 -0.41809475 -0.12701444 0.38214546 0.0404546 0.07089387 0.18580307 -0.55525476 0.33735505 -0.3053809 -0.54802 0.5582594
405 -0.13383491 0.7669207 -0.53864855 0.12456328 -0.5278012 0.73550135 0.36672363 0.29737157 -0.40279585 0.30380735 0.9274107 0.36957774 0.11998169 -0.45317718 0.06284822 -0.23271713 0.06618621 -0.5086467 0.35536397 0.05300105 -0.69341344 -0.55674225 0.041078623 -0.2628864 -0.06399203 0.31620887 0.008019143 -0.26478165 0.00058255554 -0.042972688 0.38753858 -0.41163895 -0.19750363 -0.32803485 0.49447918 0.2784937 -0.47334528 0.1501056 -0.059040416 0.2765492 0.3710484 -0.3061018 -0.8305638 -0.16591021 -0.9305677 -0.060992908 0.052454453 -0.30581528 1.1422657 0.28476608 -0.6212765 0.03299267 0.16152357 -0.2771285 -0.36738893 0.124364175 0.3581557 -0.036498647 -0.013046972 0.15090585 -0.4223949 0.42886052 0.21106932 0.48568425 0.00659865 0.49701098 0.19521631 -0.41905263 -0.30470687 -0.11168319 0.25551504 0.5031193 -0.62027574 -0.0026427326 -0.51571506 -0.4046232 0.94204974 -0.27141953 1.1586994 -0.3904338
239 -0.18847516 1.3406045 -0.40730366 0.012460403 0.45432907 0.44852155 -0.24208131 0.7722009 -0.038953435 0.09095088 0.43874675 0.2557458 -0.43605414 -0.36317343 -0.19664276 0.06478762 -0.6187707 -0.39170784 -0.24672985 0.46555674 0.46321172 -0.05569602 -0.7021824 0.23046106 0.112457685 0.21391717 -0.16202672 -0.24406487 -0.12883173 -0.5732739 0.95217305 -0.18417203 -0.13722403 -0.1942938 0.3212378 -0.12196881 0.32491425 -0.16501984 0.5112525 0.38513896 -0.31201103 0.1099173 -0.1427435 -0.1445535 0.4884973 0.29399732 -0.0038259411 -0.5129951 0.12630595 0.5258854 -0.07773531 0.20606618 -0.29836828 0.30640665 -0.47836968 -0.9900172 0.17764889 0.0858859 -0.38093686 -0.91262805 0.049551733 0.403111 0.08852168 0.31757814 0.058136288 -0.27830827 -0.34768978 0.035284407 -0.29248276 -0.23398255 0.24244556 -0.30645618 -0.18676512 -0.2638888 0.20363083 -0.018726991 0.11495947 -0.44875264 -0.007924734 -0.5056088
288 0.23601474 0.041242708 -0.271325 -0.5392724 -0.00016789463 0.6614954 0.112543546 0.18162398 0.17716117 -0.21062255 0.79609674 -0.21250162 -0.8785735 -0.5093899 0.72934735 -0.18552218 0.60410887 0.052578293 0.2905501 0.4413648 0.25520688 -0.22925355 -0.17012903 0.058485392 -0.68923897 -0.030405985 0.09020091 -0.35323447 -0.24473765 0.13863702 0.31329724 -0.3296019 -0.49504897 0.27627897 -0.23485751 -0.20443167 2.7311726e-06 -0.5182186 0.4775227 -0.5277743 0.5837227 -0.48498538 0.030591376 -0.26138815 -0.7087726 -0.08316005 0.12903047 0.17563519 0.5081346 -0.5838228 -0.075859785 -0.2893566 0.27676588 0.20745516 0.5464616 -0.4944772 -0.5467412 0.04130194 -0.44623673 -0.8140452 0.70803314 -0.016307183 0.09234923 0.13079607 -0.60420454 0.20645641 0.056858588 -0.18774952 -0.30348605 0.05815139 0.1828846 -0.38872042 -0.14867663 2.7899077e-06 -0.10309246 -0.5702766 0.06304932 0.003394769 -0.29192454 0.11693976
652 0.11552239 0.7864594 -0.67868954 -0.10053339 -0.040661138 0.49242824 0.23995562 0.17514713 -0.5765424 0.62415665 0.35809416 0.6206715 -0.27954882 -0.6530461 0.41372168 -0.20039137 0.19246379 0.025251599 0.25977045 -0.07716438 -0.4959804 0.15169534 0.17543939 0.014942298 -0.7100233 0.136484 0.37132546 0.14540271 0.45591697 0.33217102 0.22155361 -0.20832269 -0.5577737 0.29897705 0.0019295289 -0.31448653 -0.13003449 0.11732324 0.11253177 0.279586 -0.44013813 -0.4411056 0.2508419 0.14966251 -0.34600264 0.14000116 0.07071909 0.08974484 -0.397555 -0.059109725 0.34860533 -0.062427368 -0.17667004 -0.07345952 -0.5275085 -0.0006353056 -0.35964718 0.33883324 -0.72042364 -0.4515898 -0.3956833 0.53010243 -0.100655824 -0.07879596 0.1822206 0.6250302 -0.14840595 0.112411685 0.008095692 -0.1609382 0.27134717 -0.50357574 0.019802881 -0.5199115 0.12606631 0.3688206 0.4120549 0.019328332 -0.26099136 0.36171418
136 -0.34383774 0.71966356 -0.30165857 0.3322836 -0.009683994 0.30812547 0.09889443 0.18989414 0.27864686 0.7533406 0.83204013 -0.65687215 -0.04026455 0.053783536 0.18922532 -0.18406121 -0.044038158 -0.15664023 0.21510138 -0.34448418 -0.91414815 -0.927416 0.2735175 0.38808408 -0.2568823 0.10471162 0.44375062 -0.1579951 0.29831168 0.1505798 -0.44370565 -0.35593078 -0.31823552 0.29045093 0.7510595 -0.3133592 -0.17032473 0.26159543 0.1395254 0.31845093 -0.010255578 -0.7248114 0.375144 -0.94282997 -0.22869268 -0.09627709 0.11133314 -0.069298975 0.21946813 0.12236293 -0.77495444 -0.44385904 0.07427481 -0.36849105 0.22621906 -0.33298787 0.30118978 0.006035852 -0.47112098 0.3559873 0.22578865 0.12887393 -0.36762434 0.060858198 0.31932753 -0.79395133 0.04803009 -0.47587496 0.06998275 0.20960599 -0.4123221 0.059834845 0.36293224 0.005172257 -0.18218046 -0.12891853 0.16563617 -0.0044565946 0.33655253 0.65740293
1005 -0.065679036 -0.61220586 -0.18634105 -0.6120258 0.1649261 0.6955519 0.15156743 0.10233722 0.16250692 0.38073814 0.2593315 -0.46639228 0.15192789 -0.14625208 -0.23974638 -0.04194968 0.26999447 0.03264841 0.500984 -0.093540415 -0.33579692 0.92059606 0.18125136 0.95965964 -0.20572256 0.43096408 0.10132778 -0.35642603 0.17279643 -0.081003055 0.29474592 0.26705167 -0.14738367 0.62830657 0.15695146 -0.35433653 0.042396292 0.47231695 -0.18450353 -0.007511426 -0.4252612 -0.6299691 0.19082154 -0.29304525 0.6928603 0.021190407 -0.42480883 -0.3560999 -0.070987985 0.14418449 -0.22572328 -0.03404546 0.19159158 -0.34453014 -0.04861371 0.09112892 -0.51667756 0.454742 0.1233789 -0.5610088 -0.2948893 -0.0034225432 0.10007995 0.17070729 0.049333256 -0.07781413 0.03945839 -0.07021035 -0.5380072 -0.33774439 0.09652497 -0.2850406 0.2934984 -0.6681426 -0.15968555 0.64576614 0.011988785 0.33680847 -0.5023534 0.4838755
422 -0.26224566 -0.2763991 -0.27530393 0.25573593 -0.40466535 0.07989352 -0.44603083 0.090606205 -0.30126417 0.33617976 0.31952626 -0.34579065 -0.6197606 0.17340994 -0.18320513 -0.018275436 -0.19716972 -0.15099639 0.08400678 0.50837 0.16290009 -0.44649544 -0.02333622 0.21720079 -0.13073985 0.0499294 0.08308926 0.14564991 0.2669015 1.2084062 0.23601429 -0.35578632 -0.20343122 0.39597765 0.6692837 -0.07711563 0.74404097 -0.2514013 0.33431795 0.35038894 0.3019113 -0.34374455 0.25123042 0.018064292 0.66500616 -0.4951172 -0.29862902 0.40928757 0.50579953 -0.24407727 -0.49699578 -0.7277202 -0.7793762 -0.6934454 0.5171467 -0.18047746 0.052392103 0.47697443 -0.21068828 0.04450772 -0.20678529 -0.18201537 -0.19280876 0.112855986 -0.005310645 0.4329925 0.5971196 0.40335396 -0.46111235 -0.46996078 -0.25294197 0.50903773 0.50128883 -0.46448904 -0.95321476 0.91240966 0.56652224 -0.4265625 0.35441726 0.3131613
750 0.06336903 0.020459212 0.04560983 -0.3713608 -0.38889962 -0.14216419 -0.22354935 -0.5515081 0.31946033 0.22488391 -0.15616837 0.11690752 -0.24319947 0.19363855 -0.6550705 0.5465691 0.5280681 -0.40136743 -0.01610512 0.2643104 0.62529105 -0.3434637 -0.41139802 -0.1597719 -0.48140407 0.46061447 0.19473004 -0.44803023 -0.17535149 -0.114817515 0.5323314 0.26945412 -0.31035244 0.4430393 0.1822617 0.4195205 0.21128605 -0.27274185 0.10431816 0.025812741 0.04862627 -0.26035511 0.038460832 -0.28132904 -0.09147175 0.013481186 0.19612488 -0.6646466 -0.036825087 0.4606353 0.013874365 0.8202357 -0.124147795 -0.031168083 0.08401562 0.7228982 -0.8171217 0.9167221 -0.23665711 0.044253618 0.42041546 0.37282178 0.2400864 0.3494796 -0.19056848 -0.28903323 -0.26459625 -0.21713443 -0.35197037 -0.271277 -0.63746554 0.156576 0.54055065 -0.03676304 -0.42143625 0.11838967 0.44869617 0.28120884 -0.21274234 0.02805435
687 0.36079636 0.057342526 -0.40911824 -0.38511783 0.2832864 -0.0507236 0.86081684 0.23072718 -0.1709496 0.2812226 -0.3305063 -0.43982857 0.14240208 -0.45145527 -0.3976879 0.3861641 -0.3125069 0.07550405 -0.20985456 0.6226923 0.09136703 0.27173284 0.635672 -0.10347801 -0.21323891 0.3299458 0.0923213 -0.68859863 -0.54738736 -0.22940493 -0.17157193 -0.14888929 -0.075471655 0.04905337 0.84620863 -0.60286593 0.4344187 0.14929003 0.1938456 -0.08252778 0.62569267 -0.39475024 0.15750694 -0.13517521 -0.46500602 -0.13289273 -0.3305231 -0.8789277 -0.05312888 0.25441843 0.06449612 0.16990167 -0.25369886 -0.87556815 -0.18148161 -0.29576007 -0.65260994 -0.29362085 -0.14776145 0.66047937 0.26191965 0.118430406 0.52544045 0.25257543 -0.38793617 -0.23788759 0.09970191 -0.046079732 -0.016581714 -0.22313163 -0.28283048 -0.72736454 0.22421768 0.03177938 -0.23622826 -0.39329723 -0.12844434 -0.23112117 -0.22961186 0.26362488
744 -0.23852463 0.01743796 -0.23402958 -0.2810622 0.25742394 -0.0695383 -0.6067344 -0.0031214575 -0.25123698 -0.015187013 0.50983244 -0.15372552 -0.34753907 0.047788024 0.1812424 -0.07725218 0.07164254 -0.17609678 0.013459175 0.22163397 -0.10668166 -0.41520625 0.3036272 0.33887953 0.07401438 0.4007411 -0.008292376 -0.78525436 -0.004306536 -0.14146352 0.58748955 0.30155978 0.41160637 -0.47044358 0.24648768 -0.013902671 0.74442595 0.054310214 0.6501752 0.74839634 -0.043191936 -0.19173636 0.5995837 -0.22400808 0.25407216 0.5385095 0.20658281 -0.04951129 -0.20213956 -0.08824593 0.54195595 0.18976815 -0.3977367 0.08705713 -0.36904746 0.82500833 -0.6819278 0.088696845 -0.24463563 0.26428837 0.087818965 -0.04797402 0.049041625 0.3533968 -0.0043885317 -0.39995283 0.062141664 -0.73818576 0.37027168 -0.5590089 -0.16909766 0.055529326 -0.23224431 0.12343844 0.16041388 -0.18775558 0.35797304 0.100443274 -0.2808885 0.34647954
987 0.05934769 -0.32708964 -0.015847946 -0.09579299 0.43736193 0.16734824 -0.06573529 0.5257983 0.62228554 -0.08250882 0.66020226 -0.08918869 -0.50754565 -0.08336271 -0.125817 0.3539822 0.78120816 -0.1141269 -0.040264457 0.38136134 -0.10651668 -0.45218623 -0.6819945 0.21264526 0.7762393 0.55330276 0.4449601 -0.60877764 0.11907381 -0.38532668 0.7946548 -0.12802386 -0.23039095 -0.04561546 -0.0017932652 0.42974102 0.44475558 -0.5059848 0.16324405 0.4245528 0.1455332 -0.21871401 0.10902608 0.14879778 0.07305127 0.45739686 0.0018097421 0.03524077 0.12543605 -0.068485685 0.21966238 0.189676 0.14251819 -0.30716038 -0.07157263 0.5722344 0.5217952 -0.37910244 -0.11693717 -0.06476413 -0.14115854 0.011112522 0.2541514 0.43025985 0.34387943 0.63927585 -0.094921 -0.14714329 0.16876699 -0.2227934 -0.031129275 -0.4624766 -0.11466033 -0.53954333 0.15735996 -0.41371042 0.069328465 0.363102 0.007769081 0.26926056
666 -0.08171766 -0.055672977 -1.2927065 0.63861215 -0.0047367746 0.16151814 -0.31601906 0.37919006 0.76175785 -0.8230334 0.09448102 -0.1928306 -0.3202181 -0.14184646 -0.37303314 -0.043952942 -0.6276688 -0.23844877 -0.025776211 -0.1408005 0.8113392 -0.14684473 0.0639473 0.29707056 -0.3238135 0.27042744 -0.58592415 0.121747 -0.49656686 0.39102325 1.1351845 0.46712542 -0.5094579 -0.057764184 0.11571685 -0.21316466 -0.71883374 0.5533233 -0.13560659 0.19916263 -0.30313975 -0.033191793 -0.8877383 -0.21644019 -0.3535215 -0.042099107 0.047623523 -0.2304257 0.3862107 -0.36537966 -0.20559025 -0.2713977 -0.5809964 -0.08211046 0.19142456 0.39061126 -0.2043533 0.17941174 -0.086350754 -0.5574551 0.18345203 0.02421168 0.68640625 0.17706373 0.20642252 -0.07118609 -0.038344476 -0.10818122 -0.045465585 -1.0685649 -0.11700171 0.16030082 -0.16961206 -0.3660856 0.05686666 -0.5432767 -0.20920861 -0.0615716 -0.07074806 -0.077525295
447 0.2611047 -0.018979566 0.03595727 -0.47493762 0.014852524 0.40023816 -0.7302796 0.058367785 -0.1859762 -0.040214833 1.0962917 0.20321305 0.30141836 -0.14378479 -0.0080259815 -0.029807495 0.59269315 -0.4946394 0.19006926 -0.13910748 -0.0099024195 -0.32401198 -0.16435365 0.23608148 -0.36056075 -0.87788105 0.20584461 -0.7749819 0.024810823 0.33489883 0.29433134 -0.657997 -0.76427305 -0.14939746 -0.21706063 -0.47544646 -0.087842554 -0.8387682 0.07749738 -0.43047088 0.5396328 -0.25935498 -0.16752125 0.5158511 -0.050521865 0.2382541 -0.3341439 -0.7281273 0.24341509 -0.51726127 -0.48583454 -0.5654277 -0.27629784 -0.09232548 0.14482059 -0.4658485 -0.67975366 0.79418445 0.63836277 -0.028063219 -0.20377347 -0.084144406 -0.029826509 0.31215343 0.20479321 -0.027664423 0.4211866 -0.5253345 0.23885545 0.020203322 -0.6283596 -0.2749002 0.005231197 0.03550249 -0.46473542 -1.0447159 0.3755698 0.25983846 -0.3727519 0.12488924
1128 -0.14629322 0.14938642 -0.27882242 0.87028265 0.78335774 0.56076163 0.93464375 -0.64010465 0.72179914 0.7372779 -0.585394 -0.06834543 -0.10124374 -0.1233459 0.15211172 -0.40455872 -0.11397923 0.18869844 0.77213377 0.8021198 0.2708962 0.18199939 0.09754905 0.4360584 -0.30351076 -0.36675286 -0.49465722 -0.6165803 -0.8809518 0.019983526 -0.15929839 -0.31836393 0.6790402 0.41780925 -0.22599646 -0.15298082 -0.52826893 -0.4153603 -0.48307425 0.11168438 0.7835957 -0.7791902 -0.38528028 -0.3569708 -0.91894764 0.101273224 -0.5934437 0.043055207 -0.26904202 0.06930482 0.22447354 0.06413618 -0.6834247 -1.0407405 -0.5231271 0.059689045 0.14375739 0.4318165 -0.21733236 0.10974465 -0.25661498 0.67588174 0.47779998 0.50508696 0.44507414 -0.050987113 0.2320227 -0.05305079 0.36665958 -0.4258078 -0.5027207 -0.2441708 0.009337909 -0.3836217 -0.48621136 0.41779783 0.26497367 0.2575575 -0.701261 -0.11205132
154 0.02168498 0.9126945 0.5917132 -0.5005367 0.11980366 0.6692112 -0.099301994 0.47685456 0.09807665 0.37356442 -0.6342783 -0.008309399 0.3595962 -0.077733144 -0.09901136 0.5309133 0.44242346 0.08628849 0.4351491 0.33387563 0.28523406 0.06590963 0.27413428 -0.07128303 0.98458046 0.33525604 -0.16351672 -0.27282113 0.008262246 0.28095576 -0.26576293 0.44720072 -0.4031933 0.3127943 -0.12395202 -0.21202184 -0.79058516 0.2934441 -0.09079684 0.69486606 -0.48645878 -0.39780217 0.35334423 0.48603824 -0.04113479 -0.041201912 -0.104174756 0.2707906 0.33041096 -0.117007025 -0.4467693 -0.922924 -0.082852885 -0.67607844 0.0350504 0.33538625 -0.059373368 0.3903769 -0.29342097 -0.19519304 0.17299269 0.7409059 0.20917062 0.14311083 -0.6564248 0.10328135 -0.33787024 -0.68019086 -0.14279772 -0.39641595 0.5909023 -0.9887554 0.89095056 0.23033255 -0.23939571 0.1351983 0.17232992 -0.16241305 -0.25782293 0.30077356
1379 0.9633402 0.53162277 -0.7242198 0.013395287 0.48114035 0.52561975 -0.27546963 0.100441456 0.46633568 -0.22435732 -0.0425306 0.066903554 0.050276987 0.011897942 0.25488716 -0.49384704 0.35570988 0.061108533 -0.10461319 0.5134861 -0.16582967 0.26819706 0.12361802 -0.22753942 -0.24794231 0.26999867 0.29798278 0.11730799 -0.28170547 0.0015481663 0.3806196 -0.27869081 -0.73456395 0.5158276 0.3898824 0.91034025 0.9622592 -0.01641299 0.0295905 0.8864646 0.2559228 -0.21232048 0.4650157 -0.24186991 -0.011571844 -0.21381727 -0.68156946 -0.24806911 0.11640428 0.04223212 -0.51273483 -0.44393557 -0.19022073 -0.24890976 0.32375753 -0.3695295 -0.82479507 0.21680334 0.06580758 -0.16313273 0.023486616 -0.10377459 0.3305075 -0.726475 -0.35613477 0.4398789 0.30274191 0.031595733 -0.12732525 0.21099332 -0.1409319 0.25454193 0.31968546 0.4588703 0.80264026 0.239254 0.8312613 -0.013633807 0.22303465 -0.39523417
704 0.25463915 0.35061058 -0.5083237 0.2017542 0.14678545 0.6846247 -0.58694744 -0.28358886 0.44148913 0.69073236 0.1787459 0.5914438 0.3145246 0.5318385 -0.37986702 -0.099017344 -0.17540392 0.42942753 0.079388514 0.5376017 -0.6545543 -0.3591475 -0.7189288 -0.1404594 -0.11399344 -0.029699882 0.22972177 -0.16061975 -0.12553224 0.17010109 -0.20461582 0.08142126 -0.24332207 0.53885645 0.114807345 0.3716685 0.4326108 -0.11366452 0.67569983 0.62308925 0.5155893 0.33869082 -0.20568669 0.15235798 -0.09671536 0.56196964 -0.38799518 -0.38619775 0.09531465 -0.09703841 -0.89706886 0.33055606 -0.07391522 0.11630841 -0.08414621 -0.19407496 -0.22251262 0.47989932 -0.37707815 -0.19113818 -0.38737062 -0.16148736 0.52665466 -0.23500311 -0.7264039 0.32003877 -0.31807968 0.1139824 0.13693254 -0.57980025 0.37974313 -0.402156 0.33547172 -0.13356309 0.07569802 0.77857435 0.632315 -0.316741 -0.58390313 0.18037565
95 0.71780235 0.5119353 -0.19174369 -0.1516 0.30174512 0.12448236 0.30864388 0.42419508 0.36667207 -0.2693914 0.22468382 -0.5276169 -0.54371774 0.05842687 -0.11599681 -0.22032581 -0.01966287 -0.789928 0.3678153 -0.12928773 0.34211588 -0.65458006 0.31118 0.31950992 -0.2374497 0.43062007 -0.26107082 0.40974534 -0.34443903 -0.5692721 0.28576368 -0.41502583 -0.08958607 -0.23254578 0.5961184 0.39694148 0.34678814 -0.054296196 0.04026898 0.16636667 0.08076278 -0.10633744 -0.31330517 -0.30297062 0.9380177 -0.1401024 -0.7609755 -0.24826169 -0.71006 -0.73359996 -0.6254357 0.21801 0.19135474 0.30263036 -0.60813934 -0.62864447 0.07085458 0.09296125 -0.452486 -0.42043185 -0.20085612 0.56881154 0.24713874 0.0060763005 -0.7058288 0.125153 0.6086685 0.10889566 0.78953844 -0.36302793 0.20568885 0.08801566 -0.23440328 0.23785225 -0.6227206 0.07849518 0.32918563 0.08739361 -0.43703946 0.26132247
514 -0.38393548 0.9323425 -0.208031 -0.291935 0.35286573 0.15462379 -0.35968286 0.15331371 0.1420289 0.022826293 -0.25369123 0.26781514 -0.033167582 -0.2986016 0.62107414 -0.026003674 -0.47092733 0.16915768 -0.46484315 -0.2718806 0.37597862 0.11058541 0.117798485 -0.053529724 0.61871177 0.13990416 0.113508984 -0.002372826 0.45624027 0.21204866 0.09810089 -0.00969047 -0.06514515 0.3131511 0.4392506 0.16883042 -0.04353005 -0.504938 0.5183145 0.3421494 0.14896476 0.29707763 -0.006942672 0.41386965 -0.059728827 0.42170787 0.018614303 -0.1537832 -0.018998722 -0.42918023 0.28336954 0.23406228 0.3080516 -0.32860377 -0.36748138 -0.6332472 0.115221016 0.8221343 -0.3428121 0.06417145 -0.25004682 0.22862357 -0.2202237 0.346688 0.20141055 0.14507638 0.3460506 -0.13675502 0.18835892 -0.79019433 0.3405053 -0.18128107 0.40628114 -0.3412886 0.122587785 -0.21211989 -0.08588703 0.04317532 0.0464991 0.03066365
301 0.10844128 0.21343738 0.2618218 0.18661107 0.09736974 0.37352952 -0.09360889 -0.043076456 0.2750533 0.38612023 0.5274319 -0.5556882 -0.0984924 -0.1845378 -0.43682677 0.7662793 0.08150221 -0.38206324 -0.6892473 0.04511851 0.28449655 -0.28851587 0.4861141 -0.42696103 -0.19119106 0.7376642 0.0994103 0.35080624 0.21045278 0.44211388 -0.4319883 -0.33122855 -1.3577882 -0.62004143 0.9522923 -0.6557173 0.08786363 0.62236047 0.52796704 0.3624331 0.4595992 -0.24702233 -0.66034025 -0.48976752 -0.19340536 0.3832338 -0.5907491 -0.1575906 -0.41226542 0.09574239 -0.016642272 -0.5403994 -0.13392587 0.060009506 0.23751038 -0.267982 -0.21437085 -0.049336504 -0.0921168 0.015387443 -0.22249497 0.1058593 0.124812335 0.6122986 -0.20338511 -0.013231332 0.13428156 -0.0037611215 0.30266383 -0.40143156 -0.18240806 -0.29921338 -0.39704978 0.5123908 -0.08287371 -0.22784151 0.20210817 0.29695845 -0.5700448 0.040669113
285 0.514952 0.46036473 -0.4223413 -0.16116679 -0.02045427 0.6838951 0.4031743 -0.01628351 0.20198295 -0.44396 0.74982494 -0.309472 -0.25825068 0.19518828 0.2634541 0.12695804 0.11138219 0.3956916 0.7052616 0.7262228 0.3231545 0.06311262 -0.04766148 0.16484341 -0.2540055 0.100327976 -0.029753523 -0.9162634 -0.10851117 -0.84432834 0.06717228 0.4151516 -0.742057 0.81812364 -0.057345405 0.011727316 0.21782754 -0.2882783 0.6018838 0.16343784 0.6953811 -0.06356359 0.4306208 -0.0066337143 -0.051750053 -0.031692732 0.5064725 -0.388707 0.59457487 -0.2035015 0.5652247 -0.3733373 0.7761983 0.34510046 0.24675125 -0.26460028 -0.3310083 -0.15214974 -0.19382547 -0.8388712 -0.026348438 0.29579514 0.2196615 0.468078 -0.10575304 0.16800967 0.45604378 0.04756167 -0.37056097 -0.5575374 -0.19991891 -0.2029426 -0.2882914 -0.24739426 -0.042466953 -0.0010978215 -0.10037831 0.20010519 0.109397314 -0.32090417
892 0.13284189 0.19529371 -0.38380525 0.72253203 0.4324269 -0.008401467 0.49651974 0.7734901 0.8467788 -0.10666176 0.044079144 0.05433379 0.118173964 -0.3349133 -0.06383698 -0.09474579 -0.12418174 0.3906162 -0.15952855 -0.049683128 0.7923532 -0.056610722 0.15249462 -0.54075587 0.15608987 -0.020614583 -0.006634804 0.00688779 -0.172433 0.2983826 -0.16178347 0.27128983 -0.46751326 0.65213114 0.52921003 -0.38364267 0.21857218 0.048647266 -0.2910499 0.19758335 0.17792167 -0.65200037 -0.5038508 -0.11768637 0.23211625 0.6552889 -0.4183841 -1.0702851 -0.38587236 0.041863006 0.17064948 -0.017652722 -0.67406905 0.067662776 0.53267074 0.21464221 0.15644959 0.30888197 -0.38683796 -0.63308775 -0.23221292 0.16157845 0.6849054 0.18407659 0.4563381 0.5724002 -0.21486992 -0.10245111 -0.20078756 -0.1606385 -0.21047373 -0.022554532 -0.24550873 0.35385558 0.38203374 -0.0956608 0.62515837 0.019631542 0.06353522 -0.11576513
476 0.24403943 0.22060904 -0.5564363 0.038963955 -0.5107812 0.20660369 -0.11760845 0.018505102 0.1976699 -0.38573995 0.49628952 -0.3450984 -0.29098028 -0.80323696 -0.377066 0.079495385 -0.5659084 -0.24939054 0.6151117 0.18108751 0.35082963 -0.41019177 0.25228328 0.06945378 0.71672964 0.040561013 0.4444776 -0.062702924 -0.21001923 0.43387914 -0.0944745 -0.14089838 -0.238566 0.45982137 0.38742775 0.21064486 -0.55637753 -0.2434146 -0.29439026 0.44589937 -0.47574344 -0.011366332 0.10281825 0.16010338 -0.44663623 -0.31177968 -0.08606999 0.09197957 0.33064678 0.15438408 -0.81811094 -0.06367842 0.46652856 -0.15675265 -0.95810133 -0.12658781 -0.03234573 0.14878926 -0.45700485 0.1741574 -0.46610114 -0.028200136 0.53796667 -0.14273576 0.51534855 -0.60237575 -0.16689618 0.14612545 0.41322508 0.12094731 0.30998257 -0.030827431 0.78439873 0.21524486 -0.1839813 0.1265469 0.5247094 0.78767085 -0.7269232 -0.09393574
509 0.27423868 0.37957692 -0.42469805 -0.35720316 0.07639678 -0.45145336 -0.41985115 0.2701001 0.28880164 0.06633329 0.3254387 0.50131494 -0.2813759 0.0006708419 0.22512011 0.02051424 0.35774788 0.24716711 0.097896405 0.2534859 -0.29821962 -0.82603735 0.10152741 0.28103703 0.39020586 0.6903096 0.28398272 0.031679183 -0.45604205 -0.2680298 -0.12949143 0.5410754 -0.5465499 0.4668955 -0.11075208 -0.07204119 -0.49878538 -0.5674786 0.14716643 -0.010914525 -0.34390363 -0.04090381 0.20100042 0.036749676 0.16905208 0.44014013 0.07859113 0.5629959 -0.17315386 0.18889779 0.029965388 -0.19112703 -0.056433227 -0.9370256 0.3081947 -0.58942837 -0.34733397 0.36188468 -0.17415018 -0.10811374 -0.55312485 -0.15638225 0.031141268 0.8994884 -0.17336734 0.061569482 0.04215186 0.30093953 0.44460133 -0.46273297 0.1699053 -0.4441303 0.78693193 -0.26873627 -0.30980977 0.46394563 -0.06878602 0.12816907 0.23787348 0.037602983
1197 0.21341817 0.2090582 0.05596596 0.03134371 0.85286504 1.3025455 -0.1339527 -0.2831302 0.19036661 -0.15271355 -0.6575657 -0.042222705 -0.28001904 -0.2735287 0.27797353 -0.27745852 1.0118537 -0.2594594 0.26690483 -0.9722439 0.2744009 -0.43639436 0.1186901 -0.89162797 -0.54388535 0.9650738 0.3390502 -0.72999007 0.040538866 0.19348884 0.15747988 -0.54430854 -0.16876854 -0.007099312 0.5184617 0.54728013 0.27063558 -0.09268988 0.008093992 0.21372223 -0.25064254 -0.26660326 0.39066604 0.05687447 -0.23536006 0.24072333 -0.060473457 -0.19114207 0.4932177 -0.0047412803 -0.42430046 0.103790976 -0.41088519 -0.2884737 -0.47517642 -0.07631306 -0.37346396 0.05964549 0.4685727 -0.43170828 0.3542638 -0.6050672 0.25633675 0.23427884 -0.44962272 0.2501461 -0.015893687 -0.5867392 0.7754295 -0.52489257 0.16507167 0.7488292 -0.013422165 -0.22012714 0.20590004 0.012427484 0.28528336 -0.28990284 0.5677543 0.52921796
1064 0.38190413 1.1255227 -0.3332582 -0.20588261 0.030110218 0.07281438 -0.46253806 0.02364935 -0.29404816 0.02557949 0.101057336 0.41891453 0.7014354 0.41594 0.71010846 0.6043378 0.35660404 0.077702336 0.19783308 0.31261852 0.20886382 -0.5512436 -0.058151204 0.32515764 0.18671878 0.61557597 0.25014225 0.47521287 -0.23112646 0.068969876 -0.22585844 -0.10377391 -0.0050834487 0.4793209 0.753127 -0.28128093 -0.28091064 -0.29081035 0.41513488 0.10010248 -0.15449981 -0.5867131 0.47709477 0.09431907 -0.024956586 -0.5175395 0.14958689 -0.03801701 0.32723737 0.3186594 -0.3155993 -0.10915782 -0.2263333 -0.3054317 -0.29172373 0.20630538 0.19168913 0.302596 -0.35213453 -0.13257593 -0.19587104 -0.29879802 0.51275975 -0.29754254 0.20277832 0.04196589 -0.07077383 0.37676084 0.35494292 -0.6617179 0.57206196 -0.29031032 0.16431114 0.21190964 -0.5609016 0.2688878 0.21597007 0.08740354 -0.06020143 0.3631013
1845 0.19250731 0.4166512 0.10111123 0.5079394 0.02896776 0.7142276 -0.47920257 0.0721354 0.29592565 0.7395696 0.11950145 -0.20985241 -0.11061569 0.3479398 -0.046957366 0.41187865 0.50671166 -0.55273885 -0.27203032 -0.14797926 -0.07195838 -0.7222292 0.22076574 0.17842358 0.47238955 0.07391069 -0.70216596 -0.2754094 0.3902313 -0.21113671 -0.31388322 -0.09576223 -0.5460498 0.70777595 0.15937217 0.29288238 -0.2265555 0.046916954 -0.14541508 0.18810032 0.48611787 -0.7019435 0.47213405 -0.24514957 -0.13648896 -0.53946096 0.46106374 -0.018962486 0.19112563 0.19354925 -0.22210658 0.06796997 -0.41289008 -0.50444907 -0.18092851 -1.0593253 0.29864255 -0.34776813 -0.49684975 -0.61640555 0.12644655 -0.3153619 0.053673662 0.021891635 0.5037566 -0.4295896 0.5292953 -1.2988876 0.03543041 -0.0796886 -0.1885852 0.004459959 -0.25821343 0.3408315 0.0011759291 -0.19693747 -0.32881516 0.87645984 -0.3992164 0.31121063
741 -0.3847428 0.1525051 -0.2019297 0.3989841 0.3845147 0.33845523 -0.2779897 -0.2540248 -0.23154832 -0.08764826 0.414509 0.3664326 -0.42846474 -0.9906407 0.3858969 0.16854657 -0.33686516 -0.013941012 0.2152337 -0.4441761 0.47646192 -0.37732404 0.5128644 0.47958314 -0.06873997 -0.07922439 -0.11628225 0.09987899 0.25461468 -0.06375762 -0.15033989 0.45571697 0.18818061 -0.012447904 0.48833054 0.15196617 0.55829054 -0.09756637 0.8201837 -0.7721345 0.465015 -0.7525336 -0.18300156 -0.41806644 0.26989853 0.8116968 -0.12805952 -0.49964476 0.9276078 -0.29660356 -0.37039652 -0.087901704 -0.46470472 -0.027654132 0.4925786 0.62423587 -0.6459853 0.1257262 -0.7564794 0.4201549 0.28563187 -0.16702545 0.07258759 -0.10669343 -0.29012486 -0.15316558 -0.23852897 -0.6624058 0.33615473 -0.7031924 -0.6105421 0.50260264 -0.5629081 0.1742353 -0.48769268 0.29332465 -0.72195977 0.50601673 -0.22331151 -0.16590215
210 0.46757427 0.5834617 -0.20978332 0.5059523 0.23896042 0.5496508 -0.3926252 -0.16272865 -0.20966528 -0.30769324 0.18438062 0.1289334 -0.7996433 -0.068447135 -0.0589761 -0.5196349 -0.5537864 -0.50788915 -0.113810465 0.55476165 0.4890839 -0.18457936 -0.7126283 0.14775492 0.46590602 0.14010958 0.31994784 -0.037130654 -0.52316827 0.12673281 0.059221268 -0.63110286 -0.2943995 0.08580143 -0.15317328 0.28378737 0.8552831 -0.19669591 0.65975624 -0.7791536 0.15525086 -0.69075304 0.12396062 0.28648886 -0.14991783 0.30770594 0.22684656 -0.8240951 0.032839324 -0.1976173 0.04913709 -0.9983472 -0.3605088 -0.5557224 -0.32736993 0.12955724 -0.19609661 0.8871532 -0.52008736 0.31494078 -0.97380215 0.21902795 -0.47758245 0.12715001 -0.06448557 0.5072707 0.29029664 0.2624496 -0.25514323 0.26494417 0.51523674 -0.0050672414 0.22169198 0.06295295 -0.229726 0.10565794 0.31566665 0.74336356 0.52985805 -0.14503738
91 -0.6049319 -0.11164609 -0.40348405 0.6677525 0.03690726 0.20992191 0.12902237 0.4690386 0.3187765 0.61090475 -0.36492875 0.4082665 -0.1916131 0.24440363 -0.12202555 -0.76163435 0.5371594 -0.2890728 0.8046778 0.475574 1.1628575 -0.2071271 0.1556482 0.27509028 -0.21794946 0.07288334 -0.666694 -0.07015302 0.28899828 -0.3940887 0.30141237 -0.2774472 -1.0902368 0.15612473 -0.21828605 -0.06267291 -0.019078422 0.32719904 0.4682761 -0.35298234 0.1981244 -0.18891114 -0.16256735 -0.0636003 0.4364559 -0.15510206 -0.3431429 0.20177354 0.47365585 0.0058626267 -0.3167927 0.16096212 -0.26959348 0.24061376 -0.21365184 -0.5786866 0.22583605 0.12621537 0.15389204 -0.03560664 0.39387158 0.34543088 0.17125778 0.4625161 -0.8057107 -0.2633574 -0.3387159 0.34317946 0.30216956 -0.67589134 0.62644804 -0.18055853 0.41651437 0.6931647 0.78988796 0.22707412 0.44817722 0.3815116 -0.31185353 0.9291427
326 -0.23673259 -0.15171088 -0.41823372 -0.4536021 0.2510746 0.85956246 -0.04978929 0.26228318 0.40850106 -0.07835804 0.7580516 -0.5019319 -0.23741584 -0.20522779 0.39542225 0.553059 0.16675499 -0.17360288 0.23900639 0.32411557 0.5409921 -0.16640629 0.2974721 0.2661392 -0.59295183 0.4807225 -0.4410353 0.25933406 -0.2953369 0.13985811 0.0949638 0.90632766 -0.40782282 0.58674043 0.2523822 0.57726586 -0.41288042 -0.1275085 0.39388353 0.60827386 0.8932186 0.30006424 -0.55463785 -0.10755035 0.11625057 0.024051739 0.30033964 -0.33817834 0.41967312 -0.3589576 0.34798723 -0.2406281 -0.10523593 0.19343643 0.39069197 -0.46013817 -0.6319757 -0.2897138 0.09524025 -0.5929225 0.41715908 -0.17690335 -0.29222915 0.15322052 -0.08090177 -0.28747636 -0.5249885 -0.48665932 -0.39797765 -0.35287824 -0.25048083 -0.4807036 -0.16881652 0.39501274 -0.08208485 0.6857681 -0.004674963 -0.033349358 0.1303494 -0.23721904
1765 0.2568225 -0.17424619 -0.10351666 -0.070210114 -0.222205 1.01892 0.2798342 0.33224577 0.5765212 -0.3261827 0.120333396 0.3847142 -0.090407796 -0.1599418 -0.17996784 -0.48827597 0.1812668 0.045380052 0.08476776 0.07332237 0.29564878 0.21671604 0.9135725 -0.048527434 -0.06471305 -0.10259637 0.20554729 -0.14722084 0.31312 -0.65235686 0.07106545 0.13943732 -0.08430515 0.27787063 0.1281987 -0.5683279 0.5668605 0.25089642 -0.3538091 -0.1339384 0.06406938 -0.26140243 -0.59280974 0.11526369 0.15396866 1.0508243 -0.11846382 -0.9532327 -0.06896332 0.03552263 -0.27988344 0.044401594 -0.22477114 -0.55174196 0.14788257 0.15518707 0.16740844 0.29717824 -0.30927 -0.2462479 -0.5518441 -0.099874474 0.3056808 0.24520391 0.84052616 -0.266744 -0.029887969 0.17672043 -0.042713795 -0.5736293 -0.21695437 0.45873642 0.71010864 0.1374084 -0.12700555 0.17926174 0.15238853 -0.19169682 -0.0581081 0.15207866
1190 0.66566706 0.544034 0.2709632 -0.5596063 -0.4222492 -0.053370953 -0.3333831 -0.65587485 0.23824826 0.3245158 0.12491528 -0.6303963 -0.26448083 -0.2911583 0.029004103 0.6205514 0.71859956 0.24311607 0.3950728 0.013268356 0.464087 -0.07717206 0.112849705 -0.5963909 -0.052402567 0.27677444 -0.82610816 0.117186874 -0.71401453 -0.01978286 0.62656313 0.12482224 0.21553163 -0.0121975625 -0.17368144 0.45897052 0.39602503 0.22450255 0.22859213 -0.08511764 0.07131762 -0.45811158 -0.06772652 0.15404072 -0.121500894 0.557505 0.14862384 -0.50716144 0.33432472 -0.34831303 0.26770777 1.0393896 -0.7151253 -0.013577612 -0.16721871 0.16022342 0.23469296 0.46590617 -0.29013738 0.5692171 0.48732483 1.112064 0.1247533 0.38491136 -0.035106022 -0.570698 0.04003534 0.41509974 -0.15050207 -0.48914757 -0.9881151 -0.25194478 0.7742588 0.4971172 -0.550527 0.4923909 0.29727018 0.27296153 -0.104041755 -0.1380267
32 0.04760521 0.5297526 -0.8384244 -0.5835477 0.7349794 0.06848275 0.06684912 -0.2711773 0.4090393 0.2550316 0.29715094 0.13638169 -0.62855834 -0.69780844 -0.58922106 -0.0966378 0.15819934 0.0008325113 -0.07544769 0.010867022 -0.36858955 -0.08545358 0.69567513 0.52335984 0.44264275 0.7231061 0.018308582 -0.67986554 0.25119507 0.90650505 0.44402897 -0.2815173 0.24306281 0.23129182 0.5971153 0.19675043 -0.22100337 -0.38178143 0.39754787 -0.6632559 0.3119746 0.19083151 -0.08166229 0.23148632 0.24312222 -0.5018261 0.6738796 -0.8796021 -0.4225397 -0.91564864 -0.11876519 0.22823082 -0.6365514 -0.17637451 -0.13736139 -0.38566002 0.21054041 0.9046536 0.38767827 -0.4176172 0.023805797 -0.09820644 -0.56320685 -0.030928144 -0.018507317 -0.39460403 -0.29874286 0.11002822 0.15641247 0.07985443 0.048817586 -0.07892003 0.3441158 -0.21218288 0.16458252 -0.419737 0.7060014 0.08238289 0.25447223 -0.04016959
1841 0.37376335 -0.26137105 0.094797105 -0.747234 0.56732076 0.4894514 -0.32996595 -0.12553339 0.40906549 -0.14503135 0.24178569 -0.8193689 -0.1252393 -0.41198474 -0.03154644 -0.03256127 -0.23104717 -0.6410665 -0.04027795 -0.29589847 -0.007424801 -0.31031296 0.1869649 0.71017087 -0.22661826 -0.7636212 -0.38247177 -0.37429243 0.27903214 -0.7345757 0.49771485 -0.70192015 -0.29622456 -0.53324825 -0.059851155 -0.21334988 -0.86094886 0.41253352 0.92566323 -0.33849165 0.33310702 -0.10611771 -0.48172015 0.1026147 -0.19098859 -0.13603613 -0.22833876 -0.44977424 0.124301136 0.11764646 -0.21186137 0.14393017 -1.0351437 -0.5321914 0.20989431 -1.1221946 -0.91017914 0.08048614 -0.369175 0.394111 -0.74366826 -0.42616585 0.63996315 0.19288903 0.7191337 0.038936675 0.45889917 0.16130598 0.043508604 -0.43981525 -0.0076748487 0.24139 0.72941214 0.08396449 -0.2153191 -0.073233314 0.47174802 -0.13132337 0.2678587 -0.65127313
439 -0.09001865 0.1539831 0.23560372 -0.40197983 0.13545792 -0.20321687 0.5163072 0.80132616 0.24274857 0.28210697 -0.28983727 -0.2839097 -0.975782 -0.07934878 -0.17501786 -0.124112144 -0.24520093 -0.80919856 0.21765226 0.41154018 0.33192632 -0.52089494 0.39186183 0.4601241 -0.6041474 0.73419577 -0.23655923 0.53900474 -0.4450151 -0.7124234 0.4493113 -0.35217446 -0.25224757 -0.13063207 0.32127827 0.033146247 0.5999802 0.22621876 -0.1422158 0.120912395 -0.05540219 -0.63251877 0.08140279 -0.13827683 0.81124365 -0.32756728 -0.42434442 0.093579695 -0.16919386 -0.08389875 -0.92290896 0.037759814 0.2920325 0.19329195 -0.5483104 -0.41199887 -0.1321913 0.09602785 -0.71686584 -0.6736407 -0.25653866 0.81861985 0.070738405 0.5626495 0.03007856 -0.32199624 0.30174214 -0.53048855 0.6366557 -0.28755248 0.61264473 0.04022217 -0.08235007 1.163755 -0.056956157 0.41383275 0.22898126 -0.11889922 -0.11466821 0.48135984
1335 -0.031379495 -0.12392705 -0.8081577 -0.47051954 -0.2623205 0.25752515 -0.16469932 0.41061008 0.17609261 0.21960743 0.22880392 0.6113887 0.24040207 -0.086697124 -0.022914728 0.4908236 -0.13220425 0.14426912 0.6882917 0.08033164 0.19791836 -0.274875 0.30079472 0.54060704 0.14192389 0.553605 0.16393548 -0.3321966 0.36503738 0.08636613 -0.08172545 -0.11723514 -0.42599854 0.61271405 -0.3122638 0.4558236 -0.10165983 -0.3823741 0.016416712 0.09742086 0.27649435 -0.45908588 -0.12877688 0.56523114 -0.40305114 -0.38282678 -0.20581703 -0.499082 0.74932086 0.52877676 -0.3398082 -0.5887366 -0.11407073 0.2908679 -0.5060099 0.12560025 0.22820763 -0.76458836 0.23277402 0.21307486 -0.90550685 0.21960044 0.22793496 -0.06445904 0.0164928 -0.20522714 0.42654055 0.43477795 0.123964235 -0.27076235 0.25628257 0.08651639 0.7339567 0.2549695 0.31893808 -0.091557816 0.31866765 0.01524806 -0.5521471 0.0527129
1369 -0.26238936 0.59725654 0.06315563 -0.53669107 0.40374056 0.84270805 -0.19858395 0.424742 0.082286954 -0.12367328 -0.48608032 -0.44909674 -0.55874366 -0.13770343 0.84177125 0.15216808 0.5578599 0.19655591 -0.013411232 -0.39498892 0.06869722 0.07245746 0.9231067 -0.88914317 0.10424935 0.3899009 0.4000049 -1.2039801 -0.6405642 -0.17477868 0.30909544 -0.73699135 0.0005185367 0.539504 -0.10965279 0.6623449 0.26741457 0.18848217 0.6012357 1.2286792 -0.3035717 -0.6860476 -0.27621108 -0.13138382 -0.083175644 0.3150341 0.22690606 0.5130469 0.87272 0.66708267 -0.9643369 0.035811726 -1.0590127 -0.5831215 -0.053203173 -0.045056023 -0.08664739 0.44130257 0.7468625 -0.30170804 0.18954787 -0.51238024 -0.3082344 0.07010126 -0.4624527 0.121902876 0.03709276 -0.839487 0.6028317 -0.31926575 -0.44074512 0.30614266 0.5860256 -0.28885835 0.8281676 0.57614976 0.36417085 0.3232299 -0.29326037 0.38285878
954 -0.42090204 -0.09960539 -0.31925204 0.12775062 -0.4866817 0.46749312 -0.3093369 0.11257019 -0.09650678 0.5977561 0.8956382 -0.046424147 -0.6196802 -0.7064313 0.7415308 0.48378038 0.4774153 -0.06444862 -0.19038408 -0.3103089 -0.28621942 0.2995635 -0.5506395 -0.14347963 0.42683676 0.44119698 0.113131694 -0.41868037 -0.4311991 -0.4937646 0.48788366 0.008403051 -0.13516386 -0.07514028 0.19115129 0.080706425 -0.27635765 0.17652032 -0.35323682 -0.35582307 0.4519388 -0.14708556 0.035225768 -0.34195274 -0.1993929 -0.20449516 0.19682941 -0.8789068 0.26995078 -0.34141487 -1.0647025 0.27054486 -0.26503173 -0.39344645 -0.38413957 -0.10718105 -0.14276196 0.6758169 0.09174662 0.6024666 0.26940513 -0.058286067 0.12460311 -0.1929353 0.18481506 -0.44644174 0.33254695 -0.20292352 -0.06044068 -0.21850951 -1.4238238 -0.55739045 0.18726462 -0.16712068 0.47359905 0.38307053 -0.1009866 0.024295669 0.49287727 -0.022105591
860 -0.27404138 0.6083589 -0.11885552 0.16918086 -0.15731369 0.6597546 -0.48137018 0.23950972 0.57038605 0.49441293 0.43661502 0.9204874 0.015164059 -0.054626178 -0.20862661 0.7138913 0.41579872 0.080899104 -0.145573 0.89761376 0.38570794 -0.15633568 -0.26614898 -0.37645745 -0.48711854 -0.19180702 0.14986296 -0.45984074 -0.38260934 0.24866992 -0.16416813 -0.5107684 0.32158354 -0.21273667 0.30426964 1.136637 -0.23011246 -0.5740481 0.4581881 0.1888691 0.40207914 -0.14401868 0.023141947 -0.18819876 0.034900196 0.3971714 -0.61425334 0.035315204 0.020995665 -0.23907146 -0.6182575 0.7639936 -0.27276075 0.32546625 -0.5178253 0.37362698 -0.2835643 0.6388262 -0.94945467 -0.024668263 0.21094838 0.29975766 -0.07059279 -0.46715727 0.25290954 -0.25272483 -0.115023024 -0.2795379 -0.6962039 -0.3236178 0.44689804 0.108358316 0.33371624 -0.44593194 -0.14616013 0.4926933 -0.24813071 -0.6298278 -0.40741 0.010152715
2038 -0.41078144 -0.1208561 -0.022478396 0.27926266 0.53049225 0.8090263 -0.46152344 -0.4013078 -0.06620669 0.5172071 0.17837788 -0.07559752 0.037959598 -0.27543893 0.9446306 -0.07499383 -0.0015418376 -0.6158772 0.16870892 0.08498718 -0.0920937 -0.36681467 -0.2650017 -0.439235 0.2926046 -0.5701023 0.4614747 -0.37470552 0.24192512 0.44070688 0.06656576 0.7371761 -1.0981435 -0.030315118 0.023607662 -0.19805495 0.08673875 -0.82749677 -0.26774815 0.3592701 -0.15734777 -1.0744506 -0.59844846 0.27733222 -0.16646516 0.65912265 -0.6372374 0.35742635 0.34299123 -0.32923082 -0.5561389 -0.27155656 0.3369144 0.14782684 -0.37629536 -0.030236484 -0.49562773 -0.13081577 -0.28488275 0.40418142 -0.48368475 0.519747 0.04268161 -0.026525967 0.39312607 -0.48958728 -0.17849475 -0.6383169 -0.16112116 -0.2910743 -0.4377315 0.0027728206 0.21453193 0.08344705 -0.1834566 -0.6585048 0.077821046 -0.88160783 0.06410363 0.16756923
546 -0.07164034 0.60294515 -0.017484834 -0.44564468 0.47959697 -0.20185734 0.13584825 0.026641637 0.2250408 -0.14010683 0.65998423 -0.07007399 -0.04587651 -0.075726956 0.18260585 0.06326831 0.36844644 0.59905547 0.61267763 -0.039455496 0.52109504 0.20991722 0.4430421 0.048927817 -0.21433955 0.8646686 0.01642065 -0.103200935 -0.5528026 -0.35485095 -0.32699314 0.2863258 0.043324925 -0.24710163 0.5088395 0.30640078 -0.9288283 -0.8471249 0.1355678 -0.5307285 -0.07120593 -0.033600014 0.4930356 0.34682778 -0.31439766 -0.39395395 -0.2075949 -0.18503162 0.5968622 -0.021108927 0.4539218 -0.26655564 0.0951077 -0.56063783 -0.10623548 -0.027081637 -0.20289245 0.69885826 0.16509572 0.3284016 -0.38597277 -0.072932675 0.18693668 0.114789166 0.063408695 0.03310512 0.098893315 -0.046958167 0.10621809 -0.7196131 0.47456598 0.095320575 -0.12585646 0.33546638 -0.6136071 0.10674738 0.4285419 0.018410323 -0.26168135 0.18033764
506 0.27821764 1.0466301 -0.49689087 -0.13056365 0.16755258 0.23667675 -0.43626302 0.8490374 -0.01974166 0.031870373 0.10218461 0.07791365 -0.17619191 0.03693158 0.76647234 0.34240302 -0.23673227 0.46661255 0.13697672 0.026353648 0.23505524 -0.17667449 -0.14781879 0.52251184 0.06754476 0.43224007 0.1916985 -0.09083535 0.19475462 0.13224778 0.30593392 -0.10085585 0.16809857 0.42013493 0.34182912 0.18274865 -0.63893014 -0.36116305 0.23888935 0.30997092 -0.2441181 -0.32181662 -0.061734755 0.037549626 -0.2539567 0.14627033 0.49837703 0.5935836 -0.120638296 0.06536562 -0.4859698 -0.2879513 -0.8708297 -0.07743685 -0.024676235 0.31078073 -0.16317137 0.07675004 0.38150334 -0.07860589 -0.7628369 -0.060971163 0.71829116 0.27281415 -0.19027844 0.28723097 0.052427568 -0.12795289 -0.41985986 -0.31878683 0.29090887 0.28909516 0.6723924 0.58164 -0.38375014 0.00020956612 -0.068716355 0.25211516 -0.2970743 0.35004038
41 0.35728985 0.4118377 0.07026171 0.8180973 0.5196339 0.021807024 0.18641363 0.6268639 0.5345792 -0.1987427 0.71039116 -0.62405396 -0.1507402 -0.15951644 0.28859642 0.018595189 0.20604123 0.4793003 -0.20220843 0.4579219 0.54572135 -0.28214893 0.3851687 -0.40329048 0.22778738 0.34090284 0.0661235 0.22939438 0.0009533925 0.5000483 -0.7116497 0.18365368 -0.014416674 0.2657001 0.2743705 0.28742585 -0.15960826 -0.10330423 -0.13433334 -0.31302983 0.4008332 -0.525045 0.07737626 -0.20590533 0.3383124 0.0721898 -0.56103545 -0.22565699 0.40621814 0.34255686 0.2554014 -0.47438112 -0.44766632 0.3689234 -0.20578876 -0.19316667 -0.09757514 0.82464236 -0.11555275 -0.26057932 -0.008833688 0.19948679 0.78464836 0.13605332 0.16753186 -0.13596359 -0.062349323 -0.34306785 0.0013617064 -0.23878297 0.011453199 -0.120954014 0.42154115 -0.21326314 0.23460941 -0.5484852 -0.13975546 -0.60837793 -0.09706061 -0.18844861
677 -0.05533853 0.8620878 0.31467998 -0.15521765 0.58628356 0.45406705 0.4899287 0.10548312 0.044768184 0.12679139 -0.041454915 -0.8341606 -0.6465884 0.35573295 0.22234982 -0.46355802 -0.03752579 0.60128 0.2887689 -0.0441501 0.18852082 -0.3647881 0.7566975 -0.22811553 -0.38366222 0.61187285 -0.13678952 -0.5501746 -0.40179324 0.05385256 -0.7226323 0.53786516 -0.07737687 0.12296163 -0.2361352 0.516148 -0.225934 0.09808287 0.09279938 -0.32420605 0.70003617 -0.3092578 0.0036882581 0.5954171 -0.33842254 -0.21971694 0.05705403 -0.4553168 0.36490464 0.006462418 0.21253455 -0.27689007 0.18407114 0.72333765 -0.15865524 0.09486429 -0.34065768 0.71736485 -0.01852575 0.22715157 -0.66040635 -0.41379744 -0.04946166 -0.010587381 0.29877263 -0.22846518 -0.18068978 -0.25504825 -0.2997754 -0.9122587 0.10658648 0.124653794 0.008008372 -0.48484567 -0.97621167 0.31999767 0.3550159 0.039234176 -0.08737828 0.013845765
582 0.6254552 -0.005272914 -0.26440197 -0.2809155 0.4572928 1.2011781 -0.027883086 -0.33138415 -0.04734732 -0.5251165 0.67596847 0.29506588 -0.6228111 -0.25375798 -0.017699994 -0.16625756 0.12824014 -0.16988342 0.6021641 0.077366695 -0.013728688 0.4324959 0.38176706 0.14507338 0.20329191 -0.04866543 0.19229014 0.30444145 0.70294493 -0.48515168 -0.014423199 -0.41693777 -0.20776337 0.159288 0.43551764 0.16708829 0.23935093 0.5513301 -0.4636065 -0.31000483 0.52475137 -0.32369268 -0.5753296 -0.33248192 0.24580246 0.88950926 -0.046359506 -0.7691569 0.062345617 0.15678874 -0.21548279 -0.33809847 -0.5902924 -0.500782 0.26933947 -0.14017572 -0.06802552 0.48924392 0.07024961 0.15156691 -0.4564804 0.077976264 -0.013377698 -0.4861533 0.79853684 -0.86034006 -0.40658945 0.56974703 -0.6862351 -0.99863756 0.32549772 0.12972274 0.736936 0.34621915 0.14843383 0.29967755 -0.16821134 -0.43381017 -0.46966854 0.60552937
